/*This file is automatically generated from a Keras model*/

#ifdef HAVE_CONFIG_H
#include "config.h"
#endif

#include "rnn.h"

static const rnn_weight input_dense_weights[912] = {
   -60, 10, -26, -1, -11, 40, -38, 12,
   -53, -47, -37, 34, 47, 6, -36, 70,
   14, -18, 15, 15, -40, -1, 14, 47,
   80, -25, -72, -39, -43, -37, -56, 15,
   39, -81, 75, -65, -64, 8, 35, 29,
   -23, 61, -71, -40, -10, -46, 7, 14,
   3, 14, -43, -68, 21, -3, -11, 6,
   73, 17, -48, -60, -30, -43, 60, -15,
   -38, 29, 92, 43, -8, -5, -42, 0,
   -81, -67, 19, 36, -78, -5, 102, -14,
   17, 21, 24, -86, -27, -37, 65, -22,
   24, 48, -9, 27, -40, 49, -55, -46,
   9, -12, 82, 13, 35, 81, 17, 68,
   -20, -78, -59, -72, -47, 60, 32, 9,
   57, -102, 30, -45, 34, -47, -5, -58,
   -72, 80, 55, -43, 11, 33, 49, -100,
   -8, 4, -24, 32, 6, -16, 19, -42,
   19, 1, -71, 9, 11, -27, -29, -43,
   -46, -76, -54, -97, 118, -2, -99, -44,
   -47, 64, -7, -83, 33, 27, 4, -27,
   -58, 5, 45, -48, -62, 71, -62, 23,
   -6, 56, -62, 86, 39, 15, -9, -31,
   -16, 62, 51, 17, 83, -36, -10, 42,
   -73, -91, -101, -37, 82, 88, -9, -23,
   -19, -43, -74, -15, 35, 94, 15, -66,
   -37, 28, 15, 4, 38, -66, -62, -47,
   81, 39, -30, -20, -47, -10, -49, 88,
   -50, 49, 96, 25, 113, 31, -34, -66,
   -72, 22, 4, 9, -31, 60, -90, -74,
   91, -6, -18, 60, -48, -99, -30, 5,
   -9, -49, 33, -3, -5, -76, 6, -47,
   -75, 35, 84, 79, -66, -38, 21, 53,
   69, -54, 34, -43, -39, 124, 11, 41,
   -33, 1, -43, -22, -16, 91, -26, 8,
   31, 28, -26, 13, 20, 79, 64, 74,
   28, 7, -127, -53, 70, -13, -68, 83,
   59, 5, 20, -114, 28, 104, -49, -57,
   -4, -8, 42, -43, -128, -48, -35, -26,
   4, 67, 9, -41, 76, -77, 66, 38,
   76, -110, 33, -55, -4, 23, 40, -5,
   8, 9, -103, 60, -8, -22, 2, 99,
   -65, 20, 57, -13, 30, -1, -49, -79,
   -16, -37, -17, -9, -50, 27, 30, 14,
   -67, -10, 49, 30, 17, -80, 104, 71,
   3, 23, 12, -27, 24, 117, 8, -110,
   35, -78, -29, -10, -36, 44, -45, 48,
   -16, -2, -78, -28, 45, -26, -2, -9,
   -2, -97, 43, 40, -54, 106, -7, 0,
   -55, 50, -40, -17, 1, -67, 72, 5,
   -39, -47, 60, 8, -17, -107, -61, -12,
   16, 94, 24, 5, 66, -88, -112, -87,
   63, -91, -76, -19, -45, -61, 52, -7,
   72, -70, 28, -27, 64, -54, 59, -17,
   -9, -93, -18, 25, 17, 28, -127, -28,
   -102, 93, 54, -72, 0, 44, 65, 12,
   -63, 126, -57, -121, -39, 127, -7, 56,
   39, 49, 1, -23, 52, -65, 50, 55,
   50, -16, -67, -116, -51, -47, 42, 67,
   59, -5, -64, 48, 36, 4, 9, 44,
   39, 2, -4, -2, 31, -115, -42, 15,
   7, -128, -54, -55, -47, 55, -89, 37,
   110, -116, 25, 93, -83, -128, 98, -42,
   -119, -86, 44, -78, 92, 127, -51, -7,
   74, -82, -24, 73, 12, 23, -109, 29,
   23, -53, -5, -1, -14, -128, 127, 61,
   -88, -128, 49, -95, 36, 127, -26, -42,
   32, -7, -9, -55, -58, 117, -70, -23,
   -22, 127, 30, 11, -38, 6, 82, -84,
   -7, -110, 67, 49, -32, 46, 4, -55,
   2, 27, 127, -113, 74, 1, 5, -52,
   19, 56, -14, 8, 39, 90, -42, -29,
   21, -12, 47, -18, 38, -11, 30, 64,
   15, 127, 91, -60, 55, 102, 77, -54,
   -40, -47, 76, -16, 21, 35, 8, 20,
   -22, -111, -83, -13, -26, 10, 26, 67,
   24, -56, 46, -126, 21, 22, -21, 32,
   -18, 15, 9, 1, -2, 79, 75, -98,
   -2, 0, -95, 17, 63, -10, -62, -29,
   -30, -51, -105, 27, 46, 67, -5, -12,
   3, -18, 22, -13, 48, -110, -23, 43,
   -20, 52, 16, 3, 32, 40, -57, 52,
   -1, -42, -23, -28, 24, 66, -111, -21,
   -18, 41, 31, -28, 8, -55, 62, 81,
   -44, -37, -38, 7, 0, 12, -93, 0,
   -17, -70, 35, 34, 46, -71, -24, -22,
   -68, -23, -54, -58, -31, 23, -65, 29,
   -49, -33, 58, -54, 92, 32, 52, 28,
   18, 87, 57, 29, -26, 45, 61, -6,
   44, 56, 1, -9, -79, 31, -41, 41,
   15, -4, 12, -45, -20, -53, -37, -34,
   -62, -19, 81, -74, 49, 41, -103, 4,
   -30, 38, 78, -81, -79, 12, -94, -33,
   127, 22, 25, 9, 71, -49, 34, 47,
   7, -4, 47, -53, -89, 75, 9, -3,
   51, 21, 81, 79, -37, -60, 1, -37,
   40, 68, -30, -2, 26, 15, 55, 81,
   127, -127, 16, -26, -104, 38, 44, -16,
   24, 11, 8, 58, 43, -76, 49, -29,
   -127, -111, 56, -81, -19, 127, -128, -109,
   15, -105, 55, 60, -41, 47, 57, 21,
   13, -91, -61, 46, -66, -107, 125, 5,
   -16, 21, 67, -40, 57, 23, -98, -34,
   37, 29, 56, 5, 22, -56, -3, -24,
   72, -37, -42, -68, 57, -37, -41, -111,
   -68, 73, 19, -12, -13, 112, 11, -29,
   18, -9, 99, -25, -15, -26, 37, -63,
   -44, 70, -48, 95, 78, -9, 49, 28,
   -107, -26, -27, -15, 49, 50, -128, -87,
   38, -81, 69, -66, -87, 89, -85, 89,
   -63, 22, -17, -40, -49, -3, 18, -57,
   6, -63, 51, -56, -51, 80, -102, -10,
   -42, 61, 80, 18, 99, 58, -69, -24,
   -20, 61, -27, 15, -47, 45, -89, 102,
   -20, -75, -57, 32, -88, 29, 44, 92
};

static const rnn_weight input_dense_bias[24] = {
   -17, 27, -3, 3, 19, -19, 47, -16,
   9, 11, 3, -1, 15, 26, -1, 7,
   -1, 13, -5, 28, 2, -10, 24, -17
};

const DenseLayer input_dense = {
   input_dense_bias,
   input_dense_weights,
   38, 24, ACTIVATION_TANH
};

static const rnn_weight vad_gru_weights[1728] = {
   -6, 37, 22, -26, -5, -44, 55, 14,
   6, 22, -53, 58, -32, 17, -25, -54,
   -20, -9, 10, 14, -24, -36, 54, -2,
   -21, -67, -80, -35, 19, 30, 60, -47,
   13, -39, -76, 19, -51, -41, -53, -30,
   -34, -25, 33, -20, -49, 40, -10, 28,
   9, 82, 17, -42, -20, 70, 15, -45,
   41, -40, -6, 66, 1, 4, 36, 32,
   -43, -7, 6, 23, -18, -41, 14, -16,
   -40, -85, 13, -31, -60, -15, 34, 48,
   -101, 9, -28, 46, -100, -116, -70, -71,
   15, 29, -30, -80, -61, -86, -24, -118,
   -23, 53, 12, 57, -74, 12, 28, 2,
   -50, -10, -54, 89, -17, -10, -5, -94,
   -35, -73, -63, -47, 51, -64, -11, 20,
   26, -61, 4, 75, 36, -33, 34, -40,
   -70, 22, -24, -3, 30, -1, -17, -17,
   -49, 57, -18, -35, 53, -93, 59, -18,
   -8, 0, -43, 26, -50, -99, 0, 1,
   -70, 17, -51, -24, -73, -54, -74, -33,
   -44, -14, -40, -83, -95, -112, -71, -1,
   -28, 5, 0, 41, 15, 38, 39, 58,
   -27, -4, 13, 101, -76, 27, 12, 56,
   -6, 14, -47, 68, -7, -49, -11, 10,
   6, 9, 35, 58, -38, -17, -4, 66,
   -28, 6, 49, 49, -14, 43, -35, -3,
   -57, 70, 58, -11, 34, -69, 44, -21,
   -7, -65, -84, -30, -55, 8, -20, -64,
   -89, 19, -35, 121, -60, 23, -100, 25,
   -12, -16, -20, -1, -6, -6, -37, -51,
   18, 2, 50, 6, 78, 93, 18, 51,
   109, 41, 46, 36, 44, 21, 40, 73,
   44, -35, -55, -62, 61, 12, 23, 15,
   -11, -30, 29, 41, -24, 55, -24, -11,
   -24, -18, 47, -35, 33, -24, 51, -11,
   32, 15, 33, 40, 54, -24, -44, -39,
   -30, -30, -85, -17, -74, -64, -45, 15,
   -86, 19, -36, 35, -69, 11, -16, -84,
   -19, 41, -63, -25, 40, -24, -6, 3,
   21, 73, -18, -60, 27, 66, 51, -6,
   91, -9, 40, 60, -14, 7, 38, 17,
   7, 51, 50, 34, 20, 36, -12, -45,
   36, -33, 10, 9, 11, 37, 0, -34,
   -11, -18, -15, -36, 42, 14, -36, 18,
   15, 7, -1, -16, -44, 5, 37, 23,
   77, 5, 50, -21, 26, 10, -61, 36,
   -8, 75, 89, -106, -46, -24, -20, 66,
   34, -42, -23, 52, 31, -2, -19, 73,
   -31, -3, 54, -34, 0, -85, 16, 42,
   -26, 5, -12, -54, -5, 25, -2, -38,
   84, 5, -44, 48, 49, -65, -13, -47,
   -36, -19, 48, 47, 34, 21, 42, 38,
   32, -39, -21, 43, 46, -30, 50, 39,
   31, -8, -54, 19, 14, 8, -6, 19,
   -106, -101, -68, -87, 1, -79, -57, -79,
   -51, 38, -123, 91, -5, -82, -52, -54,
   74, 35, -74, -3, -16, -68, -38, -83,
   -54, 8, -50, 19, 22, 5, -62, 28,
   58, 6, 12, 77, 46, 45, 60, 71,
   -57, 6, 32, 42, -49, -39, 32, 16,
   19, -9, 38, -44, -8, -36, -2, -46,
   49, 6, -39, -5, -50, -17, 49, -6,
   16, 24, 88, -3, 38, -31, -32, 30,
   30, 59, 25, 72, 75, 7, 67, -19,
   96, -5, 46, -105, 24, 64, 60, 46,
   -20, -72, 16, 102, 73, 38, -4, 62,
   -4, 14, 7, 0, 15, -60, -27, 55,
   -10, -44, 17, -41, 15, -83, -34, -58,
   -15, 19, 62, 29, -71, -2, -46, 7,
   -50, 0, 74, 17, 2, 22, -24, -16,
   33, -14, 27, 15, 26, -25, 71, -72,
   -29, -83, -11, 50, -59, 24, -26, 23,
   -37, 22, 53, 81, 6, 65, -4, 23,
   88, -38, -1, 14, 1, -44, 82, 24,
   -70, -2, -60, 58, 1, 36, 20, 71,
   -65, 23, -21, 36, 28, 64, 62, 27,
   -25, -52, -22, 66, 3, 47, -46, 36,
   29, -2, 2, 55, 49, -14, -34, 12,
   -70, 66, -38, 16, 43, -14, 40, -10,
   -22, -26, 67, -34, -52, -17, 25, 1,
   38, -28, 10, 46, 9, -30, -40, -22,
   -63, -99, 17, -38, -48, -87, -97, 14,
   -32, -62, -7, 14, -46, -34, -89, -2,
   37, 80, 10, -51, 13, -41, -91, -22,
   -62, -21, 44, 10, -43, 8, 1, -50,
   40, -24, -78, 38, -51, 29, -25, 28,
   -23, -1, -59, -3, -48, 6, -67, 22,
   43, 8, 32, -25, 75, -65, -15, -31,
   15, 27, -24, 9, 59, -52, -5, 32,
   19, -45, 20, -2, 66, -5, 52, 40,
   -50, 38, 25, 51, -5, -16, -27, -1,
   11, 38, -49, 1, 39, 10, -33, -86,
   -15, 18, 22, -33, 11, -53, 12, 24,
   62, -35, 3, 15, 25, 11, 32, -15,
   10, -14, -43, 43, -39, 51, 33, 82,
   8, -49, -18, 73, 14, 46, -15, 27,
   39, 2, -18, -16, -25, -31, 32, 78,
   -22, 13, -32, 27, 35, 22, -43, 21,
   8, 24, 1, 7, -61, -23, 26, 44,
   -27, 75, 2, -45, 38, 31, 27, 47,
   20, 37, 41, -94, 82, -57, -1, -25,
   -45, -15, 10, 98, -22, -24, 33, 24,
   -18, 11, 48, -45, 0, 12, -17, -25,
   74, 23, 45, -83, -7, 23, 2, 3,
   0, 23, 65, -48, -29, -61, 67, 35,
   -34, -10, 35, 33, 12, -34, -49, 31,
   33, 12, 38, 54, -36, -50, -27, -27,
   -40, -40, -23, 26, -26, -24, 15, -39,
   -13, 68, -51, -74, -26, 9, -46, 25,
   75, 4, -52, -99, -68, 33, 0, -4,
   33, 77, 25, -31, -5, 54, -55, -40,
   30, 43, 43, 16, 11, 21, -53, 14,
   5, 41, -13, -19, 10, -5, 43, -49,
   33, 23, 76, -10, 28, -39, 50, -37,
   6, -33, 26, 44, -43, 23, 43, -16,
   34, 45, 25, 65, -24, -14, 4, 24,
   19, -37, 64, 8, -34, 34, -14, 34,
   17, -19, -50, 22, -75, -103, -24, 45,
   10, 17, -47, -26, -68, -88, -110, -49,
   -95, 39, 52, -107, 38, -73, -53, -26,
   -37, 77, -45, 53, -60, -45, -10, 25,
   35, 6, -46, 7, -37, 24, -82, -57,
   19, -87, -28, -22, -7, -12, 12, -38,
   -7, 22, -63, 72, 11, -47, 49, -55,
   -72, 13, -19, 91, 45, 90, -1, 77,
   -2, -38, -6, -88, -22, -36, 84, 80,
   57, 77, -15, 54, -24, 16, -33, -14,
   90, -37, 48, -29, -25, 10, 10, 7,
   -68, 32, 17, 34, -33, -19, 15, 18,
   -49, 15, -27, 53, 14, 12, 59, 43,
   -15, 31, 19, 55, -24, 21, -5, 50,
   14, 43, -26, 69, -23, -2, -20, 45,
   -60, 48, 23, 21, -27, 18, -68, 82,
   23, 17, 80, 7, -53, -45, 18, 29,
   21, 14, -1, 50, -36, 44, -53, -33,
   -28, 17, -2, 36, 46, -28, 10, -21,
   -40, 14, -50, -41, 11, -36, -54, -75,
   -22, -56, -17, -49, 53, 43, 26, -51,
   36, -70, 12, 40, 22, -70, 27, -27,
   3, 6, 50, -59, -19, 18, -32, 26,
   5, -67, 45, -9, -37, 50, 59, 43,
   33, -28, -2, -77, -8, 13, -8, -63,
   25, 37, -7, 45, -63, 15, -33, 16,
   35, -66, -11, -52, 6, -20, -39, 26,
   -70, -87, 1, 13, -52, -68, -60, 16,
   -56, -34, -103, -54, -15, -8, -26, -79,
   -29, 37, 18, -100, -73, -70, -63, -48,
   -41, -14, -23, -65, -28, -34, 7, 30,
   35, 28, 35, -30, -39, 12, -72, -116,
   60, -22, 6, -36, 21, -22, 38, 23,
   86, -84, -101, 86, 67, -65, 39, 15,
   -56, 67, -19, -35, 40, 44, -71, -9,
   -14, 7, -9, -46, 31, -87, 93, 102,
   -50, 35, -25, -20, -84, -68, -49, -67,
   -39, -55, -98, 16, 80, -31, 2, 27,
   19, -60, 18, -13, -91, -12, -92, -100,
   69, -67, -33, 73, -2, 19, 34, -29,
   38, -65, -44, 78, 36, 79, -17, 39,
   -75, 2, -46, 18, 61, 43, -39, 4,
   20, -60, 33, -10, 67, 48, -34, -12,
   -15, 31, -5, -68, -25, 48, 51, 34,
   51, 30, -61, -28, 26, 20, 40, 44,
   68, 127, 48, 53, 11, 79, 46, -33,
   67, 65, 36, 77, 36, 74, 52, 71,
   25, -24, 1, -10, 42, 76, -9, 117,
   -39, 21, 26, -17, -65, 40, 16, 3,
   31, 80, 43, 13, -23, 34, 40, 33,
   -45, 59, 31, 23, 33, -54, 37, -4,
   -4, 7, 20, -26, -51, 14, 23, -10,
   -57, -22, 23, -44, 26, 14, 62, 62,
   53, -45, -58, -34, 10, -30, -50, -46,
   -48, 4, -27, -94, -51, 1, -32, -81,
   23, -2, 9, 58, -4, 59, -30, 24,
   2, 51, 10, 8, 2, -89, -92, 86,
   -6, 50, 105, -17, 10, -64, -63, 38,
   38, 43, -32, 101, 35, -6, 49, 16,
   -37, 6, 1, 43, -61, 0, -24, 13,
   -19, -6, 38, -21, 22, -23, 63, -56,
   8, 22, -59, -4, 1, -27, 6, 26,
   -2, 63, 3, 14, 91, -48, 53, 4,
   58, -28, -13, -53, 19, -76, 9, -62,
   42, 21, -8, 112, 31, -13, -30, 52,
   -76, -20, 65, -6, -58, -73, -13, 31,
   31, 14, -19, 47, -37, 42, -8, 5,
   66, 28, -83, -15, -14, 88, 24, 66,
   -79, -13, -43, 12, 4, 29, 15, 60,
   -46, -59, 40, -27, -10, 6, -2, -22,
   -44, -8, -39, 4, -7, 13, 18, 18,
   -28, -5, 4, 22, -9, 40, -48, 1,
   2, 38, -7, 45, 103, 63, 59, 84,
   106, 90, 76, -17, 50, 30, 29, 23,
   127, 61, 37, 36, -26, -10, 49, 90,
   37, 88, 127, -71, 118, -36, -90, 78,
   -28, 57, 42, 67, 23, 61, 127, 8,
   56, 3, 29, 22, -108, 26, 14, 100,
   -80, 83, -7, -49, -85, 89, -68, 3,
   43, -64, 18, 10, -35, -59, 52, -79,
   78, -16, -56, 3, -7, 27, 20, -40,
   -20, -4, -51, 31, -74, -8, -36, 56,
   -12, -48, -10, -18, -6, -19, 14, -45,
   6, 15, 11, 38, 19, 12, 44, 16,
   -37, 31, -61, 38, -32, -13, 17, 32,
   64, -39, 22, -108, 4, -20, -34, -32,
   21, -65, -1, -54, -11, 73, -46, -65,
   81, 29, -59, 43, 82, -43, 72, -32,
   -41, 8, 4, 28, -18, 31, -33, 47,
   -86, 33, 57, -48, 69, -9, 2, 74,
   4, 10, -32, 59, -27, -5, 56, 70,
   -34, 53, -6, -124, 48, 16, 11, 33,
   29, -63, 29, 23, 45, 13, -5, 44,
   66, -66, 63, -51, -51, -2, 34, -48,
   -86, -7, 1, -13, 17, -79, 63, -21,
   56, -19, 29, 11, 29, -10, -25, 14,
   -32, 29, -63, -10, 17, 19, 22, 46,
   -32, -42, 4, 70, 11, -36, -30, 61,
   27, -7, 24, 49, 79, 5, 60, 4
};

static const rnn_weight vad_gru_recurrent_weights[1728] = {
   11, -51, -48, -29, -36, 5, 3, -33,
   -19, 16, -53, 20, -24, -52, -102, -57,
   4, 48, -19, 32, 8, -66, -18, 8,
   20, 10, 29, -2, 6, -16, 15, 8,
   27, -45, 2, 13, 63, -5, 34, 0,
   14, 84, 43, 52, 2, 13, -20, -8,
   17, 41, 39, 39, -18, -9, 55, -67,
   -34, 58, 17, 73, 0, -10, -13, -9,
   25, -57, -15, 18, 1, 5, 18, 20,
   17, -9, 29, 9, 1, -15, 22, 42,
   70, -82, 61, -17, -11, 30, -45, 45,
   -39, -28, 36, 18, 5, 2, 76, 31,
   -28, -28, -126, 1, -93, -17, 21, 15,
   -48, -49, 9, -32, -20, -24, -16, -9,
   32, 41, -22, 34, -60, -49, -20, 47,
   -50, 28, 43, 29, -27, 37, 7, 12,
   46, -72, 70, -29, 0, -48, 36, -58,
   -24, 8, 15, 44, -6, 60, -15, -48,
   -2, -18, -107, -8, -9, -38, -51, 41,
   2, -40, -6, 35, -34, -74, -45, -52,
   25, -48, 17, -74, -18, -19, -53, -89,
   -39, -56, -1, -13, -26, 1, 17, -16,
   16, -32, -23, 40, 5, 35, -43, -43,
   -10, 19, -31, -67, -67, -22, -19, -36,
   -51, 72, 41, -85, -91, 3, -11, 55,
   73, 12, 47, 6, 27, 19, 10, -62,
   38, -35, -12, 42, -28, 34, -51, -83,
   6, 32, -5, 21, 54, 30, 34, 35,
   75, 50, 46, 47, 62, 49, 11, 49,
   63, 3, 11, 75, -17, 36, 30, 65,
   -15, 45, 9, 3, 15, -23, -2, 74,
   -28, 20, -24, 89, -39, -122, 0, -10,
   46, -7, 36, -50, 57, 34, 3, 64,
   -1, 3, -3, 29, -42, 17, 66, -88,
   -3, 46, -35, 30, -20, -31, 12, -4,
   -27, -36, 1, -58, 1, -24, -62, -10,
   91, -16, 30, 64, 41, 60, 96, 7,
   34, -5, 78, 75, 62, 41, 44, 61,
   -5, 16, -69, 105, -20, 22, 37, 91,
   11, 43, -30, 38, -43, 0, -4, -1,
   -68, -29, -14, -29, -5, 54, -41, 49,
   77, -44, -16, -28, 36, 53, 41, 19,
   106, 12, -24, 89, 13, -30, 54, -56,
   -30, 46, -99, 79, 2, 71, -60, 55,
   -57, 14, 31, -122, -10, -112, 95, 49,
   -7, 22, 4, -77, -36, 23, 23, 13,
   -46, -55, 0, 1, 4, -63, -22, -24,
   -11, -56, 23, -51, 9, 25, -30, -51,
   16, -77, 22, 1, 30, 9, 36, 25,
   4, -27, 13, 2, -1, -52, 36, 2,
   30, -39, 102, 29, -54, -86, 50, -10,
   -32, 24, 49, -21, -50, 77, -67, 50,
   18, -62, 85, 19, -65, -25, 59, -17,
   66, 28, -8, 14, -81, 27, -81, -46,
   22, 44, -10, 96, 36, 25, 115, -19,
   36, 13, 40, 72, 31, 47, 58, 2,
   80, -31, -54, 83, 4, 13, 67, 63,
   22, 43, 84, 9, -3, -40, 23, 68,
   -7, 15, 39, 43, 37, -11, 10, -30,
   36, 11, -5, -26, -79, -19, 37, 60,
   -8, 15, -7, 6, 19, 6, 18, 2,
   15, -26, 10, -17, 5, -45, -31, 51,
   -7, 24, 17, 10, -79, 54, 16, 8,
   22, -14, 52, 44, -69, -6, 21, 27,
   34, 3, -16, 21, 57, 89, -3, 39,
   -33, -93, 36, -7, -46, 7, 9, 10,
   24, -88, -20, 13, -49, -27, 19, 2,
   -7, 44, 63, -31, 29, -31, 9, -2,
   13, -2, 2, 5, -37, 15, 40, -89,
   -6, -72, 12, -25, 46, -53, -6, -21,
   -11, -36, 0, -32, -14, 16, 40, -38,
   58, -43, -67, -16, -2, -25, 10, 5,
   -12, -63, 53, 32, -32, -47, 6, 54,
   -61, -80, -22, 14, 16, -8, 52, 10,
   48, -55, 14, -16, -6, 8, -17, 25,
   -1, -37, -39, -11, 25, -20, 8, 51,
   -46, -7, 19, -21, 32, -6, 40, -62,
   -54, 31, 77, 19, -26, -5, 12, 59,
   -42, 78, 85, -62, -28, 62, -80, 49,
   87, -78, 45, 5, -52, -65, 109, -63,
   82, -50, 3, 56, -47, 42, -73, -5,
   -16, -65, -56, -13, -46, -52, -33, -64,
   4, -14, -37, -17, -27, -62, -17, -46,
   21, 39, -25, 7, -35, -33, -33, 1,
   -14, -28, -19, 53, 20, 67, 50, -35,
   55, 21, 25, 75, 30, -13, -31, 44,
   -2, 55, -22, -31, 9, -22, -16, 33,
   -15, -24, 32, -9, -44, -23, -31, 34,
   -24, 0, -4, -99, -28, -12, -23, -34,
   23, 6, 60, 14, -59, -27, -10, 12,
   -19, -21, 31, -10, -37, -16, -1, 20,
   -8, -55, -83, -46, -28, -36, -64, -2,
   -58, -105, 17, -71, 16, 13, 44, -12,
   32, 25, -2, -16, -22, 23, -57, -27,
   -37, 60, 30, -20, -5, -13, 2, 9,
   -20, -9, 8, -36, -23, -43, 94, -27,
   -70, 26, -35, 33, -42, 5, -26, 4,
   -15, -35, -36, 21, 0, -26, 6, 31,
   75, -25, -21, 38, 5, 50, -34, 4,
   23, -80, -2, 64, -59, -64, 43, 18,
   -42, -30, -22, 127, -38, -57, -66, -6,
   58, 59, 78, 28, 51, 16, 23, -87,
   120, 29, -35, 105, -31, -62, -10, 31,
   -125, -10, 12, 34, -25, -54, 4, -39,
   85, -76, 56, -16, -65, -89, -15, 4,
   31, 35, 48, -8, 9, 71, -29, -1,
   78, 8, -14, 48, -90, -117, 76, -103,
   -17, 5, 26, -5, -17, 6, -29, -69,
   6, -5, 39, 15, -3, -29, -8, 12,
   39, 9, 19, 17, 61, -11, 20, 54,
   28, 49, 10, 11, -47, 31, 82, 3,
   -8, 14, 22, -77, 11, 59, 17, -21,
   -34, 9, -19, 4, 18, -41, 22, -49,
   116, -29, -20, 3, 13, -41, -56, -28,
   67, -16, -49, 21, 4, -26, 13, -34,
   -35, 46, -33, 42, -12, 33, -47, 31,
   -25, 25, 39, -18, 24, 16, -40, 55,
   21, 33, 29, 23, 32, 39, 84, 4,
   28, -12, 35, -4, -6, 29, -19, 26,
   -9, 49, -52, 16, -63, 61, 27, 4,
   -34, 17, -21, 51, -7, -5, 58, -29,
   -8, -24, 20, -47, 28, -15, -57, -30,
   -1, -35, -36, -28, 110, 66, -33, -9,
   -27, -50, -39, 62, 72, -71, 86, 19,
   -87, 43, -72, 31, 62, 43, -62, 43,
   -56, -33, -4, -40, 70, -84, 70, 104,
   -83, -31, -21, -37, -26, -63, -69, -56,
   19, -57, -25, -17, 26, -65, -65, -24,
   61, -23, -7, 13, -21, -21, -40, -21,
   -6, -8, 0, -22, -30, -16, 27, -12,
   19, -17, 37, -93, -31, 52, -20, 32,
   -17, 4, 45, -6, -7, -4, -1, -37,
   -92, -5, -2, -73, -33, 58, -128, 16,
   43, -44, 25, -24, -67, -16, 66, 1,
   14, -36, -31, 50, -30, 60, -56, -20,
   21, 17, -21, 27, 105, 29, -9, -54,
   17, 28, 101, -5, 28, 40, 83, 9,
   50, 3, -5, 32, -26, -11, 51, 100,
   -4, 35, -77, 34, -23, -5, 58, -22,
   -19, -5, 59, 33, 21, -12, -21, 15,
   -13, 41, -88, -7, 63, 6, 25, -31,
   107, -18, -128, 82, 43, -45, 91, -49,
   -31, 48, -31, 38, 9, 80, -24, 75,
   -13, -8, -17, -55, 25, -71, 37, 70,
   -128, -40, -60, -95, -44, 11, -29, -60,
   -70, -68, -65, -22, -58, -28, -44, 3,
   -36, -98, -6, -21, -6, -59, -40, 40,
   -6, -20, 34, -54, 30, 103, -71, -30,
   -15, 38, 30, -17, 13, -71, 8, -5,
   -37, 27, 18, -4, 10, 34, 43, -14,
   49, -16, -12, -28, 40, -71, -3, 60,
   -73, 4, 14, -102, 49, 53, -43, 68,
   127, 42, -40, -22, 60, 0, 3, -1,
   -72, 20, -33, -23, 1, -53, -49, -56,
   -23, 18, 6, 80, -25, -23, -25, 35,
   -79, 37, -70, -14, -48, -43, -10, -18,
   -19, 49, 43, 8, 0, 42, -29, -7,
   23, -81, -32, 32, 10, 52, 8, 17,
   -49, -18, -11, 5, 5, 37, 0, 47,
   -20, -23, -100, 9, -25, -26, -1, 0,
   -42, -23, 61, -52, -11, 34, -17, -43,
   76, -17, 71, 15, 11, 9, 9, 11,
   -29, -41, -97, -48, -19, -7, -75, -35,
   -48, -76, -43, 31, -36, 72, -20, -23,
   8, 57, -23, -57, -30, -102, -25, -29,
   -88, 83, 11, -15, -34, 40, 51, -30,
   65, -60, -57, 10, -12, 26, -75, 47,
   2, -15, -3, -5, -8, 14, -20, -21,
   -20, -11, 18, 26, -34, 23, 10, 9,
   67, -35, 12, -20, -35, -70, -16, -10,
   49, -59, -34, 17, -20, 18, -55, 23,
   20, 5, 8, -55, -64, 4, -34, 57,
   34, -22, 16, -83, 10, 25, -26, 27,
   -7, -24, 4, -66, 56, 17, -48, -53,
   -1, -14, 3, -5, -37, 18, 5, -20,
   -26, 7, -5, -15, 15, -1, 8, -53,
   -110, -12, 49, 17, -53, -29, 33, 6,
   -26, 13, -5, -97, 3, 10, 3, 11,
   -5, -27, 42, -17, -75, 36, -47, 28,
   -56, -16, -13, 19, 8, 33, 1, 19,
   -61, -3, -90, -38, -60, -43, -60, 41,
   14, 16, -21, 61, -75, -69, -61, -95,
   -6, 52, -48, -54, 45, -57, -76, -56,
   -52, -5, 29, -45, 41, 50, -5, 86,
   -4, -31, -27, 50, -10, 38, 37, 57,
   -13, 13, -33, 59, 15, 2, -37, 35,
   36, -23, -70, 59, 54, -63, 27, 5,
   13, 84, -99, -30, -12, 28, -15, 34,
   17, 57, -8, -27, 12, -31, 33, 64,
   1, -53, 17, 16, 100, -4, 54, 47,
   45, 28, -24, -66, 61, 26, 3, 74,
   -45, -72, 30, -15, 22, 9, 18, 14,
   8, -70, -23, -33, -52, -4, 28, 18,
   18, 78, -40, -106, 18, -60, -58, -34,
   -30, -4, 65, 3, 10, -5, 46, -62,
   -67, 42, 30, -41, -17, 5, -51, 75,
   16, -12, 51, -4, -30, -8, 29, -28,
   62, 35, 15, 75, -53, 38, 34, 9,
   67, 22, -15, 7, 12, -23, -22, -11,
   34, 31, 25, 55, -32, 11, -3, -65,
   27, 10, -13, 98, -15, -16, 64, 3,
   -3, 36, -23, 9, 88, -32, 26, -48,
   -34, -53, -24, 3, 30, -25, 9, 25,
   25, -118, 20, 6, 8, -20, 5, 24,
   28, 12, -17, 18, 51, -50, 67, -74,
   -25, 13, -73, -3, 81, 35, 22, 29,
   -29, 35, 8, 19, 41, -32, 60, 35,
   94, 32, 19, 79, 97, 27, 81, 26,
   -2, 53, 77, 12, 55, 52, 58, 40,
   87, -22, -5, 41, 5, 60, 103, 71,
   51, 101, 8, 17, -8, 2, -31, 23,
   5, 28, -11, 45, -27, -66, 17, -22,
   89, -38, 50, 74, -13, 90, -28, -29,
   21, -10, 12, 109, 26, -45, 82, -23,
   -2, 7, -55, 4, -8, 86, -9, 2,
   -56, -14, 15, -11, -4, -52, 18, -29
};

static const rnn_weight vad_gru_bias[72] = {
   -39, -60, -88, -47, -56, -44, -43, -18,
   -63, 8, -37, 53, -80, -53, -75, -60,
   1, 22, -31, -57, -37, -82, -71, -43,
   -7, 39, 32, -15, 64, 67, -36, 9,
   72, -1, 2, 48, 38, 48, 39, 70,
   9, 3, 6, 0, 27, 19, 23, 19,
   11, -18, -18, 23, 15, -11, 29, -17,
   -13, 16, -12, 11, 16, 13, -16, 15,
   -8, 15, 25, -22, 18, -22, 16, 15
};

const GRULayer vad_gru = {
   vad_gru_bias,
   vad_gru_weights,
   vad_gru_recurrent_weights,
   24, 24.0, ACTIVATION_TANH
};

static const rnn_weight noise_gru_weights[12384] = {
   -5, 8, 41, 42, -19, 6, 31, -31,
   3, -38, 8, -20, -21, -3, -8, 2,
   -58, -10, 29, 61, 15, 47, 38, 51,
   -23, -13, 43, 1, -5, 42, -10, -39,
   29, 38, 17, 52, -6, 19, -9, -37,
   -29, 11, -31, 12, 26, 17, -25, -14,
   -36, -25, -16, -6, 8, -8, -38, -21,
   -27, -27, -23, 44, -4, -8, 33, -3,
   -20, -21, -38, -35, 23, 27, -19, 0,
   45, -26, -24, 38, -36, -22, 21, 16,
   42, 23, -36, -35, -7, 13, -47, 2,
   20, 44, 13, -14, 30, 34, -4, 20,
   -19, 27, 19, 30, -30, 23, 18, -29,
   12, 27, 24, 6, 19, 32, 31, -19,
   2, -16, -6, -9, 33, -10, -8, 11,
   26, -9, -26, 15, 10, -2, -10, 7,
   41, -3, 19, -14, 39, -20, 45, 0,
   -17, 26, 21, 7, 15, -4, 27, -43,
   -66, -4, 10, 1, 34, -30, -5, -1,
   12, 33, -36, 39, 32, -40, -34, 13,
   20, -54, -38, 1, -33, -8, -23, 35,
   4, 3, 11, -7, -18, 16, 6, -61,
   -24, 3, 9, 35, 18, -44, -9, -17,
   -33, -1, -6, 9, 9, -11, 42, 13,
   28, -12, -20, 17, -30, 2, 50, 41,
   47, -34, 24, -3, -22, -32, 0, 23,
   32, 7, 21, -27, -32, -38, 59, 36,
   42, -34, 20, 8, -31, 13, -36, -1,
   -49, 20, 27, -31, -32, 50, 12, -17,
   16, -38, 36, -6, 38, -50, 2, -10,
   13, -11, -29, 9, 34, -7, 20, 22,
   -31, -5, 26, 29, 43, -46, 17, -10,
   -39, -41, 29, -36, 30, 15, 36, 28,
   -4, -34, 0, -23, -5, -29, 0, 20,
   32, 40, 35, -21, 20, 43, -15, 50,
   -11, -31, -12, -22, -14, -12, 39, -36,
   24, -21, 2, 6, -49, 28, 28, -9,
   -14, -27, 38, 9, -2, 22, 32, 21,
   7, -18, -53, 11, 24, 38, 57, 55,
   13, -34, 14, 18, -41, -36, -1, 11,
   -28, 13, -1, 42, -32, 1, 10, -19,
   19, -17, -8, -17, 28, 47, 30, -17,
   18, -41, 18, 15, -41, 37, -37, 10,
   2, -7, -27, -21, -18, -2, -19, 27,
   34, 25, -16, 17, 12, 4, -62, 35,
   24, 4, -36, 19, -9, -54, -9, 34,
   -50, -28, -42, -41, -15, 30, 17, -23,
   -2, 36, 53, 33, 18, -25, -4, 1,
   -10, -2, -38, 36, 1, 29, 33, 33,
   7, -36, -27, 23, -31, 10, -4, -10,
   5, 33, 27, -40, 7, -20, 1, 22,
   5, -50, -1, 11, -41, 18, -10, -37,
   15, 1, 36, 18, 34, 22, -38, 24,
   21, -10, -51, -23, -12, 35, 32, -17,
   41, 41, 5, 39, -11, 17, 28, 3,
   51, -6, 45, -28, 17, 15, 13, 13,
   25, -45, 34, 26, -28, 17, -19, 82,
   -40, 33, -29, -7, 20, 19, 18, 25,
   -49, 34, 7, 65, -26, 20, -38, -10,
   10, -40, 88, -32, 51, 14, 1, -27,
   -29, 5, -59, 22, -34, 3, -28, -18,
   -26, 1, 19, 24, -28, 23, -1, 3,
   -35, -18, -16, -6, -17, 25, -8, 3,
   35, 20, 20, 33, -23, 10, 42, -6,
   33, 14, 39, 10, -36, -17, -36, -25,
   30, -38, -17, 23, 41, -18, -6, -25,
   -29, 7, 24, 27, 3, -21, -1, -30,
   35, -5, 22, 35, -33, 38, 7, -18,
   -27, -13, 19, -4, -1, -33, 29, 28,
   -39, -35, 5, 35, -25, -21, 17, 32,
   41, -17, -36, -1, 38, -19, -21, -35,
   -48, -24, -55, 2, -24, -14, -17, -2,
   13, 30, -8, -24, -26, -13, -4, -26,
   39, 17, 22, 6, 32, -40, 21, -32,
   25, -19, 14, 2, -20, -8, -9, 64,
   -17, 5, 7, 40, 25, -2, 54, -8,
   -21, -12, -13, 29, 7, -46, 12, 23,
   24, 4, 78, 32, -4, 12, 46, 23,
   34, -42, -48, -34, 19, 18, 16, 31,
   41, 6, 46, -29, -8, -11, -29, 22,
   20, 0, -18, -15, 23, -19, -14, -13,
   29, 25, -5, 34, 20, 26, -20, -26,
   -32, -8, 22, 21, -14, 13, -21, 22,
   9, -29, -7, 17, 8, 10, -39, -23,
   21, 13, 33, 21, 31, -28, -2, 4,
   4, 19, -35, 23, 22, -27, 8, 21,
   39, -16, -7, -10, 11, -31, -6, -10,
   -19, -3, 19, 16, -1, 6, -5, 26,
   -35, -7, 30, 6, -21, -22, 39, 23,
   17, 34, -20, 21, 9, -8, 2, 16,
   -32, 15, -26, -25, -22, 33, -10, 45,
   15, 45, -10, 16, -21, -5, -15, 6,
   23, -4, 1, -23, -4, -13, -18, -9,
   -6, -11, 13, -3, 3, -21, -18, 25,
   47, -38, 0, 27, -10, 37, 42, 29,
   -10, 14, 15, 11, -67, 70, 7, 20,
   31, 0, 21, -18, 36, -15, -8, 31,
   -18, -1, 28, 19, 38, 8, -6, 21,
   -23, 34, -35, -27, -29, -21, -60, 2,
   -19, -25, -20, 27, -7, -12, 29, 5,
   -30, 35, 27, 6, 19, -10, 37, -17,
   11, 43, 29, -38, -23, -38, 18, 31,
   -24, -33, -8, -21, 14, 29, -6, 12,
   14, -28, -32, -12, -10, 29, 33, 17,
   -10, 21, -11, -24, -6, -26, -6, 4,
   10, -27, 2, 11, 23, -7, -47, -27,
   -31, -8, -37, -42, 38, -8, 4, 33,
   -5, -24, 14, 42, -23, -27, 9, -5,
   -10, -30, -11, 26, 13, -26, 17, -23,
   32, 20, 26, -4, -4, -2, -23, 1,
   5, -17, 44, -4, 15, 22, 54, 62,
   41, -13, 33, 31, 22, 9, 36, 7,
   -39, 16, -13, 18, -11, 18, 1, 47,
   23, -47, -1, 13, 41, 36, -13, 27,
   9, -22, -60, 25, 28, 36, 0, 19,
   -9, 12, -29, -37, 19, 32, 33, -4,
   -23, -39, -29, 15, 29, -9, -33, -24,
   11, 13, -34, -15, -4, -24, 5, -25,
   -18, 4, 27, 18, -36, 9, 24, -34,
   30, -36, 20, -27, 37, -11, 32, -25,
   19, 36, 34, -23, -1, 24, 20, 2,
   -10, 33, -31, 15, 6, -19, -7, -19,
   -19, -22, 19, -30, 27, 20, -15, -19,
   -17, -6, 36, -28, -27, 8, -19, 30,
   33, -20, 17, 1, -29, -38, 18, 40,
   5, 26, 7, 5, -16, 33, -18, 9,
   -49, 5, -27, 15, -2, -16, 9, -4,
   18, -4, -1, 28, 1, 7, -6, 42,
   -10, 20, -23, -16, 36, -5, 28, -25,
   -24, 31, 11, -23, 21, 3, -28, 23,
   -29, -41, 15, 1, -14, 30, 6, -38,
   -30, -18, -40, 21, -23, -38, -48, 0,
   33, -28, 29, 8, -30, 31, -13, -36,
   26, 0, 3, -14, -20, -16, 30, -25,
   29, -12, -21, 10, -30, 21, -22, -20,
   30, 52, -9, -37, 17, -55, 36, -15,
   17, 7, -15, 4, -37, -35, -6, -16,
   -9, 6, 37, 28, -3, -8, 8, 36,
   -20, 19, 25, -27, 10, 12, 30, -29,
   -16, 43, 2, 26, 34, -31, 29, 8,
   -15, -21, -14, -4, 16, 26, 23, -25,
   33, 15, -23, 10, 5, -31, 15, -11,
   -20, 6, -42, -13, 5, -18, 18, 9,
   -6, -38, 16, 43, -11, -37, 4, -24,
   -17, 18, 38, 60, 11, -13, -42, -31,
   -20, -17, -23, -43, -24, -31, 7, -29,
   -11, 9, 5, -28, 5, 11, 8, 1,
   -34, 19, -7, -5, 12, 5, 19, -18,
   -24, 18, -4, 3, 26, -22, -16, -54,
   -25, 19, -28, -26, 55, 8, 29, 22,
   -1, 23, 23, -32, -25, 7, -9, 32,
   -33, 34, 30, 43, 27, 19, 44, 39,
   12, 18, 10, 25, -18, 27, 3, 17,
   20, -10, 50, -12, 3, 24, -19, -47,
   21, 12, 32, 26, -37, -8, -26, 43,
   -19, -6, -26, 36, 10, 35, 1, 0,
   11, 17, -30, 30, -22, -48, -20, 26,
   -16, -36, 18, 2, 24, -31, 2, 15,
   34, -2, 0, -31, -15, 11, 34, -34,
   32, 17, 19, 7, -23, 21, 44, 34,
   -12, 38, -46, -11, 36, 9, -21, -9,
   -17, 13, -16, 40, 8, -13, -36, -30,
   -10, -9, -11, 20, 37, 11, 16, -53,
   13, 0, 12, 9, -23, -6, -6, 0,
   8, -39, -34, -29, -9, -10, 0, 11,
   18, 4, 18, -18, -25, -18, 53, 14,
   2, -34, -13, 22, -9, -23, -10, 10,
   -14, 24, 69, -22, 44, 16, 33, 46,
   0, -4, 4, -36, 0, 54, -1, -29,
   -42, -15, 21, -27, -40, 40, -9, -12,
   -2, 35, -34, 8, -24, -36, 1, 41,
   -22, -25, -11, -18, -36, 26, -20, -1,
   -38, 8, -15, 17, -33, -24, 9, -7,
   31, 2, -10, -14, -21, -6, -15, -18,
   39, 25, 10, -28, 10, 5, 35, -7,
   -12, -26, -25, -26, 27, -25, -14, 28,
   20, 24, 4, -31, 9, 12, -60, -29,
   -7, 10, -22, 12, -25, 42, -28, -30,
   -15, -21, 11, -22, 32, 38, 33, 10,
   22, 7, -16, -20, -41, -3, 8, -31,
   -34, 20, -8, 26, 15, 30, 34, 0,
   8, -46, 14, -7, -9, -14, 15, -2,
   -15, 5, 3, 35, 46, 24, 46, 3,
   28, 9, -13, -10, 3, -26, 12, 43,
   -32, 12, -66, -27, -7, -7, -7, 11,
   53, -52, -35, 36, 28, -50, 16, -24,
   -20, 7, 53, 8, 27, -5, -4, 42,
   -28, -4, -24, -1, 26, 47, 34, -13,
   35, -35, -37, 16, -24, -9, -36, -31,
   26, 24, 44, -28, -40, 9, 39, 38,
   -33, 18, -44, 10, -9, 3, -47, -10,
   -33, 7, 20, -3, -41, -4, 13, -5,
   10, -3, 28, 9, -22, -33, 41, 21,
   46, 26, 47, 4, -22, 7, 32, -2,
   -7, 6, -7, 5, 21, 50, -9, 21,
   -24, -30, 17, -30, 42, -26, 11, -33,
   28, -35, 14, 13, -14, -9, -5, -31,
   -18, -14, 16, -27, 24, -31, 5, -30,
   -9, -20, 7, -35, 14, -10, 10, 49,
   9, 52, 3, -7, -20, -38, 4, 1,
   28, -20, 46, 17, -22, -10, -67, 27,
   -35, -53, 25, -23, 19, 66, -21, -21,
   -14, -36, 45, -4, -15, 8, -47, -24,
   -23, 46, 11, 24, 12, 24, 49, -20,
   30, 32, 1, 17, -52, 26, 29, 27,
   -15, -29, -36, -25, -6, -46, 16, 0,
   27, -42, 18, -27, 33, 34, -13, 28,
   25, -12, 8, 12, 15, -17, 54, 15,
   20, -25, 28, -28, -16, -27, 14, -26,
   -5, -26, 39, 32, -10, -28, 25, -7,
   -26, 22, -27, 36, 35, -1, 3, -28,
   15, -18, 31, -2, -17, -19, -11, 29,
   20, 15, 24, 29, -11, 11, 64, 17,
   37, -20, -2, -29, -10, -11, -29, 27,
   -12, -4, 8, -12, -7, 40, -15, 16,
   17, -18, -29, -6, -28, -14, -11, 26,
   -6, 37, 18, -49, -13, 27, 28, 14,
   26, 46, 34, -18, -16, 0, -1, -43,
   9, -7, 27, 26, -43, 20, 13, -12,
   -22, 5, -9, 27, 9, -3, 4, 31,
   14, -3, 7, -23, 56, 14, 7, 11,
   16, -3, 59, -3, -33, 36, -17, -49,
   -24, -17, -46, -5, -38, -15, -2, 16,
   -3, -14, -21, -11, 2, -51, -22, -9,
   1, 24, -38, 32, 34, 21, -1, 18,
   -26, 23, -2, -22, 14, 35, -40, 26,
   -26, -26, -23, -42, 20, -21, 24, -19,
   -24, 15, 16, 33, 11, -28, -10, 35,
   -19, 15, 35, 25, 26, -10, -2, 32,
   13, -39, -13, 4, -18, -12, -33, -11,
   -23, 33, -1, 10, -14, -19, -13, -41,
   -25, -3, 19, -25, 16, 15, 23, 28,
   -14, 40, -9, -44, 8, 14, 7, -16,
   20, -39, 21, 6, -18, -14, -36, -13,
   -76, 24, -52, 27, 2, -27, -21, 15,
   -18, -31, 23, 24, -19, -23, 0, -26,
   -56, 7, -86, -18, 4, 9, -12, -8,
   -52, 41, 15, 21, 23, -14, -41, 16,
   -22, 34, 16, 4, -44, -23, -35, -31,
   -48, 8, 13, 1, 29, 5, 21, 27,
   38, -28, 34, 2, 56, 0, 9, -40,
   -36, -50, -8, 28, 37, -7, 3, 32,
   -16, -8, 55, -26, 48, -52, -26, 30,
   26, 18, -33, -23, -48, -36, -37, 9,
   -49, 33, -23, 6, -4, -19, 33, -29,
   -14, 34, 3, 20, 24, -21, 1, 27,
   37, 5, -32, -36, 22, 28, -40, -15,
   -46, -46, 43, 33, -36, -34, -16, -29,
   -45, 29, -21, 12, 1, -16, -56, -26,
   -21, -23, 7, 5, 21, -21, -42, -21,
   -24, -15, 28, 6, 8, -19, 7, -43,
   -4, -33, -33, -23, -6, 16, -6, 18,
   2, 11, 28, -12, -29, -25, 5, 20,
   -37, -64, 28, 48, 11, 43, 10, -28,
   15, 3, 21, -46, 44, 8, -32, 7,
   26, 41, 21, -37, -26, 5, 44, -33,
   15, -1, -39, -7, 43, -12, -3, 31,
   -39, -30, 3, -17, 38, -4, 47, -12,
   38, 11, 34, 8, -47, -21, -30, -12,
   -42, 17, -5, 16, -23, -4, -31, 44,
   -23, 7, 18, 24, 14, 20, 36, 33,
   -10, -16, 28, 26, -27, -14, -29, -28,
   31, -24, 21, 9, 8, -26, 39, 8,
   -1, -17, -5, 26, -24, 41, -28, -29,
   13, 0, -26, -30, -48, -21, -1, -17,
   54, -23, 13, 3, 40, 33, -39, 18,
   -21, -18, -35, -18, 20, -31, -10, 27,
   40, 0, 1, -3, 22, 62, 19, 21,
   -35, 29, -30, -38, 12, -31, 17, 26,
   37, 22, -15, -3, -3, 38, -30, 26,
   -12, 33, 2, -1, 15, -15, 28, 1,
   17, 72, -42, 50, -33, -7, 9, -32,
   -18, -18, -50, -5, 9, -33, 10, -11,
   -40, -11, -7, -51, -37, -11, 5, 8,
   42, 3, 3, 33, -21, 0, 63, 1,
   -8, 40, -29, -13, -50, 12, -5, 27,
   21, -17, 20, -36, -19, 3, -22, 43,
   33, -24, 14, -14, -27, -36, 14, -17,
   33, 32, -10, 23, 1, -8, 33, 26,
   16, -3, -27, 13, -30, 2, -36, -19,
   -30, -29, 10, 4, 38, 6, -2, 26,
   20, 21, 30, -41, 14, -7, 2, 43,
   -12, 40, 25, 11, -9, 8, 2, 26,
   -4, 12, -3, -13, 0, -5, 0, -36,
   15, 14, 37, -31, -3, 27, -9, -48,
   14, -2, 30, 32, 37, 24, -35, 0,
   -42, 9, 18, -35, 36, 14, 9, -14,
   -11, -38, -2, 25, 42, -4, 27, 3,
   54, -22, -31, -33, -5, -25, 15, -16,
   10, -22, -25, -29, 16, -28, -2, -24,
   1, -6, -63, -18, 38, 35, 25, 4,
   12, -29, -17, -5, 22, 2, -24, 30,
   16, -18, 51, -26, 14, -40, -44, 20,
   36, 7, 19, -43, 1, 18, -5, 0,
   16, -36, -5, -10, -33, -9, 10, 15,
   -36, -25, -19, -45, 35, 8, -63, 5,
   43, 1, -24, 26, 21, -34, -28, -38,
   66, 9, 22, -30, -17, -33, 17, 66,
   -34, -15, -8, -43, -46, -6, -19, 23,
   -33, -48, 39, -5, -17, 24, -17, -26,
   -8, 38, -32, -11, -33, 40, -13, 45,
   -3, -22, 1, -33, 24, -15, -31, 4,
   -11, 40, -38, 7, 13, 23, -39, -4,
   7, -6, -33, 27, -2, -21, -20, 39,
   -1, -8, -12, 14, -29, -9, -56, -11,
   25, -11, 27, 11, -30, -37, -11, -2,
   32, -63, 3, 46, 24, 28, -14, -9,
   22, -1, -23, 8, 19, -12, 25, -18,
   -19, 52, -10, -36, 27, 10, 53, 7,
   -24, -6, -23, 53, 2, -17, -13, 48,
   -40, 38, -8, -9, 25, -6, 14, -23,
   20, -3, -23, -13, -1, -50, 14, 45,
   -23, -34, 40, 33, -4, 34, 16, -20,
   -2, 21, 14, 10, 19, -13, 2, 35,
   -40, -17, -41, 13, 23, 13, -13, 22,
   -9, 9, 15, -21, 0, 43, 45, -9,
   3, 14, -26, -36, 8, -19, -5, 15,
   18, 2, -25, -23, -19, 20, 36, 21,
   -15, 42, -1, -44, 12, -34, -13, -22,
   16, 38, -19, -35, -23, 45, 30, -1,
   20, 36, 11, -33, -17, 20, 5, 23,
   29, -9, 9, 2, 21, -14, -10, -18,
   26, 19, -29, 28, -7, -42, -24, 16,
   5, -3, 2, -24, 29, 27, 30, -31,
   41, -28, -10, -8, -29, 12, 25, 39,
   2, -23, 1, -27, -51, 5, -24, -56,
   -3, 7, -19, -23, 27, -27, 4, -40,
   -36, -14, -47, 0, 49, -50, -16, -43,
   26, -61, 29, -22, 39, -13, 26, -3,
   0, 21, 63, 15, -15, 33, -26, -14,
   5, 32, -13, -27, 12, -18, 31, 37,
   36, 10, 24, -18, 29, -4, -14, -6,
   9, -3, 4, -48, 28, -4, -27, 0,
   1, -14, -9, -43, 30, 47, 1, 45,
   -24, 2, -21, -18, 8, -28, 15, -24,
   -38, -16, 12, 32, 0, -27, -38, 35,
   -44, -25, -1, -20, -31, -27, -24, 25,
   -1, 33, 10, -39, -28, 23, -37, -30,
   0, 3, 27, -13, 25, -27, 34, -15,
   39, -41, -15, -23, 2, -20, 8, 12,
   -38, 32, 25, -37, -28, -1, -36, 1,
   -13, -1, 2, 42, -33, -16, -3, -17,
   24, 27, 14, -44, -45, 18, 51, 10,
   22, 67, 28, -13, -17, -45, -34, 13,
   93, -15, 28, -52, -35, 7, -21, -31,
   4, -40, 15, -31, -41, -24, -2, -30,
   36, -32, 7, -8, -9, -34, 36, 46,
   -4, 2, 56, 2, 58, 20, 20, -55,
   16, 32, -37, 6, -27, -40, 21, 29,
   1, 59, -8, 16, 3, 17, 25, -58,
   -34, -21, -31, 32, 38, 11, 49, 36,
   -28, -46, 32, 18, -8, -11, 1, -37,
   18, -4, -12, -38, 28, -19, 42, 35,
   15, -41, -40, -27, 30, 33, 2, -12,
   33, 27, 5, -22, -29, 24, -17, 45,
   -24, -10, 24, 17, 28, -43, 8, 38,
   16, -22, 18, 22, 4, 13, 17, -34,
   -38, 30, 38, 10, -18, 40, 8, 36,
   25, -38, -18, -47, -30, 28, 3, -8,
   26, 3, -7, 13, 27, -15, 14, 32,
   69, -8, -7, 10, -48, 19, -27, 22,
   -3, -68, 2, -9, 8, 19, -26, 14,
   32, 44, -24, -5, 10, -6, 32, -24,
   13, 39, -35, 30, -38, 1, 10, 12,
   -24, 43, -2, 10, 18, -8, -23, 7,
   18, -44, -1, -23, 76, 0, 37, 1,
   -49, -25, -11, -35, -6, -26, -24, 31,
   -9, 9, -24, -40, 10, 9, -7, 43,
   19, -13, 40, -33, 21, -6, -19, -24,
   27, -9, 36, 42, -30, -76, 8, -3,
   -25, 16, -41, 13, -16, -33, -23, 8,
   39, 5, 13, -23, -19, 8, -3, -17,
   41, 31, -5, -22, -38, 37, -19, -18,
   -39, -37, 31, -8, 9, -7, -19, -27,
   -3, 6, 11, -39, 7, -29, 9, 1,
   -19, 18, 31, 39, -17, -39, 28, 11,
   -24, 1, 9, 26, 23, -46, 22, -10,
   -3, 37, 17, 22, 4, 46, 34, 31,
   -28, 36, 3, -15, -9, 37, 41, 4,
   -18, -16, -13, 2, 45, 37, -26, 44,
   -6, 31, 70, 6, 6, -24, -44, 20,
   -24, -33, 11, -16, 6, 31, -15, -21,
   37, -18, 54, 4, 11, -28, -33, 0,
   -25, 42, 30, 11, 0, 50, 46, -9,
   -10, 11, -54, 44, 28, -21, -17, -21,
   37, -9, -29, -17, 35, 21, 41, -51,
   29, -10, 10, 18, 32, -15, 5, -41,
   -90, 10, 14, 18, 10, -13, 11, -26,
   -40, -18, 55, 8, -9, 35, 38, 46,
   -2, -23, 14, 9, 15, 52, 20, 33,
   -26, -50, -6, -26, -16, 29, -43, 6,
   36, 29, -31, -10, 2, 14, -1, -13,
   39, -12, 23, -3, -18, 16, 15, 10,
   -9, 20, 39, -16, -53, 59, 35, -43,
   -24, 47, -13, -34, 42, 4, -15, -14,
   -35, -7, 24, -46, 13, 10, 16, -28,
   -37, -18, -2, -14, -20, 0, 12, -7,
   -19, 9, 31, 4, 42, -9, 14, -7,
   -17, -34, -4, 32, -2, 25, 26, 32,
   -2, -22, -15, 47, -4, -21, -20, -39,
   -26, -25, -3, 6, -10, -54, 6, -2,
   36, 29, 21, 15, -57, -6, -36, 23,
   8, -46, 5, 13, -3, -47, 46, 14,
   27, -40, 34, 10, 2, -39, 35, -37,
   -37, 32, 1, 11, 38, 1, -31, 5,
   -12, -32, -49, 23, -28, -5, -20, 13,
   3, 3, -22, 17, -8, 40, 24, 28,
   19, 52, 24, 39, 19, -7, 19, 25,
   -28, 25, 26, 16, 29, 3, -26, -23,
   -45, 29, -3, 25, 21, -2, -18, 18,
   -9, 12, 27, -7, -40, -9, 0, 2,
   15, -5, 11, -13, -4, 8, 22, -6,
   -9, 35, -21, -3, 14, 18, 4, 28,
   -11, 10, -35, 0, 20, -16, -39, -5,
   -57, 25, -16, 4, 21, -36, 36, 27,
   -19, 35, -38, 39, -37, -13, 9, 19,
   -56, 28, 20, -38, -24, -47, -25, 9,
   41, 22, 23, -28, -20, 10, 4, 26,
   -1, 32, 34, -2, -3, -24, -23, 23,
   20, 21, 2, -12, -23, -12, 10, -9,
   32, -12, 23, -24, 28, -31, 36, 14,
   40, -38, 15, -11, 41, -17, -41, -22,
   34, 28, -18, -3, -9, 28, -14, -34,
   -19, -13, -23, -16, -9, 21, -32, 35,
   -17, 2, 28, -12, 22, -22, -11, 10,
   3, 26, -35, 13, 31, -7, -17, 34,
   -23, 39, -29, -7, -21, -33, 39, 7,
   -11, 0, 4, -35, 8, 25, 34, 11,
   3, 19, -29, 35, 11, 24, 20, -28,
   -14, 38, 19, 32, -34, 15, -5, 36,
   -3, 3, 16, -3, -11, 14, -23, 22,
   -6, -13, -29, -33, 4, -35, -15, 33,
   29, -33, -2, 0, 6, 44, 20, 14,
   22, -6, 28, -34, 43, -20, 23, 30,
   3, -21, 43, -6, -11, 36, 36, 33,
   3, -29, 10, 59, 26, -39, 10, 12,
   13, -10, 13, 45, -7, 24, -33, -11,
   0, -39, -26, 9, -2, -31, -25, 24,
   5, 11, -5, 24, 40, 0, 5, 8,
   -35, -14, -39, 32, 13, 44, 7, 46,
   -3, 4, 2, -3, 24, 18, 17, 24,
   29, -40, 11, 36, -5, -10, 32, 40,
   -16, -14, -16, -13, 40, -6, 33, -17,
   -7, -19, 17, -26, -48, 12, -46, 12,
   10, 17, 19, -32, 21, 36, -31, 19,
   10, 20, -5, 15, -26, 1, 18, -23,
   36, 30, 12, -9, 36, 29, -23, -34,
   10, -38, -18, 8, -2, -44, -12, -34,
   -1, -18, 1, -1, 13, 39, -28, -15,
   12, 28, 45, 14, -3, -7, 0, -42,
   -15, 22, -17, 35, 3, -26, 31, -12,
   18, -46, 13, 30, 17, 30, 17, 24,
   -51, 17, 2, 0, 32, -19, 39, -40,
   17, -21, 47, 13, 34, 9, 26, -47,
   -40, -4, 0, -30, 5, -30, -24, -38,
   34, -12, -51, 37, -30, 29, -25, -29,
   16, 4, -2, -23, 22, 37, 8, 30,
   -1, -31, 33, 38, -33, -14, 43, 4,
   -23, 22, -3, 10, -1, -22, -6, -14,
   -32, 29, 5, 14, 40, -35, -24, -24,
   -21, 16, 19, 4, 40, 43, 24, 13,
   38, 37, -24, 1, 32, 46, 30, -1,
   24, -7, -29, -22, -45, 17, 2, 0,
   -22, 61, 29, 1, 27, -22, -28, 35,
   -23, 6, -4, -4, -20, 45, 23, -32,
   -35, -11, -6, -23, 23, -34, 32, -15,
   11, -38, 29, 18, -1, -31, 43, 10,
   -27, -40, 38, 29, 35, 42, -28, 43,
   41, -46, -16, 21, -4, -25, -2, -12,
   34, -8, -26, 3, 9, 20, -18, 27,
   3, 30, 5, 28, 23, -29, 0, 25,
   37, 4, 3, -28, 50, 45, 36, 24,
   21, -13, -46, -2, -27, 20, 7, 32,
   -46, -28, -16, 3, 0, 6, 28, 9,
   -12, -12, -21, 9, 35, -18, 26, 25,
   12, 46, 40, 1, -34, -30, 40, -23,
   -3, 17, -25, -40, 14, 54, -52, 1,
   2, 32, 9, -42, 36, 6, 15, 11,
   0, -14, -12, 36, 11, -3, -36, 15,
   18, 20, 14, 21, 39, 41, -36, -45,
   40, 23, 20, 9, 22, 31, 35, 39,
   22, -30, 25, -30, 37, -2, 3, -21,
   -27, 26, -50, 24, -4, 13, 15, -30,
   12, 31, -18, -11, 7, 41, 24, 13,
   7, 37, 2, 8, -24, -28, 20, -2,
   19, 4, -4, -20, -28, -23, -30, -27,
   -22, -7, 35, -36, 31, 45, -16, -28,
   53, -23, -6, 13, 15, -24, 4, -30,
   36, -11, -28, -15, 9, -19, 12, -32,
   21, 3, -31, 15, -18, -54, -3, -43,
   9, -39, 34, 18, -42, -29, 18, 30,
   -36, -6, 32, 31, -1, -1, 2, -24,
   -37, -50, -15, -22, -26, -3, -12, -9,
   -11, 17, -37, -23, -6, 0, 25, -8,
   34, -43, -11, -19, -2, -13, 8, -32,
   -10, -34, -50, 33, -9, 9, -20, -15,
   3, -22, -10, 19, 0, 23, -27, 43,
   -29, -8, -33, 3, -2, 18, -9, -4,
   -27, -5, -39, -10, -6, 13, -9, -20,
   30, -33, -34, -12, -3, 13, -19, -12,
   18, -38, 10, 32, 20, -1, 25, -4,
   37, -13, -16, -40, -9, 28, -14, 6,
   -24, 41, -12, -17, 23, -11, -29, -12,
   13, 30, -31, -27, -9, -36, 35, -4,
   -26, 42, -22, 28, 20, 56, -13, 36,
   -13, 56, -42, -12, -29, 13, -3, -32,
   51, -73, 36, 14, 3, -12, 42, -48,
   -28, -49, -13, 50, 28, 6, 7, -44,
   -22, 23, -24, 36, -40, -32, 13, -66,
   46, -41, -25, -4, -62, -2, 13, -23,
   20, -15, 32, 1, -8, 4, 16, 2,
   -5, -26, -24, 11, -18, -45, 8, 1,
   -3, 1, -8, 45, -13, -13, 12, -25,
   46, 1, -25, -17, 0, 18, 26, -40,
   4, 38, -37, 8, 32, -21, 2, -41,
   -2, 20, -36, 33, 4, -15, 22, -18,
   3, 7, -37, -17, 26, -6, -39, -1,
   -20, -22, 32, 41, -24, 4, 34, 35,
   -19, -34, -8, -28, -59, -6, 4, -7,
   25, -12, 21, 10, 18, -46, 19, -28,
   -36, 18, 46, -35, -39, 7, 29, -3,
   -15, -22, 9, 28, 22, -35, -38, 33,
   30, -4, 10, -7, -26, -28, 24, -6,
   56, -25, 1, -28, -40, -17, -21, 16,
   -26, 50, -36, -35, 4, -5, -58, -27,
   31, -26, 43, -38, 26, 47, 19, -19,
   -30, 29, -36, -9, -19, 1, 0, -8,
   23, 6, 22, -3, 48, -14, -33, 18,
   -18, 53, -9, 26, -12, -33, 10, -7,
   24, 51, 32, 33, 1, -32, 15, -18,
   -15, 43, -43, 29, 35, 3, -45, 20,
   -43, -25, -29, -34, -6, -10, -20, 35,
   6, 41, 13, 44, 26, 8, 5, 5,
   -39, 11, 5, -9, 49, 38, -2, 32,
   -26, -31, -30, 9, 16, 25, 33, 31,
   42, -23, 3, 9, 29, -34, 42, -15,
   29, -33, 12, -40, -14, -14, -33, -27,
   -34, -29, 30, -19, 5, -8, 44, 0,
   35, 11, -5, -24, 45, -4, -5, -7,
   -1, -21, 24, -21, -3, 2, 36, 29,
   3, 52, -36, 11, -9, 25, -13, -26,
   -18, 52, 27, -20, -31, 1, -49, -40,
   66, -12, 37, 17, -32, 26, -7, -22,
   -36, -16, 11, -28, -18, 24, -29, -39,
   -22, -28, -7, 6, -3, 25, 32, 30,
   30, -32, -17, 41, -23, -14, 15, 20,
   27, -10, 13, 33, 43, -13, -4, -33,
   -3, 25, 15, -4, -3, 10, -44, 29,
   36, -13, 34, -22, 28, -43, 28, -35,
   -7, -15, 10, -22, 5, 48, 30, 39,
   -24, 9, 41, -2, -10, -30, 39, 32,
   34, 46, -38, -11, -38, -51, -33, 54,
   29, 16, -24, 25, -25, 10, -28, 12,
   37, 30, 9, 9, -33, -36, -14, -4,
   -32, -35, -32, -10, 29, -30, -16, -11,
   47, 40, -10, 0, 4, -28, 0, -35,
   -2, 32, 34, -30, -39, -34, -24, -24,
   -11, -17, -19, -23, 18, -34, 25, 15,
   -49, -44, 4, 40, 16, -27, -10, 9,
   -6, -54, -18, -16, -4, 14, 5, 30,
   -3, 3, -16, 31, -20, 10, 1, -37,
   29, 12, 39, -44, 51, 9, 16, 35,
   -5, 9, -6, -7, 11, 37, -4, -47,
   -26, -1, -64, -34, -17, -18, -17, -57,
   51, -10, 44, 8, -48, 20, 27, -4,
   -16, 35, 43, -40, 11, 4, 23, 40,
   -15, -4, -19, 13, -24, -29, -35, 39,
   17, 16, -10, -3, -10, -71, 37, 9,
   -18, 42, -12, 56, 32, -19, 25, -14,
   33, -14, -31, -5, 27, -9, -26, -27,
   -18, 39, 6, 15, 6, -19, -32, -55,
   -37, 4, 14, -3, 9, -33, 13, -35,
   36, -42, 5, 4, 33, 34, -36, 7,
   -43, -26, -2, -30, 37, 23, -16, -19,
   6, -38, 41, -12, 8, -10, -10, 0,
   -20, -24, 2, -14, 26, 6, 17, 30,
   1, -30, -17, 18, -5, 21, -23, 23,
   62, -33, -13, 39, 22, 34, 24, -9,
   -48, 14, 16, -34, 5, -4, -9, 31,
   8, 21, 27, -29, 21, 20, -48, -29,
   -39, -39, 24, 22, 9, 11, 3, 29,
   33, -5, -42, -24, 20, 10, -25, 33,
   -30, 9, -49, 25, -14, -7, 43, 27,
   44, 19, -31, -28, 6, 25, 51, 23,
   -18, -17, 15, 39, -27, -14, -32, 58,
   -9, -11, -43, 26, -20, -36, 22, 29,
   -2, -22, -18, -23, -23, -13, -1, 38,
   33, -15, -26, 7, 5, 40, 21, 22,
   26, -4, 42, 9, 5, -10, -8, 31,
   11, 10, -20, -32, 23, -27, 4, -28,
   -12, -3, -33, 35, 8, 31, -3, 27,
   -33, 3, -40, -26, 16, 37, -17, 37,
   23, -16, 2, 39, 0, -37, -22, 30,
   23, 21, -5, 1, 18, -26, -16, 6,
   9, 37, 41, -26, 61, 5, 29, 2,
   27, 39, 13, -40, 49, -14, -1, -18,
   25, 39, -14, -39, 11, 43, 19, 32,
   -28, 4, -34, 8, -33, -11, 30, 39,
   16, -11, -26, -19, -31, -22, -19, 46,
   -7, -31, -30, 15, 51, 19, -19, 4,
   9, 10, -32, 33, 0, -21, -56, 25,
   -17, -48, 5, 10, -13, -2, 5, 36,
   -24, -23, -27, -14, -34, 7, -7, 19,
   0, 33, -18, -5, -6, 26, -2, -15,
   32, -29, 19, -49, 29, -41, -33, -6,
   20, -24, 15, -13, -6, -12, 4, -18,
   27, -40, -18, -16, -3, -35, 19, 15,
   -25, -40, -25, -11, 16, -14, -40, -43,
   18, 28, -30, 34, 32, -18, -27, -29,
   17, -27, -4, -4, 8, 37, 15, 28,
   -9, 26, -42, 17, -22, 29, 27, -21,
   -28, 1, -26, -49, 31, 40, -5, 22,
   -34, -47, 0, 38, 27, -8, 11, 9,
   5, -44, -32, -47, 13, -23, -30, -10,
   -48, 12, -15, 10, -20, -3, -13, 26,
   16, -11, -27, -29, -19, -13, -32, 9,
   7, 5, 4, -17, -7, 33, -1, -30,
   -26, 6, -37, -2, -8, 18, 7, -32,
   9, 29, 39, -23, -48, 16, 49, 35,
   -27, -20, 3, -8, -26, 17, -27, 6,
   -28, 30, 30, -21, 40, 1, -6, 44,
   12, 42, 12, 34, 1, 26, -33, 14,
   -4, -5, -19, -7, -9, 8, 43, -41,
   -38, 24, -22, 13, 45, 39, 6, 37,
   2, 43, -25, 26, 17, -27, -39, 13,
   39, 0, -5, -12, 1, -26, 36, 16,
   4, -18, -1, -23, -4, 32, -26, 12,
   -30, 8, -47, 46, -24, 7, 15, 48,
   16, 1, 1, 30, -8, -21, -21, 23,
   1, 6, -48, 25, 49, 32, 38, -23,
   -30, 10, -22, -53, 32, 10, 40, 37,
   13, 44, 4, 25, -29, 32, 8, -36,
   13, -54, 20, 25, 7, -25, -27, 43,
   -41, 6, 26, -28, -27, -28, -8, -16,
   1, 25, 18, -25, 10, 12, -44, 37,
   30, -32, 36, 41, -2, 50, 0, 27,
   24, 34, -15, -46, -19, -14, 12, 41,
   -13, 13, 41, -23, 33, -36, -49, 33,
   41, 13, -33, 51, 4, -11, -14, -7,
   -26, -6, -33, -42, 3, 3, 12, 9,
   -40, 22, -30, 22, 20, 31, -6, -28,
   -28, 0, 44, -26, -8, -15, 16, -7,
   25, -29, 22, 24, -22, -12, 41, -22,
   -32, -26, -12, 29, 34, -15, 33, 15,
   7, -34, -40, -27, 21, 39, 42, 30,
   -28, -36, -18, 11, 32, -30, -42, -13,
   -7, -44, -14, -13, -9, -16, -12, -40,
   27, 23, -3, -10, -34, -13, 4, -9,
   25, -10, -7, 14, 17, 34, 10, -20,
   10, 26, -35, -25, 29, -38, 7, -20,
   15, -40, -14, -26, 27, 16, 45, 38,
   8, 4, -50, -17, 7, 13, 40, 1,
   -3, -23, 44, -9, 5, -28, -25, -25,
   -26, 26, 13, -24, 9, -6, 2, -19,
   37, -24, 1, 10, -6, 27, 10, 25,
   -15, 12, -1, 5, -12, 23, -49, -2,
   31, 34, -30, -18, -33, 3, -41, -42,
   -31, 16, 28, 40, 39, -24, 13, 58,
   11, -9, 23, -32, 8, 24, -32, 33,
   -6, 19, 51, -55, 0, -39, 21, 7,
   8, -12, 36, 0, 37, -30, -9, -31,
   -29, 5, 33, -33, -32, -48, -7, 22,
   18, 29, -4, 8, -5, 6, -33, 26,
   -29, -9, 17, -1, 14, -40, -29, -26,
   -20, 8, 9, 13, -4, -22, -21, -21,
   -4, 33, 19, -19, 4, -5, -5, 32,
   16, 10, 27, 27, 10, -6, 4, 18,
   -50, -17, -13, -40, 10, -35, -24, -35,
   4, -15, -4, 10, -3, -7, 38, 28,
   -20, -28, 0, 46, -26, -30, 44, -32,
   24, 21, -12, -24, -65, -23, -54, -7,
   24, -40, 29, -10, -21, -21, 28, 6,
   -21, -27, 40, -30, 50, -35, 19, -5,
   5, -22, -12, 32, -36, -21, -51, 28,
   -11, 2, 33, -49, 31, 9, -26, -32,
   28, 0, -18, -22, 25, -20, -15, -30,
   25, 7, -33, -29, 18, -10, 34, 27,
   -36, -12, -11, -39, -18, -26, 26, 16,
   33, 17, -16, 23, -32, -32, 36, -14,
   -48, 6, 39, -13, 17, -12, -7, 22,
   -21, 3, -5, -16, -19, 36, 6, 36,
   -19, 34, -2, -41, 20, -43, -17, -22,
   32, 24, -5, 36, 23, 14, -4, -11,
   13, 25, 20, 28, 8, -18, -10, -45,
   2, -30, 27, 39, -2, -35, 32, -46,
   -19, -22, 7, -41, -17, 44, 49, -35,
   -18, 42, 17, -19, 49, -7, 35, 31,
   38, 19, 7, -1, -4, 7, 5, -26,
   -22, -20, -23, -4, 24, 17, -20, 5,
   38, -36, -40, 37, -10, 32, -11, 25,
   -39, 48, 3, 40, -28, 26, 3, 36,
   -35, 20, -30, 1, -15, -1, 5, -6,
   24, -2, 31, 21, 15, -13, -1, 22,
   0, 28, -12, -48, -3, 19, 6, 8,
   -16, -30, 7, -7, 22, -21, -18, -23,
   -17, -13, -47, 38, 19, 7, -46, -26,
   4, 11, 27, -26, -24, -31, 0, 41,
   -6, 10, -13, -36, -21, -3, -16, 17,
   7, 31, 29, -44, 49, 4, -16, 14,
   5, -27, -32, -7, -42, 43, -8, 21,
   -35, -25, 27, 17, -5, 23, 12, -35,
   -6, 8, 22, 30, -14, -7, 8, 11,
   -6, 47, -14, -1, 1, 2, 5, 39,
   -34, 40, -48, 41, -33, -25, -46, -21,
   22, -9, 18, 19, 6, 34, -2, -22,
   -34, 2, -24, 11, 9, -16, -4, -24,
   -14, 6, -22, -6, -34, 19, -11, -34,
   -19, -22, 13, 37, -52, 40, -31, 25,
   40, 25, 19, -8, -3, 14, 12, -30,
   14, -30, -14, -5, -27, 2, 24, -20,
   -13, -21, 23, -26, -41, 33, 41, -29,
   -13, 22, -16, 6, -19, 53, -38, 21,
   -9, 45, 36, 28, -23, -12, -1, -26,
   -12, -13, 37, -27, -24, -31, 6, 37,
   -11, 6, 11, -20, -26, 39, 31, -21,
   -39, -20, -33, -10, 7, 4, 9, -14,
   -3, 41, 36, 33, 13, -8, -9, -42,
   15, -24, 48, 10, 18, -12, -41, 14,
   21, 4, 11, -19, -47, 11, 31, 22,
   -1, -1, 0, 29, -17, -30, -11, -28,
   3, -48, -13, 37, -63, 28, -47, -24,
   16, 19, 9, -7, -4, -17, 31, -18,
   -23, -4, 37, -37, 44, 9, -10, -45,
   -8, 24, 39, 5, 19, -33, 9, 27,
   3, -14, 20, -7, -9, 23, 0, 25,
   -39, 15, 6, -47, -5, 18, -37, -37,
   4, 6, 0, -24, -27, -7, 25, 53,
   28, -19, 37, -24, 12, 25, -2, -23,
   14, 44, -28, 45, 36, -34, -38, 36,
   -3, -45, 34, 1, 18, 3, -15, 34,
   -14, 19, 33, 38, -1, -26, 17, -3,
   24, 10, -31, -28, 28, -25, 25, -9,
   38, 30, -2, -10, -27, -40, -30, 28,
   -8, 40, -14, -11, 10, 17, 47, 51,
   8, 28, -17, -41, -11, -11, -21, 27,
   24, -10, 22, 21, -6, -10, 5, -1,
   31, -36, 6, -19, 10, -14, 29, 26,
   19, 30, 29, 23, -19, -2, 30, 6,
   34, -34, 37, 32, -4, -17, -22, 0,
   -27, -30, -4, 5, 33, 37, 39, 5,
   -2, -6, -5, 39, -16, 10, 44, 8,
   -40, -26, 27, 39, 13, -52, 22, 13,
   11, 42, -3, -14, -41, -36, 3, 43,
   -40, -18, 16, 13, 55, 15, 28, -4,
   -46, -20, 10, -21, -13, 47, -38, 19,
   -21, 32, -8, -31, 11, -28, 38, 17,
   -7, -27, 7, -16, 9, 36, 4, -27,
   -29, -12, -24, 4, 25, 30, 43, 33,
   -36, 5, -40, 17, -24, 41, -29, -38,
   17, 14, -33, 18, -10, 16, 32, 2,
   -19, 22, 1, 40, -37, 27, 12, -22,
   -13, 22, 38, -31, 40, -29, -3, -24,
   0, -24, -9, -10, 6, 7, -46, 30,
   8, -26, -27, -18, -26, -3, -30, -6,
   8, 22, -42, -25, -30, 2, 27, 38,
   -44, -10, -33, -11, 14, 31, -5, 24,
   -19, 24, -22, 14, 21, 4, 0, -35,
   11, -23, -2, -2, 36, -39, 10, 38,
   47, 1, -28, 47, 17, 37, 37, -21,
   25, -1, 15, -17, 17, 26, 28, -7,
   -54, 6, 1, -1, 29, -41, 0, -7,
   38, -29, 22, -27, -8, -39, 54, 5,
   -42, -28, 2, -9, -22, 1, -22, 4,
   28, -15, -15, -37, 31, 28, 9, -27,
   11, -23, -24, -4, 14, 4, 6, 5,
   30, -17, 11, 29, -28, -30, -26, -42,
   -23, -18, -18, -50, -24, -36, -32, -3,
   12, -9, 41, 36, -48, 8, 10, -13,
   42, -24, -31, 15, 25, -35, -9, 16,
   4, 9, -14, 15, -9, -23, 1, -7,
   -8, 11, -7, -45, 2, -33, -6, 42,
   -18, 13, -22, -7, -37, -32, 13, 34,
   -34, -23, 7, -21, 0, -18, 30, 43,
   21, -20, 33, -26, -39, -31, 5, -40,
   -24, -26, 34, 39, 3, -52, 14, 14,
   28, -6, -27, -11, 36, -12, -21, 26,
   -75, 26, 42, 30, 12, -20, 4, 27,
   12, -7, -14, 2, 16, 45, 5, -8,
   -20, 6, -23, -21, -3, 22, -11, 22,
   28, 3, -34, -28, 30, 11, -39, 38,
   -43, -20, 20, 18, 21, -4, -27, -14,
   -3, -11, 22, -22, -28, 37, 10, 5,
   -4, 25, -41, -42, -14, -25, -23, 0,
   30, 18, 34, 13, 6, -51, 21, 20,
   19, 1, -36, -8, -13, 8, 19, 1,
   -4, -31, -30, -28, 0, 32, 33, 7,
   -35, -37, 5, 12, 5, -19, 40, 6,
   -26, -4, 0, 18, 33, 16, 1, 9,
   19, -13, -44, 37, 37, 30, -53, 40,
   13, -12, 15, -27, -42, 36, 20, -16,
   5, 10, -3, -16, 27, 30, 42, -32,
   -1, -8, 18, -32, 10, -1, -21, -6,
   -24, -22, -5, 26, 21, -17, 5, -41,
   21, 40, 21, 15, 10, 15, 40, -25,
   43, -45, 16, 24, 33, 6, 4, 3,
   -30, -16, -13, 41, -59, -24, 31, 39,
   -24, 48, 57, -22, 24, 20, -44, 35,
   27, 28, 43, 16, 58, 30, 56, 16,
   -41, 19, 10, -30, -2, 30, 15, -36,
   11, -35, 27, 36, 24, 28, -23, -23,
   14, 21, 20, 28, -35, -29, 33, -40,
   43, -15, -10, 15, -13, -40, -6, 17,
   23, 8, -25, -54, -2, -21, 32, -4,
   32, 19, 4, -10, -32, 5, -13, -2,
   41, 23, 20, -31, 10, 8, -27, 42,
   0, -34, 6, 13, 22, -5, 20, -31,
   -15, 41, -13, 10, 11, 25, -7, 25,
   -17, -23, -10, -40, -8, -15, 30, -5,
   -17, 23, -24, 11, -17, -15, 24, -10,
   -38, -12, -10, 10, -40, -3, -39, -1,
   19, -10, -1, -23, -52, 20, 7, 35,
   -27, -42, -26, 43, -3, -21, -7, -9,
   12, -18, -33, -38, -32, -24, -17, -47,
   -33, 2, -21, 14, 63, 36, 19, 35,
   14, -5, -49, 6, -27, 14, 49, -36,
   12, -13, -70, -5, 35, -4, 13, 16,
   21, -4, 51, -27, -12, 42, -24, 34,
   9, 38, -24, 20, -20, 10, 16, -40,
   -23, 4, -27, -21, 14, 31, 33, 50,
   -13, 35, -39, -8, 22, -2, 20, 14,
   -44, 6, 16, 2, -30, -10, -29, -46,
   -33, -7, -44, 6, 23, -23, -27, 33,
   37, 19, 0, -13, 17, -2, -15, 16,
   34, 16, 10, -27, -1, 4, 45, 0,
   16, 8, -20, 21, 3, -10, -23, -32,
   28, -17, -19, -16, -20, -26, -43, 31,
   -24, 32, -23, -20, -7, -13, 40, 14,
   20, 12, -1, 41, 24, 3, -16, 5,
   -49, -33, -39, -33, 13, 54, -19, 13,
   -18, -15, 1, -7, 19, 13, 3, -12,
   -1, -28, 47, 16, 18, -22, -10, -13,
   -4, 2, 21, 32, -16, 0, -18, 10,
   -1, 0, 50, 11, 4, -36, -41, -33,
   -29, 25, 27, 8, -50, -44, -33, -18,
   -21, 24, 43, -39, 20, -9, 29, -17,
   9, 23, -38, 26, -8, -8, 22, 7,
   10, -36, -26, -36, -19, -47, 50, -33,
   -2, -33, -7, -38, 21, 11, -59, -29,
   36, 18, 26, -53, -41, 38, 29, 40,
   -21, 24, 1, -37, -18, -39, 5, 4,
   11, 12, 34, -28, 37, 10, -48, 39,
   19, -25, 26, -19, -25, 27, -20, 6,
   5, -23, 43, -1, -40, 35, -7, 35,
   27, -10, -24, 9, -29, 4, -53, 13,
   34, -19, 46, -37, -18, 50, 25, 41,
   -34, 30, 41, -20, 20, 5, 5, 5,
   -11, -35, 8, -2, 35, 43, -11, 33,
   -73, 46, -27, -26, -31, -31, 12, 11,
   16, -12, 19, -2, 1, 6, -1, 6,
   -21, -27, -38, -10, 23, -33, -14, -40,
   -16, -1, 22, 2, 8, -38, -30, 1,
   20, 1, 13, -3, 0, -57, -27, -8,
   17, -19, 49, 16, 46, -28, -8, -26,
   10, -30, -27, 29, -19, 15, -50, 18,
   -9, -35, 41, 8, 48, -42, -1, 17,
   38, 31, -1, -20, 2, 8, -27, 25,
   7, -29, -22, -35, 1, -15, 1, -41,
   -34, 19, -14, 13, -10, -53, -11, 40,
   2, 16, -40, -32, -31, 27, -9, -40,
   31, -7, 42, 19, 33, -6, -28, -42,
   26, 3, -32, -8, 22, 15, -4, 25,
   -14, 3, -33, -16, -17, -32, -7, 12,
   -19, -11, -11, -39, -45, 10, -37, -36,
   -38, 39, -23, 30, -2, -44, -27, 37,
   17, 2, 25, -39, 29, -29, 12, 49,
   -24, 31, -1, -22, 9, -33, 11, 10,
   -4, -35, 0, -7, -4, 2, -12, 14,
   -41, 27, -46, -64, -4, 4, 19, 21,
   -1, 11, 59, 1, -18, -20, 16, 2,
   -16, -24, -25, -7, 28, 34, -18, -2,
   -27, 1, -15, 15, 21, 37, -35, -10,
   -1, 36, 14, -12, 18, 14, 24, 7,
   20, 21, 15, -33, 34, -1, -44, -20,
   6, 26, 33, 28, -7, -30, -23, -18,
   -30, 18, -5, 21, 14, -3, -32, 6,
   25, -17, 28, -16, 1, 24, -20, 23,
   -38, -5, 32, 18, 24, 3, -11, -3,
   -8, -36, 31, -26, -31, -37, -23, -15,
   -29, 27, 38, 26, -30, -27, -16, 9,
   -28, 32, -24, 17, 20, -35, 14, -31,
   -20, 9, -27, 17, -8, -31, -31, -27,
   -22, -26, 3, -29, 2, -14, 29, -2,
   -33, -7, -17, -17, -14, 19, -25, 15,
   41, -20, 9, 4, -11, -28, -12, 3,
   24, -5, 24, -20, -3, 32, -46, 17,
   -27, 16, -16, -36, -31, -35, 34, 28,
   -23, 58, -4, 23, -20, 10, -16, 24,
   -18, 33, -39, -22, 49, -15, 12, 9,
   23, -4, 62, -12, -8, 32, -15, -12,
   0, -17, 24, 8, 37, 16, 41, 10,
   7, 37, 32, -19, -23, -38, -27, 6,
   -7, -34, 16, 25, 6, -8, 3, -9,
   23, 32, 32, -16, -25, 14, -27, 15,
   -4, -7, 5, -30, -21, 14, -12, 33,
   36, -36, 10, -3, -41, -27, -5, -26,
   7, 19, -33, -35, -31, 19, -6, 1,
   5, -16, -1, 6, 12, 16, 49, 3,
   43, 29, -21, 4, 19, 29, 19, 35,
   27, 11, 38, -30, -3, 3, -5, 4,
   -39, -22, 39, 9, -24, 22, -35, -23,
   -15, 13, 27, -37, -41, 22, 31, 17,
   14, -16, -33, 26, -60, 39, -33, -20,
   -10, 58, 4, 2, -37, -25, 7, 24,
   59, -22, -31, -20, -5, 41, 19, -28,
   32, -31, 19, 53, 18, 64, 22, -40,
   4, -21, -74, 38, 58, -19, 27, 31,
   -44, -17, 15, 46, -47, -8, -36, 25,
   -27, -1, 5, 30, -13, -13, -27, 2,
   5, -33, -35, -12, -28, 23, 15, 27,
   -8, -18, 28, -44, -32, -32, -7, 25,
   12, -28, -6, 23, -22, 40, -17, 44,
   36, -6, -37, -35, 8, -14, 38, -4,
   -44, -7, 17, -31, 44, -8, 22, 58,
   47, 32, -40, 3, -21, 41, 38, 10,
   0, 1, 17, -51, 34, -19, 6, -14,
   -12, -28, 35, 42, -56, 39, 31, 25,
   22, -14, 36, -12, 0, 19, -38, 5,
   -4, 36, 17, -3, 24, 36, -27, -38,
   30, 13, 41, 26, -27, 24, -19, 38,
   -61, 17, 7, -4, 9, 19, -43, 8,
   34, -3, 14, 28, 16, -11, 7, 38,
   -15, -24, 39, -34, 6, 11, -42, 8,
   -57, -74, 9, 37, 46, -22, 60, 47,
   -37, -13, -5, -14, 46, 53, -3, 1,
   -42, -3, 38, -5, 16, 19, -31, 41,
   19, 15, -41, -13, 36, 35, -32, -19,
   28, 22, -37, -2, 0, -3, -46, -18,
   -5, -37, 40, -30, -21, -17, -11, -4,
   -34, 13, -39, -34, 3, -27, -20, 27,
   36, -40, 21, 17, 29, 18, -14, -10,
   -25, 37, 36, -8, 40, 12, -30, -2,
   11, -4, 37, 0, 25, 21, -27, -24,
   -34, 35, -8, -3, 0, -27, -42, 20,
   18, -4, 37, 12, -43, 29, 17, -42,
   28, 14, -25, -5, 44, 26, -14, -49,
   -31, -40, 12, -5, -17, 30, 41, -1,
   54, -7, 43, 19, 18, -33, -5, 33,
   56, -8, 23, -13, 61, -27, 10, -16,
   41, 20, -50, 24, -34, 44, -6, 32,
   56, 20, 19, -80, 8, 58, -18, 9,
   29, -29, 26, 61, -37, 16, 27, 32,
   -65, 20, 1, -49, 17, 18, 3, -21,
   45, 37, 47, 24, 36, 14, 23, -30,
   -47, 4, -37, 54, 23, 12, 21, 5,
   -18, -30, 45, -34, 11, -14, 7, -24,
   -4, -2, -1, 29, 18, -14, 10, 41,
   -15, -3, -8, 27, 15, 3, -21, -35,
   27, 21, 11, -20, -48, -17, -8, 4,
   -32, 22, -30, 9, 32, -28, 27, -15,
   21, -17, -18, 44, -34, -3, 37, 4,
   26, -16, -8, -43, -22, 23, -25, -21,
   15, 28, -20, -9, 31, -6, -32, -9,
   -19, -26, -16, -2, -37, -27, -35, 55,
   -14, 4, -7, -9, 2, 16, 38, 11,
   -71, -1, -12, -50, -19, -13, 11, -6,
   -6, -39, -14, -31, -15, 19, -23, -54,
   15, -29, 12, 63, -33, 35, -43, -32,
   -25, 7, 26, -25, 18, -17, 17, -12,
   43, 27, -89, 7, -32, 14, 27, -14,
   -27, 3, -59, 35, -19, -24, -58, -56,
   61, 20, 30, -48, 51, 10, 56, 30,
   -12, -52, 36, -29, 3, 36, -11, -19,
   -10, 0, -15, 9, -37, 10, 10, 21,
   14, -30, 28, -7, -36, 5, -38, 23,
   21, 22, 9, -48, -14, -45, 11, 12,
   -37, 2, -15, -7, 1, -28, 14, 31,
   30, -20, -31, 46, 34, 41, -2, 28,
   -45, -33, 29, 12, -27, 16, 50, 48,
   -5, 23, -16, 22, 1, -42, -27, -39,
   36, 4, 24, -60, 23, 9, -4, 27,
   4, 15, 1, 1, -39, -11, -6, 57,
   -27, 12, -10, -27, -13, -33, -25, 39,
   -98, 20, 31, -15, -39, -76, 20, 10,
   49, -70, -66, 17, -6, -12, -43, -16,
   10, 35, 17, -16, -21, 17, -60, 11,
   -55, -39, 26, -26, 17, 4, -14, -13,
   46, 11, -32, 20, 0, -30, 15, -62,
   -10, 13, -1, 0, 17, -19, -66, -21,
   27, -9, -19, -33, 41, 46, 25, 25,
   15, 4, -14, 24, -28, 15, 69, 10,
   -51, -73, -25, 35, -51, -15, 42, -23,
   16, -56, 22, 31, -27, 85, -31, -8,
   -34, -40, 31, 0, -26, 27, 20, -16,
   -15, 2, -51, -11, -27, -37, 34, -3,
   10, -10, -6, 13, 17, -39, 21, -40,
   -18, -3, 8, 5, -41, 25, 11, -11,
   -44, -4, -1, -4, -14, -6, 15, -22,
   -17, -3, 9, 22, -9, -37, -32, 27,
   -28, -25, 16, -34, -11, 4, 62, -22,
   19, 30, -22, 8, -10, -18, 26, 10,
   48, 73, 105, 9, -27, -4, -60, -3,
   10, 25, -12, 44, 57, -22, 17, -28,
   40, -17, -32, -42, -20, 1, -45, -27,
   -33, -42, -42, -49, -30, 8, 30, 7,
   43, 13, -37, 93, -22, -17, 21, 30,
   -19, 96, 36, 10, 71, 51, 24, 46,
   55, 52, 23, -21, -8, 43, 7, -44,
   -1, -13, 24, -47, 2, 27, 26, -43,
   -13, 55, -1, 36, -1, 38, 0, 7,
   19, -39, -16, 31, 32, -25, -15, -35,
   -41, 7, 23, -27, -8, -26, 5, 45,
   21, 21, 0, -11, 47, -42, 28, 34,
   -25, 23, 22, 0, 55, 44, -13, -25,
   -67, -37, -14, 12, -3, 17, 17, -40,
   -15, 23, -17, 20, 15, 27, 14, 36,
   7, -6, 19, 65, 18, 27, -9, -49,
   40, 18, -31, -7, -11, 0, -4, -2,
   30, -11, 1, 39, 38, -4, -45, 29,
   5, 58, 61, -8, -55, 19, -73, -47,
   -77, 19, 35, -19, -9, -34, 54, -29,
   67, -30, -14, -27, 73, 7, -1, 96,
   -7, 0, 0, -40, 9, -14, -35, 29,
   34, 81, -21, 61, 34, -8, 35, 28,
   -38, -11, 20, -28, 5, -9, -32, 31,
   28, 19, -1, -25, -29, 17, 60, -52,
   2, 3, -11, -30, 8, -17, -14, 42,
   63, -27, 33, -12, -75, -46, -15, 33,
   62, 18, 17, 31, 39, 70, 14, 25,
   31, 4, 6, 7, 13, 23, 19, 19,
   27, 15, 13, -35, 70, 16, 1, 29,
   47, -41, 0, -19, 31, -1, 9, 33,
   -54, -3, 36, 20, 18, 25, -13, -29,
   -16, 19, 6, 9, -24, -43, -6, 10,
   59, 5, 7, -46, 28, -20, -15, -31,
   38, 27, -16, 3, 55, 9, 29, -23,
   -29, 44, 9, 18, 45, 23, 1, 16,
   65, 27, -71, -29, 11, 40, -56, 47,
   78, 8, 0, 57, 12, -43, -9, 39,
   86, -3, -68, -18, 29, -5, -51, -27,
   7, 2, -27, -32, 16, 41, -3, -10,
   44, 7, -36, -40, 30, -1, 86, 34,
   -46, 60, 1, 8, 13, 63, -60, 20,
   33, 26, -12, 13, -31, -14, 11, -7,
   -76, -29, 20, 23, -5, 15, -2, 53,
   -18, 24, 0, -19, -17, -32, 37, 12,
   75, 9, 31, -42, 6, 37, 8, -38,
   -8, 36, -59, -4, 26, -32, 42, 27,
   -50, -11, -56, 17, -25, -18, -45, 8,
   7, -26, 31, -6, -46, 30, 13, 6,
   -36, -10, 2, 40, -24, 5, 4, 21,
   4, 17, 17, 13, -16, -5, 4, -23,
   35, 18, -8, -2, 20, -30, 20, 13,
   20, -51, 4, -29, 22, 18, -32, 31,
   10, -38, 1, 6, 15, 38, 3, -57,
   33, 56, -3, 47, -39, -30, -41, -46,
   120, -32, 9, -12, 64, -59, -51, -2,
   -5, -58, 12, -9, -11, 38, -22, -63,
   7, -9, -18, 34, -58, 53, 36, -79,
   58, 13, -33, 50, -79, -5, 36, -32,
   5, -8, 55, -63, -7, -41, -59, -26,
   17, -5, 17, 11, 44, 36, 36, 11,
   23, -48, 4, -1, -38, -18, -29, -9,
   -22, 8, -4, 25, 2, -28, -24, 7,
   -8, 49, -20, 11, -1, 13, 20, -51,
   -8, 45, 1, -32, -16, -2, 19, -40,
   34, 2, 33, 40, -35, -6, -43, -38,
   41, -25, 25, 5, 18, 8, -17, -29,
   0, -36, -3, 50, 16, -37, -2, -32,
   42, 15, -35, -33, 2, -14, -27, 4,
   22, -28, -41, 13, 29, -57, -45, -19,
   -25, -40, 63, 28, 38, 0, 28, -13,
   14, -11, 10, -5, -2, 35, 31, -5,
   15, -13, 27, 42, -23, 10, -19, -12,
   28, -28, -8, -15, 41, -54, -36, 9,
   -55, -4, -57, -40, -2, 35, -20, -45,
   24, 32, -15, -26, 19, 1, -11, -18,
   -48, 20, 1, 6, 18, 5, 9, 43,
   -34, -40, 66, -51, -19, -68, -42, 51,
   25, 7, 21, -25, -55, 28, -27, 4,
   -73, -28, -23, -24, -41, -6, -12, 2,
   -4, 11, 15, -53, -18, -69, -38, 31,
   -4, -60, -37, 44, 0, -66, -36, -78,
   -28, -29, -14, 2, -24, 7, 10, -54,
   34, -31, -10, -11, 44, 18, 3, -5,
   -6, 13, 18, 29, 4, -14, -6, -4,
   -12, -7, -4, 17, -14, 3, 0, -47,
   32, -7, 20, 14, -12, -15, -109, -2,
   17, 37, 17, 24, 10, 23, -55, -27,
   4, -2, -6, -10, -32, 54, -53, -18,
   5, 13, 20, -43, 9, 34, -19, -37,
   22, -75, 15, 29, 15, -18, 18, -57,
   -4, 4, 48, 37, 46, 11, 51, 41,
   42, -3, 37, 43, 0, -2, -18, 51,
   17, 40, 33, 5, 42, 125, -6, 50,
   -32, 41, -47, -7, 8, 20, 68, -9,
   -15, 17, 51, -60, -55, -3, 23, -16,
   -19, 46, -41, 32, 21, -29, -50, 0,
   34, -6, -28, 43, -36, 2, -38, -9,
   22, 58, 53, -20, 44, 8, -21, -40,
   -50, 8, -20, 7, 21, -17, -39, -76,
   17, 20, -31, 13, 34, -53, 6, -51,
   5, -31, 21, 22, 68, 35, 20, -13,
   -14, 37, -30, 19, -43, 1, -43, -51,
   -3, 61, -33, -34, 13, 34, 29, 53,
   27, 39, -11, 0, 57, -22, -9, 11,
   34, 51, -22, 2, -41, -73, -20, -8,
   -6, -30, -41, -29, 8, 18, -29, -28,
   28, -5, 43, -27, -41, 18, 13, 17,
   6, -22, 53, -22, -32, 6, -32, -5,
   -28, 6, -35, 3, 9, -25, -31, 13,
   9, 17, 67, 124, 2, -57, -29, 6,
   -5, 12, 2, -26, 30, 23, 19, 53,
   -3, 28, -18, -15, 22, 14, -41, -68,
   -6, -43, -31, -35, -3, -12, -22, -75,
   -10, 27, 2, -15, 55, 2, 33, -58,
   66, -4, 49, -64, -66, 5, 33, -11,
   -21, 22, 34, 66, 47, -24, 42, -43,
   -15, 15, -29, -47, -6, -98, 63, -8,
   -30, 11, -42, -34, -20, 15, 12, -43,
   47, -8, 33, -11, 7, -4, -9, -19,
   4, -24, 21, 35, 50, -5, -30, 10,
   -13, 55, 6, -39, -33, -11, 31, 29,
   5, 19, -41, 23, -11, 34, -14, -48,
   43, -5, -25, 15, -24, 1, 39, 38,
   -18, -2, 3, 28, 11, -47, 45, 24,
   -26, 3, 45, -18, 35, -6, -24, 41,
   -7, -5, -19, -30, 15, 12, -48, -25,
   -95, 1, -1, 56, 55, -12, 14, -67,
   -85, -10, 54, 94, -11, -51, -34, -25,
   -81, -15, -44, -10, -13, 4, -4, -24,
   55, 32, -32, -27, 65, -17, -27, -16,
   -73, 7, 58, 105, -21, -22, -36, 21,
   26, -86, 29, 27, -25, -39, 42, 1,
   36, -34, -5, 16, -34, 36, 23, -26,
   0, -69, 9, -10, 2, 0, 24, 19,
   41, 36, 0, -29, 23, 1, -14, -44,
   26, -11, 10, -29, 33, -41, 16, -15,
   -69, 24, 27, -5, 14, 4, 39, -28,
   -27, -19, -12, 29, 5, 15, -16, 43,
   29, 24, 56, 8, -16, -30, 11, -58,
   -82, 28, -13, -42, -40, 51, 27, 30,
   38, -7, 17, 56, 16, -20, -9, -25,
   31, 60, 14, -5, 45, -35, 14, -40,
   17, -14, 40, 21, 15, 24, -43, -11,
   -40, -37, -36, -22, 83, -28, -8, 12,
   -17, 64, -55, 87, -49, 5, 33, -20,
   -27, 27, 104, 43, 11, -40, -5, -81,
   15, -42, -18, 9, 27, 5, 47, 20,
   -57, 31, -28, -6, -12, 1, -36, -55,
   -31, 34, 19, 69, 54, -27, 25, 60,
   38, -44, -2, 16, -22, -38, 69, 1,
   42, -37, -8, 9, 31, 5, 22, 34,
   1, 15, -1, -11, -32, -47, 5, -7,
   0, 88, -13, 1, 26, -21, -24, 31,
   8, 8, -29, -40, 17, -2, -37, 33,
   11, 29, 54, -10, 38, -13, 16, -51,
   -8, -19, -55, 40, -1, 4, 16, 4,
   16, -4, 2, 43, 19, 16, -30, -1,
   -43, -11, -3, -34, 18, -27, 21, -52,
   -36, -20, -33, -30, -16, -5, 28, -25,
   -32, -11, 20, -13, -5, -15, 0, -27,
   28, 9, 11, 51, -3, -22, -31, -7,
   -31, -33, -1, -24, 50, 34, -14, -20,
   -128, 18, -33, 19, -32, 28, 9, 10,
   -26, 0, -10, -42, 20, -29, 18, -28,
   1, 26, 3, -6, 11, 14, 0, -19,
   -5, 42, -85, -7, -63, 82, 13, -27,
   -21, 54, -22, -51, -6, -5, 12, 11,
   -44, -29, -3, 1, -8, -41, -11, -16,
   72, -4, 48, 18, -27, -21, 11, 38,
   -36, 22, 17, 9, 1, 20, 22, -38,
   -11, 49, 40, 42, 12, -2, 41, 13,
   17, -43, -26, 8, 2, -17, -13, 37,
   -31, -57, -3, -12, -53, 29, -29, -17,
   37, -35, -43, 2, -59, 8, 7, 30,
   -3, 44, 60, 15, 7, -36, -22, -7,
   42, -16, -44, 35, -19, 18, 7, 20,
   -50, 0, -20, 18, 41, 13, -2, -23,
   -24, 25, 3, 16, -36, -52, 42, -4,
   -17, 42, 46, -70, -1, -10, -36, 16,
   -5, 46, 112, -6, 14, -38, -87, -20,
   -48, 34, 24, -2, -116, 17, 13, -52,
   -30, -22, 8, -54, -2, -19, 19, 47,
   -48, 51, -30, -2, 12, -71, 1, -45,
   15, 95, -52, 67, -57, 8, 25, 48,
   15, -30, -55, -13, 88, 9, 0, -57,
   -26, -11, -14, -69, -5, -15, 30, -36,
   10, 43, 42, 39, 28, 59, 6, -2,
   -4, -45, -8, 45, -3, 5, -5, 46,
   6, -34, -6, 45, -66, -66, 45, -25,
   55, -30, 40, 24, -6, 12, -37, -37,
   -12, 46, 41, -4, 28, -10, -16, 33,
   51, 19, 31, -29, 47, -6, -14, -54,
   1, -6, 21, 1, -7, 30, -40, -14,
   -37, 1, -10, -3, -55, -7, 8, 57,
   -13, 20, 21, 15, 16, -16, -17, 10,
   -29, -2, -3, 28, -2, 21, 7, -37,
   -14, 22, 15, 48, -9, 32, 25, 20,
   -56, -38, -16, -40, 7, 20, 14, -6,
   -19, -22, 13, 30, -19, -23, -36, 1,
   -2, 14, -9, -1, 33, 31, -24, 15,
   -14, -14, -30, 2, -25, -31, 1, 26,
   34, 5, -45, 39, 15, -45, -6, -57,
   -16, -13, -57, -36, 20, 41, -2, 24,
   6, -21, 12, 19, 1, 69, 13, -36,
   10, 15, 33, -9, 41, -39, -15, -13,
   14, -6, -19, -18, -24, -5, 13, 40,
   97, -55, -15, -44, -40, -27, -30, -33,
   -43, 89, 45, 40, 8, 3, 12, 3,
   21, 12, 8, 25, 63, -4, -29, -10,
   8, 23, -33, -34, -37, -14, 23, 18,
   -104, 19, -13, -16, -65, 11, 48, 44,
   -50, -5, 24, -72, -16, -46, -41, 21,
   -52, -2, -29, 65, -14, -56, -39, -46,
   -41, 61, 5, -2, 20, 19, -29, -56,
   34, -43, -63, 4, 57, 29, 1, 63,
   -46, 2, -17, -29, 41, -81, 25, -18,
   -8, -15, -35, 1, -44, -5, 12, 16,
   -30, -17, 83, 39, 46, 42, 9, -17,
   41, 11, -27, -2, 24, -60, 36, -9,
   -23, 13, -13, -77, -58, 18, -46, -37,
   -21, 6, -22, 8, 20, -6, 38, 4,
   -24, 7, 43, -1, -1, -74, -21, 29,
   -56, -34, 40, 49, 32, -41, 14, 33,
   -37, -44, -22, -42, -41, -7, 86, 13,
   11, 127, -10, -35, 31, -12, 21, -48,
   -21, -32, 60, -52, -23, -18, -73, -25,
   -26, 31, -35, -29, 40, -1, -55, -25,
   -12, 49, 15, 32, 7, -16, 40, 59,
   -46, -28, -73, -15, -38, 10, -71, 41,
   -59, 53, -65, 22, -38, -17, 75, -9,
   10, 7, 21, 63, 9, 3, 93, -3,
   60, -53, 16, 27, -66, -15, -48, -35,
   30, -52, 51, 39, -10, 29, 26, -10,
   -35, -47, 62, 45, -13, 57, 45, -13,
   -22, -67, -59, 53, 15, 31, -27, 31,
   -28, -5, 57, 61, -7, 25, 16, 4,
   -3, 1, 36, -43, 45, 3, -5, -12,
   12, -15, 18, 57, -6, -33, 38, -72,
   17, 19, -18, 11, -12, 28, 13, -22,
   -9, -7, -93, -1, -21, -38, -25, 28,
   45, 46, 27, 8, -24, 30, -33, -34,
   57, -20, -15, 65, -35, -30, -21, 11,
   -81, 53, 3, 20, 109, 40, 32, -5,
   9, 7, -14, -46, 45, -9, -21, 18,
   44, -35, -38, 12, -1, 30, 22, -32,
   -27, -37, 74, 7, 32, 12, -60, -23,
   44, 15, -32, 21, 51, 36, 16, -38,
   46, -48, -60, 62, 49, 42, 46, -42,
   41, 14, 10, 77, -17, 58, 49, 26,
   8, 54, 54, 30, -31, 4, 2, -24,
   1, -15, -9, 13, 23, -22, -28, -22,
   49, 16, 74, -2, -37, 21, -69, -18,
   -37, -34, 85, 43, 41, 43, 3, 44,
   -11, -16, -37, 20, -32, 22, 11, 61,
   -16, -6, -20, -35, -5, -8, -6, -20,
   39, 4, -25, 23, 84, -42, 63, 49,
   50, -5, 29, -14, -45, 12, -13, -7,
   -27, 18, -1, 7, -29, -56, -54, 9,
   23, 26, -19, -12, 0, 2, 19, 4,
   7, -18, 21, -40, -22, -11, -83, -35,
   -46, -86, 0, -40, 25, 10, -10, 9,
   26, -35, -8, 3, 96, 2, -57, 20,
   45, 57, -31, 1, 24, 56, 8, 0,
   -42, -111, 14, -10, 35, -3, 3, 26,
   77, 68, 40, 53, -8, 43, -26, 8,
   45, 21, 83, 44, 62, -10, -22, 28,
   0, 72, -42, 19, -16, 49, 5, -59,
   -14, 20, 38, -37, 37, 10, -3, -92,
   -48, 18, 41, -4, -11, 32, 70, 12,
   20, 7, -55, 32, 7, -16, 32, 4,
   -22, -20, 18, 55, 32, 18, -25, 4,
   -41, 39, -37, -15, -69, 9, 33, -57,
   32, 5, 35, 68, -22, 22, -64, 42,
   11, 43, 62, -34, 94, 4, -12, -16,
   -35, 80, -70, -12, 31, -3, 44, 10,
   -37, 49, 42, 33, 86, -33, 20, 7,
   83, 20, 64, 27, -45, 23, -11, -22,
   42, -21, 62, -20, 26, -32, -31, 4,
   11, -22, -19, -25, -14, 42, -111, 24,
   13, 0, 72, -71, -12, -41, 30, -53,
   -36, 31, 2, -14, -11, 14, 3, -28,
   36, 10, -66, -8, -17, 17, 17, 40,
   27, 3, -53, 39, 7, -29, 23, 52,
   41, -57, 1, 1, 19, -61, -6, -55,
   9, 22, -3, -31, 37, -23, -69, -9,
   -28, 43, 2, -31, -6, -4, 21, 56,
   -41, -35, -33, -38, -64, 52, 30, -9,
   -5, -70, -29, -30, 18, 23, -3, 61,
   -34, -39, -40, 9, -68, 14, 23, -15,
   -31, -9, 29, -9, -72, -28, 49, -47,
   23, -82, -26, -5, 51, 42, -46, 1,
   34, 32, -25, -2, 43, 13, 39, -5,
   -22, 70, -13, 18, 54, -36, -37, -59,
   -14, -52, -30, 16, 68, 54, 49, 9,
   -19, -8, -47, 85, -36, -41, 34, 15,
   62, 37, 27, 1, -7, 0, 0, 5,
   6, -70, 60, -66, 19, -66, -110, 30,
   -74, 25, -12, 72, -79, 7, 46, -59,
   0, -43, 16, -24, 40, -9, -23, -12,
   31, 3, -25, 46, -10, 35, -57, -54,
   -60, -39, -16, 22, -13, -20, 52, 47,
   54, 6, -17, 2, -7, -35, -45, 54,
   35, 23, 28, -16, 50, -52, -70, 23,
   10, -5, -34, 27, -15, -66, 35, 94,
   -53, -15, -25, -36, 23, -46, 45, 104,
   -47, 29, -57, 46, 20, -42, 49, -21,
   -38, 27, 51, -7, -9, -19, -8, 0,
   -39, -55, 47, -21, 31, 15, 24, 65,
   -16, -48, -13, 45, -8, -34, -41, -18,
   -15, 35, -16, -36, 12, 16, 4, -44,
   10, 16, 10, -35, -65, 60, 30, 40,
   24, 36, -47, -21, 25, -40, 27, 53,
   -3, 6, 58, 23, -6, 58, 13, -38,
   -4, -10, -64, -19, 0, 17, -14, -21,
   35, -28, -44, 29, -10, -33, -80, 36,
   -28, 8, 1, 33, 33, 30, 35, -20,
   21, -23, 37, -32, -14, -53, 42, -41,
   2, -19, -19, 53, -61, 52, -42, -22,
   28, -31, -4, 11, 44, 3, 47, 20,
   24, -32, -11, 49, -27, 25, 8, -50,
   -8, -55, 29, -14, -49, -15, -49, 52,
   36, -21, -42, 37, -28, 20, 20, 39,
   70, -18, -9, -19, 84, 68, -43, -45,
   43, 29, 71, 29, 0, 37, -42, -27,
   -32, 27, 48, -16, 9, -46, 2, -42,
   5, -1, 36, 73, 25, 28, 35, -87,
   2, 6, -13, 27, -31, 49, -17, -4,
   54, -24, 70, 9, -65, 34, -29, 16,
   -48, 2, -45, -30, 4, -11, -44, -12,
   3, -16, 57, -14, -32, 17, -6, -37,
   -35, 45, 9, 23, -5, -16, -21, 37,
   -36, -48, -11, 17, 21, -19, 2, 30,
   29, 1, 11, 7, -49, -8, 25, -75,
   -7, 5, 0, -28, 5, 13, -66, 83,
   -31, 1, -33, -19, 23, 6, 25, -40,
   -30, 41, 5, -28, -31, 8, 0, 14,
   0, -18, 15, -13, 35, -32, 16, 48,
   -71, 10, 35, -29, -54, -22, 28, 37,
   -22, 33, 17, 15, 35, 28, -9, -41,
   18, -15, 20, -8, 27, 30, -42, -23,
   -18, 18, 3, 12, 31, 20, 9, -70,
   48, -12, 84, -27, 5, 20, -27, -10,
   104, 4, 27, -34, -5, 0, -11, 49,
   5, 12, 12, 34, 29, 1, 60, 11,
   57, 4, 34, -33, -12, 42, -14, 37,
   -24, 20, -71, 27, -17, 19, 22, -2,
   -7, 55, 6, 13, -86, -48, 6, -20,
   -18, -51, -25, 28, 6, 9, 27, -16,
   -11, 10, -50, -39, -2, -86, 11, -39,
   25, -38, -22, -22, 27, -20, 61, -7,
   5, 12, -9, 17, 39, 12, 102, 43,
   -2, 44, 41, -5, -16, 64, 0, -12,
   -2, -4, -1, -21, 18, 21, 42, -12,
   -63, 14, 4, -24, 11, -13, -12, 0,
   -81, 45, 19, 75, 4, 26, -3, -51,
   7, 34, 60, 0, 56, 2, -7, 7,
   -45, 24, -23, 35, 55, -30, 50, 1,
   65, 41, 1, 27, -35, -40, -3, -35,
   -9, 28, -19, 12, 69, -14, 18, 21,
   60, 14, -24, -25, -25, -24, 12, 38,
   50, 6, -12, -23, -43, -10, 25, 5,
   15, 13, -91, -46, 35, -3, -41, -42,
   12, 50, 12, 24, 36, -7, 6, -20,
   23, 93, 56, 21, -25, -18, -36, 7,
   28, -18, 53, -27, -89, -46, 33, 17,
   4, 38, -38, -77, -18, 13, 23, 13,
   -7, -13, 44, 23, 52, -6, 17, 42,
   -51, 8, 44, -40, -34, -28, -25, -44,
   44, -16, 27, -5, 27, -25, 12, -8,
   37, 29, 6, -16, -29, -24, 4, -75,
   -35, 67, -19, -24, -69, -38, 24, 17,
   10, 5, -14, 31, -31, -18, -70, -37,
   40, 49, 77, 104, 29, -5, -22, -7,
   -21, 5, 53, -11, 47, -2, 50, -32,
   54, 76, -10, -64, -38, 20, 18, -38,
   56, -36, -10, -6, -39, 46, 39, -10,
   -8, 7, 29, 36, 63, -20, 12, -8,
   -1, -29, -60, -1, 7, 18, -45, 91,
   -18, 43, -11, 11, 9, -6, -21, 4,
   -21, 24, -39, 46, -22, -16, 1, -51,
   47, 16, -21, 4, 30, 36, -55, -26,
   58, 34, -4, 68, 3, 60, 57, -31,
   -39, -41, 19, -93, 37, 83, -60, 33,
   -25, -37, 71, -16, -44, -7, -74, 2,
   -8, 86, 16, 7, 28, -22, 35, 23,
   -12, 25, 65, 7, 23, 21, 46, -6,
   -60, 23, 40, 16, 61, 51, -4, 29,
   122, -49, 71, 16, 28, -38, -23, 21,
   0, 70, 3, 6, -21, 87, -84, -34,
   22, 0, -21, -25, -28, -11, 45, -13,
   -25, 10, -22, 42, -7, 36, -23, -46,
   35, 39, -18, 28, 16, 0, 50, 62,
   -57, -34, 14, -19, 31, -16, -14, 4,
   -57, 12, 36, -41, 52, -55, -16, -11,
   -66, 61, -20, -31, -67, -44, -6, -39,
   -23, -7, 16, 26, 49, 0, -60, 71,
   33, -2, 39, 116, 52, 18, -36, 63,
   -68, 10, 48, -1, -63, -29, 35, -27,
   41, 31, 28, 3, 4, -25, -12, -15,
   24, 18, 53, 17, 28, 46, 29, -27,
   -34, 65, -47, 13, 62, 36, 39, 51,
   21, -32, 1, -35, 15, 95, -12, 28,
   -76, 27, -42, -13, -17, -17, -35, -99,
   27, 31, -86, 50, 10, 57, -26, 75,
   -12, 6, -25, -12, -13, -4, -35, 63,
   40, -48, 29, 10, 7, -51, -10, 19,
   -13, 25, 6, 27, -24, 24, -68, 11,
   30, -19, 9, -28, -34, -51, 49, 34,
   -71, -30, 9, -55, -24, -11, -16, -11,
   28, -19, 23, 0, 57, -34, -13, 48,
   9, 11, -8, -9, -48, -48, 2, 28,
   -36, -4, 20, -77, 19, -19, 35, 50,
   -7, -16, -4, -57, -52, -1, -39, -8,
   58, -58, 66, -27, -33, 62, -19, -39,
   42, 42, 123, -45, -68, -7, 92, 116,
   31, 16, -104, -50, 35, -3, 14, 23,
   -6, 91, 2, 44, 24, 23, 71, 28,
   -74, 26, -73, 28, -31, -5, -4, 127,
   101, -28, -68, -9, -33, 13, -9, -38,
   3, -18, 27, -35, 11, -84, 8, -27,
   18, 8, -36, -47, 56, -31, 36, 32,
   5, 34, 37, -38, 13, 3, -33, -17,
   56, -49, -10, -57, 6, 28, 4, 91,
   15, -12, -3, -23, -53, 14, 10, 27,
   5, -53, -17, -21, 18, 14, -12, 40,
   -10, 50, -79, -6, 31, 4, -13, 22,
   -72, -7, 20, -83, 13, -18, -28, 42,
   50, 45, 68, -3, 49, 30, -44, -2,
   -51, -25, 25, -36, -2, -45, 25, 68,
   -41, -64, -14, -44, -39, -76, -23, 51,
   6, -11, 29, -10, -41, -5, -8, 5,
   -61, -37, 8, 9, -23, -32, -36, -38,
   22, -1, -34, -42, 10, 26, 0, 61,
   -16, -19, 7, -21, 9, 10, 25, -36,
   39, 29, 34, 32, 36, 32, 54, 36,
   46, 34, -31, -8, 24, -2, 9, 15,
   48, -15, -11, 46, -9, 10, -46, -41,
   6, -38, 26, -41, 4, -24, 49, -15,
   38, -34, 7, -38, 39, -7, 44, -25,
   -19, -23, -9, -7, 22, -4, -38, 27,
   27, -23, -32, -15, -16, 10, -35, 64,
   12, -28, 18, 33, -46, 23, 3, -11,
   -10, -28, -8, 20, -12, 20, 6, 2,
   22, 19, -26, 1, 36, -55, -10, 10,
   -69, 28, 1, -26, -45, 12, 36, 23,
   37, 24, -8, 21, -26, -1, -21, 5,
   23, 21, 25, -48, 21, 10, -15, 28,
   -15, -68, -41, 8, -29, -46, 5, -33,
   -4, -45, 23, 5, -5, 16, -21, -18,
   -81, 45, -11, -8, -39, -5, 37, -56,
   -7, -58, -96, 16, 55, 30, -71, -26,
   19, 65, 92, 5, -51, 26, 4, -85,
   -1, -13, 8, -70, -24, 48, 41, -12,
   72, -14, 87, 7, 53, 81, 94, -61,
   -18, 67, -12, 25, 57, 85, -55, 21,
   80, 86, 9, 60, 48, 52, -8, 8,
   -59, -35, 87, -31, -37, 24, -13, -44,
   -26, -75, -33, 53, -54, 35, -12, -20,
   -5, 11, 20, 13, 6, 4, -7, 14,
   57, -60, 2, 0, 52, -7, -85, 18,
   -25, 35, 42, 26, 83, -49, 10, 3,
   -36, -9, 75, -11, 78, 37, -3, 11,
   -61, -2, 4, 34, 28, 31, 18, -56,
   -11, -67, -48, 38, 26, 8, 7, -15,
   18, 6, -17, 13, -28, -38, 28, -12,
   13, -17, 70, 22, 20, 24, 54, -14,
   -25, 24, -23, 60, 35, -36, -6, -37,
   34, 22, 33, 15, -62, 9, 25, 35,
   -8, 33, -17, 12, 45, 8, -2, -23,
   45, 45, 10, 27, 1, -2, -38, 59,
   -4, -72, 46, -46, -79, 3, 54, 9,
   65, 37, 70, 4, 27, -23, 54, 23,
   -35, 32, 27, -43, 39, 73, 59, 44,
   42, -23, 53, 33, 29, -41, 36, -40,
   -36, 19, -2, -30, 0, -10, -36, -31,
   -47, -47, 6, 66, -6, 18, -37, -11,
   -15, -43, 15, -13, -25, -28, -20, 24,
   12, -9, -15, 8, 45, -8, 10, 4,
   -5, 11, -4, -12, -3, 57, 9, -17,
   34, -66, 15, -7, 53, 33, 37, 34,
   3, -26, -32, 44, 6, -25, -34, -21,
   7, -12, -10, 31, 21, -46, -8, 6,
   -93, -32, 35, 40, -13, 18, 20, 17,
   24, 32, -32, 11, 58, -10, -11, -31,
   1, -37, 11, 5, -16, 63, 61, 9,
   -18, 42, 60, 37, -43, -56, -45, 13,
   -13, -17, -66, -10, 45, 34, -83, -2,
   -22, 19, -37, 0, -52, 37, -3, -37,
   42, -80, -11, -36, -18, 47, 6, -54,
   54, -26, 59, 15, 31, 13, 48, -4,
   1, 41, -28, 60, 72, 27, -1, -29,
   72, -21, 33, 16, 12, -26, 38, -60,
   -8, 11, 7, 28, -41, -5, 2, -35,
   -76, -12, 33, -56, -10, -45, -84, -21,
   -17, -66, -8, 20, -30, 36, -46, -40,
   -38, -14, 25, -8, -28, -34, -24, -54,
   70, -6, 18, -27, 20, -41, -59, -23,
   20, -11, -73, 35, 11, -9, -8, -42,
   -26, -12, 20, 67, 17, -17, 16, -20,
   -21, -14, 2, -15, 11, -41, 36, 11,
   -11, -27, 42, 40, -15, -3, 7, 17,
   -22, -8, 15, 12, -11, 21, 9, -24,
   -27, 31, -37, 42, -9, -8, 55, -16,
   -54, 13, 11, 7, 3, -68, 40, 29,
   -3, -94, -83, 31, 17, 12, -62, -3,
   -16, 18, 69, -2, -69, 29, 18, -17,
   30, -52, 13, -33, -20, 72, -28, -28,
   -14, 25, 35, 48, 79, 25, 17, -57,
   -52, -13, 23, -43, 53, 49, -75, -46,
   40, -59, 3, -13, 42, 5, 49, -40,
   -8, 7, -12, -2, -60, -10, -11, -26,
   -106, -60, 26, 14, -11, -61, 21, -11,
   -16, -23, 27, 28, -3, 41, -3, -50,
   9, -50, 28, -46, -28, -21, 36, -110,
   -5, 65, 20, 7, -9, 7, -47, -45,
   2, -57, -42, 61, 36, 24, 28, -1,
   -59, -42, 34, 30, -10, 42, -7, -79,
   -23, -5, -18, 24, -56, -16, -22, 27,
   16, 19, -5, 14, 23, 6, -95, -18,
   -22, -5, -12, 60, -3, 22, -16, -16,
   -56, 27, -25, 51, 79, -6, -29, -21,
   -39, -21, 21, -44, 26, -14, 23, 13,
   -17, -50, -53, 13, -15, 28, -25, 16,
   0, -2, -14, 6, 17, 19, 24, -19,
   -28, 26, -39, 0, 45, 6, 2, -17,
   2, -3, -58, -17, -19, -9, -9, -44,
   30, -23, -14, 26, -37, -23, -21, -42,
   -3, 9, 17, -13, 9, 0, 31, -31,
   -24, -37, -1, 31, 2, 6, 28, 11,
   -28, 12, -5, 19, 32, 22, 12, 16,
   6, 42, 21, -3, 29, -12, -13, 10,
   32, 21, -45, -26, -15, 18, -11, 21,
   40, 20, 29, -2, 4, 7, 12, -24,
   -2, 20, 30, -30, -8, 40, 34, -15,
   38, -6, -22, -25, 35, -11, 19, 24,
   -44, -38, -29, 19, -25, 3, 33, 2,
   20, 3, -32, -6, -1, -12, -17, -11,
   21, -27, 39, 37, -36, 42, 40, -36,
   -34, -18, 21, 40, 20, 22, 17, 15,
   -84, -34, -71, 0, -1, 21, 5, -46,
   -29, 9, -31, 61, 41, 10, 7, 13,
   16, -12, 18, -15, 5, -31, 3, -48,
   15, -25, 18, -60, -52, 2, 92, 0,
   28, 22, -15, -5, 44, -39, -9, -50,
   15, 29, -2, 0, 3, 25, -2, 19,
   7, 4, -25, -15, 43, -32, 25, -32,
   -4, -54, -22, 24, -26, 27, 13, 31,
   45, 0, 6, 24, 8, -1, -24, 38,
   25, 11, -3, 15, -81, 32, -41, 39,
   26, -58, -36, -43, -23, 46, 26, 37,
   34, -8, 40, 15, 7, -58, -64, 12,
   -55, -17, -13, 10, -47, 15, -42, -19,
   -5, -2, 10, -20, -24, -42, 17, 35,
   8, -1, -8, -15, 38, 32, -6, -30,
   -10, 23, -2, -42, 15, 13, -81, 34,
   -34, -35, 24, -32, -56, 43, 43, -27,
   38, -32, -49, -30, -16, -33, -41, 13
};

static const rnn_weight noise_gru_recurrent_weights[6912] = {
   -3, 12, -42, 15, -16, 53, 24, -24,
   -29, 8, 7, 6, 53, 20, 42, -14,
   -7, -1, 16, 14, -23, -10, 24, -4,
   -5, -23, 60, 63, -22, -66, -11, 53,
   -28, 24, -56, 31, -24, 19, -20, 42,
   13, -18, -45, -26, 23, -19, 10, -23,
   -25, -16, -10, -14, 15, 20, -3, 0,
   66, 4, 21, -28, 5, 4, -1, -21,
   16, 0, -4, -42, -33, 1, 6, 7,
   27, -17, -1, 33, 24, -6, 1, 40,
   -36, 28, 27, 7, 5, -4, 15, 16,
   8, 3, -28, 4, -12, -15, -13, 27,
   -29, 20, -6, 10, 30, 12, 2, -31,
   24, 22, 58, 37, -28, -16, 2, -40,
   7, 48, 14, 3, -20, -1, 27, 19,
   19, 35, -14, 16, 7, -22, -53, 15,
   0, -6, -37, 32, -11, -21, -17, -2,
   2, -28, 25, -1, 53, 10, -28, 8,
   -14, 39, -14, -27, 35, -44, 20, 18,
   -40, 4, -42, -33, 12, 6, -7, -6,
   -24, -22, 18, 1, 10, -2, 1, -25,
   -4, -6, 3, -14, 24, -51, -22, 6,
   -20, 21, 17, 29, -30, -43, -37, 17,
   13, -49, 39, -17, -43, 27, 3, 17,
   24, -15, -16, 22, 13, -41, -31, -41,
   23, -5, -31, -13, 24, -23, 25, 20,
   14, -25, -14, 11, 25, -8, 17, -44,
   -29, 24, -13, -13, -27, -69, 23, 2,
   -2, -11, -6, 15, -36, -14, 12, -4,
   12, -18, -24, 36, 1, -24, 6, -18,
   1, 22, 6, 7, -13, 2, -4, -29,
   -10, -9, -8, 20, 4, -29, 36, 41,
   39, -24, -42, 21, 9, 28, -30, 23,
   -22, -21, -13, 4, -40, -5, 16, -29,
   12, -6, -1, -7, -6, 29, 18, -13,
   -11, -7, -38, -22, 11, 38, -1, -66,
   8, -7, -14, 60, -38, 89, 6, -22,
   13, 31, -15, 40, 6, 3, -5, -14,
   -19, -35, 23, -3, -68, 17, -5, 7,
   -7, 24, 33, -1, 38, 2, -36, -33,
   57, -6, 65, -19, 75, -6, 16, -55,
   -35, 9, 3, 22, -26, 36, 20, 17,
   -15, -12, -14, 18, -8, 26, -19, 16,
   15, 24, 31, -11, -70, 17, 9, 30,
   18, 7, -47, -8, -8, 19, -3, 17,
   -2, -2, -24, 22, -5, -6, 25, 31,
   26, 5, -8, -14, -6, -6, -21, 5,
   74, 10, -23, 34, -32, 8, 25, 42,
   35, 25, 24, 5, 6, 35, 3, -19,
   19, 29, -25, 31, 26, 46, -48, 59,
   6, 11, 13, -8, 13, -16, 51, 14,
   9, -15, 29, 44, 46, -32, -12, -23,
   -19, -12, 23, -5, -18, 5, -27, 29,
   18, 9, 13, 56, -32, 14, 3, 9,
   -26, -1, -20, 51, 13, 78, 4, -32,
   24, -13, -18, -6, 36, 0, -6, 9,
   -1, -25, 11, -45, 19, -42, 17, -38,
   -23, 9, 37, -27, 0, 6, -1, -41,
   30, -1, 30, -20, -30, 11, 28, 0,
   -29, 9, -7, 37, -4, -17, -35, -7,
   31, 24, 3, -4, 37, 15, 38, 22,
   32, 47, -8, 28, -14, 34, 7, 40,
   36, -17, 11, 18, -13, -7, 7, 19,
   -3, -39, -52, -14, 21, -18, 0, 3,
   -18, 5, -50, -2, -2, -22, -44, 28,
   -27, 33, 24, -10, -1, -16, -13, -22,
   -20, -23, -3, 13, 6, -15, 8, 6,
   20, -17, 17, -7, 12, 19, 12, 13,
   -21, 0, -35, 34, 4, -40, 29, -19,
   12, -14, -22, -3, 20, 11, 13, -16,
   44, 18, 77, -35, 36, 26, -14, -1,
   -33, -33, -8, -20, -17, -12, 10, 3,
   72, -24, -2, -13, 3, -16, -3, -34,
   15, 27, 41, 4, 6, -12, 24, 13,
   37, 3, -26, 58, 7, 17, -25, 5,
   38, 4, 6, -32, 43, -1, -11, -28,
   -19, 4, 33, 11, 0, 18, 3, -2,
   18, 29, 18, -5, -36, 26, -2, -39,
   -30, -26, 18, -77, 23, -40, -5, 21,
   -7, 58, -10, 16, 9, 20, -47, 52,
   2, -16, 15, 12, -46, 8, -9, -3,
   20, 15, -18, 7, 37, 14, 0, 24,
   7, 2, 20, 25, -10, -9, 56, 8,
   7, 8, 15, 26, -44, -18, 36, 12,
   49, 7, -32, 19, 27, -5, 0, 5,
   17, -3, -8, 9, -11, -13, 25, 35,
   25, 15, 16, -20, 44, 7, 48, 14,
   -20, 24, -5, -3, 5, -22, -28, 21,
   26, -14, -23, -17, -9, 63, -23, 5,
   23, -29, 13, -74, -10, -9, 26, 24,
   7, 7, 16, 33, -38, 12, 49, -14,
   60, 34, -38, -9, 49, -11, -48, -15,
   -4, -6, 42, -50, -17, -36, 4, -6,
   11, 22, -27, 10, -17, 41, 30, -80,
   48, -23, 41, 31, 28, 45, 2, -70,
   -32, 14, 44, 92, 13, 19, 3, -26,
   -13, 13, -6, -46, -11, -6, 30, -6,
   26, 15, 20, -59, 6, 10, -29, -42,
   -13, -22, -28, -19, -7, -34, 19, 17,
   50, 24, -8, 31, -36, 2, 34, -2,
   -4, 4, 13, -2, -6, 24, 13, -13,
   3, 46, 67, -10, 10, 44, -36, -71,
   -28, -24, 43, 6, 11, 25, 23, 34,
   70, -33, 11, 30, -6, 6, 26, -29,
   -8, -62, -14, -16, -9, -37, 35, 64,
   62, -8, -22, 0, 35, -23, 14, -14,
   27, -4, 52, -38, -6, 17, 18, -36,
   -7, 45, 10, -1, -2, 21, -11, -6,
   -7, 9, 25, -21, 20, 14, 2, 7,
   -10, 2, 35, -10, 8, 0, 19, 35,
   4, 8, -47, -31, -3, -20, 8, 82,
   8, 8, -30, -17, -14, 31, 31, 10,
   31, -27, 46, 39, -10, -27, -33, 7,
   7, -64, 21, 40, 40, -26, 2, -20,
   -13, -21, 3, -23, -5, -4, -3, -5,
   -48, 12, 14, -9, 29, -5, -43, 28,
   17, 15, 47, -20, -20, 3, -5, 16,
   11, -52, -19, -4, -38, -31, -44, 9,
   8, -15, 18, -4, -18, 31, -9, -9,
   -9, 26, -1, 49, 4, 20, 22, -17,
   -2, 16, -22, 17, -11, 26, -7, 30,
   -60, -15, 34, -13, -25, -14, 7, 4,
   1, 12, 2, 27, -19, 13, -5, 6,
   -15, -38, -2, -2, 79, -20, -10, 37,
   7, -40, 7, 11, -5, -21, 4, -39,
   -9, 22, 14, 25, 34, 13, 19, 38,
   -22, -50, -33, -25, 41, -18, 3, -15,
   -23, 9, 20, 16, -6, 64, 33, -13,
   -36, 46, 31, 40, 46, -20, -15, 47,
   18, -23, 39, -32, -10, -44, -8, 31,
   -6, -2, -22, -33, 18, 1, -6, 7,
   -10, -24, 42, -39, -35, 39, 32, 10,
   13, 9, -9, 9, 13, 80, 21, 8,
   -20, 35, 55, -6, 30, -14, 12, 1,
   3, 13, 40, 1, -36, -13, -20, 13,
   31, 6, -6, 3, 69, 0, -7, -15,
   -28, 19, -4, -32, -12, 17, -38, 5,
   -20, -7, -11, -19, -20, 22, 17, 6,
   2, -2, -5, 39, -28, 9, 7, -1,
   -2, -25, -2, -33, 33, 15, 13, 20,
   17, -15, -21, 32, 12, -19, 18, -18,
   -51, -8, -25, 5, 3, -6, 10, -16,
   -15, -1, -5, -49, -8, 13, 12, 4,
   53, 56, 19, 2, 16, -22, 7, 13,
   42, -26, -19, 10, 16, 26, 20, -16,
   3, 9, 8, -25, 37, 13, -23, -42,
   26, 41, -13, -35, 63, -29, 25, -16,
   41, 17, 0, -23, -28, -20, -7, -15,
   -3, -26, 53, -18, -8, 10, 39, 14,
   -43, -6, 13, -10, 48, 12, 55, -5,
   -15, 6, 10, 65, -3, 22, -19, -7,
   -10, -15, 45, -14, -1, 23, -30, 8,
   17, 23, -2, 24, -23, 4, 32, -14,
   -15, -4, 55, 16, 21, -14, -36, 33,
   38, 1, -19, 19, 17, -11, -12, 44,
   10, 6, -11, 12, 15, -1, 21, 50,
   12, 17, -1, -10, 5, 8, 0, -12,
   36, 6, -5, -48, -3, -7, 52, 23,
   19, -11, 3, 30, 1, 15, 28, -38,
   -17, 24, -1, -2, -5, 9, 40, -20,
   -47, 38, -32, -38, 11, 26, 11, -26,
   40, 7, 37, -22, -24, 14, 3, -7,
   -2, 10, -36, 25, 32, 4, -5, -23,
   5, -19, -10, -16, -28, 3, 20, 24,
   -2, 54, 8, 1, 26, -30, 16, -2,
   24, -52, 8, 16, 2, 13, 13, 47,
   -35, 9, -31, -24, -19, 11, -29, -51,
   -9, 4, -14, 18, 20, -6, -7, -41,
   13, -4, -1, -1, -5, -2, 10, -9,
   -14, -13, 37, -3, 5, -17, -22, 13,
   -14, 23, 24, -5, 52, 6, -3, 42,
   -12, -38, -4, 21, -26, -23, 14, -9,
   30, -60, 5, 5, 22, 4, -23, 16,
   28, 29, -45, -3, -17, -1, 11, 9,
   -12, 35, -2, -30, 9, -28, 0, -1,
   -23, -9, -51, -42, 10, -8, -28, 10,
   66, 27, 38, -2, 14, -20, 56, 15,
   -10, 14, -17, 89, -7, 12, -8, 23,
   -18, 15, 2, -47, 0, 14, 0, -13,
   -17, 27, -42, -2, -13, 19, 16, -2,
   -25, -46, 23, 16, -34, -4, 10, 1,
   -22, 42, 18, 26, 26, -69, -53, 2,
   -49, -24, -25, -11, -13, -5, -30, -24,
   11, -26, 39, 0, 7, 7, -52, 9,
   29, 19, 33, 4, 35, 28, -16, -14,
   8, -9, 14, -21, 4, -32, -23, -9,
   27, 13, -29, -31, -15, 11, 59, 24,
   24, 0, 2, 7, 20, 0, -31, 2,
   -13, -20, 6, 14, -24, -1, 21, 2,
   -25, -1, -10, 1, -10, -4, -17, 46,
   22, -26, -1, 21, -1, 22, -6, 3,
   15, 11, 53, -3, -14, 19, -1, 8,
   -25, -43, -18, 15, 22, -49, 20, -74,
   9, -25, 27, -23, -5, 37, 38, 31,
   54, -24, -22, 8, 8, -21, 3, 19,
   9, -37, 14, 34, 2, 5, -1, 1,
   -9, -18, 3, 27, 4, -9, -31, 49,
   15, -3, -14, -21, 15, 26, -12, -45,
   10, -5, 23, -10, 9, 27, 22, -14,
   7, -26, -29, -21, 2, 54, 0, -11,
   1, -27, 28, -16, -10, 4, 0, -24,
   8, -3, 35, -48, -35, 33, -43, -6,
   -1, -32, 0, -12, 4, -35, -12, 18,
   -2, -2, 27, -14, -12, 28, -8, -14,
   -23, -53, -16, 10, 18, 8, 11, -4,
   19, -3, 11, -14, 17, -18, -99, -15,
   17, 14, -5, 50, -30, -6, -4, 17,
   -40, -8, -11, 21, 17, 19, 32, 2,
   -1, -3, -12, 4, -13, -46, -33, -5,
   16, -2, 1, 18, 23, 7, 36, -15,
   -20, 1, 45, -11, -18, -5, 12, 10,
   21, -46, -20, 12, 1, 5, 1, -14,
   3, 0, 6, 50, 13, -12, -41, 8,
   42, 46, 11, 61, 43, -2, -3, 1,
   18, 7, -42, 14, -24, -5, 14, 47,
   -9, 17, 20, -41, 10, 2, -14, 22,
   0, -1, -49, 12, -23, -44, 25, -26,
   14, -2, -32, 4, -19, 17, 14, 45,
   18, -5, 18, 11, -16, -1, -4, 41,
   -34, 6, 24, 43, 5, 28, -3, -19,
   22, -19, 2, 35, -42, 51, -21, 1,
   10, 2, 29, 1, 43, -36, 28, -13,
   -26, 41, 0, -20, 19, 44, -14, -8,
   13, 15, 27, 22, 16, 11, -30, 4,
   0, 19, 13, 4, 21, 6, -25, -10,
   32, 20, 54, 18, 2, -3, 0, 12,
   -27, 9, 18, 22, -12, -5, -11, -30,
   20, 21, -9, 14, -5, 7, -45, -40,
   -11, -17, 43, -36, 9, 3, 36, -19,
   -55, -7, -13, -43, 1, 13, 5, 3,
   24, -9, -5, 18, -23, 18, -72, -1,
   -21, 6, 24, 11, 31, -14, -12, 14,
   -26, 46, 2, -24, -15, -8, -11, 25,
   19, -22, -46, -35, 0, 25, -19, 21,
   8, -9, -14, 38, -17, 29, -56, -4,
   -36, 7, -16, -6, 42, 3, 21, -26,
   1, 25, -27, 13, -15, 36, 7, 20,
   -40, -15, 5, 68, -51, 7, 1, 20,
   -1, -10, 3, -33, 18, 3, -13, -1,
   -31, -37, 22, -30, 35, 29, 3, -40,
   -2, -16, 13, -55, -19, -8, -10, -4,
   37, 3, -14, 30, -34, -10, 13, 23,
   -14, 7, 15, -9, 17, 20, 22, -2,
   7, -1, -15, 42, 32, 7, -6, 32,
   -18, 9, 1, 12, 51, -8, 28, -39,
   41, -10, -2, -1, 18, 1, 13, -25,
   17, -12, 11, 8, -18, -37, 13, 0,
   -4, -43, 15, -1, 19, 51, 18, 25,
   -5, 19, 58, -4, -1, 12, -25, 3,
   -4, 8, 10, 10, -6, 4, 45, -5,
   -24, -37, -2, -8, 20, 16, 39, -32,
   1, -11, 68, -54, -5, -6, -13, 24,
   -2, -37, -28, -5, 27, 37, -3, 15,
   -80, -18, -41, -57, 11, 21, -3, 27,
   -28, -17, 30, -11, 36, 23, 8, 15,
   -13, -12, 5, 1, 6, -34, -27, 13,
   33, 10, -30, -12, 21, 19, 30, -12,
   -15, 25, -35, 32, 55, -35, -7, 0,
   25, -8, 2, 4, 2, 17, 20, -44,
   2, -37, 32, 36, 36, -6, -1, 26,
   3, 57, 7, 20, 10, 12, -38, -19,
   -4, 56, 0, 31, 56, 18, 9, -11,
   13, -49, -11, 24, -13, -32, -19, 13,
   -37, -21, 11, -6, 16, 8, 19, 59,
   32, 25, 22, 29, 20, 22, 29, -9,
   -17, 19, 7, -12, 7, 6, 9, -19,
   -38, -8, 39, 0, 26, 3, 25, 6,
   -33, -13, -13, -13, 17, -10, 1, 25,
   20, -19, 41, 5, -15, -14, 19, 15,
   9, 27, -37, -5, 53, 0, 10, 8,
   -12, -4, -9, -22, 13, 19, 20, -19,
   -43, 19, -13, -37, -20, 12, 31, 30,
   3, -52, 47, 27, 49, -30, 6, 5,
   11, -16, -21, 5, -5, -8, -18, -6,
   6, -24, -2, -67, 30, 4, 21, 13,
   71, -23, -11, -27, -6, -11, -6, -24,
   -7, -49, -10, -12, -3, 7, 39, 14,
   30, -24, 29, 37, 11, 40, -12, -1,
   27, 7, 3, 1, 33, -1, 27, 2,
   -4, -10, 9, -8, -20, 52, -3, 14,
   -12, -12, 12, -19, -3, -4, 15, -11,
   12, 2, -17, 11, -13, 20, 6, -5,
   26, -36, -22, 7, -6, -14, -22, 6,
   18, 23, -28, 7, -7, -47, 17, 12,
   19, 41, -3, 52, -25, 11, 28, -34,
   -44, -11, 14, -57, -33, 18, -9, 25,
   -13, -14, 13, -64, -19, -23, -12, 15,
   34, -35, 30, 21, 9, -8, 37, -14,
   8, 25, 1, 18, -17, 33, -6, -2,
   8, -59, -34, -33, 4, -6, -6, -21,
   7, 0, 6, 4, -27, -19, 21, 77,
   4, -49, -22, 9, -25, -11, 1, 3,
   38, 28, -9, -40, -46, 13, 30, 9,
   9, -24, -12, -6, 21, 6, -1, 25,
   -35, 29, -13, -12, 40, -3, 7, -16,
   29, 7, 0, -23, 16, 38, -28, 21,
   15, 32, 51, -2, -14, 17, -32, 2,
   -9, -39, 14, 34, -2, 10, -13, -12,
   -5, 6, 61, 0, -18, 38, 15, 9,
   2, -41, -24, -15, -8, 8, -45, 17,
   2, 16, 6, 29, 9, -18, -2, 12,
   15, 26, -29, 6, -32, -4, 36, 84,
   54, -23, 18, 43, 46, -10, -13, -7,
   29, 32, 9, 49, -7, -16, -16, 21,
   31, 23, 38, 3, 6, 28, -6, 24,
   4, 30, 23, 2, -9, -20, 30, -11,
   11, -27, -37, -18, -4, 16, -34, 37,
   -53, 34, 12, -39, 0, 5, 22, -7,
   -17, 31, 35, 0, -14, -4, -9, -11,
   -37, -9, -28, -4, 39, -52, 18, 14,
   4, 14, -23, 9, 29, -27, -46, -19,
   7, 39, -10, 8, -10, -44, -2, -39,
   32, 12, -12, 14, 10, -9, 14, 35,
   -30, -25, -23, 5, 51, 28, -29, 11,
   21, 3, -22, 7, -49, -19, 28, -35,
   33, -15, -4, 25, -11, 10, 20, -24,
   -5, -10, -9, 6, -8, 42, 8, 30,
   43, 0, -33, -3, 28, -29, 2, 22,
   35, -27, -13, 11, -60, 3, -18, 14,
   26, 38, 23, -11, -32, 24, -5, 45,
   46, 6, 15, 2, -2, 13, 6, 1,
   26, 16, 22, 0, -23, -13, -28, 18,
   -7, 5, -12, 5, 12, 17, 23, 47,
   -17, -29, 3, 2, -44, -8, 43, 17,
   12, 5, -3, 36, -17, 67, -67, 3,
   -6, 54, 15, 0, 18, -4, 26, 16,
   12, 7, -8, 36, 19, 12, 18, -5,
   15, -3, 28, 7, 12, -24, -4, 8,
   37, -27, 22, 26, 71, -2, 9, 37,
   29, 12, -22, -37, -62, 16, 56, -12,
   -2, -6, 18, -12, 15, -28, -4, -8,
   27, 60, 12, 20, -5, -51, -17, -3,
   24, 11, -11, 11, 36, -2, -2, 25,
   4, -29, -42, -34, -37, 100, 26, 5,
   20, -14, 51, 19, -12, 57, -11, 10,
   -30, 34, -48, -6, 16, 5, -13, 40,
   54, 45, -25, -49, -47, -29, 12, -12,
   3, 81, -13, 31, 23, 26, 15, 38,
   18, 15, -10, -26, 16, -9, 26, -21,
   4, -3, 30, -56, 2, 46, -2, -26,
   32, -6, 51, 0, 34, 30, 32, 38,
   -4, -1, 18, -8, 2, -35, -44, 3,
   -4, -18, -30, -7, -34, 85, -28, 20,
   50, 43, -10, 11, 2, -27, 31, -26,
   -3, 16, -9, 24, 33, -41, 31, -26,
   -63, 15, 5, -3, -19, 0, -13, 23,
   61, -1, 37, -25, 63, 34, -14, -51,
   69, 68, 10, -53, -78, 20, -19, -30,
   20, -12, 13, -4, 20, -13, 23, 3,
   35, 52, 45, -12, 45, 24, 5, 27,
   15, 12, -9, 11, -2, 16, -33, -13,
   -6, -16, -40, -29, 36, 25, -3, 46,
   -5, 18, 2, 1, 15, 0, -33, 35,
   10, -37, -1, -14, -23, -19, -2, 17,
   -1, -7, 26, -58, 38, -26, -5, -14,
   -9, 18, -23, -16, -16, -23, 19, 24,
   28, -50, 19, 15, -4, 43, 19, 11,
   23, 15, -50, -4, 19, 18, 5, 55,
   9, -10, 6, -13, -1, -21, -30, -10,
   -10, -21, -31, 0, 35, 1, 19, -30,
   -25, -17, -15, 28, 8, -16, -29, 3,
   -35, 13, -18, -3, 49, 2, 37, 12,
   13, 6, -21, -3, -25, -14, 39, 16,
   36, 1, 7, -35, -52, -4, -8, 8,
   41, -14, 6, -44, 21, -21, 15, -3,
   -25, -5, -12, 34, 62, 0, 8, -11,
   49, 11, -5, -21, -1, 40, -68, -17,
   -19, 28, 38, 4, 21, 4, -14, -5,
   13, 8, -4, 20, 5, -28, 26, -30,
   -30, 7, -1, 9, -22, 43, -1, -6,
   -31, 12, 2, 6, 17, -19, 3, 32,
   20, -39, 10, 46, 5, -13, -18, -12,
   23, -1, 7, 5, -5, -17, 19, -19,
   -40, 16, 21, 6, -26, -14, -4, -5,
   36, 9, 12, 2, 3, -24, 29, -17,
   32, 15, -18, 18, -7, -11, 20, 32,
   -14, 40, 32, -61, -53, 18, 3, 27,
   -42, -14, -7, 1, -23, 20, 15, 22,
   -29, 37, 22, -12, 63, -15, -35, -23,
   -27, -32, 12, -30, 20, 12, -38, 29,
   23, 48, -51, 50, -11, 30, 46, 31,
   -25, -26, -24, -17, -14, -12, -5, -37,
   -26, -6, 6, 20, 15, -12, 0, 11,
   -15, -16, -7, -2, 2, -58, 6, 8,
   14, 12, -20, 22, 39, 28, -9, 16,
   36, 13, -44, -28, 0, -7, -4, 14,
   -22, 2, -24, -2, -14, -39, 18, -42,
   -14, 12, 23, 24, -45, 51, -35, 35,
   -36, -47, 7, -9, 12, -7, -7, 22,
   10, -23, -34, -10, -6, 0, 35, -10,
   -19, 11, 16, 5, -7, -17, 10, 3,
   15, 11, 17, -18, -9, 44, -13, 2,
   -9, 25, -2, 0, 19, -1, -9, 34,
   -11, 58, 32, -13, 16, 36, 8, 26,
   26, -14, -24, -9, 10, -2, 2, 14,
   -1, 26, 7, -14, -33, -10, 20, -24,
   -1, 40, -51, -31, 28, 44, 11, -9,
   -4, 34, 53, -8, 59, -5, 37, 12,
   -24, -1, -15, 63, 10, -8, -22, 37,
   -28, -13, -7, -13, -22, 15, 18, 46,
   8, 54, -18, -30, 45, -20, 3, -36,
   31, -15, 18, -32, -7, -1, 27, -14,
   12, -33, -45, 34, 49, 52, -37, -18,
   0, -28, -63, 7, 14, -4, 52, -50,
   22, 1, 11, 48, 4, 39, 16, -20,
   21, -25, -21, 14, 32, 33, 51, -30,
   6, 36, -14, 32, -17, 6, -34, 30,
   20, 11, -67, 21, -10, 42, 28, 29,
   -21, 37, 23, 50, 12, -29, 4, 50,
   9, 18, -39, 17, 16, -8, 29, 4,
   -19, 4, 41, -33, 7, 2, 25, -11,
   -35, 51, -8, 29, 34, 43, 39, -18,
   14, 22, -20, 3, -14, -16, -35, -12,
   6, -13, 14, -33, 14, 14, 6, 16,
   -54, -30, -26, -3, 31, 31, -38, -17,
   71, -6, 34, -35, -50, -25, -29, 9,
   -84, 0, 33, -3, 47, 30, 24, -34,
   -20, 29, 4, 58, -14, 90, 5, -18,
   -19, 9, 7, -17, 5, 4, 39, 3,
   23, 21, 29, 57, 28, 28, -31, -11,
   -17, -8, -5, 6, 11, 3, -1, -3,
   47, 1, -8, -21, -51, -17, 8, -26,
   -32, 13, -20, -8, -17, -12, 21, -17,
   36, -19, -42, 8, -8, -58, -36, 17,
   -27, -29, 19, -22, 32, 45, -10, 1,
   -9, -33, 41, 9, -20, -11, 21, 1,
   36, 5, -6, 25, 13, 25, 33, -6,
   1, -3, -9, 3, -2, -5, 3, 16,
   3, -22, 20, -15, -41, -6, 17, 8,
   -11, -41, 38, 6, 7, -29, 0, -29,
   22, -18, -9, -1, 8, 21, -27, -7,
   -34, 9, -4, -24, 13, 53, -63, 27,
   -28, -15, 16, 18, 10, 27, -50, -64,
   -40, -11, 17, -25, 65, 8, 66, -30,
   24, 27, 25, -6, 5, 43, 47, -26,
   51, -60, 20, -26, -22, 4, -18, 2,
   -6, -19, -21, 29, 3, 30, 32, 40,
   14, 15, -2, 18, -17, 4, -41, 2,
   15, 26, 25, -1, 74, 25, -7, -21,
   -6, -12, 29, 10, -3, 40, -8, -6,
   -14, -26, 43, -2, -4, 31, 34, -4,
   -17, 6, 22, 24, 26, 3, 8, 5,
   -33, -29, 7, 44, 27, 39, 24, -43,
   60, 16, -6, 3, -37, -10, 20, -24,
   -2, 57, 43, -2, 14, 32, -16, 38,
   -18, -64, -24, 4, 21, 21, 6, 25,
   14, 17, 48, 19, 40, -14, -15, 3,
   -12, 4, -21, -10, 26, -11, 0, -16,
   -36, -15, 18, 55, 27, -35, -30, 9,
   -21, -12, -13, -23, 15, 26, 17, 48,
   44, 6, 8, -21, 9, 21, -71, -17,
   2, 4, -11, 40, -16, -46, 17, -8,
   20, -22, 41, 18, -12, -4, -63, -1,
   -52, -3, 22, 11, -1, -6, -26, 36,
   -27, -16, 24, 46, 15, -33, -35, -4,
   3, 17, -59, 7, 15, 40, 47, -31,
   49, 9, -19, -3, -17, 26, -36, 10,
   50, -4, -28, 13, 20, -2, 0, 10,
   23, -23, 17, 17, -8, -19, 12, 10,
   24, 21, -46, -10, 0, 63, 23, 7,
   5, -21, 13, 11, 10, -21, -39, 0,
   35, -56, -34, 9, -7, -1, 18, 20,
   -9, 15, 2, -4, -29, 18, -16, 16,
   33, -21, 4, 16, 38, 33, 12, -12,
   -9, -75, 3, 60, -11, -51, 41, -16,
   -13, 18, -5, -8, -3, -24, -3, -4,
   25, 47, 15, 28, -6, 50, 9, 40,
   -2, -8, 20, 24, -3, -22, 29, -11,
   -17, 17, -2, 19, 6, 30, 45, -20,
   18, -38, 16, -34, 60, 25, 13, 6,
   -6, 1, -17, 37, 10, 5, 22, 2,
   -2, 32, -39, -69, -45, 9, -2, 39,
   21, 30, -8, 17, 11, 37, 31, 53,
   30, 24, 40, -24, 25, 20, 46, -25,
   -15, 37, -45, -32, 7, 42, -18, -26,
   32, -17, -39, -21, 4, -15, 0, 4,
   30, -10, 22, -31, -4, -45, -33, -26,
   15, 36, -21, 35, 1, 3, 39, 14,
   27, 41, -1, 16, -1, 14, 32, 2,
   30, 9, 21, 27, -9, -31, 10, 8,
   38, -9, -4, -5, 8, 6, 16, -20,
   -7, -46, 9, -31, -24, -4, -27, 11,
   -33, 40, 10, 27, 15, -6, 61, 8,
   -32, -28, -34, -16, -8, -3, 20, 28,
   -17, -44, -19, 35, -5, 6, 10, 15,
   -19, -2, -6, -28, -19, -26, -3, -4,
   -33, 12, 1, 18, -41, 54, 9, -28,
   65, 2, -9, 25, 0, -55, -20, -47,
   74, 18, 51, -51, -2, -1, -17, 16,
   19, 5, 25, 15, 14, 52, -6, -10,
   42, -33, 27, -2, 25, -14, 3, 3,
   -65, -1, 48, 21, 15, -2, -46, -64,
   14, 20, 23, 7, -81, 22, 40, -25,
   18, 44, -39, 10, -31, 48, -13, -35,
   4, -9, 23, 21, -12, 8, 14, 9,
   20, 11, 54, -16, -10, -44, 14, -2,
   33, 2, 32, -16, 9, 52, -71, -36,
   -21, 21, 63, 32, 12, 68, -9, -7,
   56, -1, -17, 5, 49, 23, 34, -60,
   -30, 32, 12, 6, 78, 55, -32, 5,
   28, -6, -18, 11, 18, -21, 0, 15,
   55, -10, 1, -10, 8, -50, -19, 13,
   35, -26, 19, 19, 41, 43, 58, -10,
   -25, 5, 30, 50, -10, 16, -7, 34,
   2, 3, -26, 30, -14, 10, -42, 4,
   37, 1, 18, 16, 19, 9, 3, 9,
   -39, -9, -12, 15, -39, 16, 15, -12,
   -24, 0, 23, 10, -5, 5, -9, 23,
   32, 35, 48, -57, 26, 31, 31, -8,
   35, 19, 27, 50, 8, -22, -4, -13,
   8, 27, 3, 16, -18, -20, -16, 47,
   41, 60, 12, 37, 20, 15, 23, 5,
   20, 39, 13, 15, 5, -51, 15, 15,
   60, 12, -55, 62, 0, -11, -14, 4,
   2, -15, 25, 45, -17, -34, -24, -28,
   16, 8, 6, 36, -3, 47, -3, -9,
   8, 9, -4, 11, -7, 30, -22, 4,
   5, 29, -23, 19, 23, 28, 18, -6,
   35, -14, 38, 75, 37, -5, 83, 42,
   51, 9, -37, 16, 24, 21, 67, -4,
   17, -44, 41, 2, 5, -24, 22, 52,
   41, -41, -5, -7, 13, 33, -21, -12,
   34, -15, -3, 9, 26, 6, 20, -24,
   -15, 16, 15, -3, 43, 18, -8, 10,
   -37, 59, -23, -8, 8, -25, 19, 54,
   -20, -32, 6, 7, 1, 5, 21, -2,
   14, -29, -43, -13, 12, -28, -33, -11,
   -77, -29, -27, 28, 10, -8, 14, 1,
   -42, 9, 14, 24, 13, -23, -6, 26,
   10, 18, -77, 35, 1, 20, 10, -5,
   33, 37, 32, -12, -7, -8, 20, 10,
   -31, 23, -13, 20, 11, 7, -48, -4,
   -2, -15, 8, 46, 1, 53, 12, 16,
   -35, -1, 4, -5, -12, 6, 6, -1,
   -13, -36, 27, 4, 11, -2, -21, -5,
   22, -27, -43, 2, 57, -30, -20, -4,
   -10, 15, 0, -25, 36, 17, 19, -26,
   -9, 33, 3, 2, -38, -15, 9, -15,
   -32, 61, -40, -12, -23, -6, -6, 46,
   -21, 0, 10, 7, 11, -9, -66, -27,
   12, -26, -47, 56, 39, 95, 55, -24,
   -38, 18, -18, 41, 33, -32, -14, -13,
   4, -6, 65, 26, 4, 31, -11, 17,
   -14, -60, -10, 24, -18, 9, -38, -29,
   -15, -20, 44, 5, 48, 34, -7, -5,
   -41, 10, 38, 3, 31, 30, -36, -64,
   -52, 17, -30, -1, 1, 52, -98, -2,
   21, 44, 40, -27, 26, 5, 10, 32,
   -15, 36, -26, 25, -31, 4, 36, 71,
   19, -28, 11, 21, 22, 27, 14, -13,
   29, -24, 52, 19, 30, 15, -52, 20,
   29, 2, -9, 32, 16, 9, 23, 15,
   37, 14, 21, 4, 15, 32, -2, 13,
   14, -11, -13, 42, -26, 25, 2, -9,
   22, -3, -23, -26, 2, 5, 42, 26,
   36, 5, 11, 1, 37, 13, 65, 43,
   5, 28, 13, 34, 34, 19, 48, 58,
   -34, -8, -20, 4, -21, 34, -37, -10,
   -2, -13, -38, 20, 7, -5, 13, -29,
   -6, -39, -16, -1, 50, 43, 5, -27,
   16, 8, -27, -11, 42, -11, -21, 47,
   -55, 17, -20, -4, 6, 16, -7, 20,
