/*This file is automatically generated from a Keras model*/

#ifdef HAVE_CONFIG_H
#include "config.h"
#endif

#include "rnn.h"

static const rnn_weight input_dense_weights[912] = {
   9, -3, -6, -17, -16, 3, 5, 22,
   7, -8, -3, 1, 23, -23, 21, 11,
   -8, 18, -8, -27, -9, 23, -2, 1,
   -25, 2, -16, -20, 43, 1, -15, 26,
   -1, 8, 37, 2, 14, -14, 26, -8,
   -13, 27, -19, 33, -7, 0, 7, 8,
   -2, 6, -7, -31, -49, 16, -12, 14,
   5, 0, -23, -4, -3, -7, 26, -46,
   -13, 29, -12, -65, 16, -21, 0, -10,
   -11, 6, 8, -11, 52, 48, 39, 12,
   -14, -15, 26, 14, -11, 0, 22, -51,
   -19, 26, 1, 3, 39, 31, -34, 23,
   -15, 22, -1, -22, -32, 27, 43, -8,
   5, 33, -24, 35, -32, -9, 7, 2,
   -16, 23, 5, 14, 49, 60, -23, -1,
   6, 35, 19, -2, -34, -18, -22, -9,
   3, 0, 0, 4, -43, -9, 5, 35,
   -12, 23, 4, -66, 46, 49, -22, -32,
   -123, 60, 110, -18, -11, -124, -128, -55,
   -57, -127, -57, -104, -101, 8, -9, 107,
   2, 78, 51, 127, 101, 86, -96, 4,
   60, 58, 65, -17, -44, -128, -67, -40,
   -77, 93, 12, -116, -116, -56, -114, 114,
   32, 90, 34, 21, -11, 67, -66, -18,
   -106, 62, 60, -70, -86, -118, 127, -66,
   -59, -128, -10, -119, -83, -68, -99, 127,
   58, 48, 32, 14, -104, -83, -56, -32,
   43, 83, 107, -28, -86, 89, 125, -21,
   -80, -124, -123, -128, -41, 107, -127, 127,
   38, -2, 78, 127, -128, 14, -51, -10,
   92, 109, 10, 34, 112, 29, 8, 14,
   -118, 75, 79, -97, 19, -16, -121, 24,
   96, -60, 34, -89, -128, 126, 16, -47,
   -126, 126, 39, 49, -128, -119, -128, -9,
   -34, -66, -128, -126, 118, 127, -80, -122,
   8, -84, -13, 36, -128, -35, 50, 74,
   127, 109, 79, -62, 4, 25, 72, -67,
   -108, -30, 110, -12, 127, -22, 15, -128,
   -11, -127, 23, -27, -75, 16, 83, 63,
   -96, 126, 87, 22, -61, 127, -4, -10,
   -64, 45, -36, 127, 127, 121, 2, -127,
   29, -127, -70, -128, -58, -75, 110, 124,
   115, 127, -48, 13, -33, -84, -128, -91,
   -126, -5, 103, 93, 127, 121, 127, -128,
   11, -128, -127, 61, 127, 74, 127, 127,
   -65, 81, 111, -37, -79, -42, -127, -11,
   -103, 59, 69, 127, 127, 68, 48, -128,
   64, -126, -112, -51, 102, 20, 126, 119,
   11, 125, 76, -4, -68, -55, -63, -1,
   -38, 33, 42, 78, 66, 127, 41, -64,
   -125, -106, -127, -110, 105, 59, 126, 127,
   8, -34, -65, 22, -1, -21, 87, -16,
   4, 99, 35, 42, 37, 127, 64, -35,
   -33, -65, -1, -111, 82, 89, 74, 127,
   82, -6, -125, -12, -23, -20, 8, 48,
   -127, -6, -34, 88, 38, -40, 48, 21,
   -126, 50, 2, -8, -33, 43, -8, -36,
   8, 19, -128, -16, 126, -11, -30, 81,
   -49, -33, 127, 127, -1, 38, 47, -1,
   -64, 81, 71, 56, -16, -19, -36, 73,
   7, 25, -55, -60, 41, 16, -78, 45,
   26, -40, -31, 124, 7, -54, 69, -127,
   -4, 79, 99, -128, 10, -36, -75, -17,
   -7, 14, 1, -12, 9, 44, 60, 44,
   93, -23, 47, 78, -29, 27, 24, -81,
   -54, 57, 2, -53, 54, 24, -89, 34,
   -47, 22, 33, -50, 15, 9, 127, -17,
   -17, 127, -85, 81, -66, -42, 7, 11,
   -8, 59, -12, 18, 71, 127, -24, 65,
   32, 16, 77, -4, -123, -68, -50, -2,
   100, 36, -36, -26, -65, -49, -15, 86,
   -7, 54, -21, -30, 77, 71, -37, -65,
   -18, 12, -127, 19, -39, -12, -7, 2,
   -36, -31, -63, 24, 22, -35, 42, -12,
   -97, 36, -44, -3, -9, 71, 69, 15,
   34, -98, -108, 42, 11, -25, 29, 22,
   -46, -41, 29, 53, 15, -28, 82, -7,
   -60, 66, 112, 36, -29, 35, -4, -20,
   -57, -63, -67, 39, -29, 1, -1, 8,
   52, -5, -15, 28, 2, -57, 65, -40,
   53, 37, 10, -77, -5, -4, 21, 36,
   -20, -28, 35, 48, 55, 12, -2, 50,
   -34, 19, 14, 23, -50, -53, 45, -52,
   16, 25, -66, -37, 31, 37, -28, -7,
   5, 16, 68, -2, -11, 11, -17, 11,
   29, -15, 52, 17, -38, -56, 4, 4,
   -1, 36, -38, 55, 44, 12, 39, 2,
   4, -3, 65, -50, -13, 17, 11, -5,
   49, 34, -73, 0, -48, -15, -15, 16,
   6, 4, 12, -42, 33, -30, 6, 26,
   58, 70, 122, -23, 82, 82, 16, 28,
   76, -40, 46, 5, -28, 127, -8, 69,
   -36, -31, -126, 12, 49, -4, 5, 127,
   122, 127, 81, 28, 1, 127, -55, 72,
   65, -80, 110, -53, -54, 113, -19, 63,
   -128, -49, -127, -25, 74, -20, -40, -42,
   34, 63, 61, 18, -84, 122, -74, 39,
   -4, 68, -27, -49, -32, 7, 6, -3,
   -58, -31, -33, 3, 47, 31, -38, -79,
   -74, 56, 22, 15, -72, 90, 33, 20,
   21, -92, 38, 11, -55, 27, 15, -49,
   -39, -23, 11, 44, -16, 25, -11, 23,
   21, 57, -33, -2, -19, 82, 104, 20,
   -19, 103, 58, 6, -24, 16, -20, -13,
   -19, -8, -29, 17, -17, 27, -55, -68,
   -46, 43, -15, 25, -107, -66, 25, -17,
   10, 53, 23, 40, -28, -20, 41, -14,
   26, 13, 53, 52, -31, 45, -4, 18,
   58, 127, 5, 91, 86, 46, -87, -47,
   8, -93, -56, 82, 51, -125, 36, 90,
   50, 28, 127, 71, -45, -53, 114, -17,
   -15, -56, -7, 10, -43, 4, 15, -24,
   7, -21, -7, 13, -7, -23, 8, -15,
   -127, 12, 29, 60, -12, 16, 30, 10
};

static const rnn_weight input_dense_bias[24] = {
   -128, 102, 48, 24, -15, -128, 0, -102,
   18, 127, 127, -127, 65, 126, -4, -126,
   -53, -64, 29, -91, 96, -124, -128, -62
};

const DenseLayer input_dense = {
   input_dense_bias,
   input_dense_weights,
   38, 24, ACTIVATION_TANH
};

static const rnn_weight vad_gru_weights[1728] = {
   -103, 127, 102, 97, 41, 26, -56, 126,
   -128, -47, -127, 126, 63, 14, 49, 1,
   109, -125, 127, 125, 127, -90, -128, 127,
   84, 46, 81, -20, 64, 83, -126, 60,
   -41, -109, -8, -79, 6, -38, -30, -91,
   9, 85, 121, -9, 127, 32, 45, 32,
   -61, -38, 40, -33, 57, -3, 19, 29,
   -70, 30, -4, -50, 67, 46, -29, -8,
   16, -51, 19, 39, 11, -14, -1, -4,
   28, -127, 50, -115, 127, 125, -6, -14,
   126, 123, 126, 124, -33, -127, 75, -11,
   97, 127, -127, -32, -4, -62, -53, 16,
   -73, 127, 109, 95, 85, 58, 85, -47,
   10, 79, -2, -1, 83, -127, -57, 127,
   2, -92, -115, 0, -30, 10, -43, -71,
   -6, 25, 79, 0, 57, 84, 43, -77,
   -10, -126, -18, 84, -75, 84, 10, 54,
   -10, -4, -65, -54, -67, -21, 47, -83,
   59, 124, -125, -21, 70, 100, -49, 122,
   127, 125, -6, -61, -8, -84, -55, -76,
   14, -10, 57, -128, 41, 62, 41, -61,
   -107, 127, -16, -12, 97, -75, -35, 22,
   -127, 33, -126, -19, -128, 127, 50, -106,
   9, 38, -1, -94, -55, -101, 50, -126,
   59, 28, 71, -6, 3, -49, 56, -49,
   28, 0, -60, 103, -36, -38, 104, 34,
   59, 84, 86, -76, -89, -17, -5, -82,
   -33, -128, 79, -127, -71, 123, -57, -98,
   -128, 8, 122, 127, 94, 127, -12, -23,
   97, 118, -16, 126, -95, -43, -2, 127,
   -52, 103, -52, -1, 27, 14, -75, -72,
   -115, -54, -44, 30, -67, -70, -15, 121,
   28, 127, 127, 73, -43, -22, 127, 106,
   -4, -2, 69, -35, 45, 60, -57, 13,
   -49, -65, -26, -37, 54, 47, -101, 13,
   2, 20, 60, 82, 5, -66, -82, 21,
   65, 120, -3, 93, 34, 21, -53, 28,
   -38, -59, 50, 21, -86, -86, 110, 46,
   -41, 6, 104, 127, 57, -60, -72, -29,
   13, -13, 45, 23, 4, -53, 47, 41,
   84, -59, 77, -55, 53, -33, -75, 45,
   -13, -102, -72, -6, 60, -74, -57, -51,
   -19, -23, 31, -56, -41, 28, -65, -19,
   12, 1, 42, 22, -26, 32, 7, 2,
   13, 1, -29, -90, -29, -4, 24, -37,
   -92, 108, -128, 51, -104, -77, -118, 122,
   -37, -128, -19, 56, -127, -20, 127, -128,
   -127, -123, -65, -93, -49, -126, -128, 79,
   -71, -58, 27, -76, -89, -30, 24, -127,
   -6, -92, 30, -80, -67, -42, -126, 127,
   126, 107, -76, -125, -2, 36, -29, 127,
   -53, -40, -43, 102, 83, -28, -31, 64,
   -16, -26, 66, -31, 28, -40, -126, -112,
   -38, 12, -13, -8, 83, -15, 7, 94,
   15, -124, 3, -89, 61, 127, 125, -27,
   83, 53, -127, -126, 127, 127, 58, -2,
   103, 126, 74, 19, -65, -23, 105, 64,
   -24, 12, -40, 127, 95, -100, -16, -35,
   -5, 95, 52, -28, -57, 127, -123, 48,
   -105, -128, 103, 66, 38, 47, -69, 126,
   -2, 94, 25, -93, -21, 75, 75, -127,
   19, 13, -53, 44, 19, 126, 74, 50,
   50, -4, 30, -88, -93, -71, -2, -99,
   127, -89, -37, -109, 124, -126, 0, -29,
   -121, -125, -21, -127, -10, -126, 69, 91,
   46, -23, -127, -113, -127, -50, -128, -48,
   127, -128, -8, -60, -38, 115, -73, -127,
   119, -5, 67, -41, 127, 55, 55, -36,
   -30, 29, 66, -62, -84, 12, -71, 118,
   47, 88, -128, 32, 56, -73, 108, 95,
   26, 127, 124, -127, 8, -127, -44, -125,
   -127, 1, -63, 95, 127, -73, 37, 55,
   110, 53, -20, -28, -105, -34, -56, -125,
   116, 127, 90, -62, -128, 67, -126, -35,
   49, 124, -11, -49, -37, -98, -74, 87,
   -128, -23, -55, -60, 29, -60, -128, 86,
   127, -32, -70, -127, -69, -127, 35, 109,
   21, -125, 101, 96, 59, -78, 126, -79,
   -7, -15, 21, 47, 38, 34, 32, 55,
   28, 71, 77, -55, -24, -16, -35, -41,
   -39, 75, -75, 28, 15, 42, 40, 0,
   -118, -41, -42, -31, 127, -44, 127, -126,
   125, -56, 127, 42, 106, 112, -25, 77,
   -128, 10, 55, -35, -92, 60, 127, 33,
   10, -27, -8, 125, 127, 12, 61, -44,
   10, 31, 28, -56, -15, 20, 99, 9,
   74, -65, 77, -37, -59, 68, 71, -22,
   -28, 33, 45, -42, -19, 40, 76, -90,
   26, -3, -74, 37, -70, 50, 59, -9,
   7, -25, -2, -68, -15, -30, 39, 15,
   73, -128, 97, -127, 49, 123, 120, -127,
   56, -18, 124, -92, -103, 126, -79, -26,
   99, 78, -100, -121, -128, -127, 120, 104,
   29, -13, 24, -5, 117, 34, 58, -17,
   51, 37, -5, 52, 125, -124, 14, -16,
   115, -113, 4, 85, -34, 45, 5, -34,
   54, 37, -42, -4, 39, 70, 112, -43,
   -11, 29, -16, 1, -51, 0, 49, 7,
   7, 1, -7, 15, 60, -54, 1, 20,
   -84, -127, 99, -49, 0, -77, -126, 120,
   -128, 63, 18, 126, -36, -13, 34, 126,
   112, -101, -29, 123, -24, -127, -118, 46,
   46, -14, 48, -128, -113, -128, 82, -59,
   -12, -128, 127, 37, 80, -127, -57, 45,
   -87, -60, 127, -118, 90, -127, -84, 95,
   -80, -45, -79, 22, 1, -64, -40, 127,
   53, 102, -27, -128, -22, -42, -125, -101,
   -124, -17, -34, 82, 127, 39, -39, 127,
   126, -104, 125, -127, 112, -11, 42, -18,
   126, 98, 30, 121, 19, -86, 75, -127,
   99, 51, -111, 126, -123, 87, 120, 76,
   127, -128, -22, 116, -126, 13, -26, -39,
   -23, 35, 127, 43, 79, -49, 7, -127,
   127, -69, -38, 19, -127, 30, 127, -86,
   126, 25, -126, 114, 27, -40, -31, 126,
   -29, 62, 2, -127, 127, -1, -126, -35,
   -127, -11, -4, 127, 127, -109, 11, 82,
   2, -128, -128, -73, -127, -127, 127, -126,
   63, -126, -13, -126, -127, -127, -126, -128,
   -128, -114, -128, -127, -128, 13, 127, -127,
   -5, 48, -72, -126, -117, 62, 16, -88,
   65, -89, 6, 23, -68, -16, 112, -110,
   -48, 127, -91, -98, -127, 33, 122, 125,
   -62, 116, -127, 127, -10, 7, 27, 127,
   24, -41, 67, -80, 80, -88, -81, -128,
   -126, 26, -49, 115, 127, 20, 27, 112,
   -127, 97, -127, -78, 82, 36, 4, -106,
   35, -32, 113, -125, -28, 45, -7, 127,
   125, -123, 29, -7, -8, -127, 127, -48,
   55, -126, -37, -27, -123, -128, -84, 38,
   20, -128, 127, -127, 32, 18, -17, 127,
   127, -15, 127, -11, -92, 127, 50, 12,
   -5, 49, -128, 39, 38, 23, 84, 62,
   65, 127, 22, -127, 14, 13, -73, -128,
   -102, -50, -127, 122, 127, -41, 19, 8,
   95, 46, 118, -36, -127, 16, -126, 118,
   -35, 122, -27, 70, -125, -127, 110, -115,
   92, -2, -63, 33, 59, -127, -125, 116,
   112, 3, -25, 42, -126, -25, -93, -29,
   41, -4, -88, 16, 19, -109, 127, -128,
   -128, 94, -127, -2, 69, -38, -53, -46,
   48, -4, -127, 127, 37, -33, 0, 126,
   -8, -44, 42, -128, 49, -50, -38, -47,
   -105, -17, -22, 125, 127, 6, 5, 112,
   -49, 78, -127, -72, 68, 89, -126, -67,
   62, 127, 127, -115, -126, 125, 123, -73,
   125, -126, -37, -118, -125, 127, 7, -85,
   121, 127, 63, 127, 126, -127, 13, 98,
   -16, 67, 67, -46, -57, 11, 106, 45,
   127, -128, -79, 127, -67, -62, -64, -128,
   95, -43, 127, -77, -26, 29, -31, -102,
   36, -116, -3, 124, -102, 43, 40, 44,
   50, 79, 6, -125, -72, 29, -23, -124,
   -8, 127, -125, -41, -97, -76, -61, 126,
   -50, 127, 37, -128, 98, -70, -127, 127,
   122, -54, -8, -125, 116, -18, 11, 126,
   -55, 85, 127, -105, 125, -128, 14, 127,
   110, -111, 127, -54, 110, 54, -99, 119,
   -19, 58, 115, 59, 26, 127, -128, -98,
   -1, 104, -127, -2, -16, 8, 7, 125,
   103, -21, -68, -104, 85, -112, -118, -128,
   -128, -95, -47, 125, 127, -73, 35, 32,
   50, 10, 85, 62, 37, 30, -103, 117,
   -52, -8, -53, -34, 127, 127, 45, 120,
   9, 34, 57, 79, 103, 11, 2, 126,
   -64, 19, 60, 51, 119, -127, 85, 84,
   -35, 121, 127, 51, -95, 66, -127, 83,
   -79, -88, 127, -36, 38, 104, -104, 13,
   -127, 45, 52, -67, -20, -3, 40, -128,
   7, -43, -106, 124, -119, 12, 53, -14,
   41, 67, 12, -53, -116, -80, 16, -88,
   -126, 30, 123, 126, -54, 5, -40, 15,
   -1, 28, -22, 127, -14, 85, -7, -33,
   -99, -4, 107, 0, 55, 51, -68, -32,
   -72, -30, 22, -24, 67, 8, 50, -4,
   95, 3, -60, -32, -82, 53, 29, -62,
   -128, 35, -10, -12, 60, -3, 6, -25,
   -67, 11, 4, 17, 9, 10, 91, -54,
   18, 13, -69, 47, -48, 19, 54, 5,
   22, 10, 3, -28, -73, 24, 35, -35,
   0, 108, -128, 23, -6, 84, 125, 6,
   52, -23, 10, -128, 54, 127, -128, -126,
   -125, -28, -31, -127, 66, 127, 115, -112,
   -128, 14, -51, 76, 63, -5, 60, 17,
   -23, -128, -128, -25, -99, 62, -82, 27,
   111, 127, 127, -103, 72, 54, 125, 126,
   -75, 27, 22, -109, 1, 121, -85, -84,
   5, 53, 86, 114, -22, 83, 127, 8,
   108, 29, 48, -24, -128, -3, 12, -113,
   -120, 75, -126, -61, -96, -8, -1, 127,
   -29, 127, 76, 115, 127, -11, -96, 68,
   19, -14, 40, 127, 127, 126, 87, -29,
   45, -68, -12, 126, -81, -127, 15, 126,
   -2, 67, -43, -10, 57, 42, -20, -127,
   -127, 126, 29, -89, 44, 63, -43, -97,
   86, -14, -77, 83, -19, -67, -55, 113,
   -27, 15, 15, -96, 48, -77, -50, 0,
   16, 3, 40, 34, 70, 26, -6, 76,
   -128, 127, 127, 126, -107, -2, -126, 126,
   -27, 80, 64, 127, 38, 104, 126, 127,
   127, 56, 49, 127, 94, -113, -128, 89,
   103, -100, 118, -54, -74, -36, 16, 89,
   4, -127, 14, -81, -127, -50, 13, 110,
   -50, -1, -9, 34, -16, -56, -113, -46,
   127, 45, 48, -1, -41, 37, -57, -66,
   79, 49, -91, 26, -11, 10, 30, -58,
   12, 19, -55, -80, 38, -56, 30, -42,
   31, -61, 28, -113, -51, -91, -120, -44,
   21, 98, -126, 127, -127, -127, 8, -128,
   -116, 38, -128, -30, -128, -87, -60, -128,
   51, 50, -13, -5, -126, 46, -56, 75,
   27, -36, -26, -15, -15, 65, -12, -62,
   46, 83, 81, 65, -56, -27, 94, -58,
   70, -24, 13, 33, 41, -59, -80, 106,
   -57, 30, 85, -24, 127, -62, -54, 16,
   -19, -21, 35, 62, 66, 1, -34, 70
};

static const rnn_weight vad_gru_recurrent_weights[1728] = {
   -128, 104, 127, 127, 9, 106, -120, 127,
   -121, 127, -128, 127, 11, 127, 127, 102,
   126, 3, -28, 126, 127, -34, -128, 95,
   72, 61, 87, 17, -127, -79, -43, -23,
   -45, -122, -72, 43, -126, 82, -44, -112,
   -61, 2, 20, 30, -13, 11, -76, -67,
   43, -127, 127, -127, -127, 63, 52, -128,
   -8, -97, -109, 127, -127, 89, -15, 127,
   127, 102, 99, -127, -127, 97, 11, -128,
   -26, 111, 127, 127, 37, 127, 71, 127,
   -111, -90, 45, -65, 123, 69, -126, 127,
   2, 100, 40, 127, 127, -124, -128, 81,
   -6, -128, -13, -2, 7, -75, 2, 76,
   28, 118, 68, -127, 127, -48, 58, 15,
   -2, -126, -41, 22, 127, -18, -128, -12,
   47, 123, -128, 54, 72, 1, -75, 127,
   58, 127, 17, -128, 21, -41, -127, -128,
   -128, -120, -127, 127, 127, -79, 34, 55,
   14, 57, 127, -36, -5, 59, -25, -5,
   -93, -14, 94, 117, -78, 19, -70, -102,
   -8, -67, 8, 108, 85, -53, 127, 109,
   38, 7, 0, 46, 101, 9, 70, -14,
   -30, 19, -6, -21, -9, -5, -12, -24,
   -16, 94, -10, -23, 38, -19, 59, -12,
   1, 62, 113, 39, -46, -93, 44, -128,
   -61, -127, -7, 127, -10, 127, 127, -127,
   -89, 4, -31, -121, -126, 47, 14, -127,
   100, 127, 127, 127, -127, 126, -32, 127,
   76, -92, 127, 127, 15, 97, -122, 79,
   125, 119, -100, 127, 127, 75, -15, 102,
   126, -16, -49, -4, -34, 6, -88, -17,
   -9, -71, 127, 33, 97, -35, -32, 24,
   -16, -69, 18, 86, 87, 23, 50, 27,
   125, 127, -127, 124, 127, 107, -15, 127,
   -64, -13, 127, -126, 116, -13, -114, -127,
   -126, 16, -127, 127, 127, -128, 59, 123,
   109, 24, -126, 127, -128, 127, -73, 127,
   45, 126, 60, -123, 127, 121, -8, -102,
   -124, 86, 127, -127, 127, -59, 94, 127,
   -23, -51, -120, -40, 54, 40, 126, -39,
   -39, 49, 82, -80, 0, -65, -11, -45,
   -7, 26, 23, -46, 34, 46, 127, -34,
   -53, -41, -128, 64, 16, -20, 97, 127,
   -48, 122, 62, -127, 127, -127, -115, -69,
   -96, -47, -125, 125, 127, 53, -81, 38,
   52, -126, -127, 17, -78, -128, -116, -128,
   -32, -128, -15, -90, 7, 15, 125, -67,
   -11, -21, -63, -123, -128, 36, -128, -128,
   -128, 43, 35, 64, -9, -8, -127, 82,
   -54, -85, -127, 18, -47, -62, -78, 101,
   31, 39, -2, 14, -103, -15, 9, -22,
   80, -52, 127, 19, -45, 83, -2, -127,
   -1, -126, 122, 127, -28, 72, 127, 127,
   127, 52, 126, -128, -127, 13, 23, -128,
   127, 126, -49, -51, 5, 127, 24, -46,
   127, 99, -14, -126, -60, -31, -124, -128,
   -127, -127, 65, -128, 47, 127, 127, 85,
   4, 127, -54, -5, -19, 101, 93, 100,
   65, -50, 15, -38, -128, -75, 126, 127,
   127, 127, 32, -108, 20, -56, 16, -103,
   -8, -128, 126, -72, -34, -34, 44, 90,
   -128, -96, -53, -62, 124, 57, -126, -32,
   22, 6, -21, 85, 36, 127, 16, -127,
   -119, 72, 4, 67, 33, 95, -30, 127,
   -93, 124, -46, 84, -33, 19, -16, -62,
   -60, 34, -32, 123, 127, 71, 70, 127,
   37, 72, 21, 13, 49, 9, 62, 30,
   3, 68, 24, -26, 44, 72, 0, 2,
   -20, 29, 65, 30, 13, -13, -82, -7,
   117, -127, -127, 90, 25, 98, 11, 99,
   81, -26, 85, -126, -47, -31, -127, -111,
   20, 89, 32, 126, 125, -127, 6, 73,
   -112, -36, -83, 106, -128, 127, -125, -25,
   -127, 104, 30, 124, -57, 109, 122, 127,
   126, 127, 127, -52, 127, 77, -128, 88,
   -105, -110, 53, 72, -104, 88, -33, 49,
   -6, -117, -112, 19, -24, 84, -66, 14,
   12, -24, -99, -3, 46, -51, -102, -55,
   -13, -83, 127, -127, -116, 127, -27, -128,
   70, -74, -55, 126, -80, -23, 127, 127,
   127, 17, 105, -128, -127, -48, 26, 24,
   60, 27, -55, -14, 63, 27, 6, -9,
   93, -39, -87, -38, -127, -2, -125, 32,
   7, -17, 30, -110, 127, -13, -38, -54,
   -87, -97, -2, 86, -52, 18, -55, -44,
   7, 16, -55, -31, -20, 14, 60, 32,
   -20, -113, 78, -15, 0, 39, -62, -15,
   -114, -67, 127, -111, 31, 127, 69, -121,
   -67, -127, -80, 57, -127, 99, 127, 127,
   125, 27, 0, -111, -28, 21, 80, -95,
   111, 85, -93, 87, -81, 26, -127, -20,
   127, -56, 127, -128, 76, 32, -24, -102,
   -124, -128, -22, -121, -27, 127, -112, -127,
   -11, 36, -78, -62, -120, 126, -68, -48,
   0, 8, -50, 46, 44, 117, 119, 2,
   -12, 78, 74, -95, -44, 116, 124, 127,
   -9, 70, -128, 127, 127, -105, 61, 127,
   41, 124, 127, -128, 127, -118, -127, -121,
   -114, 89, -127, 127, 127, 44, -23, 127,
   -25, 15, 35, -69, -4, 32, 16, -91,
   27, -78, 41, 127, 13, -13, 34, -62,
   -35, -65, 66, 34, -36, 11, -7, -51,
   65, 113, 33, -35, 56, 26, 4, -49,
   1, 11, 58, 26, -43, 30, 13, -15,
   -24, 65, 45, -9, -39, -30, 68, 17,
   -48, -127, 107, 107, 49, -11, 43, 17,
   28, -77, 31, 1, -1, 47, 23, 127,
   127, 127, -28, 124, -75, 22, -16, 84,
   121, 96, -83, 52, -114, 68, -47, 64,
   -40, -13, 127, -12, 53, 117, -117, -127,
   -127, 28, 63, 1, 31, 127, 65, 127,
   98, 6, -124, 5, -39, 19, 1, -15,
   -29, -52, -2, -51, -6, 88, 63, -15,
   -42, 13, 41, 33, 48, -63, 30, -32,
   -57, 43, -127, 56, 111, -46, 60, 127,
   -61, 114, 127, -128, 127, 13, -128, -89,
   -109, -14, -22, 127, 127, -25, -4, 127,
   124, -127, -109, 83, 107, -127, 127, -128,
   47, -127, -123, -124, -98, -128, -35, -127,
   -81, -127, 9, -109, -127, 124, 127, -128,
   26, 127, 56, -15, -83, -19, 54, -34,
   31, -8, -127, -68, -128, -21, -11, 41,
   93, 40, -32, -18, -128, 32, 107, 57,
   20, -126, 127, -18, -56, 127, 3, -128,
   22, -122, -6, 101, -39, 127, 127, 105,
   90, -32, 93, 7, -127, 19, 127, -127,
   52, 34, -127, -18, -18, -110, 30, -100,
   -66, -55, 2, -105, -43, -44, -12, -2,
   -4, -28, -51, -126, -9, -40, -96, -127,
   50, -109, -7, -35, -65, -55, -96, -37,
   -21, -6, 126, 36, 82, -89, -8, -32,
   -52, -67, -28, 51, -16, 36, -23, 23,
   -30, 113, -127, 50, 30, 32, -69, 127,
   -65, 127, 21, -128, 18, -11, -90, -128,
   -55, -83, -44, 127, 127, -84, 95, 127,
   17, -72, -125, 11, 127, 86, 44, -128,
   -127, 127, 75, -125, 77, -51, 127, 127,
   66, 16, 127, 20, -67, -86, 45, -103,
   -32, -44, 18, 15, 127, 35, 73, 42,
   -32, 95, -67, -33, -10, 69, -54, -2,
   17, -74, -59, 22, -20, -73, -77, 32,
   25, 50, 124, -127, 5, 58, 75, -128,
   -84, -127, -64, 127, -127, -127, 127, 127,
   60, -15, 127, -128, -128, -1, -128, -6,
   -19, 51, -127, 127, 103, 126, -45, 125,
   -127, 2, 54, -52, 127, 102, 127, 127,
   45, 18, 127, -16, 127, -128, 37, -32,
   -127, 90, 7, -11, 119, 19, -26, 20,
   -74, 119, -89, -20, 4, -30, -38, 90,
   -32, -1, -6, 51, 56, 17, 127, -36,
   -126, -2, 126, -128, 56, 68, -41, -128,
   -82, -50, 49, 127, -48, 70, 127, 26,
   127, -36, 102, -127, -127, 55, -80, -128,
   -81, -127, -126, -2, -6, 127, -86, 127,
   112, 118, -37, 28, 127, 127, 127, -128,
   -41, -126, 107, -70, 127, 126, 127, 43,
   -48, 88, 52, -127, 127, 41, 67, 14,
   -100, -21, -38, -27, -37, 71, -4, -26,
   -128, 127, 96, -127, -63, -38, 127, 121,
   18, -13, 127, -126, 4, -66, 18, -127,
   51, -128, -56, 127, -75, 127, 127, 116,
   118, 111, 127, -123, -127, -127, 50, -122,
   95, -128, -128, -127, 42, -128, -75, -116,
   -2, -125, -60, -44, -125, -65, 127, 42,
   65, -73, -128, -16, -128, 74, -75, -102,
   59, 50, 83, 38, 39, -69, -100, 49,
   -17, -3, -55, 9, 11, 78, -50, 37,
   36, 36, -21, 59, -76, 2, -127, -11,
   6, -64, 127, -23, -93, 114, 18, -128,
   29, -127, -43, 127, -126, -15, 127, 51,
   30, 68, 28, -126, -127, -44, -22, -126,
   87, -43, -113, 32, -29, -91, 30, 59,
   -14, -39, -53, -128, 6, -49, -118, -50,
   -103, 9, -2, -122, -14, -58, 25, -66,
   -77, 25, -103, 25, -45, 108, -36, -4,
   36, 64, -127, -53, 30, -16, 16, 36,
   40, 37, -9, -6, 48, 17, 79, 61,
   -116, 118, -127, 18, 118, 65, 7, 106,
   -21, 42, 125, -103, 104, -48, -42, -33,
   21, -51, -125, 82, 125, -112, 86, 127,
   -17, 126, 117, 126, 82, 127, 13, 127,
   -126, 117, 67, 124, -48, 33, -58, -30,
   -1, 53, 127, 103, 127, -28, 52, 127,
   84, 24, -18, 53, -31, -3, -7, 38,
   -2, 9, 7, 15, 17, 13, 13, -86,
   -13, -36, 30, 25, 37, -61, 6, -36,
   -73, 72, -128, -83, 101, -28, 61, -93,
   -72, 57, 16, -128, -76, 75, 44, -128,
   -72, 86, -28, 127, 111, 16, 5, 50,
   30, -126, 7, -128, 127, -126, 77, -127,
   -39, -110, -81, -113, -90, -126, -65, -68,
   -44, -126, -102, 57, -128, -56, 127, -33,
   104, 124, 4, -74, -58, 26, -3, 39,
   54, -126, 111, -46, 23, -128, 35, 57,
   6, 42, 11, 124, 104, -62, 73, -62,
   -5, -32, -128, 10, 100, -38, 125, 127,
   -11, 127, 97, -126, 115, -100, -126, -68,
   -124, -62, -23, 116, 125, 17, -128, 127,
   120, -128, -128, -125, -128, 57, -127, -124,
   127, -96, 127, -128, 127, -127, -125, -128,
   -127, -126, 40, -128, -83, 127, 127, 57,
   -128, 127, -128, 127, 116, 127, 107, -127,
   -128, -30, -128, 127, 127, 127, -128, -125,
   -127, 127, 127, 23, 127, -63, 127, 118,
   -62, -128, 127, -126, 17, 127, 125, -127,
   127, 124, -127, 127, -116, 127, -75, 127,
   127, 127, 127, -7, -128, -128, 72, 127,
   1, 30, 85, 108, -41, 127, -36, 98,
   -125, 124, 127, 125, -80, 63, 23, 37,
   20, 116, 36, 102, 125, -7, -128, 117,
   -11, 63, -42, 51, -57, 82, -114, -35,
   -24, 80, -71, -6, -18, -84, 12, -65,
   -6, 40, -58, 9, 28, -31, -37, 67,
   41, 2, 53, -9, 14, 3, 18, 46,
   -30, -124, -48, -48, -62, 69, 58, 127,
   127, -21, 127, 44, 4, 37, -117, 38
};

static const rnn_weight vad_gru_bias[72] = {
   126, -106, -92, -127, 75, -64, 126, -126,
   83, -49, -62, -125, -116, -98, -126, -125,
   -128, -112, 8, -127, -127, 127, 127, -123,
   60, 100, 32, 75, 117, 6, 35, 54,
   74, 49, 120, 2, 127, 18, -1, 31,
   99, 35, 80, 77, -18, 61, 127, 24,
   -11, -51, 9, 2, 6, -35, 47, 69,
   -42, -58, -67, -86, 2, 18, -117, 29,
   -86, 16, -1, -40, 43, 10, 24, -7
};

const GRULayer vad_gru = {
   vad_gru_bias,
   vad_gru_weights,
   vad_gru_recurrent_weights,
   24, 24.0, ACTIVATION_TANH
};

static const rnn_weight noise_gru_weights[12384] = {
   2, -43, 4, 53, -1, -60, -81, 17,
   49, 18, 14, 15, 33, -20, -76, -32,
   -23, -28, -41, -6, -12, -73, -56, 47,
   -27, 54, 34, 9, -2, 17, 2, 35,
   -26, 20, -16, 8, 105, 11, 61, 67,
   15, -47, -36, -10, 22, -65, 70, -12,
   -19, -25, -41, -113, 53, 67, -20, 63,
   39, -22, 102, -26, 61, -125, 30, 69,
   42, 6, -81, 20, 44, -3, 108, 39,
   14, -18, 11, -54, 70, 33, -71, -27,
   48, -15, -84, 15, -57, -4, 7, 71,
   10, -70, 44, -22, -27, 101, 126, 34,
   -10, -30, -59, -11, 3, -37, -26, -46,
   -24, 7, 45, 11, -26, 15, 63, -56,
   66, -9, -10, 17, 14, -28, -5, 29,
   -10, -38, -34, 10, -95, -14, 94, 9,
   -33, -38, -29, -45, 5, -33, 91, -31,
   9, 41, -47, -1, -50, 77, 81, -28,
   12, -28, -53, -43, 52, 110, 26, -113,
   20, 4, -62, 29, 71, 26, -102, -49,
   -33, 115, 31, -28, 124, -81, -19, 45,
   32, 39, -55, 82, 16, 33, 54, -26,
   -106, 50, 47, 15, -15, 88, 44, 40,
   14, -80, 11, 4, 83, -18, 34, 38,
   -48, -7, -42, 64, -10, 25, -19, -52,
   -18, 49, -2, 33, 0, -97, 22, 38,
   -15, -21, -42, 102, 81, 13, -62, -3,
   -11, -56, -110, 19, 74, 61, 51, -23,
   -45, 15, 47, 21, 21, -65, 47, -67,
   -10, -22, -3, 25, 31, -2, 21, -46,
   44, 24, 9, 5, 26, 35, -51, 51,
   20, -33, 27, -127, -77, -16, 3, -14,
   -38, -20, -7, -7, -99, -25, 12, -20,
   -15, 22, -42, 29, -65, 49, -27, -4,
   9, 39, 22, 2, -37, 9, 36, -12,
   23, 27, 13, 14, -15, -30, -31, 20,
   106, 56, -4, 59, 26, 63, -47, -128,
   -26, 15, 67, 103, 7, 95, -59, -30,
   6, -51, -71, -120, -86, 54, 5, 43,
   -36, -58, 20, -37, -20, 126, -14, -54,
   116, -113, 58, -81, -21, 25, -18, -16,
   50, 64, 5, 18, 19, 72, 114, 52,
   -60, -33, -57, -60, -20, -8, 46, -5,
   -48, -51, 40, -119, 91, -34, 77, 18,
   22, 18, -40, -86, 12, 125, -97, -49,
   -60, 4, -94, 46, 83, 29, 44, -54,
   -7, 11, 36, 101, -10, -61, -24, 28,
   68, -39, 44, -12, 31, -57, 34, 57,
   -10, 78, 63, 4, 13, 14, 32, 6,
   -6, -34, 49, 52, 52, 4, 116, 0,
   -2, -21, -14, 40, -10, -46, 27, -20,
   32, 5, 7, 13, -40, -52, -41, -66,
   -60, -5, -30, -77, -31, 9, -37, -19,
   10, -103, -16, -39, -31, 36, -50, -21,
   73, -45, 3, 46, 13, -33, -12, 88,
   -66, 41, 114, -128, -42, -42, 71, -11,
   -70, -18, -24, 58, 125, 11, -55, 6,
   -29, -16, -27, -40, -38, -6, 48, -61,
   12, 0, -7, 14, -10, 4, -9, 24,
   40, 27, 4, 70, -83, 8, 28, -6,
   -126, 3, 26, 14, -88, -55, 29, 62,
   49, 43, -18, 17, -57, -29, -47, 28,
   -5, -69, -66, -5, 38, -79, 77, -8,
   -6, -9, -80, -36, 64, 15, -14, -16,
   36, 27, -15, 1, 7, -67, 21, -35,
   -74, -45, -44, 44, -20, -30, 16, -24,
   22, 68, 37, -12, 6, 15, 44, 17,
   37, 13, -33, -46, -13, 49, -10, 20,
   25, -30, -8, -15, -50, -2, 32, 1,
   2, 14, -19, 34, -43, 60, -13, -47,
   21, 47, -32, -5, 6, -35, 9, -14,
   25, -39, 5, -13, -6, 4, -54, -44,
   -20, 1, 53, 28, 33, 4, 74, -2,
   -50, 6, -34, -2, -48, -56, 18, -24,
   39, 18, -34, 42, 1, -10, 75, -14,
   17, 56, -20, -30, -11, -4, 35, -31,
   -3, -22, -101, 1, 26, -55, 93, 86,
   8, -27, -13, -70, -24, 24, 34, 3,
   -20, -4, -65, -29, -2, -5, 39, -5,
   27, -10, 18, 6, 49, 49, 37, 43,
   -27, 61, -97, -14, -26, -2, -2, -50,
   31, -76, 28, 45, 27, 35, 88, -14,
   4, -58, -29, -3, 31, -5, 98, -48,
   -27, -31, 11, 50, -79, -19, -2, 36,
   18, 25, 1, 7, -16, 16, 1, -10,
   -15, -20, 14, -16, 10, 28, 14, 14,
   -56, 8, 26, -3, 4, -4, -44, -2,
   7, -2, -5, -6, -37, 17, -37, -26,
   -31, -37, 9, -25, -16, -5, -18, 23,
   10, 63, -11, 46, -58, 23, -3, 7,
   37, -37, 37, -22, 11, -87, 4, -66,
   -39, 0, 83, -28, -9, 7, -50, 69,
   -27, -51, 7, 10, 65, 54, 122, -68,
   -29, -92, -18, 12, -55, 60, -43, 54,
   -32, -71, 18, -38, -38, 8, -21, 37,
   -46, -32, 18, 64, -110, 1, 127, -29,
   -59, 4, -92, 14, 4, -31, 3, -23,
   41, -40, 92, 127, 35, 57, -16, -78,
   70, -80, -41, 6, 83, -24, -93, -48,
   11, -44, -105, -13, 0, 127, 32, -91,
   -46, 84, 58, -93, -111, -8, 15, -8,
   -127, 7, -46, -56, -21, 50, 22, 33,
   79, 9, -6, -6, -29, -20, -51, -40,
   45, 16, -2, -16, 54, -16, -4, 23,
   0, -38, -50, -70, -55, 19, 2, 35,
   -125, -19, 13, -29, -14, 34, -77, -20,
   114, 37, -6, -45, 1, 27, 15, -8,
   31, 19, -14, 49, 42, 14, 7, -72,
   -52, -18, -65, -33, -19, -29, -20, -128,
   24, -10, 15, -2, 31, -71, 23, -33,
   17, -43, 11, 37, -128, -125, -48, -35,
   71, 13, 4, -61, -4, 2, 7, 81,
   0, 122, -55, 94, 49, 54, -28, -70,
   -1, 38, 29, 59, 77, -53, 124, 12,
   6, 56, 17, -50, -58, 75, 20, -5,
   -12, -74, 13, 51, 84, -22, 92, 51,
   -29, -128, -6, -44, -58, 55, 17, 107,
   66, 119, -79, 0, -6, -26, 15, 30,
   57, -16, 50, 32, 22, -11, -56, 52,
   85, 54, 127, -29, -21, -122, -56, -66,
   29, -5, -14, 14, -36, 92, -10, 73,
   3, -31, -18, -27, -54, -91, 0, -22,
   22, 44, -14, -36, 47, 44, -32, -10,
   62, -72, -42, 31, 35, -8, 48, 92,
   -64, 21, -54, 25, -97, -89, -30, -19,
   -43, -22, -46, 63, -92, 28, -61, 13,
   6, 36, 9, 39, 26, 26, 10, -22,
   -3, -78, 51, 111, 14, -37, -14, 35,
   -9, 50, 34, 42, -125, 7, -23, -42,
   -21, 16, -69, -46, 36, -21, -34, 17,
   -64, -29, 35, -101, 17, 98, 125, 104,
   33, -16, -19, 22, 23, -67, -16, 37,
   -14, 60, -58, 65, -18, -34, -96, -13,
   -54, -70, 28, 16, -37, 64, 25, -50,
   -66, 65, -15, -127, 66, -8, 95, -7,
   43, -23, 39, 43, -96, 43, -35, -69,
   27, -6, -52, -8, 24, 30, 74, -8,
   73, -8, -39, 36, -33, 58, 14, 17,
   -42, 11, -46, -16, -4, 28, -50, -21,
   -6, 41, -43, -31, -48, 6, -24, -11,
   -1, 26, 27, -68, 31, -57, 23, -50,
   -74, -10, 50, 16, 17, -40, 24, 48,
   19, -18, -3, 4, -29, -54, -8, -52,
   -2, -23, 61, -23, -3, 67, 21, 19,
   -40, -9, -33, 25, 25, -64, -12, -124,
   51, 64, 29, -3, 70, 6, -35, 27,
   -38, -125, 85, 7, -128, -101, 45, -37,
   -14, 84, 2, 10, -17, 33, -44, -24,
   12, 55, -94, -26, -10, -39, 12, -9,
   -75, -49, -6, 51, -9, 32, 59, 124,
   -86, -27, 54, -32, 4, -128, -2, 32,
   -48, 46, -46, -15, -83, -99, 41, 15,
   26, 2, 80, -29, -29, 34, -122, 21,
   -76, 18, -76, -74, 24, -115, -103, -33,
   6, -51, -23, -70, -46, 1, -54, 51,
   -126, 24, 120, -102, 43, 11, 51, 108,
   8, 44, -67, -42, -19, -32, 53, -54,
   -24, 32, -13, -25, 31, -51, 62, 33,
   -8, -68, 34, 14, 18, -37, -35, 19,
   -83, -45, 90, 71, 10, 30, 47, -56,
   -6, -49, -9, 8, -55, -62, 49, 14,
   13, -33, 57, -31, -12, -6, 43, 15,
   19, 65, -15, -103, 0, 13, -51, -22,
   -118, 43, 85, 26, -9, 25, 64, 31,
   -11, 41, -26, -37, 17, -17, -90, 26,
   1, -37, -77, -128, -17, 8, -11, -28,
   35, -31, -6, 4, 29, 1, 2, -33,
   -30, -26, 34, 46, 28, 71, -91, 84,
   17, 52, 29, -50, -46, 52, 22, 7,
   -58, -31, -65, 42, 28, -38, -14, 26,
   108, 36, 100, -41, -73, -18, -38, 30,
   -9, 104, -13, 27, 14, -22, 31, 69,
   31, -8, -12, 1, -27, -84, -10, 49,
   33, -10, 11, 110, 83, -86, -96, -94,
   -23, 75, 78, 17, -25, 57, 63, 102,
   64, 13, -41, 3, -32, -51, -12, -19,
   21, 21, -34, 21, -13, 15, 21, -5,
   27, 46, -25, 70, 12, 13, 44, 3,
   39, 29, -41, 44, -16, -28, -23, -51,
   56, -22, -31, 20, 1, -78, -45, -6,
   0, 25, -17, -126, -36, -1, -127, 22,
   -27, -17, -111, -4, -1, -125, -69, -40,
   30, 11, 46, -46, 14, 102, 6, 8,
   7, 37, 3, -55, 14, -23, 79, 25,
   41, -27, -45, -36, -27, -15, -73, -119,
   -35, 45, -17, 63, 40, -57, 65, 1,
   -58, -26, 93, -1, 21, 10, -2, 65,
   -9, -93, -19, 96, 38, 36, -5, -33,
   -38, -14, 14, 40, -38, -25, -37, -19,
   -30, 86, -11, 32, -35, 27, -35, -17,
   4, 37, -127, -37, -65, 43, 26, -58,
   86, -68, 58, 53, 26, 74, -39, 12,
   16, 33, 21, 10, 8, 18, -17, 52,
   -9, 41, 58, -9, 48, 18, -5, 25,
   -32, 16, 33, 27, -10, -19, -40, -1,
   7, 27, -55, -2, 17, 26, -45, 3,
   -6, -5, -71, 8, -11, -3, 12, -47,
   34, 64, -12, -77, -10, 11, -8, 10,
   -75, -16, -69, -82, -121, -125, 34, -24,
   -3, -7, 63, 47, -75, -33, -46, 83,
   -61, -127, 39, -17, 127, 10, -52, -71,
   -26, -26, 76, 48, 18, 32, -73, 5,
   -67, -56, 13, 23, -24, -119, 11, 28,
   -12, -21, 43, -118, -77, 44, -2, -53,
   95, 28, -69, 83, -96, -36, 56, -17,
   -54, 97, 12, 127, 29, 81, -54, -102,
   -38, -56, 67, 65, -23, 47, -25, -66,
   18, -5, 36, -30, 13, -22, -85, 72,
   3, 16, -41, 30, -70, 124, -29, -80,
   -113, 100, -63, -1, -97, -5, 60, -86,
   -106, -57, -35, -24, -23, 32, 34, -28,
   19, 53, -16, -42, 65, -6, -46, 4,
   -34, 10, 4, 0, 1, 28, 22, 23,
   -5, -63, 20, -55, 26, 81, 23, 51,
   20, 59, -19, -2, 6, 17, -2, 12,
   -41, -20, 51, -100, 110, 51, 102, 60,
   60, 20, -89, -26, 59, 55, -31, -59,
   31, 59, 28, 93, -11, -21, 112, -16,
   20, 96, 2, 59, 36, 54, -38, 46,
   -34, 13, 22, -17, 37, -55, -19, 35,
   13, -54, 72, -81, 4, 125, -52, 76,
   -30, -11, -23, -16, 125, -75, -27, -108,
   -2, -78, -8, 50, 26, 14, 11, 28,
   -27, -26, 3, 1, 60, -23, 21, -66,
   -69, 65, 99, 125, 55, -2, 38, 5,
   -54, -47, -3, -51, 15, -15, 69, -28,
   44, 34, -16, 48, -49, -36, 74, 21,
   27, -54, 67, 5, -127, 58, 42, 48,
   -30, 21, 9, 36, 4, -17, -43, -4,
   -2, 45, 27, 49, -23, -31, -26, -17,
   -21, 18, -17, -29, -5, 69, 29, -27,
   -26, 38, -76, -23, 80, -9, -4, 56,
   52, 22, -20, 2, -17, 17, -10, -32,
   -26, 36, -4, -41, -19, 40, 62, 25,
   -19, 0, 34, -61, 87, -6, 6, -72,
   -32, 21, -81, -48, -16, -2, -104, 39,
   38, 44, -50, -105, -73, 9, 42, 55,
   90, -78, 10, 3, 69, -64, 24, -8,
   -66, 57, -9, 65, -89, 91, 15, -52,
   17, -6, -19, 11, -82, 84, -25, -37,
   0, -29, 34, -64, -19, -42, 29, 56,
   -9, -28, -87, 29, -2, -28, -23, -1,
   14, 0, 45, -13, -62, 14, -32, -49,
   -43, -50, -127, -12, 19, 22, 6, 18,
   16, -45, -44, -15, -18, 26, 3, 30,
   23, -39, -28, -55, -38, -83, -81, -29,
   23, 20, 44, 13, -2, -14, 48, 4,
   -19, 52, -80, -30, 54, -7, 92, 1,
   2, -6, -37, -7, -66, 27, 21, 19,
   -29, 8, 42, -21, 39, 7, -38, 10,
   44, -67, -6, -26, 13, 54, 7, -32,
   26, -39, 52, 3, 48, -59, -90, 2,
   10, -23, -35, -48, -59, -33, -16, -101,
   1, 52, 57, 68, 16, -56, 16, -24,
   22, -8, -95, 84, 101, 90, -25, 31,
   -73, -70, -23, 108, 52, -26, -6, 89,
   56, -1, 5, -65, 35, -40, -46, 41,
   -31, 41, 1, -19, -79, -86, 109, 36,
   6, -12, -19, 23, -35, -11, -8, 44,
   -29, 30, 26, 127, 13, 64, -29, -41,
   -32, -25, 34, 27, -70, 88, -22, -8,
   6, 65, 39, -29, 61, -28, 17, 67,
   37, 32, 71, 13, -18, 27, 24, -54,
   -21, 9, 7, 30, -67, 47, -52, -16,
   -35, 7, 17, 5, -13, 32, 27, -2,
   60, -9, 5, -29, 34, -25, -31, -21,
   -33, -38, 32, -29, -44, -1, -12, -16,
   -7, -66, 11, -23, 20, 76, 26, 12,
   11, 16, -1, -36, -20, 16, -20, -25,
   -26, 38, 17, -48, 30, 46, 12, 34,
   27, -26, 68, 81, -18, -27, -12, 125,
   -14, -13, -25, -24, 64, -24, -68, -3,
   -42, -71, -48, 25, -57, 116, 109, -13,
   -51, -99, -21, 106, 4, 88, -25, 75,
   52, 73, 15, -121, -11, -23, 51, -8,
   -121, 60, -10, 115, -7, -27, 75, -56,
   -80, 0, -12, 43, 35, -24, -37, -5,
   66, 19, 26, 8, -52, -93, 59, 0,
   -8, 21, -20, -26, 79, 57, 121, 0,
   36, -78, 49, -38, 16, -34, 7, -127,
   -12, -55, -37, -7, 42, 15, 15, -74,
   -37, -47, -11, 28, -21, 109, 110, 58,
   9, -28, -57, 4, 27, -79, -59, -93,
   -38, -5, -37, -6, -24, 17, 58, 6,
   11, -16, 33, 1, -1, 46, 1, 31,
   -20, -8, -29, -32, 17, -19, -54, -59,
   -22, -52, 14, 16, -27, -11, -7, -8,
   9, 12, 52, 16, 37, 75, 85, -12,
   -36, 15, 10, -57, 23, 102, -37, -32,
   4, 85, -115, 73, -26, -122, 22, -30,
   -25, -12, 12, -66, 119, 26, -9, 53,
   36, 126, -36, -45, 40, 58, -42, 123,
   -15, -52, -37, -56, -63, 1, 64, -60,
   34, -27, 50, -23, -63, -127, -107, 96,
   58, -16, 10, -56, 60, 108, 33, -40,
   20, -13, 14, 67, 48, -21, 4, 124,
   -80, 5, -16, -55, -57, 77, 85, 4,
   62, -34, 94, 36, -11, -8, 3, 127,
   -22, -5, 49, -22, -88, 29, 10, -82,
   51, 70, 68, 1, -52, 78, -40, -4,
   -16, 1, -49, 23, 4, -47, 7, 37,
   12, 24, 41, -53, -68, -33, -79, 18,
   -10, 53, -4, 3, -35, -81, -17, -42,
   33, -3, 41, -15, 52, 11, -5, -77,
   8, 29, -57, -92, -25, 23, 11, -50,
   -21, -52, -10, -80, -52, 12, -44, -23,
   13, -71, 28, 71, -41, -55, -5, 36,
   19, -11, 111, 28, 41, 54, 96, -23,
   24, 19, 12, 25, -1, -15, -55, 19,
   -37, -21, -1, -88, 66, -6, 8, 36,
   51, 66, 17, 79, 12, 85, -6, -21,
   33, 44, 35, 43, -124, 39, -39, 94,
   69, -30, 47, -13, 24, 65, 34, -2,
   -65, 30, -5, 48, -34, -8, 6, -24,
   -52, -44, -28, -125, -127, -32, 24, -19,
   -31, 4, 85, -58, -11, -19, -22, -38,
   -24, -43, -52, -77, 43, -2, 6, 73,
   -3, -7, 54, -39, -60, -87, 32, 65,
   14, 33, 1, 0, 29, 18, 27, 37,
   36, -46, 19, 34, -65, -29, -7, -36,
   -2, -9, -1, -23, -69, -15, 4, -37,
   24, -43, 45, 19, 25, 4, -35, 46,
   -45, -26, 12, 8, -25, 29, -9, -49,
   -2, 2, -31, -16, -51, 87, -17, 36,
   -83, 22, -44, -13, -7, 55, -69, 91,
   -45, 10, 74, 79, 28, 100, 112, -4,
   -37, 95, -126, 44, 125, -34, -20, 23,
   -16, -35, 15, -40, 42, 9, -62, 6,
   57, 15, -45, -107, -48, 34, -55, -82,
   35, -36, 39, 56, -125, -1, -89, 17,
   28, -12, 70, -96, -37, 20, -27, -16,
   -3, -51, 74, 2, -24, -43, 70, 71,
   56, 24, 17, -54, -52, 82, -16, -8,
   5, -83, 99, 39, 106, -35, 39, 107,
   23, -18, 8, 29, 58, -123, -60, 90,
   0, 93, 23, 29, 9, -21, 57, -36,
   30, 20, -24, 36, -35, 43, 88, 50,
   -11, -8, 29, -43, -26, 3, -126, 34,
   34, -3, 10, 86, -65, -45, -27, -43,
   102, -29, -37, 19, 3, -61, -11, -97,
   24, -13, 20, 42, 14, -14, -2, -1,
   36, -14, -38, 42, -27, -14, -35, 3,
   7, 53, -12, -18, -14, -7, -9, -56,
   -33, -30, 13, 8, 37, -40, -5, -71,
   96, -44, 39, 0, 25, 46, 55, 13,
   -13, -43, 54, -32, -23, 22, -47, 16,
   39, -22, -82, 54, -28, 4, -77, -23,
   48, 9, 35, 49, -73, -28, 45, 8,
   20, -68, -19, 18, -36, 27, -14, 57,
   21, 11, 6, -67, 6, 62, 94, 72,
   -101, 61, -128, -27, -2, -27, -45, -9,
   -56, -100, 4, -43, 16, -23, 44, -128,
   57, -57, -82, 55, -5, 6, -16, -50,
   51, -117, 55, 29, -56, 102, 32, -34,
   -2, 88, 13, 15, 1, 33, -24, -42,
   -46, 19, 110, -9, 26, 9, 13, -19,
   -95, 9, -42, -6, -3, -30, 17, 0,
   -51, -24, 2, -33, -45, 26, 11, -20,
   -26, -23, 58, -12, 2, 15, 2, 5,
   29, -31, -18, 16, -7, -9, -5, -25,
   117, 6, 3, -23, -21, -14, 16, 0,
   79, -35, 23, -37, 36, -57, -36, -26,
   22, -54, 17, -46, 125, -91, 20, -66,
   73, -29, 16, 35, 11, 17, -41, -34,
   -68, -54, 21, 125, -10, -97, -1, 30,
   127, 43, 30, -2, -55, 53, -128, -18,
   -35, -28, 66, -25, -11, 124, -42, 44,
   -19, -56, -52, 14, -25, 111, 95, -61,
   -2, 44, -117, -77, -19, 3, 29, 18,
   79, -1, -14, -22, -4, -53, -20, 48,
   -30, 30, -4, -14, -5, 41, -36, -13,
   -30, 27, -84, -22, 57, -37, -41, -17,
   -53, -27, 59, 19, -66, -15, 52, 25,
   27, -22, -46, 14, -57, 30, -21, 37,
   -40, -35, -44, 44, -46, 18, -13, 29,
   20, -62, 48, -24, 17, -15, -11, 10,
   -2, 60, -15, -1, 30, -28, 16, 7,
   40, -11, 8, -4, 61, 12, -14, 22,
   28, 25, -43, -35, -67, -4, 21, 12,
   35, 22, 8, -13, 79, -55, 6, -50,
   35, 82, 10, 31, -125, -67, -77, 41,
   -45, 17, -10, -26, 36, 2, 6, 47,
   -72, 36, -10, 71, 71, -3, -22, 56,
   11, -118, -65, 34, -20, -79, 2, 56,
   -8, -18, -21, -4, 18, 3, -7, -5,
   -7, 37, -44, -87, -60, -2, -126, -16,
   -13, 29, -22, 41, 107, -112, 104, 20,
   12, -53, 18, -127, -73, 3, 55, -61,
   -59, 54, -67, -34, -28, -74, -13, -54,
   -4, 77, -29, 126, 43, 56, 2, 111,
   0, -19, -74, -36, -4, -44, -10, -34,
   -13, 30, -1, 16, -12, 84, -17, 1,
   45, -17, 28, -18, 50, -13, 20, -12,
   -18, 5, -5, 4, 13, -45, 1, 12,
   36, -29, -38, -36, -34, 8, -31, 18,
   8, 17, 9, 10, 4, -1, 89, 13,
   -42, 33, -53, 5, -33, -47, 26, 127,
   6, -9, -28, 21, -27, -27, 35, -1,
   -18, -8, -17, 59, 28, -59, -68, -45,
   -68, -52, 28, -28, -8, 4, 14, -4,
   -59, -74, -62, -15, 32, -14, -32, 10,
   -113, 64, -88, -22, 55, -3, -25, -24,
   -2, -51, -38, 31, 68, 72, -13, 16,
   38, 13, 58, -43, 72, -33, -8, 1,
   -15, -11, 12, 88, 63, 16, -9, 14,
   -51, 33, 69, 8, 18, -20, 44, -16,
   -9, 35, 33, -36, 21, -35, 12, 13,
   -29, 69, -49, -18, -8, 50, 119, 4,
   26, -77, -28, 5, 22, 8, -79, -88,
   -57, -52, -3, -52, 3, 39, -60, -37,
   -47, -17, 31, 41, 127, -46, -40, -5,
   -7, -59, -34, 4, -35, 16, 22, -16,
   -26, -17, 8, -25, -25, -39, -47, 43,
   -57, -8, 30, 9, -71, 37, 61, -20,
   65, -68, 92, 61, 23, 15, -28, -125,
   -46, 14, 5, 31, 30, -127, -128, 18,
   48, -123, -42, -98, -123, 19, 114, 5,
   -1, -6, -1, -33, -43, 8, -87, 27,
   -71, 4, 0, -9, 52, -8, 38, 69,
   84, 1, -68, 36, 55, -29, 121, -19,
   -27, -54, -102, 25, -2, 62, 60, 43,
   90, 1, 36, 65, -32, 90, 72, -31,
   34, -67, 7, 115, 23, -33, -110, 16,
   -66, 125, -115, -43, 9, -30, -30, -6,
   -25, -22, 19, -64, -75, 119, -5, -18,
   -81, -71, 10, -57, -20, 71, -89, 127,
   -49, -10, 2, -45, 0, -47, 20, -39,
   -69, 2, -38, 56, 18, -47, 68, 15,
   39, 33, -9, 59, 26, -2, -87, 18,
   -25, -30, 25, -30, 4, -15, -29, 52,
   -6, -8, 14, 83, 1, 34, -11, -65,
   -39, -81, 17, 35, 60, 2, 26, 53,
   -65, -91, 37, 19, 4, 37, -125, -9,
   19, -18, -30, -74, 67, -15, -3, -42,
   -47, -35, 20, 66, -52, 126, 46, -66,
   -126, 47, -30, -9, -8, 110, -48, -3,
   15, -48, 50, -33, 34, -50, -17, -89,
   -10, 41, -72, -9, 31, -20, -37, 42,
   -1, -55, -27, 20, 70, -5, -18, 12,
   16, 3, 37, -91, -4, -29, 60, 5,
   -10, 2, -18, 11, -32, -25, 31, 1,
   19, -15, 53, 25, 52, -27, 41, -19,
   -28, 40, 3, -32, -50, -15, 16, -4,
   -20, -10, 4, -25, -29, 7, 72, 15,
   -21, -69, -27, 2, 51, 10, -40, -19,
   23, 18, 1, -20, 3, 7, -10, 5,
   23, -14, 9, 6, -6, -25, -14, 38,
   27, -58, 0, -4, 1, -89, 32, 41,
   -2, 12, 17, -22, 10, -35, 16, -2,
   22, 16, 29, 25, -26, 37, 30, -13,
   34, 10, 46, -4, 15, -24, 10, 28,
   3, 12, 72, 36, -37, -3, 31, -17,
   -9, 43, -42, 66, 12, -11, -16, 56,
   -18, 4, 27, -11, -35, -39, 30, 19,
   27, -76, 19, -14, -28, 104, -32, 26,
   13, 42, 59, 51, 7, 7, 6, -52,
   2, -14, 55, 15, 21, -8, 3, 6,
   -12, -10, 28, 127, 8, 6, 15, 28,
   12, -21, 22, -74, -56, 32, -3, -50,
   -74, 14, -51, 47, 25, 24, -41, -33,
   18, 14, -31, 24, -71, -43, -3, 9,
   65, -31, 54, -24, 42, -73, 12, 49,
   -9, -11, -7, -9, 15, 4, 17, 15,
   -4, -8, 5, -9, -8, 14, -2, -18,
   -25, 2, -15, 12, 5, 14, -16, 0,
   7, 4, 11, -20, 8, 12, -21, 19,
   -5, 17, 10, -2, -8, 54, 11, 0,
   -15, -4, -43, 30, 14, 16, 6, -7,
   -52, -25, -2, 43, -14, -48, -20, -6,
   4, 12, -50, 28, -28, 7, -9, -15,
   37, -21, -32, -38, -34, -23, 29, 9,
   -17, -17, -1, -27, 0, 13, -7, 32,
   15, 10, 18, 45, 22, 1, 50, 9,
   26, 5, 27, -21, -3, -19, -25, 10,
   -6, 18, 14, -10, -33, -8, -22, 30,
   -9, 35, -52, 14, -28, 15, 8, -7,
   19, 4, -43, 12, -21, -30, 17, -32,
   -10, -8, 6, -39, -15, 9, 0, 22,
   -20, -29, -28, 11, -37, 28, -19, 27,
   43, 2, -10, -21, -12, -42, -15, 14,
   -6, 35, 13, -16, 57, 14, -41, -5,
   -8, 37, -44, 27, 13, -15, -11, -4,
   -6, -12, -20, 19, 15, -10, 0, 43,
   24, 22, 31, 13, -4, -3, 19, 25,
   -4, -35, -11, -27, 12, -31, -5, 7,
   14, 26, 24, 7, -3, -28, -27, -9,
   -38, -26, -26, 26, -21, -18, -44, -45,
   -63, 28, -86, -41, -35, -13, 2, 21,
   1, -23, -57, -95, -39, 22, 56, 35,
   3, 32, -3, 1, -26, -37, -76, -26,
   47, -36, 12, -28, -6, 10, 30, 59,
   0, -31, 3, -35, -27, 14, 3, -38,
   0, -17, 12, -12, 17, -43, -68, 18,
   -28, -1, 52, -9, 0, -20, 47, -25,
   -26, 35, -4, 17, -21, 17, -12, -13,
   -6, 4, -42, -9, 0, 41, 19, -84,
   24, 15, -53, 7, -19, -29, 17, -20,
   -18, -12, -23, 2, 19, 25, 4, -13,
   22, -34, -22, 39, 24, 0, -38, -13,
   3, 21, 19, 10, 28, -21, -26, -27,
   26, -1, 3, -31, 5, 37, -27, -7,
   -11, 41, 27, -22, -16, -25, 16, 16,
   -9, -8, -16, -39, 28, -20, -27, -39,
   -12, 17, 57, -41, 16, -10, 9, -5,
   -54, 16, -10, -29, -45, -120, 27, -7,
   -9, 20, -70, 75, 45, -54, 43, 35,
   48, -2, -2, -13, -3, 98, -26, 33,
   48, -83, -46, 6, -37, 50, -11, -19,
   -36, 21, -73, 22, 7, -47, -30, -79,
   45, -71, 11, 6, -92, 48, -19, 19,
   -124, 65, -26, 18, -60, 5, 22, -36,
   0, -36, 15, -38, 9, 7, -70, 9,
   -19, -44, 7, 26, -9, 61, -27, 18,
   36, -25, 32, -9, 61, -68, 65, -70,
   -13, -36, -12, -2, -27, -1, 29, 25,
   9, 34, 63, 36, 6, -8, -20, -30,
   2, 30, 10, 33, 33, -27, 38, 19,
   10, -25, 28, -9, -19, 30, -15, -10,
   19, 41, 37, 1, 3, 8, 2, 13,
   94, 8, -28, 4, -59, -21, -31, 10,
   -12, 3, 4, 61, -14, 41, -23, 22,
   40, -7, 9, 22, -25, 7, -15, -11,
   106, -29, 19, 29, -31, 50, 38, 78,
   -6, -6, -12, -4, 94, 21, 41, -22,
   -1, 6, -7, 15, 64, -9, 41, 4,
   -18, -1, 37, 0, -4, 39, -12, 53,
   26, 3, -2, 32, 6, -35, 59, 34,
   111, 65, -6, -23, 78, -7, -1, -90,
   -13, 21, 3, 42, 31, 46, 42, -2,
   -21, 24, -71, -17, -58, -8, -37, 9,
   18, -3, 9, 8, -49, 64, 12, 11,
   16, 79, -38, 2, 5, 43, -13, -18,
   -27, 33, 26, -15, -2, 4, 2, -14,
   0, -10, -18, 46, 93, -17, 8, 25,
   -2, -19, -13, -1, 6, -10, 22, 24,
   7, -11, -24, -31, 0, 6, 7, -5,
   -29, 17, -10, -30, 16, 8, -29, 6,
   -11, 15, -33, -25, -17, -31, -2, -19,
   5, 4, -9, -10, 0, 10, -9, -18,
   -16, -1, 33, 11, 34, -14, -5, -17,
   -38, 125, -7, -53, 62, -30, 125, -41,
   28, 13, -10, 127, -8, -40, -14, 120,
   125, 11, 61, -42, 1, 91, -8, 33,
   8, -61, -31, 43, 45, 8, -8, 39,
   -15, 21, -70, -83, -10, 81, 15, -23,
   17, 67, 117, -25, -45, 94, 5, 3,
   -33, -41, 50, -115, -80, -61, -21, 17,
   18, 18, -50, -120, -29, -15, -64, 80,
   19, -6, 21, -2, 81, -6, -4, -12,
   -71, -120, -40, -38, -59, -111, 18, 4,
   45, -28, -63, 15, -33, 23, -49, 5,
   -24, 28, 23, 94, 23, 1, -33, 0,
   -17, 45, -9, 22, 29, 38, 11, 11,
   23, -62, 4, 8, 0, 9, -2, 14,
   5, 36, -23, 63, 0, -26, 29, 0,
   -57, -26, -7, 18, -34, -40, -45, 30,
   22, 11, -23, -10, 2, 28, -28, -18,
   -6, -14, 46, 78, -9, 27, 1, 19,
   -24, 24, 39, -11, 6, 71, 37, 0,
   18, -42, 13, -4, -7, -29, -24, -16,
   5, 19, 13, -58, -12, -2, 53, -43,
   33, -42, -11, -7, 27, -18, 35, 10,
   -23, 4, 13, 16, 11, -34, -3, -10,
   -45, -22, -12, -24, -23, 8, -2, 3,
   9, -18, 35, -51, -27, -35, -25, -31,
   -7, -8, 27, 4, -72, -27, -39, 14,
   17, -5, -10, 0, 67, 22, 18, -2,
   -31, -2, -23, -7, -12, -26, 15, 51,
   15, -45, -19, 47, 13, 24, 27, 10,
   30, -8, -36, -30, -22, 56, -43, 37,
   -7, -9, -17, -29, -9, -25, 33, -30,
   -32, 9, -28, 18, -4, 41, -32, 7,
   -12, -9, -35, -34, 13, -48, 15, 26,
   -9, -7, -63, -20, -31, 2, 20, 13,
   -22, -18, -3, -12, 14, 38, -32, -8,
   29, 5, -6, 31, 26, -27, -5, -41,
   -79, -101, -45, -21, 55, 8, -103, 40,
   26, 14, 37, 15, -7, -48, -25, 42,
   -56, 52, -48, 69, -11, -74, -48, -89,
   -19, 30, 6, -64, -66, -44, -47, 52,
   -13, -38, 12, 94, 8, -97, -13, 37,
   17, 22, -124, 111, 31, 50, -77, -34,
   7, 30, -10, -31, 74, 79, 29, 29,
   41, -1, 18, -75, 17, -26, 15, 9,
   -10, 47, -1, -3, -13, 10, 70, -9,
   22, -28, 53, 10, 17, 51, 10, -62,
   9, -10, -37, -32, 29, -45, -25, 4,
   38, 33, 0, 7, 1, -17, 13, -20,
   19, -22, -6, -28, 42, -4, 39, 2,
   -57, -23, -14, -43, -10, 49, -53, -13,
   -3, 26, 6, 40, -14, -23, 17, 17,
   24, -5, -1, 42, -38, 13, 39, 33,
   -1, -27, -38, -14, 29, -23, 23, 2,
   33, 30, 20, -28, -79, 27, 23, -12,
   42, -30, -12, -9, 47, 11, 1, -40,
   -10, 23, 0, 28, -49, -53, 9, 0,
   3, -6, 64, 21, -34, -81, -11, -3,
   -35, 44, -18, 28, 23, -28, -20, 7,
   -6, 4, 40, 1, 11, 20, 1, 30,
   33, -47, -30, 30, 43, 10, 19, 40,
   7, -25, 41, -10, 18, 12, -32, 16,
   27, -23, 48, -59, 13, -11, 25, 1,
   30, 5, 2, -14, 20, -13, -17, -3,
   23, 12, 17, 37, 21, -43, -27, 59,
   25, -32, -6, 17, 46, 22, 25, 1,
   3, -10, -5, -63, 2, 29, 3, 21,
   -32, -12, -1, 5, 19, 5, -6, -12,
   15, -31, 37, 8, -5, 7, -27, 9,
   3, -25, 12, 42, -11, 5, -18, 30,
   30, 8, 26, 53, -36, -15, 41, 22,
   -4, -8, -11, -20, 38, -23, -2, -26,
   20, -25, -32, -15, 1, 16, 7, 27,
   126, -48, -23, -102, -11, 3, 14, 69,
   -11, -91, 15, -13, -19, -116, -16, 52,
   -59, -68, -10, 40, 12, -16, 9, 13,
   -103, 6, -33, 18, -11, 56, -100, 12,
   -116, -58, -36, 24, -19, 12, 20, -66,
   44, 47, 27, 37, 62, -7, 99, -30,
   -124, -45, 46, -13, 11, 52, -53, -2,
   -30, 35, 2, 42, -39, 7, -42, -54,
   34, -108, 49, 8, 48, -70, -6, 10,
   -16, -42, -32, -3, -26, 76, 2, -91,
   -26, -19, -40, -14, -32, 17, 36, 15,
   -44, 49, 0, -61, -24, -1, -16, 50,
   15, 33, -10, -26, 24, -5, 15, -11,
   -5, 63, 10, 51, -54, -26, 4, 11,
   -8, 11, 15, -17, 44, -16, 2, -24,
   -12, -14, -9, 9, 19, 54, 29, 20,
   0, -17, -34, -70, -52, -36, -17, 3,
   25, 27, 10, 1, 17, -9, 18, 28,
   17, -17, -2, -45, 41, -13, -3, -17,
   -21, 36, -58, -47, 25, -44, 26, 7,
   6, 0, 47, -1, -5, 3, 11, 1,
   32, 40, -23, -8, 26, -15, -8, 10,
   -16, -42, -7, -35, -50, -20, 6, -11,
   -1, -35, 21, -2, 36, -14, 22, -24,
   -12, 4, -10, 23, -29, 3, -16, -25,
   2, -4, -45, -13, -6, 7, 9, -17,
   -26, 9, 33, 4, -29, 15, -45, 7,
   9, -20, 16, -15, -17, 35, -3, 2,
   30, -1, 5, -37, 8, 25, 24, 17,
   6, 25, -18, 10, 29, -41, 23, -32,
   17, 2, 12, 4, 3, -11, 33, -18,
   -11, -8, -14, -16, 7, 15, -28, 9,
   34, -24, 13, -8, 16, -21, 11, 9,
   -21, -3, -19, -2, -33, -18, -10, 6,
   -7, 17, -1, -22, -8, 33, -3, 2,
   16, -19, -10, -4, -35, -5, 11, -28,
   -54, 11, -46, -2, 17, -42, -33, -5,
   31, -8, -81, -21, -45, 17, -54, 38,
   -23, -11, -39, 2, -30, 4, 8, -61,
   -23, 32, 4, 9, -9, 16, -5, 31,
   -38, -7, 17, -6, -58, -49, 57, 30,
   30, 34, -35, 15, 30, -15, -16, 65,
   -53, 6, 21, -30, 9, -25, -2, 11,
   -13, -13, 28, -31, -15, -28, 13, -6,
   17, -14, -18, 13, -90, -25, -43, 2,
   9, -19, -5, -17, -10, 1, -35, -32,
   -11, 17, 45, -35, -5, 0, 12, -10,
   16, 25, 3, -18, -20, 70, 28, 9,
   15, 20, 7, 28, 9, -26, 10, -19,
   -30, 16, -4, 16, -19, 25, 8, 21,
   -23, 1, 9, -50, 41, 16, 8, -1,
   15, 1, -24, -38, -22, -15, -1, 20,
   0, 10, 4, -17, 24, 13, 10, 21,
   -20, 54, -10, -10, -2, -34, 2, 5,
   15, 76, 34, 14, 36, 51, -2, 77,
   36, 3, 67, 94, 96, 84, 20, -11,
   85, -19, -53, 43, 97, 4, 21, -17,
   43, 17, 67, 119, 3, -9, 58, 14,
   54, -1, 1, -64, 8, 30, -8, 67,
   -20, 18, 29, 93, 22, 11, 57, -4,
   51, -47, 75, -7, -18, 62, 24, 4,
   -12, 14, -26, 17, -22, -4, 3, -38,
   -13, -6, 4, 72, -58, 9, -94, 43,
   40, 7, -12, 40, 40, 94, 29, 87,
   -10, 53, 53, -50, -47, 3, 26, 47,
   -18, 0, 80, 4, -23, -54, -74, 52,
   45, 41, -55, 76, -14, 2, 39, -20,
   -15, 9, -23, 45, 64, 41, -17, 9,
   -54, 31, -4, 14, 13, -17, -22, -24,
   -9, 5, -2, -11, -6, -8, 6, 2,
   -36, 44, 42, 17, -18, 32, 26, 30,
   0, -22, -29, 27, 25, -61, -29, 37,
   -9, -38, -60, -23, -18, -35, -44, -40,
   -18, -39, 31, -35, -53, 40, -7, 25,
   -45, -35, -19, 56, -5, -8, -22, 3,
   -18, -6, 5, -36, 14, 0, -28, -41,
   -38, -31, 36, -16, -25, -32, 64, -25,
   -41, 17, 15, 28, -62, -71, -23, -14,
   -7, -1, -35, 8, 9, -26, -4, 21,
   3, 17, -51, -17, 21, 28, 13, 21,
   -18, 7, 1, -45, 8, -24, -10, -13,
   -10, 26, -1, -6, -34, 51, 5, -23,
   17, 7, -17, 8, -19, 4, 19, -29,
   -15, -16, -24, -29, -41, -44, 41, 31,
   -17, 24, -18, 5, -13, 36, 47, -1,
   37, -26, 11, -23, -1, -7, -4, -10,
   8, 24, -6, -1, 13, 4, -2, -13,
   12, 10, -24, 40, -48, -1, 41, -25,
   -3, -28, -15, -29, 17, -37, 10, -16,
   14, 55, 44, 7, -23, 49, 14, -8,
   -7, 0, 24, 7, 36, 24, -22, 23,
   -13, 2, 23, 11, -28, 36, -10, 7,
   8, -1, 35, 11, 39, 26, 27, -41,
   -44, -40, -6, -9, 8, -17, -30, -20,
   22, -23, -11, 44, 23, 13, -10, 1,
   29, 33, 15, -5, -31, 17, 17, 16,
   25, -21, 4, -3, 19, -12, 11, -6,
   -1, 9, -19, 6, 29, -14, 24, 43,
   16, 2, 22, -1, -29, 5, -38, -15,
   25, -14, -17, 2, -28, -29, 23, -27,
   7, -12, -14, 8, 13, -11, 6, -27,
   39, -16, 17, -9, 16, -52, 3, 8,
   22, 21, -31, 1, 15, 5, 27, -13,
   -24, -4, 24, 31, -18, 12, -15, 28,
   4, -11, 3, 6, 11, -5, -46, -20,
   20, 16, 11, 6, -7, -19, 24, 29,
   -49, 5, 1, -8, 23, 17, -9, 3,
   37, -28, -35, -19, 33, -11, -1, -13,
   -10, -26, 3, -4, 9, -50, -41, 47,
   47, 10, -6, -57, 44, 79, 7, 27,
   6, -26, 15, 22, -64, -90, -41, 2,
   -32, -25, 17, 52, -23, -42, 52, -36,
   28, 34, -8, -4, -15, -9, -44, -38,
   -1, -51, 9, -47, 43, 30, -7, 35,
   -61, 16, -30, -9, 12, 34, 22, -32,
   34, 35, -67, -8, -6, -25, 15, 22,
   49, 24, -10, 59, -2, 15, 10, 21,
   -5, -10, 41, -30, 24, -25, 24, -50,
   -49, -6, 47, 27, -7, -5, -22, 2,
   15, 22, -1, -37, -1, 10, 32, 27,
   20, -32, 31, 7, 25, -63, -22, -17,
   -11, 43, 21, -27, -34, -23, 12, 33,
   -6, 22, -4, 23, 23, 45, -3, 3,
   32, 12, -21, -13, -49, 21, -9, 4,
   -5, -23, 26, 21, 25, -29, 22, 17,
   -16, 9, -27, 28, -12, -15, 41, -7,
   -50, 3, 36, 13, 32, 67, 22, 61,
   -44, -38, -70, 13, 52, 32, -5, -69,
   39, 32, 61, 11, -72, -4, 21, -12,
   12, 14, -11, -19, -31, 55, 27, -59,
   21, -34, -50, -18, -30, 28, -53, 46,
   80, -28, -27, -41, 28, 126, -105, -2,
   -2, 48, 61, 6, -55, 26, 7, 31,
   -42, 23, -78, -125, 5, -6, -18, -71,
   14, -14, 69, 87, -7, 14, -28, 33,
   6, 34, 31, 41, -55, 15, 46, 64,
   -49, -41, -28, 11, 24, -4, -6, -8,
   -29, 127, -24, 2, 99, -11, 8, -43,
   47, 3, -4, 21, 10, -23, 35, -4,
   -34, -17, 1, 46, -5, 11, -23, 19,
   -5, -1, 14, -2, 20, -19, -32, 1,
   84, -27, -1, -9, 63, -52, 21, 20,
   -10, 7, -2, 36, 28, 29, 14, 8,
   16, 8, 2, 16, 13, -98, -62, 19,
   39, 33, -15, 39, -39, 15, -71, -69,
   51, 16, 35, 17, 19, -2, -24, -17,
   41, -26, 13, -25, -61, 62, 47, 6,
   23, -53, -24, -2, -31, 35, 20, 10,
   41, 20, 48, 60, -18, 10, 26, -4,
   -9, -25, 30, 27, 29, -27, 24, -20,
   -17, 9, -18, -31, 18, 11, -7, 15,
   -15, 6, -15, 61, 1, -28, 33, -53,
   3, -12, -22, -45, 44, 14, 5, -14,
   -32, 36, -20, 5, -24, 27, -2, 28,
   -17, 47, 3, -17, 10, -12, -32, 8,
   65, -23, 38, -12, -37, 21, 15, 29,
   -39, -9, 8, 2, 40, 11, -33, -17,
   4, 23, 25, 10, 30, 26, 49, 4,
   -4, -3, 5, -17, 16, 1, 13, -13,
   44, -27, 0, 6, 27, 6, -11, 21,
   9, 35, 7, -20, 8, 17, -11, 25,
   18, -18, 22, -21, 21, 28, 8, -18,
   64, -11, 46, 30, -11, 4, -3, 52,
   3, 4, 25, -5, 20, 49, -8, 4,
   3, 9, 35, 14, -2, -32, -9, -2,
   10, -20, -11, -47, 36, 53, 32, -19,
   18, 4, -23, -6, -34, -2, 20, -36,
   -29, -23, 18, 9, -47, -16, -11, -12,
   7, 19, -6, 21, -20, 6, -5, 6,
   42, -12, 71, -37, 18, 21, 28, 23,
   1, -12, -3, 5, -16, -5, 6, -24,
   -8, 5, 13, -6, -20, 2, -34, -16,
   -1, 8, 16, 24, -2, 15, 1, -6,
   -20, -29, 22, 22, -41, 5, 8, 10,
   28, 25, -11, 34, 20, 14, -25, 2,
   3, 19, -13, -29, 16, -17, 21, 16,
   32, 8, -11, -17, 23, 5, -17, -28,
   13, 32, -29, 26, 2, -1, -41, -19,
   -4, -32, 8, 28, 30, -24, 1, 46,
   15, 15, 16, 18, -20, -2, 2, -10,
   12, -32, -4, -10, 55, -37, -53, -35,
   8, 19, -15, 6, -6, 4, 55, -14,
   28, -18, 30, -27, 4, -23, -14, 5,
   -11, -4, 14, -10, -11, -51, 14, -40,
   20, -31, 8, 50, 24, -10, 26, 4,
   -53, -4, 31, -7, 20, 28, -20, -41,
   21, -4, 9, -2, -19, 13, 33, 10,
   7, 21, 22, -29, 17, -22, -23, 10,
   16, -11, -25, -9, 6, -26, 25, -3,
   -13, -11, -16, -5, -21, 6, -30, 30,
   7, -38, -22, 17, -18, -23, 15, -22,
   -4, -16, -18, 12, 19, 18, 32, -14,
   5, 21, 19, -23, 4, 13, 33, 10,
   6, -7, -20, -40, 37, -17, 15, 20,
   20, 29, -11, -6, 3, -18, 10, 24,
   -2, -8, -17, 0, 23, 15, 17, 18,
   5, 37, 10, -52, -40, -30, 33, 6,
   -11, 26, -14, -13, -39, 27, -12, -28,
   26, 76, 21, -63, 31, 10, 124, 87,
   25, 15, 61, -1, -14, 49, -32, -15,
   25, -30, -6, -105, 62, -49, 1, 17,
   37, -31, -41, 104, -8, -58, 93, -75,
   -8, 74, -58, -46, -26, 31, 69, 65,
   35, 13, 27, -39, -22, 33, 87, -44,
   10, 46, 80, -14, 47, 40, 29, 21,
   -23, 6, 1, 108, -43, 23, -92, 33,
   25, -11, -75, 43, 10, -79, -44, -25,
   -57, 61, -127, -3, -8, 114, -42, 22,
   27, 44, 12, 43, -86, -66, -52, -1,
   -7, -127, 72, 4, -28, -22, -32, 24,
   12, -60, -25, 14, 3, 40, -31, -6,
   -10, 10, 23, 63, -3, -25, 19, -6,
   -20, -8, -33, 34, 8, 72, -18, -25,
   -73, 30, -20, 44, -37, -15, -2, -27,
   17, 40, -47, -14, -27, -24, 22, 6,
   -33, 30, -45, -13, 53, -34, -27, -8,
   -10, 69, 86, 120, -32, 0, -28, -26,
   -12, -55, -6, 126, 31, 95, 4, 89,
   90, 20, -9, -45, -78, -81, -108, 21,
   -123, 51, 30, 107, -39, 40, -122, 108,
   -48, 45, -1, -124, 64, 108, -59, 119,
   -16, -35, 48, 113, 122, 63, 45, 62,
   59, -102, 25, -77, 38, 56, -86, 60,
   20, 63, -125, -127, 71, -59, 97, -3,
   -37, 68, 31, 102, -65, -8, 127, -71,
   10, -128, 123, -34, -55, -121, 48, -54,
   45, 10, -42, -19, 126, -12, -61, -67,
   26, 100, -90, 70, 10, 121, 118, 58,
   11, 26, 6, 24, 93, -28, 4, -54,
   23, 54, -120, 45, -90, 112, -56, -28,
   5, -28, -26, 2, -71, 82, -85, 126,
   -14, -71, 13, 126, 1, -127, 125, -41,
   -14, -97, 26, -51, 2, -78, 127, 32,
   -20, 102, -30, -98, -2, -38, 35, -61,
   4, 5, -23, 45, -24, -62, -16, 39,
   43, 5, 15, -17, -2, 9, -17, 1,
   -11, -12, -20, -2, 24, -16, -12, 12,
   22, 17, -11, 31, -12, 35, 6, 11,
   19, 21, 28, 4, -11, -39, 52, 1,
   31, 14, 5, -29, -14, 22, -61, -3,
   34, 25, -5, 42, -7, 9, -45, 29,
   4, -30, 73, 6, -2, -12, 41, -9,
   14, 14, 7, 32, -23, 22, -20, -3,
   -45, -5, 57, -42, 3, 30, -13, -35,
   35, 9, 28, 4, 11, 6, -20, -7,
   6, 0, -14, -10, 30, 5, 51, 22,
   -1, -1, 30, -7, 16, -17, 2, 12,
   1, 7, 0, 34, -7, -7, 16, 4,
   -23, 0, 34, 16, 18, 19, -13, -14,
   -18, 16, 48, 12, -25, -6, 6, -45,
   -13, -20, -1, 13, 22, -15, 4, -11,
   0, -32, 27, 32, -18, -19, -8, -7,
   24, 12, 10, 7, -8, 20, 1, 30,
   -20, 4, 5, -29, -32, 18, -1, -10,
   4, -25, -11, 7, 27, -4, 0, 19,
   30, -8, 0, 16, -12, 1, -8, -37,
   13, 14, -24, -16, -13, 2, 0, 0,
   1, 17, 22, -9, -24, 10, 12, -33,
   -1, 5, 7, 7, -16, 32, 31, -9,
   -6, 11, -51, 43, -41, 0, 9, -16,
   14, 0, -11, 2, 2, -32, -21, 4,
   -9, 21, -20, 9, -9, 31, 4, 28,
   5, 10, 21, -9, -18, -13, -20, -1,
   -13, -28, 22, 2, 11, -21, -16, -20,
   5, 16, 2, 8, -15, 18, -14, 7,
   -6, -8, -9, -20, 34, 1, 16, -1,
   -16, 2, -13, 16, -2, 23, 0, -21,
   0, 4, -9, 3, -2, 17, 6, -12,
   -8, 32, 6, 1, 14, 4, 5, 10,
   9, -17, -14, 16, 5, -29, -28, 0,
   25, -12, -8, -30, -5, -3, -7, 22,
   -8, 16, -4, -40, -16, 12, 5, -13,
   -42, -3, -18, 28, 4, 19, 4, 11,
   26, -3, -16, -15, -3, 11, 14, -29,
   2, 9, 54, 28, -12, 12, 17, -24,
   14, -4, 1, -4, -41, -37, 12, -17,
   -13, 47, -5, -16, -25, -22, 27, -22,
   -12, -9, 126, 50, -5, -8, -20, -11,
   8, -38, -21, -32, 1, 35, -39, 12,
   11, 8, -27, 16, 16, 24, -30, 19,
   -38, -25, -21, 36, -49, -7, 13, 12,
   4, 26, 3, -31, 26, -23, 12, 30,
   0, -43, 5, -21, -19, -16, -1, 15,
   -3, -1, 19, -19, -3, -22, 22, 11,
   46, 1, 1, -16, 15, -10, 20, -13,
   11, 21, 10, -20, 32, 35, -21, -16,
   -10, 22, -19, -2, -13, 5, -17, -7,
   -6, -18, -14, -16, 1, 31, -10, -4,
   -7, 38, -1, 29, -9, -1, -28, 20,
   -19, 39, -25, -27, -12, -35, 1, -21,
   21, -2, -27, 15, 10, 18, 4, -8,
   14, 13, 2, -5, -18, 20, 29, -12,
   1, -33, 16, 31, -1, -19, -15, 12,
   22, -33, -11, -50, -47, -56, 30, -3,
   -6, -64, 9, 25, -15, -52, 12, -17,
   4, -51, -95, 25, -6, 5, 11, -38,
   -41, 4, -22, -14, 4, 4, 20, -28,
   10, -30, -2, 32, 21, -30, -60, -3,
   25, -25, 38, 14, -49, 23, 28, 6,
   33, 52, -42, -30, 8, 58, 7, -53,
   -16, 46, 13, 39, -10, -3, -1, 7,
   -10, -16, -17, -28, -1, -21, 3, 11,
   -39, 22, 14, -11, 18, -17, -9, 16,
   -3, 13, -9, -9, 1, -4, 30, -22,
   20, 4, 20, -19, -20, -14, 7, 1,
   -36, -52, 25, 3, 15, 30, -13, 18,
   28, -11, 6, 5, 1, 18, -5, 58,
   -7, -9, 4, -8, -23, 5, 7, 26,
   -9, -74, 7, 8, 15, 4, -44, 8,
   16, 13, 8, -1, 24, 1, -52, 4,
   17, -20, -1, -26, -6, 36, 15, -17,
   20, 6, -16, -42, -54, 53, -37, 17,
   -12, 57, 5, -16, 27, -30, 7, 16,
   -33, 13, 2, 11, -27, -25, -5, -26,
   17, 19, 51, -29, 7, -19, 116, 7,
   -8, -6, 10, 39, -6, -22, 34, -5,
   6, -20, -68, -31, -22, 10, -6, 4,
   -24, 78, -47, 4, 12, 2, 20, 11,
   -30, 1, 2, -44, 17, -8, 0, -8,
   -12, -9, -40, -16, 20, 22, -17, 8,
   56, 40, 1, -15, 4, 6, -34, 29,
   12, 2, -3, 46, -3, -37, 15, -24,
   25, -2, -12, -29, 40, -11, 4, 10,
   -28, 4, 37, 11, 7, 21, -28, 30,
   -24, -14, 8, -43, 25, -2, 0, -16,
   -27, -41, -28, 5, -18, -4, 17, 12,
   0, -24, 6, -47, 1, -16, -1, 4,
   -9, 5, -5, -63, -7, 16, -97, 13,
   -11, 1, -48, -47, -10, -5, 2, -14,
   -79, 35, -14, -14, 7, 35, -88, -11,
   -13, -20, 49, 50, -1, -7, -11, 58,
   23, 42, 59, -59, 59, -19, 29, 27,
   -17, 27, 49, -25, 13, 15, 50, 10,
   25, 3, 13, -18, -47, -44, 33, -8,
   21, 22, 33, -23, 7, 34, -63, 5,
   -90, 46, -19, 19, -15, -80, 11, 39,
   -46, -2, -3, 45, 1, -15, -12, -28,
   3, 58, 39, 25, 16, 12, -10, 2,
   3, -2, -9, -3, -5, -25, 1, 12,
   7, -15, -10, 6, -5, -41, -52, -5,
   24, 5, 12, 17, 40, 8, -24, 3,
   53, 13, 8, 28, -30, 20, 7, -22,
   -41, -2, -14, 57, -6, -17, -38, -61,
   -9, -1, 20, -1, -20, 11, -9, 28,
   -8, 58, 10, -85, -16, -8, 27, -18,
   -7, -16, -8, -55, -6, -3, 92, 7,
   -30, -8, 24, -5, 6, -20, -26, 41,
   -115, 4, 13, -6, -7, -64, -65, -33,
   12, -8, 14, -30, -20, -9, -10, 42,
   0, 66, -81, -43, 43, -12, 40, -16,
   12, -20, 4, -51, -49, 68, -77, -58,
   -30, 6, 5, -38, 16, -70, 4, 7,
   -21, 63, -58, 17, 18, 37, 92, -14,
   -82, 21, -17, 56, -35, 22, -5, -102,
   -48, 14, -1, -45, -32, -8, -28, -28,
   -4, 10, -8, 32, 0, -31, -3, 6,
   -13, -63, -23, -3, 7, 12, 34, 17,
   -8, -23, 5, -30, 10, -35, 58, 0,
   11, 44, 1, 13, -7, 17, 31, -1,
   63, -38, -17, -24, -16, 7, 24, 3,
   20, -37, -6, -125, 65, -14, -67, -81,
   1, 83, 127, 7, -75, -126, 9, 13,
   -1, 114, 98, -73, -74, -23, 3, -38,
   -49, 46, -38, 126, 7, -27, 1, -42,
   -21, -117, -86, 118, 115, -25, 66, -93,
   65, -128, 55, 123, -125, -83, 31, -32,
   4, 58, -128, 127, 33, 30, 0, 116,
   -83, -3, 127, -66, -95, 109, -3, 30,
   -42, 4, -128, -22, -105, -26, -26, -25,
   -28, -67, -17, -118, 96, 52, -74, 66,
   -121, 17, 119, 126, -38, -83, -4, -25,
   124, 43, -33, 25, 61, 88, -8, 115,
   3, 55, 2, 126, 24, 40, 13, -23,
   -124, -86, -128, 33, 31, 127, 4, -10,
   39, -58, 78, -12, -5, 66, 47, 16,
   35, -98, 1, -3, 48, -11, 114, 11,
   -99, 125, -45, -120, -126, -42, -77, 20,
   -70, -36, -38, -51, 20, 64, 15, 70,
   11, -13, 10, 127, 127, -76, -8, -38,
   -19, 45, -113, 67, 57, -6, -34, 117,
   -30, -71, -25, -120, -92, -123, -70, -58,
   -25, 96, 19, 106, -23, 15, -126, -111,
   70, -16, 103, -124, 38, -22, 45, 76,
   103, 50, 69, 102, 116, -21, 78, -56,
   -8, -103, 112, -128, 121, 82, -44, 125,
   40, 123, -114, -121, 127, 32, -26, 126,
   -60, 126, -66, 85, -101, -125, 126, 127,
   45, -42, -12, -119, -92, 20, 109, -67,
   -125, -66, -127, -108, 89, -127, -107, -111,
   75, 34, 36, -78, 118, 127, -123, -19,
   84, -43, -106, -128, 68, 57, 17, -14,
   -63, 50, 121, 36, -34, 127, -43, -21,
   -43, 127, 50, 11, -15, 16, -31, -54,
   -45, -24, -100, -109, -16, -18, -40, 52,
   -128, 32, 117, 113, -104, 55, 4, 44,
   -128, -36, 46, 11, -126, 85, -64, 92,
   -96, 28, 9, -128, -1, -24, -84, 122,
   112, 42, -105, 0, -121, 127, -26, 62,
   -30, 88, -11, -46, -104, 127, 92, 28,
   -94, 88, 3, -7, 12, -18, -51, 15,
   81, 72, 127, -118, -128, -80, -122, 121,
   85, -88, 60, 63, 125, -14, -12, -15,
   70, 127, 126, 127, 55, 62, 3, -128,
   -105, 107, 45, -128, 60, -128, 78, 33,
   -50, -50, 39, 7, 63, 38, -36, 13,
   -126, -3, 28, 21, 7, 82, 28, -98,
   125, -124, 89, -60, 61, 46, 49, 99,
   126, 36, 74, 6, -125, -119, -7, -121,
   90, 18, -106, 124, -36, 70, -39, -35,
   73, -20, 50, 43, 62, -126, -18, 61,
   -37, 56, 77, 59, -2, 90, -9, -31,
   -5, 18, -104, 5, -1, -93, 32, 33,
   -36, -74, -128, 98, 127, -20, 124, 29,
   -79, -29, 39, -14, -124, 17, 11, 75,
   48, 12, 94, 126, 21, 16, 1, 70,
   -21, -116, 101, 2, -7, -46, -24, -55,
   -18, 121, -12, -82, -105, -33, 127, 65,
   87, -57, 40, 95, 48, -78, -48, 127,
   38, -3, -121, 28, -18, -9, 82, -125,
   -123, -64, 34, 43, 120, -46, 42, -4,
   116, -128, -127, -126, 35, 47, 13, -128,
   127, -128, 110, -117, 97, -87, -60, 33,
   64, -121, -128, 111, 95, 21, -110, -125,
   -89, 49, -79, 127, 66, 120, 12, 43,
   126, -88, -29, -64, 127, 111, -96, -81,
   -38, 65, 77, 75, -102, -47, 94, 121,
   126, 58, 113, -128, -20, -41, 42, -82,
   -54, -14, -120, 14, -88, 84, -11, 86,
   -6, -122, 5, 34, 80, -116, 127, 45,
   55, 33, 6, 106, 56, -109, 42, -61,
   49, 24, 127, -125, 119, 16, -128, 9,
   122, 44, 81, 64, -122, -99, 122, -95,
   -106, 35, 45, -128, 35, -92, -14, -22,
   47, -97, -38, 51, 75, -128, 10, 82,
   -85, -118, -46, 52, -128, 17, 69, -51,
   56, -44, 39, 23, -30, 51, 19, -84,
   -65, -63, 127, 16, 72, -3, -126, 126,
   -41, -64, -97, 38, 126, -11, -33, 27,
   127, 127, -67, 49, 52, -73, -54, -83,
   -25, -81, 80, -55, 49, 77, -24, 127,
   47, -14, -128, 124, 127, -125, 122, 2,
   19, -125, 37, 122, -128, -106, 16, 87,
   127, 99, 59, 68, -6, -100, 67, 107,
   -53, 127, 88, -69, 45, 127, 95, -39,
   127, -24, 18, 127, 15, -14, -120, -29,
   127, 84, 30, 124, -24, 127, -37, -120,
   -39, 34, 2, 112, 127, 126, -6, 2,
   13, 92, -2, 25, -96, -85, 115, -16,
   125, -63, -128, -127, -128, -55, 121, 1,
   66, -30, -17, 38, -22, -53, 91, -43,
   -34, 71, -33, 25, -34, -49, -6, -42,
   62, 123, -47, 67, 93, 82, 47, 5,
   92, 33, 10, -93, -29, 126, -45, -22,
   13, -123, -66, 59, 51, 104, -25, 48,
   -128, 118, -106, -51, 24, 127, -70, -75,
   110, -109, 13, -125, 112, -9, -48, -60,
   43, -126, 127, 123, 5, -92, -4, -77,
   60, -117, -126, -127, -91, -111, 51, 105,
   -36, 60, -21, 92, 127, 17, -125, -74,
   -54, -54, -74, -127, -24, -127, 88, -122,
   -34, 18, -49, -125, -124, -120, 127, -81,
   -127, -49, -73, -128, -128, 120, 80, 127,
   61, 13, -34, -86, 13, -71, -4, -1,
   -56, 100, 88, 100, 124, -128, -33, -50,
   -2, 127, -7, 35, 124, 106, -30, 3,
   30, 30, -2, -56, -24, -67, -48, 89,
   67, -127, 126, -53, -67, -123, -64, -11,
   -107, 11, 19, 123, 125, -127, 104, 34,
   115, 11, 60, -26, -55, -95, 10, -45,
   -96, 37, 5, -16, -25, 51, 119, -122,
   19, 6, -4, -47, -120, -119, -123, -84,
   1, -90, 16, -90, 32, 65, -21, -19,
   -68, 77, -80, 108, -112, 26, 103, -128,
   -115, -109, 25, -57, 122, -118, 19, 89,
   -9, -27, -122, -128, 99, 88, -34, 21,
   -70, -75, 44, 121, 120, 20, 127, 14,
   16, 123, 127, 126, -115, 126, -117, -87,
   -2, 108, -96, 127, 1, -60, 53, 3,
   0, 36, 127, -55, -95, -15, -78, -54,
   78, 9, -12, -45, -102, 58, -55, 127,
   -1, -84, 117, 30, -7, -36, -31, 3,
   -73, 126, -126, 59, -51, -23, -57, 70,
   -10, 92, -70, 127, 125, -60, 58, -7,
   70, -108, -38, 42, 16, -19, -49, 45,
   114, -89, -128, 126, 7, -78, 11, 58,
   66, -5, -42, -65, -48, -82, -108, -89,
   -53, 59, 67, -127, -48, 64, -37, 8,
   25, -38, -55, 92, 23, 35, 126, -19,
   59, 53, 2, -73, 40, -81, 124, -37,
   -41, -127, 45, 17, 29, -78, 8, -40,
   -125, 4, -30, 41, 70, -128, -85, -1,
   19, 1, -76, -20, 33, -28, 124, -19,
   127, 4, -35, 124, 54, -96, -106, 5,
   118, 21, 127, -124, 119, 126, -122, 20,
   4, -88, 69, 127, 64, 126, 2, 51,
   -71, -117, -31, 34, -62, 127, -116, 125,
   -127, -113, -81, 117, 6, 127, 127, 92,
   125, -4, -120, 47, -126, 127, -100, -53,
   -34, -60, 88, -56, -49, -49, -28, 28,
   81, 46, 16, 92, 47, 117, 49, -64,
   -34, -127, 39, 116, 127, 69, 126, -22,
   4, 18, -16, -29, 1, 124, 26, 42,
   127, -122, 25, -122, 46, 127, 33, -52,
   -85, 123, -12, 127, 109, -41, -97, -99,
   -113, -5, 6, 95, 48, -3, -58, 124,
   29, 5, -76, 126, 81, 18, 119, 87,
   -128, -2, 89, -119, -55, 4, 26, 14,
   -47, 49, -14, -19, -42, -5, -50, -16,
   -97, -91, -75, 124, 36, -128, -12, -90,
   -83, -12, 40, 4, 125, 45, 96, 13,
   127, -51, 126, -125, -106, -19, -24, 23,
   -105, -42, -4, -70, -39, -110, -114, -33,
   19, -128, -93, 116, 125, -123, 57, 98,
   123, -98, -7, -126, -63, 127, -42, 30,
   -34, -66, 45, 89, -121, 99, -116, 98,
   -53, -27, -36, -43, 60, 126, -105, 97,
   -53, 11, -81, 126, 23, -110, 5, 46,
   -18, -80, 41, -14, 84, -128, 65, -18,
   -4, -97, 95, 90, 127, -104, 83, -3,
   41, 15, 74, 40, -68, 113, -5, 22,
   3, 26, 81, -43, -36, -4, -19, -9,
   -54, -34, 32, -120, 127, -24, -126, -16,
   56, -14, 53, 92, -125, 6, 1, 25,
   -25, -80, -74, 69, 76, -22, 56, -100,
   5, -12, -107, -54, 69, -96, -60, 17,
   -123, 127, 11, 124, 41, -52, -1, -18,
   -101, -94, -112, 83, 85, 21, -126, -125,
   7, -47, 54, -128, 127, -11, 24, 46,
   -79, -27, 0, 11, -84, 6, 39, 17,
   57, -89, 83, 127, -45, -4, -59, -27,
   43, 78, 21, 127, 33, -48, -85, 10,
   105, 123, 38, 120, -18, 77, -128, 6,
   -128, 122, 0, 112, -15, 7, -1, -35,
   -126, -51, 106, 102, -105, 124, -120, -96,
   -115, 100, -15, -126, -44, -110, -105, -33,
   -17, 81, -54, 14, -10, -100, -38, 70,
   78, 127, 19, 123, 73, 64, -73, -6,
   13, -124, -122, 29, -94, 62, 33, 38,
   -24, 127, -108, 123, -22, -88, -77, 21,
   51, 127, -68, 127, 0, -61, -108, 17,
   110, 37, 103, -6, -41, -29, 38, 82,
   93, 6, 121, 127, 18, -26, 16, 79,
   35, 104, -110, 81, 50, 14, -128, 46,
   29, 25, 34, 9, -121, 76, 126, 47,
   -24, 38, 27, -83, -67, 127, -4, 126,
   37, -5, 83, 45, 115, 59, -128, -5,
   -119, 48, 8, -13, -124, 60, -121, -71,
   18, 125, 60, 54, 25, 117, -100, 115,
   -68, 127, -89, 121, -4, 117, -11, -77,
   -62, 75, -76, 49, 102, -128, -1, -28,
   40, -64, -78, 44, 109, -28, 5, -95,
   30, 9, -128, -13, 123, -26, 126, 6,
   -126, -76, 126, 100, -43, -40, -13, 79,
   -43, -56, -19, -2, 42, -13, 62, -35,
   -91, -15, -80, 114, 90, -126, -6, 74,
   83, -40, -88, -52, -22, -39, 6, 14,
   -18, -4, 121, -70, 43, -85, 13, -45,
   -18, 5, -62, -127, 127, -14, 127, 123,
   118, 16, 30, -60, 33, 70, -39, -15,
   62, 69, 127, 72, -43, -93, -21, -6,
   64, 23, -126, -5, -32, 127, -49, 60,
   -30, 70, 41, 77, 65, -10, -97, 125,
   104, -19, -46, 113, -103, 127, -39, -128,
   -128, 72, 120, -92, -23, -35, -128, -121,
   -66, 115, 76, 126, -26, -26, -5, -28,
   -28, 74, 12, 22, -126, -66, -68, -92,
   -83, -124, -124, 127, 32, -128, 21, 14,
   -37, 119, -122, -127, 19, -123, 13, -120,
   127, 86, 49, -122, 126, 121, -117, -102,
   -121, 39, -128, -50, -128, 94, 127, 76,
   -124, 84, 17, -12, 0, -125, -95, 40,
   55, -16, -109, -9, -15, 70, 1, 58,
   -27, -63, -37, 14, 44, -72, 107, 21,
   31, -2, -61, 30, 15, -100, -54, -22,
   8, -89, -26, -100, 17, -110, 106, 59,
   62, 119, 119, 77, -32, -125, 127, 42,
   -41, 82, 17, -124, -93, -125, 18, -64,
   -68, -38, -36, -31, -6, 37, -13, -34,
   21, -58, -52, -14, -53, -18, -22, -31,
   -54, -12, -93, 51, 30, 11, 127, -15,
   -46, -58, -81, 33, -63, -49, 66, 37,
   65, -68, 122, -3, 59, -10, 58, 93,
   -15, -28, -46, 27, -125, 76, 106, -126,
   -128, -22, -67, 123, 26, -5, -120, -67,
   126, -64, 81, 17, -60, 8, 34, 127,
   -128, 64, -83, -109, -119, 61, 33, -68,
   21, 108, 98, -4, -118, -93, -57, 1,
   8, -61, 73, 106, 66, -66, -120, -124,
   16, 23, 127, -5, -126, 110, -97, -3,
   -79, -101, 40, 91, 90, -45, 62, -127,
   21, -27, 82, 12, -6, 127, -1, 10,
   107, 105, -127, 108, 87, -102, -122, 127,
   9, 31, 26, 110, 17, 31, 29, 54,
   50, 84, -122, 57, 20, -19, -86, -2,
   -117, -128, 38, -46, -111, 125, -18, 35,
   -2, -83, -30, -26, 3, -13, 31, 22,
   91, -43, -40, 12, -61, 84, 70, -7,
   -65, 12, 49, -114, -109, -68, -3, -53,
   -97, -75, 19, 29, 0, 0, 51, -80,
   49, 75, 76, 42, -4, -99, 25, -38,
   70, 51, -12, -72, -108, -2, 77, 47,
   126, -86, 112, 126, 47, -34, 62, -28,
   -100, -121, -115, -107, 10, 18, 46, 75,
   36, 58, -93, 58, -93, 31, -128, 20,
   -68, -28, -128, 0, -126, -15, 90, 112,
   48, -54, 69, -94, -34, -35, -45, -6,
   -21, -28, -103, -24, -127, -46, 107, 33,
   -127, 13, 84, 75, 86, -6, 66, 103,
   -30, -2, 18, -39, 61, -20, 51, -4,
   37, 126, -69, -91, 36, 24, 14, 20,
   -20, 28, -112, -82, 91, -6, 2, -128,
   26, -63, -92, -18, 48, 91, -54, -95,
   -71, 127, -36, 118, -98, -27, -27, -41,
   63, -25, 17, -52, -49, -64, 11, -41,
   0, 3, -71, 45, -123, -13, -106, 100,
   -27, -90, 28, -115, 102, -43, -19, 63,
   59, -38, -84, 26, -14, -18, -24, 84,
   65, -47, -44, -127, 40, -59, 46, 48,
   47, -74, -79, 91, 83, -128, 122, 117,
   -3, -35, -59, 89, 108, 84, 127, -65,
   -111, -105, 15, -69, -3, 116, -8, -126,
   59, -32, -62, -34, 76, -17, 54, 127,
   113, -58, 127, -9, 54, 69, -47, 123,
   67, 117, 30, -24, -109, 124, -58, 8,
   -15, 54, -127, 84, -52, 7, 5, 55,
   59, 122, -112, 7, 93, -34, 70, 57,
   -29, 42, -79, 7, 67, -123, -31, 74,
   7, 10, 37, -50, 123, 44, 14, -127,
   -6, 5, 127, -127, -11, -72, -126, 19,
   -128, -124, 119, -26, 32, 36, -11, -106,
   64, -51, -30, 5, -20, 5, 9, 127,
   -73, 89, 22, -32, -58, -53, 103, -30,
   127, 43, -63, -101, -14, 71, -125, -5,
   18, -114, 27, 115, -123, 24, 23, 19,
   118, -10, 123, -37, -23, -23, -80, 22,
   90, 92, -61, -14, -128, 32, -15, 45,
   -30, 45, 46, -122, -43, -128, -104, -104,
   -127, 122, 36, 53, -122, -4, -127, -8,
   -2, 53, 67, -79, -24, -61, 88, -119,
   -79, -42, 45, 126, 119, -28, -22, -49,
   -15, -7, -128, -26, -21, 40, -49, -100,
   -7, 27, 32, -128, -111, -68, 63, 82,
   -74, 66, -67, -87, 60, -38, -123, -15,
   -127, -43, -1, -41, 127, 51, -4, -6,
   36, 71, -124, 10, 22, 80, -102, 55,
   -7, -86, 12, 127, -49, 21, 33, -128,
   -11, -15, -127, 88, -128, 15, 127, -22,
   -50, -21, 126, 45, 72, 77, -53, -128,
   8, 12, 51, -126, 86, 13, -56, 89,
   -44, 64, -123, -99, -110, -57, -20, 9,
   3, -50, 24, -103, 4, -20, 112, -43,
   54, 77, 45, -127, 16, 57, -128, -31,
   77, 26, -111, -49, -56, -54, 93, -75,
   -107, -44, -4, 27, -5, 102, 48, -99,
   -124, -91, 127, 125, 15, 125, 37, 116,
   127, 25, 99, -103, 112, -67, -125, 16,
   46, 99, 10, 11, 64, 2, 28, -10,
   -30, 64, 80, -127, -128, 52, 64, -90,
   125, -90, 126, -106, 67, 35, 47, 73,
   -119, 127, -96, 118, 116, -125, 91, -50,
   -70, -4, 107, 88, 60, 48, -106, -81,
   127, 74, 54, -65, 15, 62, -48, 67,
   22, -32, 10, -11, -27, -89, 37, -23,
   -68, -70, 12, -116, -54, -28, -25, -19,
   3, -33, 118, 85, 123, 30, -128, -10,
   127, -13, 74, 12, -72, 31, 22, 120,
   3, -9, 3, 113, 127, -39, -60, -44,
   -34, -31, 11, -33, -30, 122, -11, 45,
   -59, -128, 80, 69, -24, 7, 124, -2,
   54, 111, -66, 79, -119, -46, 119, -35,
   39, -122, 110, 4, 26, 27, -128, 22,
   -89, 95, -34, -41, -32, 84, -105, -61,
   -9, 50, 26, -127, 46, 3, 13, -99,
   35, -66, -4, -52, 85, -102, 44, 24,
   -81, -128, 38, 66, -88, 127, 6, -38,
   30, 72, 49, -117, 125, -104, 50, 27,
   -22, 112, -50, 80, -53, 120, 20, -50,
   -125, 73, 83, 26, 98, -5, 125, -63,
   -57, -26, 83, -52, 74, -45, -60, -19,
   103, 26, -63, 74, 104, -123, -47, 13,
   -19, -117, 127, -10, -25, 33, 66, -23,
   -122, 29, 87, -60, -73, 2, 7, -22,
   19, 119, -43, -33, 52, -36, 127, 66,
   127, 4, -43, -81, -70, 64, 38, 92,
   -29, 108, -36, -126, -39, 68, -39, -25,
   20, 44, -46, 8, 16, -2, -1, -8,
   53, -31, 4, 38, -68, -17, -57, 60,
   -44, 30, -38, -2, 42, 106, 115, 61,
   112, -62, 4, -13, -96, -112, 29, -19,
   27, -64, -20, -17, 56, -39, 18, 114,
   -25, -46, -34, 35, -11, -27, 121, -34,
   -32, -28, 36, 62, 16, -78, -44, 23,
   13, -5, -16, -8, 77, -17, 89, 26,
   24, 101, 37, -23, -2, 5, -21, -60,
   -16, 13, 127, -29, -94, -113, -44, 32,
   63, -52, -26, 88, 100, -13, -11, -76,
   21, 77, 18, 20, -10, 19, -126, 6,
   44, -19, 39, 86, -30, -64, 56, -113,
   46, 10, 9, -18, -6, 102, 55, 17,
   7, 60, 28, 37, 42, -122, -116, 72,
   40, 20, -40, 127, -49, -47, 53, 109,
   67, 19, -7, -17, 14, 1, -51, 29,
   -46, 92, 8, 99, -34, 5, -16, -61,
   10, -4, -9, -87, 62, -28, -6, 12,
   -46, 126, 29, -4, -66, -55, 95, -54,
   27, 76, -18, -10, -56, 36, -45, -20,
   -38, -14, -73, -10, -32, -31, 17, -46,
   -24, 69, -62, 25, 102, 4, 120, -33,
   -109, 44, -37, -16, -14, -11, 4, 97,
   59, -11, -78, 59, 17, 9, 24, 69,
   11, -100, -85, -3, 79, 127, -36, 46,
   -57, 8, -128, 89, 48, -10, -124, 44,
   -63, -38, -127, -100, -123, -24, 112, 52,
   -24, -37, 79, 25, 11, 65, -87, 33,
   -2, -21, 28, -23, -31, 5, 126, -7,
   -79, 0, 60, -72, -112, -10, 112, 62,
   -113, 68, -68, -18, 5, -35, -32, -29,
   35, 108, 18, -17, -44, -55, 66, 61,
   -20, -15, -72, -101, -37, -32, -30, -116,
   23, -15, -9, 18, 73, 17, 11, -55,
   -20, -86, -18, -37, 1, -25, -13, -49,
   -29, -68, -17, -36, -19, 62, 100, -41,
   35, 103, -58, 5, -10, 9, 78, 106,
   39, -27, 32, -30, 127, 56, 36, -35,
   36, 27, 82, 66, 62, 64, 18, 78,
   -43, -45, 22, -128, -21, 6, 64, 28,
   -22, 0, -30, 70, -123, 86, 41, 3,
   -78, -63, 91, -70, 7, 96, 66, -65,
   2, -46, 117, -9, 51, 90, -110, -28,
   10, 19, -75, 20, 47, -29, 93, -15,
   -53, -56, 122, -43, 74, 58, 77, 96,
   -54, 119, -35, 87, -96, -62, -36, -7,
   12, -29, 40, 38, 7, -35, -45, 24,
   -4, -23, 21, -124, 52, 34, 88, 1,
   -15, 33, -48, 13, -6, -52, 4, 25,
   41, -29, -16, -47, -61, -59, 2, -95,
   4, 50, 92, -100, 78, 10, -32, -7,
   -33, -9, 12, -33, 2, -12, 29, -21,
   -60, 108, -16, 92, 29, 14, -32, -20,
   12, 33, -1, -45, 36, 63, -15, 14,
   -87, 3, 2, 10, 2, -18, -122, -93,
   21, -84, 29, 97, -30, -7, -12, -22,
   -11, 10, 12, 2, 53, 17, -40, -9,
   -14, -65, 68, 69, -47, -45, 16, -36,
   102, 21, 126, -71, 45, -125, -86, -114,
   -125, 45, -124, 15, 2, -123, 80, 24,
   7, 46, 29, -1, -43, -85, 0, 57,
   -3, -7, 50, -9, 110, -28, 45, 75,
   53, 54, -115, -42, 44, 22, 2, -54,
   -102, 57, 30, -54, -67, 38, 71, 84,
   -15, 37, -7, -31, 19, -31, -66, -16,
   -30, 13, -23, -116, 59, -5, -22, 48,
   -115, 24, 58, -15, 23, 27, -47, -33,
   -25, -81, -5, 47, -124, 93, 4, -64,
   0, 20, -28, 123, 67, 16, 75, 18,
   -37, -22, 21, 76, 35, 13, -18, 21,
   44, -59, 37, -90, 19, 26, 4, 36,
   -8, -60, -9, 47, -11, -60, -1, -4,
   58, -126, -44, -5, 29, -38, 9, 74,
   41, 42, -3, 17, 98, -65, -14, -45,
   -11, 47, -11, -21, -15, 20, 26, -22,
   -8, 86, -23, -1, 4, 72, -48, -3,
   31, 26, -16, 36, -3, 10, -61, 79,
   127, 64, 47, -93, 83, -5, -127, -26,
   -18, 19, -125, -15, -33, 10, -24, -14,
   -94, -14, 64, 58, -72, 22, 4, 0,
   13, 66, 85, -13, -2, -4, 49, 34,
   127, 49, -44, 18, 4, -68, 26, -1,
   -13, -28, 26, 55, -19, 21, 69, 5,
   4, -15, -16, -24, -12, 7, -63, -2,
   98, -30, -17, 76, 18, -19, -32, -31,
   3, -19, -26, 44, -39, 22, 30, -19,
   -8, 34, 37, 33, 50, 46, -92, -6,
   13, 14, 8, 25, -38, 57, -8, 86,
   -10, -40, -27, 72, 45, -108, 32, 48,
   -3, 0, -33, 44, -35, 36, -23, -13,
   -84, -86, 60, -31, -10, 30, 67, 30,
   38, 57, -21, -86, -18, 4, -13, 26,
   78, -10, 58, -26, -67, 41, -46, 7,
   -7, -37, 13, -11, -20, -43, -115, -91,
   8, -17, -33, -22, 96, 39, -92, -53,
   -14, 6, -39, -34, -76, 2, -116, -51,
   -28, -108, -49, 18, 123, 86, 57, 6,
   34, -18, 25, -94, 51, -2, 34, -63,
   27, 19, -5, 1, -84, -31, 16, -29,
   119, -44, 27, 52, 96, -2, 42, -38,
   -37, 105, -50, -39, 17, -15, -118, 4,
   2, -1, -3, 13, -32, -8, -59, 5,
   -37, -59, 67, 16, -26, 18, 20, 13,
   -30, 53, -35, -91, -109, 23, -2, -32,
   28, 24, 39, -48, -90, -35, 60, -5,
   77, -1, -22, -18, -44, 19, -27, 31,
   103, 24, -79, 3, 39, 4, -45, -127,
   -60, -14, 76, -10, 1, -128, -128, 10,
   -36, -127, -49, -112, -128, 105, 127, 1,
   -46, -60, -87, -125, -7, -128, -29, -12,
   12, 49, 11, -6, -117, -61, -50, -72,
   48, 59, -44, -46, 35, 12, 127, -67,
   -35, -54, -123, -3, 46, 41, 127, 36,
   27, 66, -57, 72, -52, 59, 127, -34,
   -55, -32, -18, -115, 27, -126, -128, 79,
   -124, 125, -128, 65, -12, -124, 22, -106,
   39, 55, -31, 45, -99, 127, -65, -43,
   -19, -125, -41, -32, 126, 88, -41, 40,
   73, -85, -19, 33, -8, -5, -28, -83,
   -26, 74, 13, 65, -45, 75, 121, -46,
   -36, 99, -13, -85, -33, 53, -128, 27,
   16, 38, 121, 29, -19, -114, -25, 27,
   19, -4, 0, 72, -3, 45, -39, -8,
   -3, -30, -1, -48, -96, -11, 110, -63,
   127, 67, 55, 112, 106, 42, -24, 127,
   8, -4, -96, 45, 55, 125, -126, 18,
   6, 115, 8, -86, -79, -57, -18, -23,
   -103, 30, 123, 85, -98, 14, -46, -2,
   -7, -22, 18, -57, 2, 18, 0, -18,
   78, -2, -50, -40, 118, -22, 114, -25,
   -128, 117, -13, 118, -31, -10, -42, -23,
   113, 3, 27, 92, -56, -16, 62, 62,
   -8, -65, 73, -52, 124, -126, -11, 47,
   -21, 64, -128, -71, 90, 120, -9, -128,
   63, 4, 59, 15, 113, -11, -39, 127,
   62, -56, -127, -65, -61, 44, -41, -15,
   60, 62, 21, 13, -20, -16, 62, 82,
   14, 122, -49, 16, -111, -38, 127, -31,
   39, -72, 24, -59, 19, 38, -21, 59,
   -96, -26, -37, -32, -128, -60, 55, -115,
   -26, -48, 9, 21, 82, -6, -53, 37,
   -68, 41, -36, 27, -70, -23, -26, -15,
   65, 29, -41, -2, 21, 28, 12, 127,
   33, 34, -55, -7, 32, 126, 127, 48,
   94, 125, 26, 14, 51, -125, -128, 68,
   -35, 77, 4, 102, -15, 121, -17, -47,
   21, 15, -43, -45, 62, 125, 7, -37,
   -60, 86, -22, 24, 10, -31, -62, -39,
   -128, -25, 126, -18, 71, -19, -126, 127,
   5, 27, 68, -21, -42, -128, -120, -13,
   61, -100, 23, 28, 123, -83, -16, -42,
   57, -75, 93, -128, 88, 127, 36, -42,
   -55, 127, -68, -34, 122, -128, -78, 109,
   10, -117, 121, 30, -51, 92, 85, -94,
   -51, -63, -62, -47, 4, -15, -44, 88,
   -5, 83, -32, 43, -126, -63, -125, -57,
   127, -43, 44, -31, 60, -35, 69, -3,
   -90, -37, 9, -15, -128, 13, 33, -36,
   -58, -46, -25, 37, 54, -127, -28, 14,
   -40, 46, -8, -57, 2, 1, -126, 14,
   -86, 54, -22, -8, -34, 46, -10, -127,
   20, 18, 90, 96, -11, -125, 116, -41,
   -41, -125, 17, 43, -47, -2, 105, 28,
   -108, 15, -84, -103, -13, 81, 44, 86,
   64, 30, 39, -54, -37, 127, -28, 6,
   14, -15, 0, 58, 38, 97, 47, 21,
   -123, -70, 94, -32, 30, 2, -54, 112,
   -45, -12, -91, 38, -24, 52, -94, -41,
   -71, -65, -63, -23, 122, -78, -40, -51,
   -59, 87, -18, -124, -120, -25, -73, 118,
   -40, 127, -36, -27, -14, -123, 22, -15,
   -30, -122, 126, 79, 43, 65, 37, -8,
   -51, -20, -11, 48, 21, -62, -65, -84,
   -20, 2, 43, 9, -125, 77, -127, 9,
   -66, 127, 48, 1, -9, -3, -84, -50,
   62, 98, 106, 24, 12, 26, 25, 74,
   -35, -62, 33, -49, -81, -125, 6, 19,
   43, -10, -81, -16, -12, 7, -34, 7,
   -50, 37, 82, 42, -33, 106, -44, 92,
   -9, 27, 3, 24, -58, 18, 17, -36,
   -31, 4, -114, 114, -14, 65, 34, -17,
   -76, -26, 73, 93, -11, -42, 1, -4,
   37, 47, -29, -14, 25, -82, 51, -15,
   85, 16, -11, -1, -43, 21, -35, -5,
   -128, -24, 31, -11, -62, 15, -25, 6,
   -6, -114, -124, -73, 27, 55, -115, 42,
   -51, 27, 35, 63, 28, 36, 3, 29,
   23, -63, -46, 18, 25, -120, 0, 46,
   67, -43, 11, 41, 107, 46, 30, -23,
   61, -64, 67, 44, -35, 19, 100, -8,
   -22, 0, 4, 8, 39, 1, -44, -8,
   -38, -34, 28, 23, -10, 25, -22, 13,
   30, 33, -24, 59, -1, -20, -11, -5,
   4, -22, -17, -38, 15, -39, -15, -16,
   -16, -36, 23, -4, -2, 90, -13, -11,
   -18, 5, 27, -31, 40, -80, 121, 124,
   -48, 29, 50, 54, -48, 21, 8, 61,
   -9, 22, 31, 111, -8, 50, 114, -57,
   31, 110, -9, 70, -44, 109, 46, 12,
   -15, -50, -36, 51, 52, -108, -3, -15,
   -23, -17, -20, -56, 74, -126, 25, 2,
   -47, 3, 29, -1, -71, -8, 37, 5,
   -128, 24, -111, -38, -114, -5, 28, -66,
   11, -97, -10, 24, 19, -68, -22, -39,
   6, 26, -114, -25, -128, -51, -21, -62,
   62, -102, 10, 93, 126, 54, -82, 25,
   94, 69, 39, 122, -32, 78, 21, -30,
   0, -38, 104, 45, -101, -48, 68, 52,
   33, -123, 7, 7, -19, -35, 12, -4,
   13, -24, -64, -41, -63, -21, -72, -4,
   -63, -89, -5, 8, -31, 40, -8, -26,
   28, 3, -14, -11, 60, -18, 1, 20,
   -42, 90, 20, -25, 55, 88, 11, 4,
   -32, 17, 29, 48, 1, -44, 127, 36,
   127, -8, 27, 7, -92, -8, 17, 51,
   7, 12, -30, -112, -51, 46, -35, 17,
   10, 14, -34, 47, 124, -35, 32, -2,
   73, 61, 9, 23, -17, -1, 30, 7,
   -10, 15, -21, 35, 2, 49, -7, -11,
   77, 42, 21, -6, 26, -49, 126, -47,
   -109, -1, -11, 14, -54, -48, 95, 3,
   -89, 44, -42, 100, 1, -52, -114, -40,
   49, -44, 17, 28, -72, 45, 125, 40,
   11, 13, -114, -115, 26, 64, -6, -15,
   -22, 23, -8, -44, -125, 12, -6, 35,
   -15, 63, -76, 22, 0, -9, 26, -80,
   -79, 2, -8, 15, 6, -13, 24, 12,
   -7, -4, -44, -60, -5, 17, -58, -5,
   -13, 14, -18, 8, -127, 53, 2, 38,
   -11, 33, -75, -55, 6, 2, 8, 62,
   -22, 18, -18, -65, 0, -41, -25, 3,
   16, 30, 23, 6, -36, 26, -62, 28,
   -12, -26, 16, -13, 76, -125, 101, 68,
   51, -79, 37, 25, -3, -42, -22, 10,
   -24, -84, -52, -26, 16, -81, 11, -29,
   -32, 37, 61, 1, 4, -51, -22, 43,
   -124, -58, 30, 3, 65, -52, -17, 7,
   -11, 46, -54, 10, -59, -98, 1, -106,
   -16, 80, -65, 6, 28, 9, 62, -3,
   -11, 79, 55, -88, 54, -42, 26, 77,
   49, 1, -7, -59, -22, 43, -40, 22,
   -78, 14, 102, 12, -98, -36, 24, -34,
   -22, -63, 125, -65, -5, 32, 9, -47,
   -45, 0, -1, -11, -23, -8, 24, 116,
   -22, -32, -19, 17, -77, -16, 127, -127,
   -38, -11, -5, 45, -3, 28, -27, 16,
   5, -7, -19, 85, 2, -2, 3, -14,
   -1, 3, 61, -4, -41, 36, 9, -54,
   -1, -3, -7, -5, 30, -2, 3, 8,
   8, -46, 8, 13, 0, 4, -15, -34
};

static const rnn_weight noise_gru_recurrent_weights[6912] = {
   -128, -2, 25, 4, 5, -20, -3, 27,
   17, -41, -55, 52, 41, 0, 83, -4,
   80, 5, 16, -49, -67, 5, -30, -65,
   -17, 25, -38, -48, -21, 6, -27, 63,
   22, -90, -29, 122, 63, -75, 41, -14,
   -128, 10, -30, -4, -1, 44, -30, 92,
   50, -11, -36, -57, -40, 0, 20, 53,
   43, 26, -25, 5, 7, -14, -17, -94,
   9, -39, -8, -71, -72, -8, -9, -29,
   5, -61, -99, 34, 115, -70, 39, 60,
   36, 82, -67, -42, -125, 32, 58, -25,
   26, 12, -106, 1, -86, -127, -46, 125,
   55, 53, 21, -5, 8, -10, -113, -60,
   -54, -82, 21, -17, 67, 27, -57, -6,
   -47, -121, 29, -75, 99, -26, -41, -20,
   -28, -128, -83, -79, 76, 14, -1, 117,
   -70, 16, 9, -29, -4, 84, -25, -10,
   -72, 6, -124, 10, 64, 11, 59, 0,
   55, -12, 27, -83, -47, -15, 127, 10,
   16, 47, 10, 126, 74, 63, -17, -4,
   126, -20, 22, 2, -1, 24, -20, 124,
   46, 10, -10, -118, 127, 4, 51, 43,
   -13, 81, 127, 64, 43, 127, 102, 9,
   33, -31, 127, 29, -127, -99, 56, -54,
   -45, 127, -72, -33, 25, -56, -13, 0,
   1, -8, 29, 73, 15, 69, -45, 45,
   -112, 0, 11, -2, -3, -7, -65, 5,
   36, 26, -40, -23, -35, 36, 39, -66,
   -128, -19, -23, 3, 25, -31, 107, 40,
   -4, 53, 66, -1, -68, -90, 6, 38,
   -9, -83, -27, -79, 8, -37, -36, 7,
   66, 0, 127, -2, 5, -5, 58, 56,
   -5, 7, 38, -112, 36, -73, 114, -9,
   68, 120, 52, -67, 53, 85, -45, -26,
   -39, -31, -127, -34, -29, 8, 11, -108,
   -16, 39, -73, -98, 15, 46, 110, 38,
   53, -12, 18, -23, -35, -35, 32, -6,
   16, -16, -51, -48, 31, -51, 13, -26,
   -36, -9, 26, 20, 3, -1, 55, 79,
   12, 9, -81, -30, 56, 55, -111, 21,
   -21, 69, -26, -11, -84, 39, -39, -39,
   -97, 12, 61, 44, -58, 85, -35, 22,
   -49, 34, -76, -107, 56, 68, 24, -84,
   14, -50, 32, 29, 116, 101, -42, -30,
   -16, 43, -43, 0, -48, -8, -94, -55,
   -79, -11, -14, 26, 46, 49, -31, 54,
   -29, -18, -24, -9, -28, 12, -47, 26,
   -81, -10, 30, -20, -54, -22, 47, 94,
   -15, 16, 7, -20, 56, 127, -28, -37,
   56, -51, 19, 39, 64, -5, -49, -89,
   -40, -60, 18, 127, -5, 76, 15, -58,
   97, -31, -40, 15, -37, 28, 28, -32,
   46, -49, -2, -45, 4, 12, 16, 65,
   3, -49, -127, 17, -83, -88, -2, 102,
   4, -58, -32, -105, 0, 29, -43, 42,
   5, -69, 51, -3, -2, 21, 24, -24,
   -128, 36, 49, -34, 18, -45, 26, -9,
   -5, 26, -40, -78, -17, 30, 40, 25,
   2, -36, 100, 47, 42, -9, 127, -32,
   73, 44, 4, 19, -26, -19, -10, -16,
   4, 38, 0, 34, 30, 19, -15, -23,
   -31, 58, -70, 14, -15, -77, 26, -20,
   14, 10, -40, -89, 2, -1, 1, 14,
   -115, -21, -41, -11, 118, -18, -10, -6,
   52, 5, -107, 1, 29, -3, 77, 24,
   -45, 93, -45, -65, -11, 7, 9, 28,
   -6, 109, -3, 65, 38, -86, -24, -52,
   0, -2, -5, -26, 17, 24, 30, 76,
   -128, 14, -15, -76, -3, 36, 10, 6,
   7, 102, 22, -74, -70, -11, 5, 19,
   -57, -4, -127, 8, -51, 51, 52, -99,
   -5, 71, 2, -126, 29, 81, 69, 13,
   -121, 26, -19, 38, -124, 0, 121, -95,
   63, -25, -118, 127, 45, -5, -10, -87,
   28, -11, -8, -25, -72, -89, -27, -14,
   -2, -6, -22, 9, 59, 54, 77, -11,
   -14, -15, 24, 0, -9, -40, -48, 0,
   -53, -51, -15, 60, -63, -16, -19, 65,
   61, -19, -39, -13, -33, -93, -31, 47,
   21, -29, -37, -114, -62, -4, 66, -36,
   -8, 13, 9, -104, -2, -90, -14, 34,
   -51, -127, 101, -3, 3, -126, -6, -9,
   -26, 71, -38, -74, 57, -54, 0, -51,
   -58, -26, -23, 9, -20, 36, -18, 64,
   -31, 16, -26, 13, 99, -110, -39, -58,
   -7, -82, 41, -54, -83, 39, -72, 67,
   -4, -12, 5, -125, -44, 4, -23, 92,
   35, -71, -128, -18, 47, -123, -16, 55,
   -25, -62, -25, 14, -15, 14, -15, 50,
   -43, 48, 45, -13, -113, -23, 21, -49,
   54, 74, -46, -38, 104, 82, -66, 23,
   61, -93, -9, -41, -2, 33, 20, -9,
   -71, -3, -93, -34, 28, 27, -61, -126,
   -14, -40, 49, -115, 4, -38, -55, 2,
   62, -125, -5, -33, -28, -8, -22, -76,
   -21, -13, 90, 30, -49, -47, 48, -41,
   -18, -34, -47, 2, -29, -117, 52, -28,
   -24, 42, -13, 9, 19, 42, 39, -25,
   -46, 50, -49, -39, 20, -72, 96, -30,
   -93, -71, 77, -21, 40, -33, 9, -37,
   -15, -87, 35, -101, -41, 33, 24, 126,
   26, -16, -118, -72, -5, 85, 122, 51,
   13, 91, -128, -17, -7, -28, -45, -37,
   -112, 80, -24, -92, -43, 8, 31, 104,
   46, 73, 12, 54, 10, 101, 80, 56,
   -43, -47, -9, -80, -12, -90, -19, -83,
   -24, 17, -55, 8, 15, -124, -17, -83,
   2, 16, -122, -98, -128, -17, 80, 24,
   68, 127, 123, 63, -24, -50, -41, 117,
   -32, -12, 112, 46, -25, 52, 31, 127,
   121, 16, -18, 108, 72, -26, -116, 124,
   71, -3, 6, 83, 108, -30, -11, -6,
   44, 92, 47, -127, 100, 124, -61, 56,
   -89, 45, 127, 59, -34, 80, 63, -39,
   -13, -52, -27, 10, 16, -29, 36, -125,
   32, 65, 25, 117, 27, 32, -14, -79,
   -8, -116, 47, 33, -52, -54, -17, 126,
   3, 22, 3, 4, -10, 25, 100, -55,
   -33, -125, 69, 42, -34, -15, -64, 15,
   35, 45, 124, -49, 118, 40, -24, 125,
   -25, -51, -86, -52, 34, -25, -37, -97,
   -31, 95, 46, -81, 26, -75, 119, -118,
   -91, -10, 40, -8, -56, 18, 50, -92,
   -5, 99, 28, 27, 122, -29, 40, -4,
   -3, 32, 5, -85, -37, 2, -21, -4,
   24, 14, -101, 99, -32, 78, 42, 32,
   23, -19, -14, 52, -45, 81, 7, -37,
   -50, 19, -48, 97, 15, 122, 11, -97,
   95, 6, 12, -35, 7, 30, 0, 0,
   -13, -43, 80, -57, 53, 40, 75, -52,
   47, 99, -34, -9, 125, 49, 44, -32,
   32, 73, -28, 68, -108, -57, -24, 5,
   -10, 35, 61, -9, 56, 7, 83, -56,
   -18, 91, -56, 41, -63, 63, 45, -67,
   -19, -5, -25, 9, 18, -124, -15, 47,
   -37, -86, -4, -7, -13, 15, -9, 27,
   -80, 63, -50, -55, 7, 42, 16, 20,
   -52, 1, 121, -90, -87, -38, 46, 7,
   -118, -73, -29, 37, 54, -126, 71, 15,
   37, 74, 10, 58, 5, -63, 11, 127,
   7, 60, 2, -81, -39, -93, -36, 54,
   -23, 29, 1, 2, 48, -21, 44, -128,
   57, -54, 109, -90, -29, -110, 25, 34,
   -72, 11, 63, -119, 86, -79, -64, -25,
   123, 73, 62, 40, 36, -88, 93, -40,
   59, -42, 68, 79, 50, -49, -30, -125,
   126, -45, 5, 7, 39, -19, 7, 126,
   29, 58, -33, -5, 98, 26, 27, 27,
   -13, 79, -87, 36, 78, 47, -11, -76,
   -65, 16, 55, -34, 90, -21, 84, -5,
   -44, -25, 24, 35, 31, -25, 94, 40,
   -45, 62, -103, -66, 1, 127, 9, 23,
   -50, -128, -120, -77, -61, -60, -24, 0,
   -77, 17, 21, -48, 5, 61, 69, 0,
   -17, 29, 97, 50, 19, 86, 11, 7,
   -5, 81, 66, 4, 3, 24, 45, -24,
   26, -24, -53, -69, 84, -127, -50, 1,
   -28, 5, -9, 21, -55, 54, 28, 104,
   -90, -48, 34, 15, 13, -128, 72, 40,
   -60, -120, -45, -39, 75, -76, -22, -64,
   -23, 0, 97, -43, 58, 0, -67, 127,
   -9, -14, 24, 18, -124, -18, 73, 10,
   125, 46, 26, 0, -61, -105, 36, 74,
   -8, -32, -18, -25, 81, -3, 13, 0,
   -2, -49, 33, 21, 37, -115, 0, 30,
   15, 30, 21, 38, 38, 19, 16, -54,
   35, -74, -25, -37, -33, 78, -63, 26,
   127, 97, 68, 8, 57, 18, 53, -41,
   -30, -20, 42, -60, -33, -4, -56, 9,
   -77, -53, 87, 96, 5, 47, -40, -12,
   -20, -87, 19, -33, -4, -128, -6, -54,
   -71, 43, 44, -79, 3, 47, -29, -62,
   -57, -60, -6, -23, 14, -71, -106, 14,
   -9, -34, 56, -25, -126, 65, 44, 125,
   7, 5, -65, 2, 39, -64, 0, -82,
   6, 94, 62, -26, 43, 42, 59, -2,
   -33, 10, 58, 21, -19, 54, -82, 51,
   -73, 29, 59, 11, 5, 100, -4, -96,
   -89, -15, -24, 26, -41, 47, -61, -6,
   -68, -125, 2, -60, -3, -125, 69, -4,
   -69, -43, -74, -33, -80, 95, 43, 13,
   46, 45, -33, 92, -25, -4, 13, -126,
   37, -76, -34, -23, -33, -16, 94, -6,
   0, -63, -14, 28, -27, 9, 117, 8,
   34, 7, 49, -37, -20, -36, 17, -112,
   41, 30, 1, -35, 29, 0, 60, 52,
   -15, -112, 84, 0, 43, -5, -71, 41,
   -29, 18, -91, 45, -84, 5, -27, -48,
   125, 7, 14, -33, -41, -32, 10, 39,
   -11, -107, -93, 79, 90, -21, 120, 65,
   -127, -44, 54, -76, 0, -32, 109, 127,
   6, 16, 54, -84, -27, 35, -34, 58,
   51, 17, -94, -91, 19, -25, -53, -47,
   14, 37, 66, -42, 16, 21, -18, 6,
   46, 27, 6, 19, -2, -12, -3, -11,
   43, -24, -12, 16, -30, 2, -45, -83,
   -38, 27, -122, -10, 89, -75, 52, 21,
   6, 118, -127, -107, 49, 125, 25, 68,
   59, 115, 80, 33, -84, 43, 75, 86,
   -9, 8, -15, 77, 125, 90, -29, 6,
   103, -40, -27, 95, -4, -96, -10, 48,
   60, 19, 23, 15, 125, 74, -20, -25,
   -21, 40, -45, -2, 54, 51, 92, -43,
   5, 5, 105, -23, -45, -55, 72, -120,
   -29, 56, -63, -26, 8, 27, 34, -15,
   26, -70, 61, 123, 9, -43, 15, -121,
   10, 14, 1, -95, -88, 57, 8, 20,
   -14, 16, 50, 2, -16, 91, -79, -45,
   -64, -36, -38, -8, 53, -41, -28, -53,
   6, -73, 126, -102, -36, -2, -58, 39,
   -71, 38, -19, 52, -82, 77, 8, -31,
   -16, 81, -37, -35, 27, -22, 73, -14,
   -18, 86, 6, -123, 15, 49, -8, -42,
   -91, -11, -1, -31, 9, 76, -26, -26,
   -26, 79, -42, 59, -24, 1, -7, -127,
   7, -19, 113, -119, 73, -25, -27, -36,
   73, 14, 32, -125, 55, -15, 34, -34,
   5, -37, -72, 15, -126, 28, -62, -27,
   112, 70, -85, 11, 13, 25, 117, -112,
   9, 24, 79, 24, 31, 32, 102, 121,
   4, -95, -11, -28, 6, -11, -36, -38,
   -17, -66, -17, 36, 75, -96, 80, 125,
   -85, -1, -115, 9, -8, -114, 41, 111,
   -28, -88, -97, -17, -74, 9, -2, 29,
   -2, -36, 63, -44, 80, -127, 42, 37,
   79, -8, 18, -65, -2, 37, -55, -12,
   -26, 10, 49, -125, -96, 89, 121, -58,
   64, 52, -105, -6, 8, 0, 62, -98,
   27, -22, -122, -14, 0, -40, -20, -25,
   102, -16, 58, 79, -80, -43, -22, 6,
   18, 14, 33, -9, 55, 125, -88, 70,
   -65, 52, 9, -126, 124, 106, -84, -88,
   57, -32, 10, -43, -25, -128, -13, 12,
   38, 45, 127, -58, -99, 37, -61, -19,
   -47, 33, 42, -59, -84, -42, -53, 127,
   16, 32, 73, 121, -33, -128, 17, -27,
   34, 125, 10, 35, 9, -2, -3, -21,
   8, 27, 32, 22, 34, 7, 85, 13,
   -43, 18, 91, 125, -21, 15, -79, 46,
   1, -13, 11, -38, -98, -128, 24, 46,
   -102, -24, 11, 26, -34, 6, 98, 6,
   79, 47, -41, -57, -31, 0, 9, 2,
   -115, 15, -16, -72, -56, 32, -126, 121,
   10, -53, -3, -94, -2, 59, 29, -13,
   -52, -86, -4, 13, 29, -19, -1, -24,
   13, -37, 24, -122, -36, -25, -21, 69,
   -84, -36, -22, 5, -29, -62, 16, -127,
   -32, -42, 43, 56, 58, 63, -2, 54,
   -128, -41, 93, -33, -2, -79, -8, 14,
   7, 0, -25, -68, 66, -70, -87, -44,
   -16, 53, 11, -18, 9, 127, 54, 34,
   -34, -100, 19, -21, -15, 92, 69, 6,
   49, 106, 28, -91, -43, 5, 125, 37,
   12, 72, 52, -12, 47, -51, -17, 60,
   46, -118, -64, 35, 104, -105, -69, 127,
   6, 59, -72, -17, 68, -35, 0, -112,
   -16, 34, -27, -89, 13, 126, -10, 55,
   -46, 44, 118, -60, 3, -113, 63, 28,
   -45, -35, 5, 50, 68, 4, -126, -85,
   -104, 60, -39, 127, 103, 20, -24, -108,
   -65, -20, -5, -11, -39, -74, 46, 79,
   -66, -13, 109, 18, -126, -15, -23, -22,
   -13, -128, -103, 127, 10, 32, -53, 50,
   126, 33, 46, 17, -91, 73, 73, 35,
   11, 52, 99, 29, 76, -74, 33, 59,
   31, -48, -41, -12, -82, -128, -38, -18,
   49, -15, 35, -43, -34, -124, -116, 110,
   -113, -79, 44, 52, -32, 0, 2, -29,
   27, -12, 28, 81, -8, -11, 15, 59,
   -17, -2, -20, 4, -72, 34, 23, 9,
   -12, 50, 34, 8, -31, -125, 68, 21,
   34, -118, -68, 88, 20, -72, 23, 3,
   127, 42, -9, 13, 23, 31, -52, 3,
   17, -52, 62, -122, 45, -110, -40, -49,
   -37, -78, -58, -10, 18, -42, 0, 5,
   55, 40, -128, 0, -35, -126, -17, 10,
   -27, -22, -122, 21, 5, -125, 76, 100,
   9, -33, 24, 28, 38, -58, 37, -19,
   -64, -67, -54, -67, 36, -8, -38, 25,
   -16, -124, 12, 33, -6, -41, 96, -65,
   27, -43, -8, -93, -125, 1, 41, 50,
   -101, 22, 9, 117, 64, 1, 16, 8,
   -7, 41, -85, 7, 109, -104, -7, 22,
   17, 35, -51, -13, 53, -72, -99, 41,
   -4, -88, 37, 40, 51, -77, 58, 83,
   10, -105, 113, -43, -74, 56, 108, -79,
   -24, -28, -41, -31, -3, 20, -53, -14,
   -56, 3, 90, -128, -84, 61, -25, -7,
   -26, 127, -5, 35, -35, 73, 3, -34,
   48, 75, -35, 59, 30, 61, -7, 0,
   -53, 49, -4, -83, 69, -37, -14, 45,
   10, -1, 8, 4, -15, 35, -120, -17,
   35, 42, -122, -23, 35, -24, 123, 105,
   -18, 5, 72, -67, 22, -23, 27, -20,
   15, 26, 65, 19, -6, -22, 2, -32,
   123, -32, -45, -55, -17, -29, 58, 13,
   38, 58, 60, 54, 10, -77, -10, 15,
   40, -2, -30, -16, 42, -103, -128, -13,
   120, 56, 72, -68, 55, 14, -98, 90,
   -15, 43, -9, -13, 37, -68, -24, 43,
   -4, 100, 22, 108, -49, 68, -71, 3,
   11, -5, -127, 8, 43, -12, -7, -63,
   -15, -32, -38, 107, -33, -12, -15, -12,
   -40, -10, -19, 37, -76, -88, 63, 18,
   34, 43, 69, 13, 2, -14, -128, 115,
   8, -126, -2, 127, 12, -123, -26, -28,
   -8, -11, 1, 52, 13, -47, 38, 68,
   -9, -99, 46, 41, -8, -115, 25, -95,
   20, 44, 12, 64, 42, 30, 107, -15,
   41, 1, 9, 44, -36, -76, 14, -34,
   3, -69, -16, 20, -85, 8, -22, 60,
   -51, 40, -21, 17, -89, -43, -23, -41,
   67, -33, -38, -8, -101, 36, -8, -72,
   50, -33, -93, 124, 38, -44, 109, 7,
   -51, -16, 26, 6, -30, 74, -64, -3,
   -17, 60, 39, 3, -34, 46, 80, 112,
   2, 51, -80, -19, -53, -17, 91, -128,
   -128, 125, 47, 107, -58, 82, 127, -15,
   31, -23, 39, 44, -13, -108, -19, -55,
   84, 17, 88, -46, -24, 108, -12, 46,
   -44, -41, 25, -87, 9, -80, 50, 61,
   -39, 29, 3, -48, 86, 56, 26, 70,
   16, -51, 47, 31, 68, 124, 58, 29,
   68, -9, 55, 17, 7, -61, 127, -70,
   -64, 106, -40, -8, -77, -19, 77, -29,
   -6, 2, -52, 56, -8, 57, 6, 40,
   5, 27, -27, 35, 28, -67, -11, 63,
   -70, -57, 48, -24, 39, -109, -1, -22,
   25, -69, 4, -48, -10, 40, -2, 23,
   61, -16, 126, -45, -35, -9, 4, -6,
   -16, -16, 7, 20, -53, 7, -37, -111,
   84, 47, 27, -104, 25, -37, 14, -71,
   69, -7, -50, -5, -52, -33, -14, -21,
   42, -15, 35, -48, -45, 64, 55, -20,
   -3, -6, -11, 66, 10, -51, 50, 10,
   2, -24, 38, 15, -25, 0, -51, -16,
   -29, -47, -35, 1, -61, 85, -47, -52,
   -37, 13, -41, -5, -26, -17, 12, -106,
   7, -44, -75, 28, 2, -91, 11, -19,
   5, 5, -71, -39, -12, 36, -13, -61,
   38, 2, -45, 48, 37, 58, -17, -39,
   65, -10, -70, 32, -33, 1, -85, 3,
   68, 89, -44, 68, 72, 55, 26, 25,
   -22, 16, -95, 84, -21, -87, -2, 8,
   -74, -88, -13, -121, -92, -38, -89, 24,
   20, -11, 2, 18, 67, -84, -3, 7,
   5, -77, -11, -90, -10, 49, 60, -10,
   9, -12, 41, -3, -6, 39, -65, -15,
   78, 12, -32, 17, 14, -41, -66, -46,
   17, -59, -58, -78, -53, 61, -66, 6,
   -34, 114, 5, -58, -4, 6, 56, -113,
   30, -27, -10, 9, -40, -27, -86, 27,
   -125, -33, -77, -15, -71, -60, -38, -23,
   2, -52, -77, 45, -87, 44, -62, -74,
   21, 99, -48, -40, -16, -4, -111, -43,
   -24, -112, 71, -80, 61, -55, -128, 74,
   9, -75, -51, 93, 79, -28, -79, -30,
   -5, -128, 38, -1, -40, 59, 52, -66,
   40, 20, 20, -64, -15, -41, -51, -2,
   -16, -25, -119, 40, -86, -70, 27, 126,
   56, -40, -40, 68, 10, -11, 5, -1,
   -42, 56, 25, 20, 4, 10, 0, -36,
   51, 17, -33, -51, -125, -10, -44, -57,
   -39, 21, 52, -2, 40, 44, -14, 35,
   126, 31, 52, 6, -1, -74, -12, 10,
   39, 54, 9, 58, -22, 29, 14, 127,
   27, -26, 6, -32, 60, -65, 29, -16,
   -51, -105, -116, -63, -102, 20, 87, 13,
   30, -35, 28, 23, -47, -63, 65, -48,
   76, -67, 42, 29, -21, 5, 30, 58,
   -87, 45, -13, -80, -13, 16, -16, 7,
   9, 16, 35, -9, 1, -35, -60, 127,
   127, -34, -126, -51, 127, 75, -2, -63,
   -1, -37, 12, 91, -31, 106, -123, -85,
   -41, -112, 64, 40, 125, -125, 22, -32,
   51, -46, 54, -51, -10, 29, 5, -43,
   -69, 119, -35, 44, -4, -7, 50, 82,
   68, -11, -82, -42, -55, 14, 124, 5,
   -126, 53, -47, 33, -6, -127, 3, -25,
   64, -125, -69, 18, 17, -125, 29, 3,
   53, -28, 37, -13, -44, -26, -50, -2,
   -23, 21, -90, 17, -59, 26, 28, 76,
   -77, -127, 37, -80, 13, -61, -34, 12,
   38, 11, -29, 9, -13, -119, -19, 23,
   -16, -38, -18, 111, -25, -7, -70, -72,
   -77, -24, 10, 110, -8, -87, -60, -123,
   -69, -27, -97, -33, 122, -58, -14, 127,
   -9, -46, -47, -57, -90, 12, 90, 44,
   -52, -21, -126, -102, -125, 16, -85, -74,
   1, -34, -25, -47, -94, 87, 54, -17,
   -40, 19, -126, -6, -93, -49, 101, -81,
   124, 2, -47, 2, 59, -38, 75, -128,
   13, -29, -15, -79, -98, 57, 125, -40,
   -126, -128, 66, 75, -21, -42, -82, -119,
   74, -98, 27, 109, -65, 55, 75, 127,
   48, 76, 24, -14, 19, 27, -51, 1,
   -16, -17, 18, -91, -4, -101, 78, 7,
   12, -31, -25, 22, 12, -15, 40, 1,
   68, -4, 62, -37, -125, -40, 40, 33,
   14, 5, -52, -73, -12, -68, -36, -26,
   0, 21, 41, -45, -63, 37, -23, -40,
   17, -46, -1, 14, 68, 30, 30, 12,
   -12, -50, -40, 2, -35, -58, 69, -51,
   -48, 99, 10, 31, 32, -72, 115, -18,
   -88, -64, -36, -18, -82, -9, -48, -17,
   -91, 104, -15, 9, 59, 30, -21, -55,
   75, 25, -90, 42, -115, 69, 32, 45,
   78, -31, -42, 126, 46, -32, 60, 45,
   -86, -34, -4, -7, -11, 59, -63, -21,
   -6, 0, 18, -58, 124, 10, 53, -84,
   -35, -53, -46, 17, -66, -41, 47, -40,
   -13, 72, 40, -122, -70, -117, -66, 57,
   -88, -19, 6, -53, -125, -33, -18, -10,
   47, 6, -48, -30, -49, 42, -89, -16,
   11, 49, -3, 77, -80, 87, 42, 30,
   -24, 33, -43, -26, -94, 52, 99, -23,
   46, 18, 24, -31, -25, 39, 17, 70,
   -51, -27, -78, 0, 30, 109, 23, -8,
   -17, -61, -22, -16, -19, 91, -43, 20,
   92, 45, 127, 18, -14, -21, -9, -46,
   -5, 4, 82, 18, -94, 122, -49, -128,
   -122, -16, 52, 5, -110, 36, 3, -127,
   67, 26, 47, 81, 8, -3, 17, 34,
   60, 120, 37, -60, -127, 21, -98, 39,
   28, -12, 28, 4, 29, -33, -21, -14,
   19, -7, -25, 71, 24, 54, 21, -33,
   34, 17, 4, -2, -127, 106, -59, -28,
   -58, -30, -26, -18, 32, -17, 47, -102,
   41, 56, -6, 35, -29, 71, -15, -88,
   -47, 53, 16, -9, -27, 87, -1, 89,
   -32, 104, 11, 6, 55, 18, -26, -23,
   -20, -12, -78, -27, 1, -3, -3, -6,
   -4, 20, 15, -15, -89, -126, 47, -95,
   -32, -70, -18, 43, -1, -65, -68, -70,
   60, 79, 6, -2, -125, -101, -44, 50,
   -46, -68, 125, -37, 46, -76, -33, -16,
   36, 2, -32, -49, 1, 60, -51, -3,
   -19, -8, 0, -12, 19, 66, -58, -37,
   -5, 18, -63, -52, -41, 30, -49, -57,
   2, 6, -23, 20, -29, -5, 19, -5,
   98, 104, 31, -32, 49, -9, 46, 75,
   -46, -63, -29, -121, -4, -67, 4, -3,
   14, -101, 95, 22, 36, 51, -39, -45,
   97, 13, -19, 0, -14, 31, -25, 44,
