/*This file is automatically generated from a Keras model*/

#ifdef HAVE_CONFIG_H
#include "config.h"
#endif

#include "rnn.h"

static const rnn_weight input_dense_weights[912] = {
   11, -2, -6, -14, -14, -1, 3, 21,
   6, -8, -4, 0, 22, -21, 20, 9,
   -9, 17, -6, -27, -8, 20, -4, 1,
   -22, 3, -16, -19, 40, -2, -16, 25,
   -3, 7, 35, 2, 14, -9, 25, -9,
   -9, 25, -13, 34, -5, 0, 6, 12,
   1, 8, -9, -28, -50, 14, -13, 15,
   4, -2, -22, -5, -3, -4, 24, -46,
   -9, 27, -11, -67, 16, -23, -2, -9,
   -10, 11, 8, -9, 49, 46, 38, 13,
   -13, -20, 23, 11, -13, 0, 22, -54,
   -15, 27, -1, 5, 36, 28, -33, 19,
   -15, 26, 0, -13, -30, 30, 44, -3,
   4, 30, -20, 33, -32, -4, 5, -1,
   -11, 25, 4, 18, 48, 58, -23, -1,
   3, 36, 17, 0, -38, -21, -18, -6,
   0, 1, 1, 4, -43, -12, 3, 33,
   -10, 26, 0, -72, 44, 48, -18, -31,
   -124, 78, 118, -13, -18, -120, -128, -49,
   -53, -128, -49, -102, -111, 8, -9, 122,
   3, 82, 39, 127, 91, 73, -86, -7,
   61, 78, 65, -16, -43, -128, -69, -32,
   -77, 124, -5, -117, -127, -34, -111, 117,
   37, 97, 23, 14, -5, 53, -56, -7,
   -107, 85, 63, -64, -92, -119, 127, -53,
   -52, -128, -13, -119, -106, -68, -100, 127,
   39, 51, 33, -8, -112, -94, -48, -32,
   52, 110, 111, -25, -91, 117, 126, -15,
   -65, -111, -121, -126, -54, 107, -128, 124,
   19, -9, 80, 125, -127, 13, -37, -1,
   100, 125, -3, 16, 95, 50, -1, 8,
   -117, 97, 89, -102, 0, -20, -121, 8,
   69, -65, 20, -100, -128, 127, 21, -48,
   -126, 127, 20, 36, -128, -126, -128, -9,
   -26, -27, -128, -127, 100, 127, -74, -123,
   -3, -91, 6, 65, -128, -6, 41, 99,
   127, 127, 91, -68, -6, 8, 55, -74,
   -102, -58, 120, -42, 127, -44, 4, -127,
   -32, -125, 7, -43, -74, 51, 63, 44,
   -75, 127, 101, 20, -49, 127, 17, -11,
   -59, 50, -53, 104, 127, 120, 0, -127,
   11, -127, -69, -127, -30, -45, 108, 125,
   81, 127, -21, -8, -55, -115, -128, -97,
   -126, -82, 127, 91, 127, 109, 127, -128,
   -2, -128, -127, 58, 127, 59, 127, 127,
   -6, 121, 127, -25, -127, -74, -127, -20,
   -127, 59, 10, 127, 127, 105, 43, -127,
   44, -126, -99, -69, 100, 24, 126, 107,
   -35, 126, 107, -2, -67, -81, -69, -21,
   -19, 8, 71, 86, 76, 127, 58, -47,
   -127, -110, -126, -113, 106, 67, 124, 127,
   30, -16, -31, 22, -20, -48, 99, -30,
   16, 45, 39, 44, 47, 127, 67, -16,
   -60, -59, -14, -94, 90, 74, 56, 124,
   90, -6, -120, -7, -13, -21, 6, 44,
   -126, -9, -26, 85, 42, -37, 47, 17,
   -127, 48, 19, -21, -35, 53, -11, -31,
   12, 25, -127, -8, 125, -15, -33, 73,
   -56, -31, 127, 115, 2, 51, 59, -2,
   -81, 74, 100, 57, -17, -2, -56, 79,
   18, 25, -46, -51, 61, 20, -74, 40,
   0, -33, -27, 121, 15, -56, 63, -126,
   -29, 84, 102, -125, 10, -30, -67, -21,
   3, 22, 11, -4, -19, 37, 63, 39,
   84, -43, 65, 79, -16, 25, 32, -79,
   -51, 56, 27, -57, 59, 34, -104, 36,
   -58, 24, 46, -26, 45, 11, 127, -17,
   -3, 114, -101, 90, -57, -42, 17, 2,
   -17, 62, -14, 49, 72, 127, -19, 66,
   39, 16, 85, 22, -107, -56, -49, 4,
   96, 50, -14, -19, -63, -55, -11, 76,
   2, 58, -28, -43, 76, 71, -27, -63,
   0, -16, -128, -2, -37, -11, -3, 0,
   -55, -26, -57, 18, 15, -27, 39, -12,
   -96, 33, -31, -4, -8, 52, 76, 12,
   13, -107, -126, 14, 1, -25, 27, 24,
   -51, -17, 18, 45, 4, -18, 71, -5,
   -47, 63, 113, 25, -22, 18, -11, -18,
   -69, -73, -71, 14, -25, -3, 6, 7,
   40, -6, -32, 30, -8, -38, 67, -50,
   47, 38, 14, -74, -4, 0, 15, 33,
   3, -37, 37, 20, 64, 8, 0, 47,
   -21, 9, 15, 21, -50, -39, 32, -54,
   -1, 28, -35, -44, 32, 22, -16, -14,
   -14, 4, 67, 12, 12, 6, -15, -1,
   41, -15, 40, 27, -20, -55, 0, 0,
   4, 40, -43, 101, 40, 11, 38, 4,
   -4, -17, 63, -40, -18, 19, 3, -4,
   85, 33, -79, -13, -39, -15, -18, 21,
   14, 10, 5, -26, 31, -23, -20, 7,
   65, 76, 124, -17, 93, 83, 8, 21,
   78, -17, 49, 3, -12, 127, -18, 59,
   -29, -30, -126, 1, 53, -9, 1, 127,
   126, 119, 65, 23, 3, 125, -56, 62,
   109, -80, 98, -50, -42, 99, -17, 64,
   -127, -52, -128, -34, 65, 8, -30, -46,
   50, 65, 67, -7, -83, 124, -84, 26,
   -7, 47, -22, -36, -26, 2, 0, -8,
   -57, -30, -44, 8, 48, 32, -33, -86,
   -49, 61, 25, 10, -73, 70, 23, 15,
   24, -65, 36, 17, -51, 40, 15, -55,
   -49, -24, 9, 25, -22, 34, -14, 7,
   29, 68, -26, -1, -9, 79, 106, 13,
   -7, 54, 63, 12, -29, 15, -14, -27,
   -37, -2, -34, 4, -15, 32, -50, -73,
   -32, 50, -5, 16, -107, -81, 32, -23,
   4, 14, 39, 33, -34, -20, 49, -17,
   17, 22, 61, 57, -33, 54, 10, 27,
   47, 127, -12, 103, 87, 36, -87, -48,
   17, -85, -54, 80, 94, -127, 45, 87,
   37, 29, 127, 82, -39, -40, 111, -21,
   -24, -43, -5, 10, -49, 8, 9, -23,
   12, -21, -15, 4, -3, -23, 5, -11,
   -126, 12, 43, 50, -12, 17, 29, 16
};

static const rnn_weight input_dense_bias[24] = {
   -128, 127, 25, 92, -14, -128, -1, -109,
   36, 127, 126, -128, 126, 127, 6, -126,
   -87, -58, 30, -105, 108, -127, -128, -70
};

const DenseLayer input_dense = {
   input_dense_bias,
   input_dense_weights,
   38, 24, ACTIVATION_TANH
};

static const rnn_weight vad_gru_weights[1728] = {
   -105, 127, 124, 92, 37, 20, -102, 127,
   -127, -84, -127, 125, 59, 26, 55, 10,
   94, -127, 116, 119, 127, -82, -128, 127,
   72, 55, 36, -8, 46, 122, -125, 58,
   2, -127, 0, -103, 46, -38, -80, -93,
   30, 122, 127, -26, 127, 36, 118, 87,
   -58, -17, 42, -43, 53, -11, 28, 13,
   -64, 41, -15, -62, 72, 56, -15, -10,
   21, -51, 17, 20, -8, -8, 3, -3,
   30, -123, 37, -115, 119, 127, -3, 69,
   127, 113, 126, 127, 34, -126, 18, -112,
   71, 126, -127, -50, 43, -58, -65, 35,
   -44, 127, 127, 110, 91, 125, 88, -46,
   19, 108, 33, -8, 3, -104, -65, 107,
   -3, -70, -126, -7, -83, -8, -82, -101,
   -1, 12, 120, 2, 67, 71, 53, -97,
   -9, -127, -23, 89, -81, 89, 18, 71,
   -6, 4, -52, -95, -89, -20, 48, -77,
   19, 126, -126, -9, 83, 57, 21, 127,
   127, 119, 9, -14, 43, -42, -38, -68,
   0, 20, 55, -127, 64, 71, 52, -58,
   -84, 127, -79, 21, 66, -124, -62, 3,
   -126, 41, -126, -31, -127, 127, 104, -123,
   68, 3, 25, -111, -35, -106, 32, -126,
   41, 31, 97, -18, -23, -65, 46, -38,
   17, 7, -62, 92, -35, -46, 106, 18,
   58, 81, 80, -57, -103, -26, -18, -39,
   -35, -128, -47, -126, -81, 127, -49, -125,
   -123, -53, 127, 123, 79, 127, 15, -74,
   77, 67, -75, 66, -127, -8, -7, 126,
   -128, 127, -24, 27, 56, -32, -80, -76,
   -116, -96, -65, 12, -86, -31, 10, 127,
   34, 126, 127, 90, -78, -93, 127, 127,
   -27, 1, 127, -36, 54, 51, -113, 7,
   -67, -61, -47, -46, 47, 51, -88, 26,
   18, 23, 69, 125, -16, -70, -75, 51,
   69, 125, -33, 63, 46, 5, -74, 30,
   -60, -30, 34, -7, -39, -95, 87, 110,
   -3, 1, 111, 127, 126, -65, -59, -24,
   -10, -29, 51, 13, 20, -79, 21, 54,
   80, -76, 71, -35, 36, -60, -83, 74,
   -8, -45, -48, -36, 95, -61, -18, -57,
   -4, -24, 19, -35, -43, 31, -47, -15,
   14, 3, 42, 18, -38, 38, 5, 4,
   13, 2, -37, -72, -28, 13, 31, -46,
   -69, 89, -125, 45, -127, -66, -126, 68,
   -85, -123, 40, 59, -128, -70, 126, -128,
   -127, -128, -59, -126, 54, -126, -127, 107,
   -108, -55, -27, -55, -80, 61, 46, -126,
   -1, -89, 14, -128, -85, -23, -127, 127,
   120, 96, -87, -125, 14, -4, -92, 127,
   -35, -38, -76, 95, 82, -30, -40, 76,
   -18, -39, 59, -5, 28, -46, -128, -104,
   -34, 2, -18, -9, 101, -24, 4, 87,
   12, -105, -11, -102, 81, 127, 127, -34,
   125, 25, -127, -127, 127, 127, 90, 1,
   114, 127, 15, 77, -22, -29, 122, 104,
   15, -5, -35, 127, 104, -74, 40, -18,
   22, 94, 46, -15, -94, 127, -102, 54,
   -86, -128, 65, 86, -25, 61, -47, 107,
   9, 95, 54, -90, -27, 72, 77, -127,
   28, 17, -64, 57, 9, 126, 92, 67,
   55, -13, 22, -75, -99, -71, 0, -88,
   124, -70, -5, -115, 127, -128, -68, -6,
   -128, -73, -93, -128, -90, -128, 64, 125,
   -1, -5, -126, -114, -127, -10, -128, -128,
   127, -128, -36, -80, -75, 127, -99, -122,
   127, 31, 109, -90, 126, 43, 22, -43,
   -41, 39, 75, -72, -124, 22, -102, 127,
   52, 97, -128, 54, 70, -71, 126, 110,
   43, 125, 124, -127, 6, -127, -45, -126,
   -126, -13, -54, 105, 127, -78, 35, 64,
   127, 25, 5, -12, -111, -73, -125, -127,
   28, 122, 45, -100, -128, 38, -85, 22,
   9, 127, -26, -90, -68, -86, -102, 102,
   -128, -42, -55, -69, 42, -25, -126, 105,
   121, -4, -128, -126, -23, -127, -1, 127,
   49, -126, 92, 84, 53, -126, 126, -76,
   -6, -9, 6, 45, 41, 45, 38, 46,
   16, 60, 76, -42, -52, -34, -31, -52,
   -27, 91, -110, 8, -16, 42, 36, 0,
   -69, -90, -64, -12, 127, -128, 127, -127,
   102, -84, 127, 96, 77, 127, -16, 121,
   -125, 65, 55, 49, -83, 9, 121, 86,
   45, -57, 1, 69, 127, 20, 82, -32,
   25, -13, 42, -48, 40, -20, 81, 8,
   80, -123, 26, -6, -78, 49, 31, -84,
   -5, 34, 78, -58, -28, 49, 104, -88,
   33, -17, -84, 34, -80, 44, 69, -15,
   9, -33, -24, -88, -27, -32, 31, 20,
   55, -127, 24, -126, 25, 126, 126, -128,
   68, -87, 100, -106, -127, 127, -127, -120,
   96, 115, -92, -115, -127, -126, 110, 125,
   35, -24, 32, -26, 125, 44, 62, -33,
   57, 57, 10, 54, 125, -124, 42, -71,
   126, -97, 35, 81, -49, 50, -22, -51,
   58, 36, -21, -4, 39, 67, 116, -44,
   -6, 31, -26, 13, -52, 5, 58, 17,
   1, -3, -9, -16, 45, -47, -2, 18,
   -103, -127, -3, -17, 30, -92, -121, 81,
   -127, 27, 10, 101, -75, -51, 30, 127,
   103, -128, -65, 93, -40, -127, -88, 49,
   17, -11, 56, -128, -112, -128, 98, -121,
   4, -128, 127, 25, 116, -128, -13, 120,
   -42, -15, 127, -127, 100, -127, -37, 71,
   -71, -50, -71, 34, 4, -50, -63, 127,
   39, 122, -30, -128, -7, -68, -118, -119,
   -128, -15, -37, 77, 127, 62, -26, 126,
   123, -82, 126, -127, 127, -26, 30, -85,
   127, 117, 71, 111, 53, -110, 89, -127,
   22, 22, -125, 119, -127, 67, 127, 114,
   127, -127, -60, 122, -126, 29, -37, -48,
   -43, 15, 126, 16, 109, -78, 46, -127,
   127, -84, 3, -3, -126, 66, 127, -124,
   125, 25, -119, 99, 14, -30, -42, 127,
   -32, 48, 0, -127, 127, -3, -122, -57,
   -127, -30, -49, 127, 127, -105, 17, 78,
   -6, -128, -127, -103, -125, -128, 127, -125,
   83, -117, -23, -127, -127, -128, -127, -127,
   -125, -91, -128, -128, -127, 37, 126, -128,
   9, 82, -99, -124, -128, 58, 7, -74,
   81, -92, 6, 36, -32, -16, 85, -69,
   -43, 127, -92, -87, -126, 24, 127, 111,
   -45, 95, -127, 127, -7, 16, 53, 126,
   26, -37, 53, -104, 98, -99, -108, -126,
   -127, 18, -34, 127, 126, 12, 26, 127,
   -127, 127, -126, -79, 79, 57, 32, -123,
   70, 22, 125, -124, 16, 103, 40, 127,
   127, -122, -40, 26, -45, -126, 127, -40,
   66, -127, -17, 3, -110, -128, -109, 33,
   37, -127, 127, -120, 110, 14, -30, 127,
   126, -53, 127, 5, -126, 127, 91, 15,
   40, 62, -127, 37, 68, 37, 88, 80,
   70, 127, 24, -125, 16, -10, -82, -127,
   -125, -63, -127, 120, 127, -37, 15, 20,
   109, -18, 123, -80, -121, 65, -127, 111,
   -9, 89, -63, 74, -118, -127, 118, -116,
   123, -20, -96, 35, 42, -128, -119, 107,
   127, 18, -30, -17, -127, -46, -114, -33,
   47, -18, -105, 37, 57, -128, 127, -127,
   -125, 111, -127, -40, 94, -33, -62, -105,
   30, -8, -127, 126, 37, -32, 15, 124,
   -13, -60, 31, -128, 71, -48, -30, -40,
   -105, -15, -26, 127, 127, 4, 8, 127,
   -56, 111, -127, -55, 42, 82, -107, -13,
   127, 122, 127, -48, -81, 126, 126, -68,
   122, -126, -2, -124, -127, 127, 5, -99,
   121, 118, 68, 127, 126, -127, 18, 127,
   -41, 44, 68, -4, -63, -10, 86, 79,
   127, -94, -102, 127, -88, -118, -20, -128,
   105, -49, 124, -92, -48, 31, -86, -76,
   42, -114, 1, 127, -91, 45, 43, 48,
   44, 90, 1, -108, -47, 50, -21, -104,
   -10, 127, -117, 0, -127, -126, -126, 125,
   -28, 126, 97, -123, 127, -107, -123, 127,
   127, -49, -36, -117, 83, -67, 22, 127,
   -108, 127, 127, -125, 125, -128, 14, 127,
   127, -71, 127, -85, 126, 43, -127, 104,
   12, -47, 97, 55, -43, 127, -128, -126,
   23, 94, -127, -23, -29, 10, 32, 127,
   98, -27, -88, -124, 100, -127, -128, -127,
   -127, -85, -57, 124, 123, -57, 36, 37,
   38, 41, 82, 65, 30, 22, -86, 79,
   -126, 30, -56, -79, 127, 127, -3, 125,
   39, 85, 114, 109, 74, -3, -12, 127,
   -53, 2, 70, 57, 118, -112, 126, 93,
   -11, 114, 127, 84, -125, 112, -122, 84,
   -99, -80, 107, -46, 68, 104, -113, 7,
   -127, 38, 54, -89, -30, -14, 103, -128,
   25, -54, -91, 125, -124, 11, 49, -18,
   57, 67, 13, -52, -126, -86, 2, -102,
   -93, -9, 127, 126, -37, -12, -60, 95,
   14, 7, -27, 127, 51, 85, -1, 15,
   -125, 5, 100, 5, 37, 32, -75, 18,
   -44, -3, 40, -53, 33, 55, 70, -28,
   95, -31, -84, -58, -85, 66, -45, -13,
   -126, -9, -59, -29, 56, 54, -14, -15,
   -79, 14, 19, 8, 11, 17, 86, -53,
   17, 4, -70, 23, -40, 13, 48, 15,
   17, 17, -9, -51, -80, 17, 27, -29,
   72, 85, -128, 2, 28, 127, 127, -14,
   69, 51, -28, -128, 2, 126, -128, -127,
   -126, -64, 14, -127, 73, 127, 113, -98,
   -128, 15, -38, 126, 23, -17, 49, 39,
   -23, -128, -128, -87, -110, 85, -88, 25,
   118, 127, 127, -93, 99, 50, 127, 119,
   -84, 46, 38, -126, -11, 122, -86, -79,
   -1, 68, 120, 127, -34, 76, 127, -9,
   112, 32, 52, -45, -127, 6, 18, -105,
   -127, 127, -127, -5, -122, 13, 0, 127,
   -43, 127, 85, 126, 127, -5, -106, 8,
   1, -32, 32, 122, 127, 119, 55, -60,
   37, -85, -27, 127, -113, -127, -3, 126,
   11, 84, -53, -30, 68, 43, 17, -128,
   -128, 127, 15, -125, 35, 70, -29, -100,
   65, -32, -89, 93, -27, -82, -43, 118,
   -34, 5, 19, -88, 52, -79, -50, 15,
   11, 4, 47, 32, 78, 23, -4, 48,
   -126, 127, 127, 127, -120, 28, -127, 126,
   -79, 91, 77, 127, 58, 115, 126, 127,
   125, 41, 2, 127, 77, -127, -127, 33,
   120, -81, 127, -97, -86, -60, -7, 78,
   -14, -128, 20, -104, -126, -61, 36, 89,
   -44, -3, -7, 28, -52, -57, -128, -109,
   127, 43, 57, -8, -49, 51, -18, -64,
   83, 64, -114, 34, -44, 16, 37, -50,
   10, 11, -41, -117, 41, -52, 30, -52,
   19, -99, 54, -88, -69, -69, -112, -22,
   -56, 126, -127, 127, -125, -127, 26, -128,
   -51, 17, -118, -8, -127, -68, -82, -127,
   111, 48, -47, 53, -126, 36, -126, 87,
   -43, -14, -5, -63, 50, 36, 28, -89,
   42, 91, 67, 76, -38, -95, 91, -37,
   76, -27, -3, 28, 29, -68, -93, 120,
   -60, 5, 90, -35, 125, -62, -65, 15,
   -13, -18, 31, 78, 95, 3, -35, 51
};

static const rnn_weight vad_gru_recurrent_weights[1728] = {
   -127, 127, 125, 127, 10, 127, -94, 127,
   -128, 127, -128, 127, 14, 127, 127, 77,
   125, 45, 68, 126, 127, -25, -128, 118,
   115, 77, 127, 76, -127, -112, -13, 19,
   -56, -124, -54, 23, -126, 83, -28, -126,
   -33, -10, 6, 112, -19, 17, -38, -114,
   24, -125, 126, -126, -127, 57, -2, -128,
   -9, -114, -126, 127, -127, 88, -59, 126,
   127, 124, 103, -126, -128, 127, 5, -127,
   -18, 115, 127, 127, 102, 126, 109, 127,
   -128, -48, 31, -69, 75, 71, -128, 127,
   -3, 126, 127, 127, 127, -127, -128, 72,
   17, -127, 1, 17, 6, -12, 6, 93,
   67, 108, 74, -122, 127, -40, 71, 37,
   18, -122, -25, 37, 127, 15, -127, -82,
   51, 126, -127, 65, 81, 44, -85, 127,
   70, 127, 12, -127, 43, -63, -128, -127,
   -126, -127, -126, 123, 127, -51, 53, -18,
   49, 52, 127, -58, -18, 11, -21, -45,
   -65, -72, 109, 103, -102, 17, -85, -126,
   -21, -66, -17, 82, 89, -54, 127, 126,
   55, 34, -9, 41, 105, 29, 101, -17,
   -13, 0, -8, 8, -8, -1, -13, -15,
   -18, 99, -5, -33, 103, -17, 53, -12,
   16, 105, 127, 37, -48, -127, 47, -102,
   -48, -128, -6, 119, 8, 124, 127, -128,
   -126, 12, -49, -124, -127, 59, 13, -126,
   51, 127, 127, 127, -128, 120, -49, 125,
   127, -45, 127, 127, -33, 93, -127, 126,
   125, 121, -125, 127, 127, 70, -32, 127,
   116, -29, -72, -32, -24, 43, -89, -30,
   7, -86, 127, 27, 127, -46, -36, 27,
   -25, -116, 1, 114, 127, 46, 66, 18,
   124, 127, -126, 124, 127, 126, 4, 126,
   -85, 20, 125, -128, 126, -19, -101, -126,
   -127, 18, -128, 124, 127, -127, 58, 115,
   107, 11, -115, 127, -128, 127, 28, 127,
   -66, 121, 32, -117, 127, 127, -63, -12,
   -59, 74, 127, -125, 127, -26, 127, 127,
   -39, -23, -113, -31, 52, 108, 127, -36,
   -44, 63, 97, -127, 3, -37, 0, -40,
   7, 35, 9, -40, 7, 54, 123, -22,
   -73, -60, -125, 76, -5, -24, 127, 127,
   -60, 110, 22, -128, 127, -127, -128, -68,
   -108, -71, -124, 123, 127, 71, -81, 35,
   -1, -128, -126, 71, -90, -127, -128, -127,
   -88, -126, 27, -79, -24, -29, 122, -7,
   -112, -53, -19, -124, -127, 49, -128, -127,
   -126, 62, -21, 66, -47, 24, -127, 91,
   -87, -106, -126, 3, -93, -50, -78, 119,
   67, 25, -3, 29, -128, 16, 11, -38,
   18, -69, 127, -9, -50, 71, 37, -127,
   -19, -128, 127, 127, -30, 84, 126, 127,
   127, 49, 121, -126, -128, 19, 33, -128,
   126, 127, 2, -13, -34, 126, -32, -73,
   127, 51, 2, -127, 13, -31, -126, -127,
   -125, -122, 61, -126, 93, 127, 127, 69,
   -5, 127, -85, 57, -35, 109, 127, 123,
   9, -42, 2, -3, -128, -55, 127, 110,
   127, 126, 69, -128, 77, -97, -3, -127,
   15, -127, 98, -103, -32, -25, 32, 56,
   -128, -97, -82, -58, 127, 58, -115, -21,
   96, 42, -26, 73, 70, 127, 31, -127,
   -124, 68, -53, 88, 33, 125, -41, 126,
   -106, 123, -36, 115, -42, 18, 13, -85,
   -65, 6, -32, 127, 127, 72, 73, 127,
   57, 70, 23, 12, 56, 2, 90, 36,
   2, 77, 45, -41, 46, 63, 4, -2,
   -25, 40, 66, 38, 14, -22, -68, -13,
   126, -126, -125, 81, 25, 114, 7, 57,
   127, -37, 126, -128, -128, -41, -127, -116,
   10, 99, 11, 122, 126, -127, -8, -4,
   -76, 25, -126, 62, -127, 127, -127, -104,
   -128, 126, -27, 127, -111, 127, 94, 124,
   127, 126, 127, -49, 127, 127, -128, 127,
   -127, -127, 42, 127, -127, 126, -67, 105,
   -24, -90, -128, 34, -36, 117, -51, -49,
   -44, 76, -127, 18, 55, -73, -55, -82,
   -49, -66, 127, -127, -127, 127, -56, -126,
   101, -112, -128, 127, -98, -9, 110, 127,
   127, 15, 127, -128, -127, -30, 24, 23,
   100, 65, -31, 27, 52, 63, -6, 18,
   125, -123, -124, 12, -120, 5, -128, 6,
   3, -39, 43, -23, 127, -2, -55, -105,
   -120, -84, -31, 106, -71, 6, -127, -56,
   -21, 25, -90, 6, -9, 18, 58, 19,
   -11, -124, 90, -13, -33, 45, -34, -20,
   -124, -36, 127, -94, 11, 127, 44, -115,
   -50, -125, -83, 104, -128, 127, 126, 125,
   116, 8, 44, -121, -70, 20, 92, -125,
   125, 100, -40, 127, -111, -42, -127, -37,
   126, -72, 127, -127, -11, -19, -29, -44,
   -121, -127, 70, -120, -57, 127, -128, -127,
   -69, 19, -73, -97, -121, 127, -127, -62,
   -11, -11, -67, 45, 124, 127, 123, 1,
   -27, 51, 55, -120, -52, 126, 99, 127,
   -13, 73, -128, 127, 127, -125, 74, 127,
   65, 127, 119, -128, 127, -128, -128, -127,
   -128, 120, -119, 127, 127, 28, -23, 127,
   -31, 46, 70, -57, -9, 13, 11, -52,
   43, -86, 24, 125, 31, -10, 11, -87,
   -59, -79, 64, 115, -17, 28, -13, -48,
   40, 123, 26, -43, 49, 26, -10, -50,
   -2, -9, 71, 45, -38, 40, 7, -9,
   -24, 50, 55, -10, -14, -27, 49, 28,
   -96, -128, 127, 87, 63, 11, 49, 6,
   36, -89, 64, -19, -35, 68, 125, 127,
   127, 127, -15, 91, -126, 13, -18, 78,
   127, 74, -43, -13, -128, 35, -10, 43,
   -10, -4, 127, -120, 41, 87, -125, -126,
   -128, -20, -30, -128, -7, 127, 99, 122,
   52, 25, -127, -15, -51, 4, 95, -24,
   -42, -48, 40, -80, 3, 112, 104, -24,
   -49, -1, 41, 5, 16, -77, 7, -10,
   -54, 52, -128, 73, 127, -74, 46, 127,
   -90, 104, 126, -127, 124, 9, -128, -94,
   -120, -25, -3, 127, 127, -33, -15, 127,
   124, -128, -99, 109, 127, -127, 126, -127,
   120, -127, -103, -124, -75, -127, -67, -117,
   -29, -126, 15, -52, -127, 127, 127, -128,
   18, 126, 63, -51, -105, -26, 22, -34,
   40, -32, -127, -90, -128, -13, -2, 19,
   100, 12, -80, -40, -128, 51, 127, 68,
   13, -116, 126, -12, -42, 127, 43, -128,
   26, -101, 31, 127, -43, 126, 127, 85,
   105, -45, 113, -78, -127, -5, 127, -127,
   89, 41, -126, 30, -13, -124, 24, -75,
   -76, -68, -10, -111, -44, -36, 10, 51,
   -9, -10, -47, -127, 25, -55, -90, -126,
   68, -128, 3, -30, -72, -44, -127, -37,
   30, -10, 119, 33, 127, -96, -8, -31,
   -56, -92, -31, 50, -22, 44, -40, 19,
   5, 118, -128, 70, 67, 51, -29, 125,
   -64, 127, 20, -127, -4, -4, -107, -125,
   -46, -103, -70, 127, 127, -90, 108, 123,
   20, -125, -128, -8, 127, 82, 44, -117,
   -127, 120, 61, -126, 101, -55, 127, 127,
   83, 30, 126, -13, 3, -76, 43, -114,
   -24, -58, -13, 33, 127, 66, 25, 41,
   -71, 127, -62, -42, -23, 74, -51, -5,
   1, -92, -91, 38, 5, -70, -16, 23,
   -32, 75, 127, -126, -3, 75, 63, -127,
   -80, -128, -68, 127, -126, -121, 127, 124,
   62, -8, 127, -127, -128, -3, -127, -3,
   -49, 78, -126, 127, 116, 127, -67, 127,
   -94, -9, 46, -62, 127, 122, 127, 127,
   75, 4, 127, 14, 127, -126, 27, 47,
   -126, 127, -38, 23, 127, 25, -61, 30,
   -128, 127, -98, -24, -44, -29, -51, 103,
   -41, -18, -20, 46, 78, 3, 124, -33,
   -104, 12, 125, -127, 46, 63, -66, -128,
   -115, -86, 32, 127, -7, 79, 127, 8,
   126, -27, 126, -128, -128, 63, -84, -127,
   -46, -127, -126, -46, 12, 127, -60, 127,
   127, 119, 1, -10, 127, 127, 127, -126,
   -39, -127, 76, -128, 127, 127, 127, 64,
   -27, 72, -3, -127, 126, -2, 62, 36,
   -63, -29, 10, -72, -34, 59, 13, -64,
   -127, 126, 77, -128, -83, -54, 126, 127,
   47, -17, 106, -126, 17, -100, 72, -128,
   54, -127, -111, 127, -48, 127, 127, 125,
   110, 127, 127, -124, -126, -128, 71, -101,
   125, -128, -128, -127, 69, -127, -126, -123,
   80, -109, -64, -45, -128, -68, 127, 109,
   68, -74, -128, -86, -127, 104, -92, -114,
   41, 63, 94, 43, 44, -86, -128, 40,
   -7, -2, -84, 13, 9, 81, -60, 32,
   30, 30, -21, 77, -98, -7, -103, -13,
   16, -86, 126, -18, -123, 127, 3, -128,
   1, -128, -16, 127, -126, -19, 127, 43,
   3, 78, 40, -125, -128, -54, -38, -126,
   78, -57, -76, 65, -28, -97, 23, 77,
   15, 6, -30, -124, -1, -55, -124, -66,
   -78, -29, -12, -101, -40, -40, 25, -39,
   -95, 39, -125, 31, -56, 114, -37, -4,
   14, 82, -128, -66, 14, -18, 19, 35,
   37, 54, -18, -7, 62, 22, 91, 59,
   -81, 114, -126, 33, 127, 90, 20, 106,
   -54, 5, 126, -69, 126, -61, -34, -43,
   45, -79, -127, 121, 127, -128, 82, 126,
   -2, 127, 88, 126, 106, 126, 23, 126,
   -125, 114, 84, 125, -52, 37, -5, -50,
   -13, 91, 127, 114, 127, -73, 45, 126,
   117, 34, -12, 59, -29, -2, -2, 42,
   -24, 26, 25, -14, -3, 10, 18, -92,
   -14, -25, 33, 31, 19, -76, 3, -46,
   -128, 69, -125, -91, 126, -32, 34, -124,
   -111, 83, 33, -128, -19, 99, 94, -128,
   -88, 103, 0, 124, 37, 27, 2, 16,
   39, -65, -69, -128, 127, -91, 127, -128,
   -54, -69, -126, -82, -18, -127, 25, -51,
   -60, -126, -50, 37, -127, -24, 127, -103,
   60, 99, -33, -61, -64, -2, 57, 69,
   28, -127, 71, -51, 24, -127, 46, 45,
   18, 75, -14, 108, 99, -74, 102, -87,
   31, -18, -128, 39, 127, -30, 49, 124,
   -27, 127, 78, -125, 114, -127, -105, -44,
   -119, -84, -38, 127, 123, 49, -128, 127,
   116, -126, -127, -89, -127, 64, -128, -83,
   127, -128, 127, -127, 127, -102, -126, -127,
   -124, -105, 57, -125, -39, 93, 127, -10,
   -128, 127, -128, 127, 124, 126, 79, -127,
   -128, 88, -128, 126, 37, 127, -126, -128,
   -128, 127, 127, 25, 127, -126, 126, 127,
   -126, -127, 127, -128, -12, 127, 124, -127,
   126, 127, -112, 127, -128, 127, -28, 127,
   127, 127, 127, -3, -127, -128, 84, 127,
   29, 20, 78, 109, -43, 126, -86, 105,
   -76, 124, 126, 127, -127, 94, 48, 15,
   24, 79, 64, 108, 126, -1, -127, 127,
   17, 74, -58, 46, -60, 95, -127, -30,
   -38, 101, -128, -19, -28, -91, 17, -63,
   -17, 62, -92, 16, 103, -57, -18, 63,
   17, 20, 25, -6, 15, -1, -16, 81,
   -57, -126, -56, -85, -117, 78, 61, 124,
   127, -27, 127, 37, 30, 33, -127, 47
};

static const rnn_weight vad_gru_bias[72] = {
   125, -127, -127, -127, 116, -117, 127, -127,
   121, -116, -50, -128, -116, -120, -127, -126,
   -127, -83, 32, -126, -126, 127, 127, -128,
   72, 69, 28, 96, 127, 10, 77, 61,
   105, 61, 127, 4, 126, 6, -14, 31,
   89, 54, 83, 90, -9, 61, 127, 37,
   13, -47, -6, -11, 10, -53, 52, 74,
   -37, -77, -97, -127, 13, 16, -127, 11,
   -126, 25, -10, -28, 31, 10, 25, -11
};

const GRULayer vad_gru = {
   vad_gru_bias,
   vad_gru_weights,
   vad_gru_recurrent_weights,
   24, 24.0, ACTIVATION_TANH
};

static const rnn_weight noise_gru_weights[12384] = {
   -6, -36, -4, 35, -4, -59, -90, 49,
   19, -15, 50, 34, 27, -2, -83, -59,
   -34, -30, -89, -33, -3, -94, -36, 46,
   -33, 45, 29, 10, 14, 12, 26, 16,
   -52, -1, -8, -32, 101, 13, 69, 90,
   -14, 35, -37, -25, 46, -87, 56, -2,
   -22, -29, -73, -128, 61, 62, -43, 66,
   17, -39, 119, -16, 93, -125, 61, 60,
   69, 7, -82, 36, 50, 38, 116, 40,
   13, -18, 4, -56, 70, 56, -79, -13,
   68, -16, -29, 23, -40, 17, 3, 33,
   -24, -87, 58, -33, -33, 127, 124, 40,
   -3, -38, -43, -31, -4, -43, -31, -49,
   -5, 2, 39, 18, -52, 31, 78, -52,
   106, -16, 26, 11, -1, -20, -4, 27,
   14, -26, -28, 2, -84, -12, 127, 20,
   -28, -24, -28, -39, -27, -34, 103, -36,
   8, 21, -51, 11, -54, 85, 89, -39,
   -2, -38, -34, -21, 46, 117, 21, -99,
   19, 30, -19, 33, 43, 19, -117, -6,
   -38, 114, 11, -16, 127, -92, 4, 30,
   27, 24, -40, 93, 26, 34, 28, -18,
   -97, 37, 41, 14, -46, 120, 39, 11,
   -6, -63, -3, 0, 122, -15, 34, 45,
   -23, 17, -10, 33, 3, 32, -9, -67,
   14, 50, 8, 54, 37, -58, 9, 64,
   -30, -2, -36, 127, 88, -11, -34, 24,
   -13, -29, -126, 30, 57, 106, 10, 13,
   -5, -31, 50, -24, 14, -87, 35, -54,
   -6, -94, -19, 39, 22, -1, 16, -33,
   55, 30, 6, 9, 2, 27, -62, 60,
   25, -10, 7, -126, -88, -23, -3, -6,
   -54, 3, 1, 20, -101, -34, 21, -14,
   -19, 8, -33, 32, -60, 54, 2, 8,
   8, 78, 6, -3, -52, -13, 28, -3,
   13, 6, 0, 0, -6, -24, -40, 19,
   74, 75, 8, 91, 19, 74, -23, -95,
   -9, 13, 34, 117, 20, 127, -24, -60,
   11, -109, -76, -75, -76, 54, -1, 29,
   -45, -64, 3, -48, -26, 126, 2, -30,
   111, -120, 25, -102, -29, 18, -14, -9,
   51, 21, -10, 6, 1, 100, 92, 59,
   -60, -48, -30, -45, -43, -32, 73, 1,
   -88, -34, 17, -121, 127, -35, 125, -5,
   31, -4, -28, -65, 21, 126, -108, -48,
   -47, 38, -64, 82, 102, 89, 22, -71,
   -40, 7, 47, 91, 9, -55, -31, 15,
   50, -43, 69, -49, 72, -76, 18, 51,
   -33, 66, 68, 8, 18, 42, 51, 17,
   -1, -54, 35, 72, 69, 0, 118, -3,
   -1, -42, 1, 26, -3, -52, 18, -17,
   42, -11, 11, 13, -83, -63, -64, -75,
   -81, -5, -24, -83, -46, 1, -36, -38,
   21, -71, -18, -28, -23, 48, -42, -20,
   46, -51, 17, 47, 36, -27, -20, 66,
   -82, 47, 120, -128, -47, -52, 90, -3,
   -70, -30, -14, 52, 127, 16, -32, 33,
   -28, -18, -29, -29, -46, -50, 54, -115,
   11, 24, 34, 7, -16, 21, -9, -12,
   20, -7, 11, 82, -72, 8, 70, -43,
   -123, -42, 16, -9, -114, -63, 46, 59,
   58, 69, -2, 45, -103, -35, -81, 37,
   -22, -78, -66, -7, 49, -85, 96, 1,
   37, -26, -126, -83, 38, 45, -25, -35,
   55, 22, -49, -9, 9, -96, 32, 8,
   -24, -60, -43, 34, -45, -33, 17, -17,
   37, 72, 48, -18, -4, 29, 62, 46,
   45, 32, -19, -45, -11, 26, 11, 28,
   12, -34, -11, -23, -105, 18, 44, -5,
   31, 8, -28, 45, -63, 61, -17, -69,
   7, 57, -31, -3, 5, -43, -4, -11,
   34, -65, -2, -6, 6, 23, -71, -42,
   -34, 6, 31, 39, 40, 26, 61, 55,
   -32, 25, -38, 28, -59, -53, -4, -22,
   9, -17, -58, 15, 38, 21, 69, -40,
   13, 67, -23, -42, -9, 23, 18, -15,
   -13, -12, -86, -11, 25, -55, 62, 72,
   -20, 27, -44, -104, -36, 50, 23, 27,
   -24, -24, -41, -40, 27, -20, 55, -5,
   26, 19, 37, 0, 34, 13, 23, 26,
   -30, 87, -71, -10, -16, 0, -48, -38,
   17, -47, 21, 41, 28, 24, 105, -27,
   6, -69, -25, 18, 36, 14, 106, -70,
   -38, -19, 19, 17, -62, -57, 8, 69,
   15, 29, -8, 9, -4, 8, -9, 2,
   -9, -27, 1, -19, 8, 7, 16, 9,
   -54, 0, 28, 0, 7, -7, -23, -7,
   -4, -6, 8, 4, -26, 10, -44, -14,
   -30, -31, 8, -28, 4, -1, -9, 27,
   7, 42, -8, 43, -50, 33, 0, 16,
   91, -13, 27, -11, 2, -66, -9, -50,
   -28, -12, 123, -4, -5, -12, -7, 66,
   -29, -78, -9, -42, 25, 79, 126, -69,
   -24, -128, -19, -26, -56, 32, -37, 78,
   6, -120, 17, -33, -31, 38, -15, 12,
   -88, -58, 60, 54, -99, 10, 110, -55,
   -56, 8, -109, 26, 6, -49, 3, -49,
   23, -127, 103, 121, 24, 79, 15, -62,
   52, -125, -64, 16, 76, -28, -105, -10,
   3, -46, -104, 19, -7, 125, 51, -44,
   -17, 126, 47, -64, -124, -61, -36, 12,
   -126, -102, -82, -97, 2, 28, 9, 5,
   83, 0, -8, -5, -23, -36, -47, -36,
   26, 29, -1, 2, 50, -2, 32, 32,
   10, -77, -40, -63, -51, 26, 3, 16,
   -97, 7, 7, -37, -32, 25, -75, 5,
   109, 65, -3, -83, 2, 51, -13, -16,
   37, -6, -5, 50, 55, 17, 5, -85,
   -91, -16, -62, -40, -56, -12, -9, -128,
   21, 2, 12, -16, 57, -72, -14, -25,
   22, -28, 25, 34, -126, -127, -26, -51,
   73, 21, 14, -51, -2, 27, 31, 95,
   4, 115, -32, 112, 62, 41, -60, -65,
   20, 84, 31, 86, 59, -71, 127, 13,
   15, 55, 27, -46, -43, 32, 12, -18,
   -19, -126, -3, 51, 98, -55, 92, 42,
   -49, -126, 5, -62, -64, 83, 17, 127,
   78, 109, -80, -14, 24, -76, -2, 49,
   54, -47, 58, 119, 7, -15, -43, 77,
   125, -18, 124, -45, -9, -116, -112, -71,
   20, -11, -27, 0, -38, 114, -7, 102,
   9, -67, -16, -26, -77, -111, 7, -29,
   23, 29, -24, -58, 51, 42, -41, -13,
   75, -117, -57, 29, 34, -27, 58, 70,
   -62, 10, -51, 17, -106, -81, -42, -25,
   -55, 7, -90, 49, -92, 19, -85, 6,
   7, 24, -2, 59, 14, 31, 22, 0,
   -29, -68, 46, 127, -2, -55, -16, 8,
   2, 49, 51, 2, -128, 29, -9, -29,
   -16, 30, -50, -70, 70, -25, -41, 29,
   -95, -18, 14, -110, 8, 116, 118, 77,
   55, -35, -8, 40, -3, -83, -16, 68,
   -10, 58, -57, 62, -29, -33, -81, -25,
   -69, -45, 39, -10, -16, 38, 59, -59,
   -52, 51, -33, -127, 83, 25, 97, -15,
   53, -44, 44, 53, -118, 17, -48, -92,
   20, 0, -58, -24, 36, 18, 81, 6,
   70, -10, -39, 29, -46, 70, 35, -7,
   -43, -1, -51, -29, -10, 11, -55, -27,
   -6, 52, -40, -31, -78, 7, -20, -12,
   10, 31, 30, -78, 41, -56, 21, -56,
   -84, -5, 47, 11, 16, -53, 7, 47,
   40, -17, -16, -3, -28, -51, -16, -62,
   13, -32, 55, -15, 5, 83, 16, 3,
   -58, 26, -34, 25, -29, -120, -32, -122,
   66, 96, -27, 6, 48, 2, -24, 36,
   -46, -125, 92, 7, -127, -118, 7, -16,
   3, 89, -14, -22, -12, 48, -56, -19,
   12, 28, -53, 2, 2, -47, 27, -1,
   -76, -73, 8, 26, -30, 40, 50, 121,
   -61, -37, 42, -65, 45, -125, 8, 16,
   -33, 65, -30, -41, -107, -104, 30, 10,
   19, 54, 89, -45, -51, 32, -127, 26,
   -76, 16, -107, -61, 29, -115, -117, 9,
   -48, -48, -34, -86, -56, 5, -29, 31,
   -127, 8, 119, -97, 55, 17, 29, 111,
   15, 60, -82, -27, -23, -38, 59, -62,
   -22, 21, 9, -51, 46, -81, 65, 56,
   -3, -59, 54, 31, 24, -26, -45, 17,
   -83, -40, 113, 53, 3, 33, 37, -48,
   -13, -76, -6, 24, -60, -68, 39, 22,
   4, -4, 44, -32, -2, -4, 36, -7,
   20, 73, 2, -60, 0, -12, -38, 14,
   -95, 41, 56, 3, -9, 58, 57, 72,
   11, 55, -33, -41, -26, -27, -74, 55,
   41, -45, -89, -126, -28, 11, -27, -23,
   40, -12, 15, -23, 3, 0, 8, -35,
   -18, -36, 28, 20, 8, 96, -123, 101,
   17, 73, 29, -58, -62, 44, 17, 3,
   -65, -33, -99, 57, 40, -47, -22, 23,
   112, 50, 79, -65, -69, -39, -39, 55,
   -22, 127, -30, 31, -14, -31, -4, 32,
   47, -43, -33, 53, -10, -90, 12, 101,
   16, -33, 37, 105, 83, -114, -93, -78,
   -1, 76, 89, 9, -22, 77, 50, 127,
   88, 7, -52, 17, -9, -58, -13, -19,
   35, 39, -49, -8, -4, 44, 3, -1,
   28, 52, -22, 84, 5, 24, 57, 3,
   15, 42, -64, 44, 2, -23, -27, -55,
   54, -13, -45, 23, 2, -86, -33, -12,
   -2, 55, 27, -127, -21, 22, -125, 12,
   -7, -39, -112, -28, 13, -120, -75, -48,
   32, 31, 58, -86, -40, 81, 10, -1,
   10, 28, 9, -34, 20, -64, 79, 30,
   45, -21, -70, -12, -27, 5, -50, -126,
   -68, 30, -4, 56, 62, -57, 65, 4,
   -62, -32, 82, -31, 12, 24, -14, 65,
   -18, -103, -8, 119, 21, 54, -17, 5,
   -68, -5, 19, 28, -23, -42, -65, -8,
   -32, 103, -30, 31, -28, 25, -21, -41,
   25, 9, -127, -46, -81, 48, 36, -35,
   91, -16, 57, 20, 23, 105, -29, 44,
   17, 28, 27, 26, 4, 13, -20, 70,
   -16, 51, 65, -12, 61, 36, -1, 26,
   -45, 23, 24, 27, -6, -14, -23, 3,
   3, 19, -61, 6, 37, 21, -59, -13,
   -16, -13, -88, 3, -22, -2, 20, -32,
   34, 23, -11, -88, -10, 27, -12, 19,
   -81, -33, -75, -98, -95, -118, 31, -53,
   20, -5, 21, 55, -81, -32, -60, 86,
   -57, -126, 31, -11, 123, -20, -78, -51,
   7, -32, 73, 51, 1, 74, -94, 9,
   -71, -42, 2, 19, -36, -122, 3, 35,
   1, -59, 36, -126, -55, 57, 39, -47,
   88, 40, -99, 86, -86, -64, 65, -3,
   -40, 85, 15, 125, 8, 86, -23, -98,
   -55, -43, 95, 112, -6, 32, -44, -108,
   26, 53, 20, -16, 10, -2, -113, 106,
   -25, 22, -34, 37, -88, 123, 13, -91,
   -83, 92, -51, -3, -76, 10, 28, -107,
   -126, -53, -41, -24, -4, 45, 16, -51,
   12, 56, -2, -49, 72, -6, -29, -8,
   -29, -18, 24, 7, 5, 42, 11, 29,
   1, -75, 24, -53, 26, 93, 40, 44,
   -20, 28, -8, 15, -22, 21, -6, 11,
   -27, -7, 74, -101, 118, 43, 119, 61,
   75, 56, -86, -13, 61, 74, 5, -114,
   42, 77, 55, 122, -18, -24, 110, 6,
   31, 82, -6, 96, 89, 69, -3, 42,
   -63, 29, -16, -51, 1, -71, 4, 30,
   11, -71, 120, -80, 13, 126, -37, 59,
   -56, 22, 18, 27, 127, -79, -68, -87,
   -24, -76, -6, 35, 35, 14, -11, 49,
   -38, -44, 23, -2, 95, -26, 47, -46,
   -70, 19, 91, 126, 57, -41, 52, 0,
   -76, -55, -32, -54, 12, 0, 23, -30,
   105, -11, -16, 61, -48, -34, 37, -7,
   31, -10, 115, 2, -127, 89, 53, 38,
   -22, 38, 24, 40, 7, -13, -43, 3,
   3, 51, 19, 35, -50, -17, -33, -11,
   -20, 20, -8, -38, -28, 40, 15, -25,
   -20, 35, -76, -29, 112, 23, 8, 39,
   57, 23, -23, 1, -26, 24, -6, -44,
   -26, 4, 1, -32, -39, 41, 35, 29,
   -43, 1, 44, -88, 80, -2, 16, -83,
   -17, 25, -69, -79, -29, 18, -86, 23,
   56, 49, -70, -99, -59, -8, 45, 78,
   96, -73, 7, 21, 80, -68, 26, -24,
   -50, 54, -11, 61, -95, 127, 47, -53,
   0, -16, -36, 12, -58, 85, -65, -31,
   -4, -49, 27, -85, -28, -48, 34, 52,
   -11, -13, -115, 72, -40, -14, -30, -4,
   18, -28, 59, -24, -61, 6, -30, -42,
   -35, -35, -128, -29, 23, 27, 3, 32,
   15, -84, -56, -12, -5, 25, 4, 33,
   41, 14, -77, -56, -37, -96, -77, -33,
   14, 15, 29, 12, 1, -19, 40, 16,
   -29, 55, -91, -43, 60, -19, 100, 3,
   4, -9, -45, -9, -66, 14, 17, 28,
   -29, 24, 41, -32, 30, 21, -56, 5,
   24, -64, 11, -34, 25, 58, -10, -26,
   32, -40, 53, -5, 54, -81, -81, 3,
   -7, -44, -9, -73, -20, -30, -17, -106,
   -1, 43, 60, 79, 42, -35, 23, 0,
   18, 9, -83, 49, 111, 91, -35, 15,
   -93, -73, -31, 109, 63, -50, -21, 107,
   67, 26, 1, -52, 27, -34, -79, 31,
   -30, -10, 3, -26, -111, -85, 101, 71,
   9, -8, -5, 29, -61, -39, -36, 69,
   -18, 15, 9, 126, -21, 80, -39, -35,
   -15, -34, 35, 45, -53, 102, -37, 0,
   17, 85, 40, -36, 79, 29, 2, 75,
   15, 29, 78, 16, -28, 17, 4, -37,
   -52, 43, 54, 26, -72, 63, -56, -39,
   -47, 13, 10, 9, -6, 42, 43, -1,
   60, -23, 9, -50, 57, -32, -49, -17,
   -31, -49, 43, -33, -60, -5, -17, -6,
   -19, -76, -3, -19, 2, 93, 32, 23,
   8, 9, 3, -36, -42, -1, -23, -32,
   -16, 2, 31, -59, 41, 40, -1, 45,
   23, -48, 75, 116, -18, -31, -49, 125,
   -12, -1, -31, -41, 76, -24, -71, 28,
   -49, -56, -43, 37, -76, 93, 127, -23,
   -71, -89, -6, 111, -14, 118, -42, 93,
   25, 40, 53, -121, -22, -11, 43, 8,
   -118, 32, -32, 117, -45, -19, 107, -86,
   -84, 8, -15, 41, 36, -48, -51, 1,
   62, 20, 64, 8, -43, -115, 61, -17,
   5, 30, -25, -53, 79, 82, 121, -22,
   47, -100, 50, -51, 0, -46, -7, -84,
   1, -32, -15, -47, 57, 32, 13, -104,
   -27, -83, -14, 21, -16, 125, 97, 63,
   5, -40, -66, 0, 25, -85, -57, -101,
   -34, -15, -24, -17, -41, 4, 49, 13,
   10, -8, 21, -13, 0, 34, -6, 25,
   -23, 24, -40, -47, 4, -18, -49, -66,
   -6, -46, 12, 14, -34, -11, -21, -6,
   28, 0, 74, 9, 57, 76, 81, -6,
   29, 0, -14, -17, 28, 123, -70, -61,
   -21, 87, -112, 86, -21, -109, 24, -37,
   -7, -5, 10, -21, 126, 45, -15, 69,
   46, 127, -46, -29, 83, 5, -69, 114,
   1, -92, -36, -81, -51, -9, 39, -56,
   57, -9, 46, -34, -60, -117, -123, 99,
   78, -43, -8, -52, 108, 109, 74, -66,
   84, -2, -3, 97, 64, -17, -6, 123,
   -76, 17, 40, -49, -77, 100, 121, 17,
   58, -43, 113, 31, -27, -47, -40, 125,
   16, 0, 69, -56, -109, 27, 4, -90,
   29, 82, 62, -50, -27, 56, -40, -1,
   -25, -8, -37, 19, 5, -57, -13, 60,
   25, 23, 41, -70, -98, -27, -79, 14,
   -21, 46, -23, 32, -28, -99, -1, -44,
   53, 4, 54, -28, 93, 15, 9, -100,
   13, 13, -58, -92, -57, 17, -17, -70,
   -15, -39, -5, -96, -60, 25, -38, -45,
   -3, -57, 40, 85, -36, -44, -3, -1,
   22, 12, 116, 24, 28, 36, 74, -13,
   47, -11, 46, 31, -47, -51, -48, -1,
   -53, -36, 11, -72, 71, 9, 23, 32,
   69, 44, 24, 71, 18, 102, -2, -31,
   39, 49, 30, 14, -127, 75, -50, 86,
   64, -32, 34, -21, 43, 86, 47, 21,
   -36, 42, -15, 41, -34, -41, -7, -15,
   -58, -17, 6, -126, -125, -31, 18, 9,
   -36, 20, 89, -44, -28, -26, -12, -63,
   -79, -38, -84, -96, 26, 11, 1, 74,
   -16, 15, 60, -52, -52, -75, 61, 95,
   26, 44, -9, -2, 35, 6, 22, 39,
   31, -40, 27, 36, -67, -37, -3, -37,
   13, 1, 17, -24, -70, -14, 5, -39,
   6, -30, 34, 7, 26, 4, -35, 63,
   -52, -2, 9, -8, -14, 33, -26, -26,
   -8, 15, -53, -14, -56, 77, -18, 15,
   -87, 52, -49, -23, -2, 11, -63, 37,
   -19, 33, 99, 122, 20, 70, 117, -21,
   -36, 74, -113, -24, 127, -28, -26, 19,
   -18, -25, 29, -69, 35, -1, -124, 18,
   46, 16, -56, -91, -39, 20, -18, -53,
   51, -8, 44, 61, -126, 14, -58, 49,
   38, 3, 31, -119, -15, 8, -34, -37,
   25, -87, 51, 29, -14, -35, 58, 59,
   56, 14, 3, -16, -51, 76, -6, 9,
   0, -61, 127, 29, 99, -45, 66, 57,
   23, -42, -21, 17, 41, -120, -44, 107,
   13, 61, 35, 60, -29, -41, 37, -6,
   51, 12, -29, 40, -30, 26, 116, 49,
   -27, -11, 11, -59, -21, -3, -127, 29,
   50, -20, 1, 67, -89, -31, -26, -43,
   98, -33, -54, 38, 14, -71, -2, -117,
   36, -37, 13, 19, 22, -29, 0, 23,
   14, -14, -55, 51, -46, -10, -29, -32,
   0, 80, -25, -12, -2, 18, -18, -81,
   -9, 0, 20, 10, 45, -31, -18, -84,
   101, -25, 29, -5, 32, 86, 77, 9,
   18, -46, 37, -39, -27, 50, -37, 24,
   40, 5, -47, 34, -17, -6, -84, 12,
   45, 66, 52, 19, -44, -40, 40, 25,
   12, -70, -19, 35, -48, 81, -25, 38,
   30, 24, 6, -59, -5, 94, 74, 49,
   -124, 66, -120, -30, 5, -38, -62, -2,
   -42, -105, 2, -63, 38, -27, 59, -109,
   67, -35, -91, 28, -22, -3, -39, -126,
   33, -127, 58, 25, -62, 127, 49, -58,
   -11, 99, -1, 8, -4, 28, -19, -44,
   -51, 8, 107, 3, 52, -2, 18, -17,
   -120, -5, -42, 14, 5, -31, 20, -6,
   -44, -24, 17, -40, -49, 20, 23, -10,
   -36, -17, 79, -9, 5, 10, -6, -6,
   25, -3, -26, 36, -6, 7, 3, -40,
   126, 1, -10, -19, -12, -30, 40, -40,
   61, -54, 33, -45, 60, -38, -24, -24,
   35, -30, 38, -37, 113, -103, 16, -45,
   75, -39, 27, 6, -14, -5, -51, -27,
   -104, -77, -23, 127, 30, -92, 8, 13,
   122, 28, 48, 24, -29, 65, -126, -26,
   -55, -37, 73, -37, -33, 126, -37, 32,
   -23, -77, -68, 38, -9, 113, 86, -52,
   6, 13, -127, -90, -7, 30, 47, 47,
   91, 5, -24, -42, 3, -34, -12, 50,
   -83, 22, -3, -4, -21, 71, -35, 23,
   -22, 61, -123, 2, 82, -56, -29, -42,
   -54, -32, 64, 21, -55, 10, 53, 33,
   30, -44, -52, 15, -57, 32, -29, 49,
   -56, -32, -54, 55, -50, 8, -5, 31,
   27, -66, 39, -16, 7, -15, -9, 19,
   -15, 73, -16, -3, 29, -24, -2, 15,
   47, -3, 6, -16, 63, 15, 3, 32,
   28, -42, -37, -78, -50, -12, 21, 45,
   55, 22, 16, -15, 94, -103, 8, -59,
   16, 94, 14, 25, -117, -22, -98, 33,
   -41, 27, -15, -9, 30, -25, -10, 14,
   -55, 14, -22, 84, 51, -2, -27, 72,
   -5, -103, -31, 34, -40, -92, -8, 66,
   -18, -11, -39, 8, 20, -14, -7, -13,
   13, 53, -19, -102, -38, -21, -127, 0,
   -8, 3, -17, 39, 87, -107, 125, -7,
   1, -48, 5, -122, -51, -14, 22, -46,
   -57, 35, -83, -20, 13, -72, -44, -91,
   2, 47, -50, 126, 85, 78, -12, 104,
   18, -21, -76, -40, 1, -69, -8, -43,
   2, 39, 6, 2, 2, 97, -23, 1,
   41, -32, 43, -3, 43, -6, 3, -15,
   -10, 27, -4, 8, 16, -60, -4, 30,
   59, -42, -35, -59, -42, 15, -11, 11,
   15, 23, 26, 28, 12, 6, 104, 8,
   -47, 35, -69, 23, -21, -89, 31, 124,
   -4, -18, -5, 26, -9, -49, 57, -24,
   -7, 15, 11, 86, 58, -74, -97, -47,
   -77, -16, 42, -50, -25, -17, -6, -44,
   -66, -83, -51, 16, 36, -23, -42, 7,
   -118, 28, -100, -4, 88, -13, -18, -20,
   -10, -40, -64, 44, 82, 69, 9, 12,
   42, 27, 73, -29, 87, -61, 1, 30,
   -9, 0, 19, 117, 55, 58, -6, -5,
   -47, 42, 59, -8, 10, -11, 44, -26,
   13, 32, 31, -20, 19, -55, 23, 43,
   -14, 59, -68, -22, -12, 78, 124, -3,
   33, -89, -31, -4, 28, 3, -92, -91,
   -62, -55, 0, -52, -3, 49, -70, -29,
   -54, -28, 36, 48, 127, -68, -35, -3,
   -14, -77, -40, -20, -33, 27, 29, -26,
   -7, -20, 8, -32, -23, -34, -40, 39,
   -70, -26, 57, 11, -76, 33, 44, -26,
   68, -73, 94, 57, -6, -19, -19, -126,
   -68, 6, -54, 20, 39, -125, -127, -4,
   75, -127, -54, -57, -125, 45, 123, 27,
   1, 7, -38, -68, -44, 13, -43, 20,
   -123, -2, 7, -9, 51, -7, 40, 81,
   97, 27, -47, 53, 127, -6, 124, -51,
   -23, -48, -109, 17, 2, 56, 85, 39,
   99, 14, 62, 85, -42, 84, 109, -45,
   30, -54, -13, 125, 54, -19, -125, -3,
   -100, 127, -126, -74, 7, -63, -47, 10,
   -14, -15, 6, -96, -94, 123, 15, -80,
   -104, -108, 11, -94, -4, 87, -49, 99,
   -60, -10, 13, -51, -11, -50, -18, -35,
   -67, 5, -29, 52, 41, -62, 90, 16,
   18, 26, -8, 41, 44, 13, -96, 11,
   -18, 1, -6, -38, 15, -17, -40, 34,
   17, -40, 26, 81, -3, 67, -20, -61,
   -32, -53, 35, 7, 72, 6, 40, 43,
   -76, -108, 45, 21, 1, 15, -124, -27,
   7, -32, -51, -100, 74, -52, -2, -22,
   -25, -44, 27, 65, -57, 125, 69, -58,
   -108, 56, -36, -6, 2, 96, -38, -11,
   7, -44, 64, -5, 24, -36, -16, -93,
   2, 42, -69, 10, -1, -24, -71, 39,
   -10, -58, -22, 6, 79, -18, -17, 15,
   -10, 23, 58, -75, 32, -37, 68, -12,
   16, 9, -35, 19, -25, -42, 35, 7,
   30, 8, 48, 12, 19, -33, 25, -20,
   -4, 32, 26, -51, -56, -15, 19, -6,
   -16, -16, 19, -25, -50, 20, 88, 2,
   -27, -64, -16, 11, 33, 14, -35, 8,
   15, -12, 15, -9, 15, -14, -7, 7,
   11, -33, 17, 6, -2, -26, -27, 38,
   42, -52, -14, 10, -2, -91, 32, 54,
   -3, 34, 7, -23, 7, -30, 9, -13,
   29, 18, 37, 10, -7, 39, 25, -6,
   27, 36, 20, -45, 15, -20, 34, 42,
   -12, 6, 84, 74, -45, 1, 20, 5,
   19, 28, 5, 70, 48, -12, -18, 48,
   -31, -16, 12, 4, -38, -2, 68, 73,
   8, -56, 28, -39, -31, 126, -40, 31,
   21, 65, 54, 75, -11, -18, 10, -15,
   19, 6, 69, -3, 33, -18, 18, 13,
   -6, 12, -43, 127, 22, 18, 51, 33,
   -1, -17, 15, -41, -58, 72, 1, -33,
   -88, -3, -72, 29, 29, 17, -72, -39,
   25, 5, -5, 27, -84, -35, 1, -3,
   77, -18, 22, -32, 4, -87, 20, 69,
   -12, -10, -8, -4, 20, 9, 12, -9,
   15, 5, -5, -32, 5, 11, -5, -17,
   -14, 11, -21, 11, 3, 19, -30, -26,
   -3, -21, 14, -21, 26, -17, -23, 2,
   -7, -11, 16, -10, -13, 67, 8, 9,
   -19, 41, -65, 24, 21, 2, 5, 1,
   -37, -16, 8, 29, -7, -33, -10, -3,
   -4, 23, -58, 30, -26, 6, 1, -10,
   41, -35, -11, -29, -33, -6, 43, 27,
   -16, -12, 10, -19, 15, 12, -16, 32,
   12, 8, 16, 35, 38, 6, 50, 15,
   23, -6, 25, -29, 17, -20, -33, 12,
   -10, 13, 22, -19, -32, -9, -18, 32,
   -16, 34, -31, 13, -25, 23, -8, -3,
   16, 5, -49, 18, -17, -34, 29, -32,
   -9, -17, -15, -39, -15, 29, -6, 29,
   -6, -31, -35, 12, -35, 32, -16, -1,
   48, 8, -19, -14, 1, -34, -17, 8,
   -14, 35, 13, -23, 56, 12, -52, -2,
   -3, 32, -42, 6, 19, -15, -4, -3,
   -10, -16, -16, 17, 7, -5, 4, 42,
   24, 24, 28, 16, -5, -3, 11, 31,
   -7, -36, -11, -32, 7, -28, -11, 1,
   10, 16, 19, 4, 1, -28, -22, -7,
   -71, -58, -16, 45, -31, -34, -22, -5,
   -40, 50, -91, -71, -59, 3, 20, 23,
   0, -19, -37, -96, -60, 22, 48, 18,
   14, 14, -3, -21, -22, -25, -88, -35,
   50, -39, 30, -57, -8, 40, 43, 63,
   34, -55, -10, -46, -4, 9, -7, -21,
   8, -27, 9, -25, 7, -77, -73, 6,
   -24, -27, 38, -23, 0, -26, 32, -30,
   -26, 39, 5, 18, -27, 1, -4, -8,
   -15, -36, -28, -20, -3, 54, -5, -72,
   34, 13, -53, 8, -21, -30, 12, -24,
   -12, 19, -32, -7, 6, 29, 8, -19,
   27, -39, -10, 40, 26, 9, -40, -8,
   6, 1, 21, -10, 17, -21, -30, -31,
   10, -3, -14, -23, 3, 31, -14, -1,
   -14, 44, 24, -21, -29, -8, 21, 9,
   0, -8, -16, -40, 47, -19, -15, -35,
   -16, 3, 61, -23, 8, -16, 12, -1,
   -27, 27, -18, 0, -21, -116, -8, -16,
   19, 6, -91, 114, 58, -41, 33, 35,
   5, -10, -4, 2, 13, 106, -43, 45,
   95, -83, -34, 11, 4, 47, -4, -13,
   -61, 43, -82, 42, 12, -40, -9, -68,
   25, -51, 36, 7, -121, 71, -18, 12,
   -123, 81, -10, 11, -82, 20, 1, -46,
   7, -21, 30, -49, 34, 40, -118, 13,
   -33, -91, 15, -7, 4, 83, -20, 36,
   2, 41, 18, -29, 63, -45, 68, -61,
   -43, -50, -26, -21, -29, -22, 32, 39,
   20, 37, 86, 22, 4, -22, -30, -9,
   11, 26, 18, 36, 36, -39, 12, 14,
   2, -13, 38, -51, -10, 15, -8, -3,
   33, 29, 42, 5, 7, 30, 2, 17,
   120, 9, -45, 10, -54, -21, -43, 4,
   0, -2, 7, 68, -17, 43, -31, 35,
   26, 9, 7, 41, -6, 16, -13, -17,
   121, -41, 15, 11, -37, 15, 42, 71,
   -7, -30, 39, -22, 66, 41, 64, -51,
   -62, 11, -12, -34, 59, 28, -10, 33,
   -19, -38, 38, -9, 8, 59, -75, 51,
   -6, -36, 50, 49, 9, -83, 77, 8,
   117, 9, 2, -46, 96, 35, 5, -69,
   -31, 37, 17, 50, 19, 8, 54, 5,
   -9, -8, -39, -48, -57, 20, -47, 48,
   9, 18, -29, 29, -32, 64, -7, 36,
   24, 54, -9, 25, -2, 24, -17, -31,
   -55, 16, 30, 2, -39, 22, 53, 28,
   24, 0, -18, 14, 104, -13, 29, 28,
   -17, -23, -19, 3, -6, 0, 35, 18,
   9, -33, -20, -50, 19, 19, 19, 10,
   -15, 11, 7, -16, 21, 16, -18, -1,
   -8, 12, -42, -26, -29, -25, -18, -6,
   10, 15, -9, 5, 22, 0, -10, -15,
   -14, -6, 11, 7, 22, -1, 4, -18,
   -53, 126, -3, -64, 58, 1, 127, -88,
   22, -4, 5, 126, 20, -42, -11, 118,
   124, -16, 56, -45, -34, 99, -3, 21,
   -1, -32, -25, 50, 78, -4, -31, 58,
   -32, 50, -57, -72, -26, 59, -7, -21,
   13, 42, 93, -4, -37, 126, -30, -12,
   -28, -51, 56, -109, -83, -104, -32, 33,
   3, -8, -82, -128, -11, -22, -47, 67,
   15, 22, -3, -32, 63, -6, -10, -8,
   -44, -100, -45, -39, -73, -125, 12, 23,
   13, -28, -119, -3, -6, 12, -20, 42,
   -37, 37, 22, 60, 28, 4, -23, -15,
   -14, 51, -2, 8, 15, 26, 17, 12,
   24, -40, 10, 14, -1, 15, 13, 31,
   17, 40, -10, 46, 5, -29, 19, -1,
   -64, -26, -11, 20, -39, -49, -35, 39,
   47, 15, 0, -40, -8, 20, -19, -14,
   -10, -4, 57, 49, -8, 32, 8, 15,
   2, 17, 48, -4, 2, 66, 55, -7,
   12, -40, 21, -2, -13, -31, -23, -17,
   0, 16, 17, -44, 8, -3, 40, -42,
   30, -64, 1, 5, 11, -28, 29, 11,
   -28, -6, 27, 20, 12, -34, 1, -6,
   -33, -19, 1, -23, -11, 9, -2, -10,
   5, -11, 31, -45, -24, -44, -17, -33,
   -7, -9, 6, 1, -83, -24, -46, 5,
   13, -7, -15, -5, 61, 25, 21, 0,
   -30, -10, -16, -11, -5, -23, 13, 50,
   8, -32, -10, 42, 8, 23, 23, 6,
   44, 8, -46, -24, -5, 52, -34, 38,
   -15, -5, -14, -28, -10, -25, 29, -31,
   -30, 6, -26, 16, 4, 45, -19, 3,
   -24, -17, -34, -23, 13, -51, 19, 23,
   -11, -5, -65, -15, -26, 2, 24, 25,
   -19, -11, -1, -18, 15, 38, -31, -8,
   33, 2, -8, 21, 37, -26, 1, -44,
   -54, -108, -55, -78, 43, 15, -126, 62,
   28, 16, 74, -14, 11, -11, -24, 5,
   -51, 85, -32, 63, 13, -46, -34, -112,
   16, 52, 46, -50, -126, -65, -21, 88,
   -6, -59, -10, 76, 3, -59, -61, 56,
   -11, -2, -103, 90, 27, 43, -44, -24,
   16, 34, -21, -51, 64, 95, 44, 13,
   44, 26, 23, -99, 23, -55, 13, 4,
   29, 22, -22, 19, -18, 13, 65, -15,
   60, -21, 60, -18, 20, 41, 17, -94,
   -18, 16, -48, -9, 31, -40, -28, -19,
   56, 17, -22, -19, 15, 10, -13, -6,
   40, -33, -14, -43, 35, -18, 36, 25,
   -40, -7, -20, -25, -17, 39, -42, -27,
   -15, 45, -1, 54, -16, -18, -10, 29,
   46, -1, 7, 47, -39, -29, 53, 28,
   18, -34, -6, 11, 19, -14, 34, 8,
   58, -11, 29, -15, -82, 16, 26, -6,
   36, -25, -10, 8, 50, -2, -7, -57,
   -9, 40, 17, 14, -37, -46, 4, -10,
   4, -6, 82, 27, -58, -101, 6, 8,
   -42, 68, -16, 24, 30, -23, -25, -5,
   -1, 16, 23, 6, -3, 4, -14, 27,
   66, -48, -31, 37, 61, 1, -2, 46,
   8, -27, 35, -4, 5, 19, -37, 29,
   27, -24, 20, -71, 19, -18, 11, 0,
   30, 8, -11, -5, 23, -18, -22, 1,
   24, 7, 6, 32, 18, -68, -13, 63,
   6, -48, -1, 21, 46, 18, 27, 7,
   5, -19, 16, -79, 42, 28, -12, 6,
   -20, -18, -2, 2, 12, 15, -7, -15,
   6, -35, 27, 22, 6, 12, -18, 9,
   -1, -22, 3, 48, -2, 14, -25, 24,
   30, 6, 21, 56, -42, -30, 34, 15,
   -2, -12, -2, -9, 27, -24, 1, -19,
   7, -25, -26, -13, -12, 15, -3, 28,
   127, -60, -3, -76, -16, -31, -1, 48,
   -26, -120, 35, 14, -18, -93, -13, 48,
   -87, -83, -27, 44, -21, -12, 43, 1,
   -110, 12, -47, 18, -3, 78, -123, 34,
   -108, -55, -61, 30, -4, 5, 19, -55,
   5, 4, 19, 34, 88, -15, 111, -35,
   -114, -55, 73, -3, 3, 91, -48, 17,
   -38, 48, 7, 27, -50, 7, -39, -35,
   34, -69, 32, -9, 46, -78, -23, 15,
   -34, -26, -36, -18, -34, 92, 15, -80,
   -27, -2, -2, 2, -39, 41, 30, 10,
   -72, 42, -11, -65, -13, 9, -11, 24,
   25, 28, -13, -25, 28, -17, 5, -20,
   -7, 54, -6, 72, -48, -21, 8, 1,
   -25, 15, 10, -30, 33, -16, -4, -3,
   -24, 7, -3, 1, 20, 53, 22, 28,
   -5, -22, -39, -68, -52, -35, -17, 6,
   17, 29, 21, -6, -2, -4, 22, 13,
   24, -19, -2, -44, 47, -14, 0, 4,
   -13, 28, -61, -39, 17, -39, 1, 20,
   10, -23, 58, -25, -6, 9, 9, -4,
   32, 55, -3, 0, 31, -9, -13, 8,
   -8, -39, -17, -45, -43, -24, 14, -16,
   2, -37, 11, 15, 47, -7, 18, -26,
   -6, -7, -6, 23, -31, 20, -14, -20,
   3, -3, -17, -10, -10, 10, 7, -18,
   -20, 13, 26, 13, -18, 3, -42, 6,
   7, -17, 11, -9, -20, 28, -8, -10,
   36, -1, 1, -26, 4, 22, 25, 10,
   -3, 7, -15, 16, 28, -34, 20, -31,
   30, -3, 8, 7, 2, -1, 24, -22,
   -9, -3, -12, -26, 6, 14, -26, 3,
   38, -22, 6, -17, 20, -19, 2, 12,
   -23, -3, -22, -2, -41, -23, -19, -1,
   -4, 15, 1, -16, -5, 33, -3, 5,
   9, -16, -4, -12, -37, -6, 15, -25,
   -60, 20, -46, -21, 15, -9, -23, -12,
   18, 1, -63, -13, -43, 11, -64, 61,
   -31, -12, -71, 8, -2, 50, 32, -36,
   -20, 12, 35, 7, -19, 23, -20, 42,
   -31, 4, 30, -9, -42, -36, 40, 38,
   30, -22, -24, -1, 7, -15, -5, 60,
   -66, 7, 26, -34, -9, -19, 1, 32,
   1, -22, 6, -47, -10, -18, -2, 12,
   5, 6, -14, 26, -89, -29, -40, 12,
   23, -15, 4, -19, -30, 13, -51, -29,
   -1, -7, 7, -48, -7, 4, 37, -42,
   48, 9, 2, 15, -3, 80, 27, 18,
   14, 14, -1, 23, 13, -39, 7, -22,
   -37, 20, -5, 43, -17, 34, 11, 28,
   -17, 7, 13, -61, 47, -5, 18, -6,
   5, 6, -20, -25, -24, -7, 13, 24,
   5, 9, -5, -11, 10, 20, -4, 14,
   -11, 28, -15, -8, 1, -36, 8, 5,
   38, 87, -3, 28, 17, 82, -4, 99,
   40, 10, 82, 109, 88, 88, 44, 9,
   96, -17, -67, 23, 94, 6, 22, -11,
   32, -11, 47, 101, -1, 18, 50, 35,
   63, 30, 12, -89, 19, 17, -43, 88,
   -16, 60, 24, 96, 5, -7, 63, -21,
   53, -23, 71, -6, 10, 76, 32, 6,
   -12, -11, -34, 26, -5, 6, 36, -29,
   -4, 14, 13, 68, -49, 10, -80, 26,
   39, 2, -6, 40, 43, 74, 64, 95,
   -15, 79, 76, -67, -65, 4, 19, 41,
   -5, -2, 87, 7, -48, -59, -72, 49,
   47, 50, -50, 63, 3, -12, 45, -24,
   -16, -5, -35, 68, 59, 49, -15, 5,
   -76, 46, -9, 13, 13, -13, -13, -14,
   -21, 1, 3, -12, 6, -39, 19, 8,
   -25, 27, 34, 18, -13, 39, 31, 36,
   -11, -26, -32, 34, 21, -72, -36, 21,
   -7, -42, -44, -22, -18, -37, -51, -34,
   -15, -30, 35, -30, -62, 38, -4, 40,
   -52, -32, 0, 35, -36, -2, -20, 11,
   -15, 6, -9, -61, 1, -6, -36, -50,
   -59, -31, 33, -9, -23, -33, 68, -17,
   -34, -8, 7, 15, -61, -76, -10, -16,
   -5, -9, -36, 3, -2, -37, -19, 28,
   -8, 8, -22, -19, 20, 23, 3, 20,
   -7, 14, 8, -50, 0, -23, -10, -11,
   -13, 1, -11, -3, -40, 52, 4, -13,
   14, -3, -17, -5, -17, 13, 27, -48,
   -13, -4, -18, -35, -41, -39, 42, 21,
   -19, 15, -8, 3, -20, 45, 44, -11,
   40, -24, 9, -14, -4, -6, -19, -11,
   14, 19, -10, 1, 19, -2, 7, -13,
   11, 7, -34, 36, -54, 11, 37, -27,
   2, -30, -10, -27, 11, -42, 15, -21,
   8, 50, 46, 16, -19, 46, 23, -6,
   2, 1, 31, 9, 32, 17, -34, 14,
   -20, 9, 14, 11, -28, 15, -26, -1,
   2, 0, 25, 24, 61, -5, 8, -47,
   -37, -44, -21, -12, 16, -5, -25, -31,
   6, -4, -8, 47, 24, 19, -14, 9,
   15, 18, 17, -15, -39, -6, 57, -7,
   12, -18, 5, -12, 29, -17, 5, -4,
   0, 18, 5, -2, 31, 1, 17, 45,
   29, -6, 22, 10, -32, 16, -43, -23,
   22, -26, -11, -12, -16, -37, 18, -19,
   6, -23, -5, 1, -13, -7, 12, -45,
   44, 5, 21, -20, 15, -52, 5, 2,
   7, 24, -27, -3, 18, 19, 28, -15,
   -21, -1, 34, 39, -16, 18, -12, 30,
   -1, -9, 1, 17, 10, 4, -47, -24,
   34, 10, 26, 7, -9, -10, 22, 34,
   -50, 5, 5, -13, 16, 13, -12, 12,
   30, -26, -37, -14, 26, 3, -3, -18,
   23, -22, 0, -13, 41, -36, -48, 45,
   29, 4, -18, -55, 33, 81, 34, 34,
   -5, -26, 7, 21, -50, -108, -46, -28,
   -44, 10, 6, 52, -22, -29, 82, -44,
   13, 35, -49, 10, -35, -3, -44, -42,
   -18, -44, 18, -43, 44, 41, -19, 36,
   -81, 15, -35, 13, 18, 52, 14, -39,
   36, 42, -48, -8, -19, -7, 16, 26,
   48, 27, -7, 74, -16, 34, 16, 17,
   -4, -22, 49, -27, 45, -40, 48, -59,
   -60, -21, 43, 30, -15, -13, -26, -23,
   11, -29, -3, -34, 0, 11, 23, 27,
   19, -34, 53, -2, 38, -74, -32, -43,
   -11, 40, 17, -27, -39, -17, 19, 31,
   1, 18, 0, 16, 30, 36, -2, 3,
   38, 2, -3, -13, -55, 17, 3, 6,
   -9, -30, 26, 30, 38, -27, 22, 18,
   -11, 3, -16, 27, -12, -26, 49, -4,
   -45, 10, 10, 15, 10, 61, 34, 64,
   -35, -14, -73, -6, 34, 51, -28, -76,
   19, 14, 34, -9, 14, -23, -16, -26,
   18, 22, -27, -4, -42, 65, 36, -39,
   24, -34, -59, 8, -29, 19, -16, 26,
   79, 6, -33, -48, 32, 127, -123, 7,
   -11, 33, 74, 1, -58, 64, 50, 40,
   -14, 39, -87, -113, -28, 0, -12, -51,
   24, 5, 88, 73, -17, 58, -30, 36,
   17, 68, 7, 12, -57, -11, 61, 46,
   -81, -61, -37, 22, 29, -15, -13, 5,
   -27, 86, -46, 6, 89, -27, -17, -42,
   49, 15, -3, 2, 6, -24, -11, -15,
   -35, -8, -2, 43, -9, 10, -10, 32,
   -17, -7, 2, -6, 20, -16, -25, 13,
   62, -35, -13, -19, 57, -51, 16, 25,
   11, 0, 8, 43, 11, 54, 16, 12,
   -6, 3, 16, 7, 15, -114, -62, 6,
   32, 25, -10, 55, -32, 10, -50, -61,
   31, 25, 21, 27, 31, -16, -6, -7,
   42, -26, 10, -19, -66, 61, 62, 5,
   53, -69, -30, 26, -53, 39, 24, 1,
   27, 10, 72, 45, -9, -10, -9, 12,
   -7, 7, 41, 36, 27, -48, 49, -19,
   -25, 20, -20, -26, 2, 6, -5, 9,
   -6, -5, 26, 88, 0, -35, 44, -40,
   1, -54, -30, -51, 38, -10, -3, -11,
   -36, 27, -39, -10, -19, 37, 6, 16,
   -4, 50, 30, -9, 0, -18, -39, 6,
   65, -3, 46, -25, -36, 28, 18, 29,
   -38, -1, 5, 9, 31, -8, -32, -16,
   8, 23, 21, 22, 24, 19, 47, 3,
   -5, 14, 3, -15, 18, 10, 9, -28,
   50, -21, -5, -1, 28, 17, 4, 13,
   8, 36, 0, -26, 1, 6, -21, 17,
   17, -1, 4, -21, 33, 25, 14, -14,
   47, -1, 35, 32, -22, 14, -1, 50,
   -7, -4, 18, 2, 25, 62, 6, -3,
   -11, 14, 31, 26, 3, -47, -20, -15,
   26, -5, -4, -42, 22, 71, 39, -39,
   11, -8, -39, -8, -34, -21, 13, -31,
   -28, -10, 28, 14, -61, -13, -8, -11,
   12, 26, -3, 23, -15, 2, -1, 13,
   41, -16, 45, -36, 31, 13, 34, 24,
   1, -5, -17, 13, -16, -6, -5, -23,
   -6, 3, 21, -13, -19, 2, -16, -19,
   -5, 14, 23, 5, 4, 23, -9, -2,
   -33, -8, 25, 27, -55, 6, 17, 11,
   31, 28, -13, 32, 24, 9, -19, 0,
   1, 28, -14, -19, 11, -17, 16, 19,
   24, 14, -1, -16, 19, 19, -20, -25,
   10, 23, -23, 16, 3, -4, -39, -17,
   -5, -18, 11, 23, 28, -22, 6, 47,
   15, 8, 15, 8, -10, -4, 4, -12,
   16, -38, 0, 3, 54, -43, -61, -29,
   -13, 8, -2, 0, -7, 8, 65, -13,
   24, -19, 22, -24, 1, -39, -35, 0,
   -24, -5, 2, -24, -13, -43, 12, -41,
   -2, -18, 4, 53, 20, -1, 39, 11,
   -42, 24, 28, 13, 32, 25, -29, -55,
   13, -1, 9, -1, -18, 13, 36, 5,
   4, 32, -3, -22, 12, -23, -20, 4,
   17, -4, -22, 4, 0, -21, 25, 3,
   -13, 2, -7, -6, -15, 18, -10, 36,
   -5, -37, -13, 19, -23, -29, 9, -22,
   -1, -15, -24, 24, 20, 11, 33, -17,
   0, 22, 22, -26, 4, 21, 40, 7,
   8, -7, -21, -32, 30, -13, 14, 16,
   14, 28, -14, 4, 10, -3, 11, 23,
   -5, -11, -10, 9, 31, 11, 19, 23,
   0, 29, 4, -60, -37, -33, 23, 3,
   -14, 18, -7, -15, -30, 25, -10, -26,
   54, 111, 13, -89, 39, 21, 127, 51,
   50, 7, 46, 30, -9, 38, 22, -46,
   56, -24, 6, -123, 79, -62, 16, 18,
   58, -35, -22, 120, -24, -65, 112, -87,
   -7, 98, -62, -67, 0, 53, 70, 82,
   20, 35, 14, -39, 17, 56, 87, -36,
   14, 50, 75, -26, 69, 45, 42, 0,
   -12, -42, -10, 114, -70, 18, -62, 43,
   24, -33, -66, 31, 12, -122, -62, -26,
   -75, 103, -128, 7, 6, 124, -8, 50,
   26, 60, -5, 23, -78, -79, -37, -12,
   -51, -81, 89, 0, -3, -32, -13, 42,
   28, -80, -19, 10, 6, 8, -23, -4,
   7, 14, 19, 62, -45, -22, 37, -1,
   -24, -3, -50, 49, 13, 74, -25, -32,
   -88, 51, -18, 25, -37, 5, 7, 4,
   35, 22, -41, -19, -31, -33, 28, 4,
   -27, 22, -40, 7, 54, -33, -18, -4,
   -60, 74, 113, 104, -37, 8, -54, -45,
   -12, -72, -23, 109, 35, 104, -18, 99,
   103, -3, -7, -43, -82, -45, -80, 7,
   -125, 73, 51, 64, 34, 36, -124, 78,
   -29, 38, 37, -127, 66, 90, -48, 123,
   -46, -58, -16, 83, 110, 67, 30, 71,
   40, -101, 33, -29, 3, 22, -53, 28,
   14, 52, -127, -128, 42, -80, 21, -21,
   11, 62, -28, 78, -121, -38, 104, -86,
   49, -118, 114, 1, -53, -126, 73, -21,
   45, 51, -77, -13, 125, 6, -85, -26,
   -3, 42, -68, 39, 50, 113, 122, 40,
   22, 5, 14, 19, 106, -36, 1, -52,
   38, 73, -119, 50, -103, 104, -72, -22,
   5, -4, -5, 5, -65, 97, -81, 117,
   -15, -70, -18, 125, -18, -126, 126, -40,
   -17, -87, 22, -47, 5, -59, 123, 48,
   -25, 31, -36, -101, -21, -48, 44, -57,
   -1, -13, -10, 59, -23, -67, -11, 59,
   42, 22, 11, -28, 7, -3, -21, 8,
   -5, -7, -28, -15, 19, -8, 1, 1,
   39, 0, -32, 38, -5, 19, -3, 2,
   -5, 41, 37, 1, -11, -17, 75, 10,
   39, 3, 3, -36, 0, 26, -69, -15,
   35, 24, -10, 37, -2, 4, -40, 26,
   18, -15, 57, -11, -13, -13, 42, -3,
   18, 0, 5, 48, -41, 15, -19, -3,
   -45, -7, 67, -52, 5, 40, 4, -22,
   32, 15, 24, -13, 3, 0, -16, -13,
   2, 7, -15, -22, 15, 5, 51, 18,
   6, 0, 28, -10, 14, -14, -2, 1,
   -5, 7, 1, 37, -13, -3, 7, 8,
   -30, -6, 26, 19, 10, 16, -10, -10,
   -18, 11, 50, 15, -44, 2, 19, -50,
   -15, -20, -2, 13, 25, -14, 0, -10,
   -5, -26, 31, 36, -22, -29, -3, -4,
   32, 16, 8, 4, -10, 20, 2, 26,
   -16, 1, 4, -29, -32, 24, 4, -14,
   5, -15, -11, -1, 28, -9, -4, 18,
   31, -14, 0, 16, -12, 4, -4, -33,
   11, 17, -21, -15, -12, -2, -2, 1,
   2, 15, 14, -15, -22, 10, 15, -31,
   -7, -6, 5, 9, -16, 30, 33, -12,
   -7, 5, -52, 48, -41, 6, 1, -22,
   12, 8, -9, 2, -1, -30, -20, 9,
   -8, 16, -16, 9, -7, 27, 9, 24,
   1, 10, 20, -8, -18, -13, -20, -2,
   -16, -9, 18, 3, 6, -24, -15, -16,
   3, 17, 6, 8, -17, 18, -11, 9,
   -4, -7, -8, -19, 35, -2, 15, 0,
   -16, 0, -13, 13, -2, 21, 3, -23,
   2, 5, -5, 4, -3, 17, 3, -12,
   -8, 30, 6, 3, 14, 2, 3, 9,
   3, -13, -17, 12, 6, -29, -29, 0,
   23, -18, -10, -35, -7, -7, -6, 7,
   -4, 11, -9, -43, -18, 9, 11, -11,
   -47, -3, -19, 20, 8, 5, 4, 8,
   26, -13, -16, -10, -3, 8, 14, -30,
   3, -1, 45, 29, -11, 8, 16, -22,
   8, -2, 6, -3, -43, -35, 14, -21,
   -7, 51, -12, -24, -21, -14, 19, -16,
   -12, -20, 125, 67, -7, 2, -4, -8,
   0, -36, -6, -32, 5, 37, -28, 13,
   12, 7, -28, 17, 21, 32, -22, 23,
   -29, -25, -27, 27, -37, -6, 14, 8,
   14, 34, 1, -33, 13, -20, 3, 33,
   2, -40, 7, -18, -17, -8, 7, 10,
   1, -4, 14, -22, -4, -25, 19, 10,
   44, -4, 2, -19, 9, -4, 22, -12,
   16, 20, 11, -17, 35, 32, -16, -20,
   -13, 18, -22, -4, -18, 1, -16, -11,
   -6, -6, -16, -12, 1, 24, -14, -4,
   -9, 37, -2, 37, -3, 6, -22, 13,
   -11, 7, -37, -22, -11, -40, -2, -22,
   17, 8, -28, 8, 10, 32, 1, -11,
   24, 11, 3, -4, -17, 23, 20, -17,
   10, -31, -1, 21, 5, -13, -18, 5,
   33, 7, -6, -49, -54, -53, 47, 1,
   8, -66, 0, 27, -14, -40, 19, -15,
   13, -52, -96, 40, 3, 8, 15, -36,
   -43, 13, -9, -16, 6, -1, 12, -21,
   15, -15, 1, 32, 31, -14, -59, 3,
   41, -27, 29, 1, -46, 18, 37, -16,
   22, 53, -31, -37, -7, 67, -1, -46,
   -15, 54, 17, 38, -12, -1, -1, 5,
   -6, -29, -15, -26, -1, -24, 3, 10,
   -44, 15, 9, -18, 10, -20, -9, 19,
   1, 10, -12, -4, 6, 0, 25, -24,
   10, -7, 11, -15, -22, -10, 7, -2,
   -30, -12, 25, 8, 14, 34, -12, 13,
   11, -6, 3, -1, 2, 9, -13, 57,
   -9, -14, 9, -9, -17, 6, 9, 29,
   -4, -67, -3, 4, 16, 11, -42, 13,
   20, 15, 8, 3, 20, 7, -42, -6,
   10, -14, -8, -33, -4, 32, 12, -13,
   31, 12, -14, -35, -61, 46, -41, 9,
   4, 66, -5, -20, 29, -42, 7, 12,
   -20, 20, 1, 6, -34, -18, -9, -36,
   19, 17, 47, -24, 14, -28, 120, -2,
   -16, -13, 25, 29, -13, -10, 33, 2,
   15, -16, -49, -36, -17, 7, -5, 23,
   -28, 68, -41, -12, 4, -1, 22, 8,
   -31, -1, 3, -42, 20, -15, -2, -6,
   -10, -12, -42, -21, 20, 19, -18, 11,
   48, 47, 0, -11, 0, 9, -33, 31,
   8, 6, -3, 44, 5, -28, 26, -25,
   28, -20, -13, -15, 40, -15, 7, 6,
   -27, 5, 38, 10, 8, 17, -27, 35,
   -40, -16, 4, -49, 30, -4, 0, -14,
   -23, -27, -30, 9, -31, 10, 16, 7,
   -5, -52, -6, -51, 5, -11, -3, 3,
   -10, 17, -4, -51, -12, 15, -76, 13,
   -26, 2, -35, -55, -9, -21, 8, -11,
   -65, 41, -20, -15, -9, 26, -92, -1,
   -8, -29, 40, 34, -14, -16, -17, 41,
   29, 58, 55, -67, 44, -8, 23, 14,
   -13, 8, 56, -19, 14, 20, 51, 9,
   1, -4, 33, -36, -54, -42, 30, -4,
   10, 12, 24, -26, 16, 27, -77, 21,
   -77, 39, -31, 28, -16, -74, 13, 59,
   -46, -1, -9, 44, 7, -13, -12, -23,
   -4, 73, 35, 25, 12, 8, -7, -2,
   -2, -9, -17, -6, -14, -21, 6, 12,
   10, -22, -18, 6, -5, -33, -44, -9,
   27, -1, 20, 31, 49, -2, -18, 3,
   45, -2, 14, 14, -27, 19, 1, -11,
   -41, 7, -14, 68, -14, -18, -25, -66,
   -5, -16, 12, 20, -18, 17, 2, 23,
   -3, 48, 11, -86, -4, -13, 33, -10,
   -1, -5, -4, -57, -9, -8, 63, 8,
   -35, -18, 28, -9, 8, -30, -16, 34,
   -111, 14, 24, 12, -28, -83, -43, -21,
   7, -14, -7, -37, -12, -19, 11, 41,
   -1, 48, -97, -44, 28, -17, 54, -17,
   11, -2, 18, -60, -52, 59, -75, -39,
   -36, 22, 5, -41, 18, -54, 25, 12,
   -25, 55, -52, 13, 22, 33, 125, -6,
   -61, 42, -24, 48, -49, 15, -20, -97,
   -52, 19, -6, -45, -29, 2, -25, -27,
   -11, 9, 8, 31, -1, -38, -2, 1,
   -26, -76, -25, -10, 4, 17, 33, 20,
   0, -28, -2, -36, 21, -27, 39, 7,
   6, 40, 3, 18, -9, 10, 29, -1,
   61, -24, -16, -25, -17, 10, 25, -2,
   -2, -41, 4, -128, 47, -23, -65, -53,
   -17, 59, 123, 21, -68, -123, 40, 11,
   -28, 81, 90, -68, -67, -6, 14, -17,
   -26, 62, -50, 119, -7, -40, 10, -59,
   11, -117, -77, 116, 125, -14, 82, -51,
   66, 4, 53, 122, -128, -117, 52, -68,
   5, 77, -127, 123, 75, 60, 33, 127,
   -78, -38, 109, -101, -97, 122, 33, 28,
   -4, 51, -127, -57, -127, -47, -27, 9,
   -50, -73, 2, -72, 118, 11, -76, 83,
   -127, 36, 120, 127, -42, -66, -33, 33,
   127, 87, -56, 61, 92, 80, 2, 116,
   -19, 25, 1, 127, 27, 56, 12, -13,
   -126, -117, -128, 44, 26, 124, 2, -6,
   75, -65, 89, -27, -12, 78, 41, 4,
   42, -105, -9, -6, 21, 7, 127, 21,
   -103, 123, -42, -114, -127, -40, -124, 6,
   -56, -22, -29, -32, -19, 54, -1, 68,
   -11, 10, -33, 127, 102, -116, 0, -7,
   21, 40, -122, 67, 40, -33, -25, 96,
   -51, -84, -38, -105, -63, -127, -74, -63,
   -23, 120, 1, 81, -26, -11, -121, -81,
   84, -25, 67, -123, 49, -33, 4, 79,
   114, 25, 59, 57, 96, -17, 67, -75,
   -32, -127, 72, -128, 83, 125, -31, 125,
   103, 101, -105, -128, 125, 94, -46, 122,
   -86, 125, -71, 116, -122, -125, 126, 126,
   56, -29, 38, -124, -126, -17, 43, -69,
   -117, -114, -128, -118, 120, -126, -58, -121,
   48, 85, 45, -75, 73, 119, -120, -3,
   78, -73, -101, -128, 83, 68, 56, 1,
   -47, 41, 126, 40, -23, 127, -48, -4,
   -73, 127, 70, 21, -40, 12, -43, -51,
   -45, -27, -93, -122, -21, -5, -16, 45,
   -127, 25, 103, 109, -117, 59, 20, 26,
   -127, -3, 47, 22, -127, 96, -78, 67,
   -96, 49, 3, -126, 3, -25, -81, 98,
   87, 11, -128, 1, -124, 127, 23, 53,
   -58, 92, -3, -19, -59, 110, 81, 39,
   -74, 92, -28, -40, 4, -34, -55, 40,
   72, 29, 124, -122, -126, -96, -124, 127,
   88, 3, 66, 45, 125, -44, -3, -6,
   101, 127, 127, 127, 71, 36, 38, -126,
   -126, 69, 58, -123, 29, -122, 13, 67,
   -56, -80, 111, -4, -5, 52, -34, -19,
   -122, 16, 70, -13, 55, 101, 108, -91,
   127, -127, 127, -100, 38, 64, 9, 124,
   127, 5, 125, 47, -95, -115, -22, -125,
   104, 44, -111, 125, -40, 59, -67, -42,
   81, -32, 46, 57, 82, -126, 3, 45,
   -36, 38, 41, 54, -28, 91, -4, -28,
   7, 60, -82, 3, -20, -68, 61, 31,
   -45, -54, -128, 114, 124, 19, 126, 41,
   -69, 13, 51, -4, -126, 32, 11, 75,
   54, 0, 77, 126, -2, 19, 31, 76,
   -15, -128, 71, 20, 1, -12, 64, -35,
   -32, 109, -12, -115, -79, -72, 122, 91,
   77, -29, 30, 72, 61, -68, -67, 87,
   70, -1, -125, 61, -19, -74, 112, -127,
   -109, -44, 19, 5, 122, -35, -52, 24,
   127, -128, -104, -127, 21, 13, -4, -127,
   127, -127, 122, -122, 127, -58, -61, 17,
   67, -127, -99, 102, 9, 10, -94, -121,
   -108, 67, -117, 122, 87, 127, 61, 67,
   127, -74, -101, 21, 125, 127, -127, -127,
   -44, -72, 60, 31, -41, -36, 110, 113,
   127, 41, 91, -128, 6, -19, 59, -71,
   -91, -37, -122, -13, -69, 80, -30, 87,
   -8, -128, 7, 38, 62, -95, 120, 45,
   74, 65, 59, 95, 77, -93, 29, -35,
   5, 19, 126, -127, 122, 21, -126, 26,
   113, 19, 98, 32, -125, -84, 127, -101,
   -119, 23, 33, -127, 15, -87, -18, -34,
   29, -128, -55, 32, 77, -127, 19, 38,
   -63, -109, -27, 70, -62, 10, 79, -47,
   53, -60, 47, 19, 2, 79, -16, -21,
   -29, -46, 127, 14, 99, 29, -122, 127,
   -60, -15, -70, 1, 124, -27, -47, 12,
   126, 127, -21, 75, 63, -103, -20, -51,
   -115, -31, 59, -101, 98, 116, -26, 127,
   -7, -29, -126, 120, 125, -112, 125, 16,
   -45, -125, 49, 63, -126, -114, 21, 109,
   127, 47, 105, 127, -10, -121, 125, 127,
   -8, -72, 106, -123, 13, 114, 116, -44,
   127, -8, 13, 127, 1, -18, -125, 7,
   127, 127, 32, 127, -21, 127, -51, -107,
   -47, 17, -18, 118, 124, 126, -16, 11,
   16, 69, -38, 28, -67, -74, 102, 11,
   127, -58, -128, -127, -127, -61, 127, -14,
   112, -10, -8, 30, -11, -83, 100, -58,
   -16, 85, -89, 38, -55, -57, -4, -92,
   74, 117, -53, 49, 85, 125, 8, 45,
   40, -4, 51, -14, 34, 126, -11, -35,
   3, -125, -34, 26, 83, 107, 27, 83,
   -126, 100, -127, -74, 53, 127, -61, -53,
   98, -81, 22, -128, 127, 31, -86, -41,
   5, -127, 126, 127, 41, -80, -27, -88,
   55, 9, -125, -116, -77, -111, 37, 67,
   -31, 103, -31, 69, 126, 23, -108, -76,
   -92, -16, -32, -126, -59, -127, 59, -128,
   -1, 32, -111, -128, -124, -128, 99, -105,
   -122, -15, -64, -91, -127, 122, 127, 102,
   83, 6, -44, -96, 8, -91, -7, -10,
   -75, 110, 81, 101, 124, -128, -69, -50,
   -13, 127, -9, 44, 122, 101, -37, 12,
   41, 62, -6, -74, -44, -98, -42, 62,
   112, -123, 127, -33, -83, -128, -33, -10,
   -99, 63, -21, 117, 121, -126, 93, 52,
   126, 33, 52, -72, -46, -126, 9, -29,
   -76, 122, 53, -62, -26, 63, 85, -107,
   39, -4, 19, -96, -23, -126, -109, -64,
   -10, -55, -28, -126, 44, 65, -66, 2,
   -77, 113, -97, 127, -128, 13, 94, -127,
   -99, -120, 5, -40, 126, -71, 58, 116,
   -29, -29, -127, -125, 116, 96, -38, 20,
   -116, -98, 1, 125, 126, 90, 113, -26,
   23, 126, 127, 127, -128, 124, -123, -121,
   -11, 124, -81, 127, 11, -126, 57, -34,
   19, -5, 127, -127, -106, -6, -93, -109,
   18, -15, 2, 38, -55, 75, -98, 119,
   -12, -91, 109, 42, -12, -31, -12, 11,
   -89, 127, -128, 52, 2, -48, -68, 85,
   10, 79, -74, 124, 116, -82, 52, -11,
   54, -126, 7, 22, 19, -34, -56, 55,
   123, -120, -127, 125, 11, -24, -50, 43,
   34, -7, -43, -69, -20, -103, -128, -87,
   -19, 90, 49, -122, -45, 75, 11, 11,
   36, -55, -128, 104, 25, 38, 127, -5,
   54, 126, 0, -43, 61, -88, 107, -52,
   -22, -124, 46, 47, 48, -75, 5, -24,
   -123, 4, -15, 27, 33, -127, -50, -7,
   -7, -10, -71, 9, 98, -73, 127, 28,
   127, -11, 55, 127, 81, -128, -106, 37,
   104, 4, 124, -126, 125, 106, -124, 57,
   5, -98, 84, 126, 122, 123, 20, 46,
   -99, -119, 20, 86, -20, 123, -73, 115,
   -128, -111, -111, 118, 39, 127, 121, 127,
   126, -2, -122, 35, -128, 127, -119, -16,
   -52, -29, 58, -47, -52, -82, -2, -24,
   75, 50, 18, 79, 29, 122, 14, -49,
   -25, -127, 42, 120, 126, 75, 126, -45,
   -24, 65, -7, -41, 29, 127, 28, 33,
   127, -126, 40, -104, 97, 127, 81, -52,
   -105, 101, -27, 121, 126, -91, -117, -116,
   -119, -21, 36, 92, 52, -74, -94, 93,
   50, -15, -108, 118, 40, 58, 126, 105,
   -126, 15, 92, -83, -116, 6, 64, 22,
   -49, 67, -6, -28, -93, 18, -14, -81,
   -93, -122, -54, 121, 63, -125, -12, -78,
   -94, -26, -11, 46, 126, 94, 70, 5,
   127, -71, 126, -128, -81, -24, -57, 42,
   -113, -84, -74, -81, -41, -126, -123, -22,
   18, -128, -126, 84, 127, -117, 74, 93,
   122, -52, 15, -127, -80, 126, -97, 15,
   10, -106, 30, 87, -125, 25, -74, 110,
   -119, -3, -19, -8, -35, 126, -53, -6,
   -91, 24, -102, 122, 35, -111, 68, 14,
   -1, -106, 41, -50, 102, -122, 69, -33,
   50, -11, 107, 95, 127, -90, 103, -19,
   26, 35, 48, 34, -122, 121, 45, -15,
   -2, 70, 88, -81, -25, -14, 3, -26,
   -74, 22, -44, -127, 102, -69, -127, -11,
   60, 3, 46, 80, -110, -8, -1, -28,
   -35, -46, -75, 61, 55, -22, 84, -92,
   -12, -3, -89, -33, 27, -105, -67, 6,
   -118, 126, 11, 125, 14, -37, -102, 17,
   -104, -127, -125, 72, 100, 64, -126, -93,
   -96, -38, 60, -126, 127, 45, 14, 95,
   -95, 2, -22, 7, -29, 20, 30, 61,
   124, 18, 95, 125, -77, -10, -43, -46,
   59, 123, -12, 127, 30, -11, -127, 36,
   96, 127, -12, 115, -2, 123, -127, -29,
   -118, 104, -28, 47, -66, 24, 36, -17,
   -126, -42, 127, 40, -91, 110, -127, -70,
   -122, 88, -28, -124, -30, -76, -92, -30,
   -36, 124, -46, 39, -6, -97, 1, 101,
   74, 124, 74, 125, 89, 56, -107, -22,
   -5, -127, -120, -9, -83, 61, 2, 90,
   -4, 125, -114, 117, -24, -124, -107, 38,
   23, 123, -114, 127, 29, -90, -71, 27,
   81, 80, 62, 6, -4, -14, 23, 8,
   72, -10, 59, 67, 22, 40, 94, 36,
   -24, 85, -102, 116, 32, 0, -120, 47,
   16, 30, 1, 14, -121, 71, 116, 37,
   -7, 122, 48, -51, -57, 127, -12, 127,
   27, 4, 69, 22, 119, 50, -127, -8,
   -128, 35, -52, 11, -116, 38, -81, -10,
   -64, 50, 17, 39, -10, 82, -128, 127,
   -100, 120, -86, 125, -13, 116, 5, -30,
   -53, 74, -29, 76, 109, -26, -11, -17,
   -26, -54, -88, 65, 87, -107, 23, -22,
   71, 41, -123, 8, 42, -22, 127, 25,
   -127, -58, 103, 75, -35, -55, -25, 101,
   -38, -86, 24, -3, -36, 15, 51, -70,
   -122, -31, -128, 113, 59, -123, 3, 90,
   77, 5, -115, -73, -42, 8, 19, 7,
   -32, -77, 125, -40, 59, -94, 23, -11,
   -30, 18, -86, -121, 127, -26, 127, 126,
   127, 41, 16, -83, 34, 73, -2, -107,
   57, -19, 127, 23, -87, -52, 40, 5,
   68, 32, -123, 87, -6, 67, -2, 90,
   -38, 75, 30, 37, 75, -119, -93, 47,
   109, 123, -81, 105, -78, 124, -37, -127,
   -110, -71, 100, -105, -3, 0, -128, -121,
   -116, 80, 94, 127, 13, -42, -40, -94,
   20, -11, 44, 27, -118, -22, -45, -60,
   -67, -113, -127, 127, 22, -126, 57, -123,
   -58, 125, -125, -124, 33, -126, -11, -127,
   126, 94, 26, -122, 126, 112, -122, -125,
   -94, -11, -128, 36, -122, 73, 127, 84,
   -127, 96, 25, -24, 24, -126, -54, 92,
   -8, -55, -80, -48, -51, 63, -9, 36,
   -13, -24, -1, 9, 48, -45, 126, 36,
   0, 20, -50, 5, 31, -122, -48, -38,
   -20, -127, -8, -124, 67, -107, 59, 64,
   61, -41, 103, 86, -9, -127, 127, 38,
   -39, 89, 11, -118, -114, -127, 9, -98,
   -54, -48, -32, -35, -7, 53, -6, -60,
   13, -68, -42, -33, -61, -17, -32, -37,
   -43, -21, -105, 59, 26, 7, 122, 23,
   -58, -41, -61, 43, -63, -30, 69, 21,
   63, -54, 126, 0, 69, 6, 55, 79,
   -12, -56, -50, 26, -97, 97, 80, -128,
   -128, -39, -65, 120, 1, -19, -86, -105,
   127, -61, 85, 1, -22, 14, 27, 126,
   -128, 90, -91, -97, -127, 42, 43, -56,
   -37, 98, 123, -33, -108, -92, -58, 6,
   -19, -72, 85, 127, 42, -99, -127, -127,
   10, 21, 127, -3, -125, 95, -108, 0,
   -89, -84, 27, 94, 88, -50, 63, -128,
   -18, -44, 77, 13, 3, 127, 4, 19,
   107, 97, -127, 95, 57, -93, -125, 127,
   7, 34, 36, 119, 6, 42, 13, 54,
   43, 37, -105, 59, 34, -11, -65, -18,
   -105, -125, 28, -27, -119, 123, -22, 52,
   -10, -82, -8, -61, -9, -9, 49, 32,
   92, -69, -33, 10, -51, 97, 70, -5,
   -86, -7, 25, -122, -71, -46, -13, -46,
   -94, -101, 36, 16, -7, 1, 52, -83,
   50, 95, 105, 43, -9, -82, -25, -48,
   110, 56, -12, -43, -57, -10, 83, 14,
   127, -61, 110, 125, 71, -31, 32, -30,
   -115, -87, -120, -106, 22, 30, 45, 103,
   19, 127, -106, 60, -80, 17, -112, 6,
   -112, -42, -127, -52, -122, 56, 100, 96,
   38, -2, 30, -70, -29, -25, -64, -22,
   -12, -38, -94, -24, -128, -10, 79, 38,
   -128, 9, 59, 76, 73, -24, 63, 121,
   -13, -11, 23, -56, 60, -26, 51, -11,
   61, 124, -81, -93, 9, 5, 8, 38,
   -34, 47, -112, -95, 88, -2, 1, -125,
   22, 20, -86, 7, 53, 108, -80, -106,
   -72, 127, -35, 100, -105, -30, -33, -21,
   55, 19, 0, -82, -47, -47, 17, -26,
   6, 12, -50, 22, -123, -18, -57, 105,
   -32, -97, 17, -121, 79, -25, -13, 56,
   21, -9, -59, 44, -7, -34, -19, 79,
   79, -5, -27, -127, 18, -78, 30, 23,
   32, -80, -79, 76, 70, -124, 116, 121,
   11, -116, -52, 110, 126, 65, 127, -63,
   -125, -65, -4, -48, 8, 126, 1, -127,
   10, -63, -50, -38, 85, -27, 55, 113,
   86, -25, 127, -19, -20, 87, -30, 115,
   115, 122, 9, -26, -113, 127, -67, -24,
   -15, 50, -128, 60, -77, 16, 42, 61,
   77, 108, -119, 35, 119, -45, 62, 65,
   -55, 41, -111, 0, 68, -125, -34, 82,
   21, 21, 41, -41, 111, 59, 23, -127,
   -13, 6, 126, -128, -27, -48, -122, 4,
   -117, -45, 86, -20, 40, 51, -27, -115,
   60, -51, -20, 0, -17, -23, 8, 116,
   -76, 42, -14, -58, -30, -62, 96, -16,
   124, 28, -15, -97, -8, 60, -120, -7,
   7, -110, 41, 119, -95, 35, 21, 11,
   113, 23, 103, -49, -36, -26, -60, 18,
   94, 64, -69, 1, -125, 50, -10, 13,
   7, 63, 2, -124, 1, -113, -57, -83,
   -126, 108, 41, 61, -128, -23, -119, 10,
   29, 66, 99, -86, -11, -74, 95, -96,
   -75, -24, 33, 127, 81, -39, 64, -82,
   8, -10, -128, 10, -34, 22, -30, -77,
   -24, 1, 20, -83, -78, -98, 58, 92,
   -71, 84, -41, -83, 52, -35, -126, 0,
   -128, -55, 7, -30, 126, 69, -14, -13,
   45, 83, -105, -8, 32, 84, -104, 29,
   1, -82, 42, 127, -127, 23, 17, -127,
   -2, -28, -128, 93, -127, -4, 124, -19,
   -63, -32, 118, 62, 62, 74, -54, -127,
   20, 49, 73, -127, 92, 36, -33, 80,
   -35, 50, -126, -86, -98, -10, -27, 4,
   -1, -18, 30, -55, 14, -25, 110, -38,
   73, 106, 39, -126, 52, 28, -96, -43,
   83, 9, -127, -52, -51, -18, 115, -77,
   -86, -36, -17, 40, -16, 114, -11, -92,
   -125, -105, 120, 127, 3, 126, 0, 73,
   127, 95, 100, -108, 126, -77, -127, 37,
   55, 86, -13, -8, 100, 14, 15, 21,
   -87, 89, 113, -105, -127, 88, 82, -62,
   125, -80, 127, -127, 17, 52, -23, 81,
   -86, 32, -59, 84, 124, -128, 50, -46,
   -79, 6, 105, 103, 43, 28, -122, -63,
   126, 82, 53, -54, -1, 62, -45, 83,
   39, -28, 5, -6, -53, -107, 43, -17,
   -71, -41, 16, -127, -55, -25, -30, -74,
   13, -35, 126, 109, 127, 5, -127, -6,
   127, -24, 56, -3, -65, 54, 1, 123,
   19, -42, 6, 125, 127, -40, -50, -45,
   -25, 13, -11, 12, -39, 127, -38, 12,
   13, -128, 63, 64, 16, -11, 114, -9,
   29, 124, -57, 78, -91, -55, 122, -15,
   63, -87, 100, 26, 27, 17, -124, 20,
   -110, 85, -58, -53, -42, 79, -39, -82,
   23, 12, 47, -126, 52, -24, 34, -84,
   36, -34, -4, -63, 125, -78, 24, 2,
   -102, -127, 69, 70, -98, 127, -26, -8,
   56, 116, 60, -79, 127, -127, 34, 74,
   1, 120, -62, 85, -9, 88, 58, -52,
   -124, 46, 77, 12, 84, 53, 42, -13,
   -61, -54, 98, -62, 75, -43, -15, -8,
   65, 22, -39, 25, 83, -126, -42, 3,
   -52, -122, 94, 7, -16, 12, 59, -25,
   -121, 38, 100, -46, -85, 1, -22, -20,
   15, 97, -67, -33, 60, -22, 127, 52,
   126, -21, -41, -77, -93, 77, 51, 98,
   -26, 105, -34, -126, -55, 59, -43, -15,
   29, 47, -53, 1, -6, -10, -27, -20,
   70, -68, 5, 19, -54, -26, -49, 72,
   -30, 43, -28, 3, 50, 100, 102, 77,
   95, -96, 16, -26, -98, -102, 55, -21,
   19, -33, -49, -26, 60, -36, 23, 96,
   -54, -38, -60, 17, -27, -12, 124, -122,
   -10, -62, 6, 78, 11, -87, -59, 23,
   0, -13, -21, -5, 66, -16, 96, 40,
   20, 81, 30, -27, -12, -1, 17, -48,
   -23, -9, 126, -29, -72, -78, -42, 7,
   38, -45, -27, 61, 127, -29, -2, -71,
   9, 54, 22, 19, -2, 30, -127, 21,
   41, -21, 40, 71, -34, -61, 48, -118,
   47, 12, -3, -22, -13, 102, 52, 15,
   11, 65, 25, 46, 25, -115, -112, 87,
   29, 24, -26, 125, -45, -51, 38, 107,
   45, 5, 12, -31, 10, 4, -49, 4,
   -20, 95, 2, 111, -54, -20, -12, -58,
   9, 10, 11, -99, 63, -24, -6, 23,
   -46, 106, 23, -39, -36, -47, 98, -40,
   11, 58, -29, -31, -52, 53, -34, -51,
   -60, -37, -57, -6, -45, -42, 7, -55,
   -8, 87, -80, 2, 102, 2, 127, -48,
   -80, 11, -30, 10, -26, -44, 85, 119,
   87, -30, -91, 78, 5, 8, -8, 64,
   45, -66, -30, 35, 79, 119, -26, 36,
   -54, 90, -127, 71, 19, 34, -110, 40,
   -110, -22, -127, -123, -123, -32, 69, 52,
   5, -35, 45, 1, -4, 73, -93, 97,
   0, -28, 33, -17, -36, 7, 127, 5,
   -50, 1, 36, -45, -88, -22, 85, 78,
   -88, 58, -85, -34, 20, -31, -31, -24,
   40, 101, 8, -18, -88, -30, 58, 62,
   -34, 4, -77, -94, -65, -33, -29, -125,
   10, -6, -5, 11, 75, 37, 6, -39,
   -10, -92, -21, -25, -26, 23, -16, -25,
   -24, -74, -26, -61, -27, 66, 75, -56,
   55, 102, -82, -22, -25, 23, 84, 69,
   38, -7, 27, -7, 126, 62, 28, -46,
   32, 37, 96, 47, 48, 85, 15, 93,
   -63, -22, -1, -111, -14, -2, 72, 23,
   -81, 0, -37, 48, -128, 63, 63, 31,
   -73, -78, 86, -53, 12, 92, 16, -49,
   1, 29, 99, -26, 93, 75, -125, -25,
   16, 21, -68, 1, 54, -21, 42, 2,
   -51, -82, 127, 13, 50, 75, 49, 31,
   -42, 117, -18, 94, -82, -61, 5, -23,
   22, -26, 17, 34, 6, -32, -62, 35,
   -7, -14, 22, -87, 66, 49, 78, 0,
   -42, 14, -36, -2, -1, -60, 12, 25,
   58, -18, -20, -32, -83, -54, -6, -119,
   -4, 30, 91, -114, 63, 20, -18, 3,
   -29, -22, 1, -38, -2, 20, 31, -23,
   -39, 122, -23, 90, 26, 15, -24, -30,
   7, 24, 11, -84, 34, 48, 19, 25,
   -84, 36, 26, 42, 23, -11, -123, -81,
   14, -89, 17, 109, -9, -41, 24, -14,
   -12, 52, -17, 6, 69, 28, -33, 8,
   17, -76, 71, 72, -34, -51, -5, -25,
   46, 9, 95, -51, 59, -125, -105, -79,
   -124, 50, -75, 48, -2, -106, 81, 39,
   -1, 60, 30, 7, -25, -99, 50, 81,
   -7, -35, 46, 2, 92, -52, 83, 43,
   45, 41, -82, -1, 22, 26, 22, -21,
   -91, 76, 28, -125, -34, 30, -6, 46,
   -17, 21, -2, -32, 28, -18, -62, -21,
   -20, 36, -20, -70, 92, 18, 3, 60,
   -100, 26, 59, -9, 20, 29, -53, -25,
   -39, -88, 9, 51, -126, 66, -11, -60,
   33, 2, -51, 122, 54, 25, 62, 2,
   -58, -25, 17, 58, 37, -15, -13, 7,
   59, -81, 40, -106, 44, 17, 5, 19,
   -5, -67, -2, 66, -25, -88, -19, 1,
   38, -107, -49, -44, 6, -14, 6, 65,
   44, 24, -15, 38, 75, -64, -34, -16,
   -16, 22, -8, -29, -9, 7, 42, -27,
   -19, -7, -7, 2, 8, 27, -4, -9,
   12, 36, -46, 53, 29, 20, -74, 81,
   122, 12, 67, -77, 20, -31, -83, -24,
   4, 9, -117, -12, -40, 64, -16, -43,
   -85, -1, 48, 66, -70, 38, -23, 2,
   25, 26, 85, -14, 39, -25, 58, -12,
   124, -17, -40, 32, 16, -52, -17, 13,
   -10, -22, 22, 70, -37, 20, 46, 3,
   37, -34, -23, -3, -60, -8, -59, -27,
   73, -33, -28, 83, 0, -21, -39, -2,
   -17, -19, -40, 28, -29, 19, 44, -26,
   0, 50, 36, 31, 43, 36, -76, -2,
   42, 6, -15, 23, -26, 50, -18, 69,
   4, -11, 2, 62, 66, -79, 26, 48,
   -9, -18, -27, 17, -87, 54, -77, 11,
   -95, -91, 46, -63, 7, 34, 85, 36,
   34, 50, -17, -60, 2, 24, 17, 5,
   57, -35, 48, -19, -76, 23, -80, -3,
   -14, 2, -27, 2, 25, -58, -127, -80,
   37, -2, -9, -45, 76, 31, -113, -64,
   11, 63, -89, -40, -58, 19, -104, -53,
   -29, -113, -55, 34, 91, 48, 99, -26,
   43, 2, -7, -122, 92, 1, 51, -6,
   29, 54, 8, -40, -74, -39, 30, -28,
   98, 18, 5, 38, 80, -41, 84, -36,
   -27, 91, -18, -25, 21, -4, -105, -1,
   -7, 31, 20, 14, -59, -13, -56, -3,
   -49, -60, 91, 10, -25, 8, 33, 24,
   -28, 30, -44, -64, -119, 46, -6, -19,
   25, 26, 9, -54, -77, -34, 54, -16,
   65, 10, -41, 2, -36, 1, -10, 12,
   111, 35, -70, 12, 32, -16, -54, -127,
   -27, 6, 57, 0, 13, -127, -128, 12,
   -47, -128, -23, -98, -128, 102, 126, 21,
   -34, -46, -59, -126, -34, -127, -8, 3,
   38, 84, 1, -16, -111, -59, -54, -85,
   56, 49, -55, -36, -11, 48, 127, -90,
   -37, -76, -127, -22, 69, 44, 127, 53,
   34, 56, -71, 109, -78, 84, 127, -39,
   -68, -20, -56, -127, 17, -126, -128, 90,
   -124, 127, -126, 98, -33, -128, 13, -126,
   31, 78, -30, 21, -81, 127, -18, -65,
   1, -127, -74, -32, 126, 86, -71, 34,
   62, -83, -17, 34, 0, 1, -41, -77,
   -6, 74, 27, 64, -49, 81, 127, -28,
   -49, 123, -13, -97, -42, 54, -128, 38,
   25, 41, 126, 25, -20, -112, -25, 23,
   -1, 5, 1, 47, 8, 57, -23, -14,
   -21, -11, 28, -61, -105, -17, 115, -65,
   126, 58, 10, 83, 101, 42, 7, 125,
   -20, -29, -66, 56, 27, 127, -128, 30,
   25, 127, 16, -106, -50, -69, -47, -29,
   -106, 36, 119, 74, -113, 10, -57, 2,
   14, 45, 41, -71, -15, 30, -13, -2,
   65, 5, -31, -33, 99, -32, 80, -10,
   -122, 127, 30, 108, -19, 34, -45, -60,
   122, 25, 60, 75, -70, -42, 36, 66,
   16, -59, 86, -21, 116, -126, -55, 44,
   -52, 53, -126, -116, 63, 124, 7, -128,
   83, 16, 74, 3, 99, -6, -69, 127,
   87, 4, -127, -44, -117, 34, -27, -45,
   42, 75, 4, 9, 8, -27, 79, 107,
   20, 121, -48, 11, -101, -55, 127, -40,
   35, -85, 25, -83, 19, 26, 4, 75,
   -116, -22, -76, -38, -123, -61, 54, -127,
   -37, -25, 9, 39, 78, 4, -53, 42,
   -61, 11, -18, -4, -74, -15, -34, -14,
   54, 27, -26, 19, 0, 48, -11, 127,
   10, 49, -38, 3, -4, 127, 127, 28,
   83, 127, 36, -30, 78, -124, -127, 46,
   -13, 92, -15, 72, -56, 93, -13, -58,
   -5, 29, 9, -28, 69, 127, -9, -45,
   -27, 116, -44, 48, 43, 27, -90, -26,
   -125, -62, 127, 8, 70, -29, -126, 124,
   28, 89, 85, 29, -32, -120, -126, 5,
   103, -119, -8, 22, 123, -69, 81, -44,
   70, -107, 96, -125, 65, 127, 62, -56,
   -32, 58, -88, -63, 109, -128, -88, 120,
   -28, -98, 122, 42, -39, 102, 74, -95,
   -16, -76, -55, -41, 12, -19, -13, 85,
   -16, 76, -34, 11, -117, -74, -127, -64,
   115, -53, 45, -30, 57, -34, 63, -38,
   -77, -28, 15, -29, -126, 20, 28, -60,
   -52, -74, -15, 64, 36, -128, -17, 1,
   -34, 12, -30, -52, -18, 14, -128, 12,
   -84, 48, -48, -20, -19, 43, 1, -126,
   -15, 20, 37, 49, -13, -126, 80, -4,
   -100, -124, 15, 43, -60, 15, 114, 23,
   -113, 41, -84, -100, -25, 31, 29, 68,
   69, -11, 52, -56, -17, 126, -39, 8,
   -36, 47, 11, 39, 39, 125, 28, 67,
   -100, -78, 126, -9, 37, 45, -38, 127,
   -28, 19, -72, 30, 3, 125, -87, -30,
   -78, -58, -90, -71, 126, -58, -77, -32,
   -39, 111, -43, -84, -113, 8, -37, 124,
   -71, 119, -18, -36, 31, -127, 53, -71,
   -102, -126, 126, 37, 123, 91, 40, -16,
   -33, 2, -20, 28, 18, -48, -74, -80,
   -8, 1, 31, 27, -113, 55, -128, 0,
   -63, 127, 35, -5, -11, 6, -78, -72,
   57, 70, 121, 26, 8, 43, 12, 87,
   -11, -87, 3, -52, -59, -125, 9, 5,
   48, 36, -65, -26, -24, 2, -44, 24,
   -62, 12, 58, 55, -37, 102, -57, 105,
   -12, 33, 1, 44, -18, 24, -22, -27,
   -16, 4, -126, 86, -19, 85, 28, 13,
   -46, 7, 89, 99, -45, -3, 3, -32,
   20, 33, -6, -35, -2, -66, 57, -22,
   55, -28, -13, -5, -6, -28, -9, -4,
   -127, -28, 59, 1, -41, 32, -8, 16,
   -12, -126, -122, -75, -5, 49, -125, 7,
   -39, 75, 34, 22, 31, 37, -9, 21,
   39, -57, -60, -24, 55, -127, -34, 92,
   62, -39, 36, 65, 114, 23, 18, -80,
   13, -127, 5, 79, -50, 40, 73, -1,
   -31, -5, 0, 10, 46, -2, -59, -13,
   -41, -44, 37, 8, 10, -3, -26, 17,
   51, 36, -24, 51, -9, -23, 1, -4,
   0, -12, -35, -36, 31, -31, -30, -21,
   -10, -59, 30, -5, -15, 119, -8, -25,
   -30, -15, 31, -33, 19, -88, 98, 123,
   -29, 55, 36, 37, -40, 9, 27, 77,
   -20, 30, 63, 85, -22, 66, 119, -19,
   41, 84, 18, 91, -61, 126, 50, 20,
   -26, -49, -73, 35, 52, -85, -3, -20,
   -20, -39, 5, -53, 63, -128, 33, -12,
   -99, 21, 15, 4, -83, -26, 33, 21,
   -127, 36, -105, -75, -124, -52, 30, -69,
   29, -13, 27, -16, 13, -24, -35, -41,
   -7, 11, -110, -74, -128, -13, 1, -30,
   89, -107, 38, 52, 126, -36, -101, -9,
   81, 59, 30, 78, -11, 76, 32, -18,
   -1, -115, 59, -5, -113, -64, 50, 39,
   36, -110, 20, 7, -32, -33, -22, -12,
   26, -27, -65, -29, -78, -35, -43, -8,
   -58, -71, 5, 1, -25, 48, -3, -28,
   0, -7, -9, 0, 88, -11, -8, 6,
   -22, 127, -4, -30, 47, 92, 6, -1,
   -36, 42, 59, 50, -2, -46, 127, 65,
   124, -21, 47, -6, -89, 6, 15, 19,
   2, 11, -24, -119, -53, 65, -46, 10,
   2, 3, -50, 31, 127, -15, 43, 10,
   72, 69, -9, 39, -17, -9, 58, 17,
   -16, 37, -49, 28, -9, 56, -16, -28,
   85, 0, 29, -6, 71, -54, 127, -22,
   -122, 7, -29, -1, -35, -52, 112, -1,
   -95, 57, -43, 124, -7, -67, -125, -37,
   52, -28, 27, 53, -96, 34, 114, 43,
   4, 15, -127, -120, 40, 112, 14, -20,
   -7, 11, 5, -70, -124, 13, -17, 47,
   -8, 64, -73, 36, -21, -12, 23, -82,
   -63, -4, 2, 16, 10, -17, 25, 35,
   0, -1, -41, -74, -19, 8, -39, -11,
   -17, 26, -29, 3, -127, 56, 4, 43,
   -28, 22, -74, -50, 4, 3, -7, 81,
   -21, 7, -16, -55, 7, -44, -1, 5,
   9, 16, 10, 0, -27, 22, -64, 20,
   19, -21, 10, 10, 83, -126, 96, 119,
   37, -81, 45, 23, -9, -22, -17, 14,
   -34, -126, -58, -27, 5, -76, 14, -34,
   -27, 36, 68, -7, 15, -27, -37, 29,
   -123, -80, 9, 2, 62, -24, -30, 2,
   -4, 23, -39, -3, -71, -111, 0, -108,
   -4, 81, -87, -2, 29, -22, 69, 13,
   -29, 83, 40, -74, 22, -36, 30, 60,
   32, -17, -7, -57, -6, 30, -16, 32,
   -95, 20, 121, 5, -74, -15, 7, -27,
   -9, -76, 94, 1, -14, 6, 1, -52,
   -36, 42, -14, -38, 0, -9, 11, 98,
   -14, -28, -42, 19, -89, -29, 127, -127,
   -31, -19, -3, 58, 4, 23, -23, 2,
   -12, -8, -9, 81, -1, -6, -2, -17,
   -3, 15, 67, -12, -47, 24, 14, -44,
   -6, -8, -20, 3, 23, 2, -2, 8,
   3, -22, 5, 4, -3, 6, 0, -30
};

static const rnn_weight noise_gru_recurrent_weights[6912] = {
   -128, -5, 44, -43, 16, -9, -22, 11,
   -18, -45, -60, 37, 28, -8, 50, 28,
   66, -17, 4, -33, -74, 25, -43, -26,
   -18, 16, -31, -24, -35, 39, -14, 69,
   -2, -104, -12, 84, 48, -60, 17, -22,
   -118, 58, -4, -5, 21, 51, -6, 91,
   58, -14, -49, -37, -43, -15, 34, 76,
   24, 88, -12, 11, -3, 7, 18, -97,
   -8, -88, 11, -94, -93, -37, 32, -47,
   11, -91, -77, -3, 96, -75, 29, 40,
   49, 89, -74, -83, -126, 16, 44, -30,
   3, 11, -123, 4, -69, -122, -44, 123,
   60, 53, 32, -4, 2, -25, -125, -82,
   -43, -96, 19, 6, 64, 31, -84, 3,
   -34, -92, 62, -78, 81, -26, -37, 9,
   -26, -126, -91, -73, 43, -18, -11, 95,
   -100, 23, 13, -34, 4, 79, -21, 10,
   -85, -10, -116, -2, 83, 11, 57, 6,
   49, -20, 21, -117, -42, -24, 127, 25,
   27, 29, 33, 126, 90, 103, -13, 2,
   127, -38, 26, 35, 24, 7, 10, 127,
   19, 12, 11, -122, 127, -13, 41, 33,
   4, 99, 127, 59, 41, 127, 80, 9,
   21, -20, 118, 39, -125, -109, 48, -43,
   -68, 126, -102, -63, 47, -70, -5, 7,
   -19, 1, 35, 88, 45, 61, -40, 59,
   -128, -19, 24, 20, -13, -10, -58, -25,
   19, 60, -50, -22, -27, 21, 59, -66,
   -127, -9, -32, 2, 15, -45, 126, 25,
   34, 74, 52, 3, -49, -91, 38, 37,
   4, -127, -19, -59, 4, -13, -7, -9,
   66, -12, 127, -9, -4, 17, 45, 75,
   -13, -3, 46, -126, 47, -62, 126, -15,
   84, 114, 71, -84, 88, 118, -40, -4,
   -37, -10, -127, -58, -57, 5, 39, -126,
   -25, 54, -93, -122, 25, 80, 124, 33,
   60, -14, 4, -25, -48, -13, 12, -21,
   -1, 2, -55, -47, 8, -34, 13, -45,
   -67, -21, 25, 57, -21, -6, 30, 88,
   19, 4, -63, -48, 44, 48, -125, -1,
   -31, 108, 6, -8, -123, 51, -60, -26,
   -119, 27, 60, 38, -82, 122, -51, 13,
   -68, 52, -94, -112, 58, 91, 73, -68,
   -8, -20, 31, 43, 120, 23, -62, -9,
   -26, 5, -41, -14, -43, -10, -92, -38,
   -97, -16, -6, 56, 43, 24, 15, 50,
   -23, 2, -39, -31, -37, 5, -20, 46,
   -100, 38, 8, -29, -76, -39, 26, 126,
   -13, 7, -3, 0, 59, 127, -29, -48,
   76, -47, 25, 42, 77, -31, -64, -94,
   -43, -77, 18, 126, 2, 114, -5, -60,
   86, -27, -40, 9, -41, 1, 44, -19,
   38, -51, -1, -56, -6, 23, 20, 72,
   -5, -19, -127, 24, -92, -104, -11, 123,
   13, -29, -14, -119, -47, 18, -49, 61,
   8, -31, 78, 5, 4, -12, 5, 1,
   -128, 33, 48, -23, 23, -43, 71, -20,
   -11, 22, -17, -62, -34, 33, 46, 25,
   -1, -37, 127, 50, 18, 31, 127, -24,
   55, 24, 5, 19, 16, 46, 10, -39,
   -20, 41, 40, 41, 48, 10, 16, -21,
   -29, 9, -54, 25, -34, -50, -13, -16,
   1, 22, -91, -70, -21, -10, -4, 29,
   -97, 10, -67, 18, 104, 2, 29, -56,
   38, -22, -88, 36, 35, -12, 119, 4,
   -61, 127, -69, -78, -15, -3, -28, 33,
   0, 125, 22, 77, 30, -103, 12, -74,
   -22, 10, -54, -55, 12, 35, 25, 81,
   -128, 36, -35, -66, 6, 27, 6, -6,
   8, 94, 39, -71, -91, -12, 25, -5,
   -48, 9, -126, -6, -19, 54, 73, -94,
   18, 30, 2, -127, -1, 87, 92, -2,
   -89, 41, -5, 60, -128, -46, 102, -77,
   51, -40, -114, 127, 45, -3, 18, -67,
   -9, -34, -36, 1, -56, -64, -58, -5,
   12, -28, -40, -7, 52, 69, 54, -25,
   -25, -1, 34, 5, -9, -23, -62, 11,
   -58, 10, -19, 59, -56, -10, -20, 48,
   34, -31, -46, -16, -36, -128, -38, 35,
   7, -11, -27, -124, -65, 17, 57, -53,
   3, 24, 15, -126, 4, -86, -10, 31,
   -70, -125, 106, 0, 0, -126, -12, 12,
   -11, 45, -44, -54, 51, -46, 16, -83,
   -72, -5, -33, 40, -3, 21, 17, 85,
   -27, 20, -28, 5, 117, -127, -59, -62,
   -3, -89, 33, -77, -126, 30, -61, 72,
   3, -14, -1, -114, -56, 6, -20, 113,
   25, -96, -127, -3, 37, -123, -7, 67,
   -33, -78, -38, 20, -27, 5, -11, 47,
   -35, 20, 65, -19, -110, -34, 19, -66,
   80, 21, -36, 19, 88, 75, -99, 21,
   30, -72, 23, -27, -27, 60, 23, 10,
   -84, -68, -123, -78, 70, 15, -91, -127,
   -25, -33, 34, -121, -25, -59, -7, 6,
   57, -127, -59, -19, -37, -25, -11, -56,
   -24, -36, 120, 35, -86, -40, 49, -30,
   -14, -15, -44, -8, -75, -117, 77, 24,
   -46, 35, -47, -15, 38, 86, 92, -51,
   -20, 2, -46, -17, 39, -80, 120, -22,
   -114, -48, 91, -41, 26, -44, -65, -71,
   6, -100, 37, -63, -56, 61, 62, 125,
   26, 11, -122, -38, -22, 127, 101, 41,
   4, 49, -126, -14, -12, -13, -38, -28,
   -128, 70, -3, -113, -49, 35, 22, 100,
   13, 107, 26, 71, 7, 84, 91, 78,
   -78, -76, -1, -83, 4, -93, 0, -126,
   -54, 16, -52, -12, 38, -116, -25, -102,
   1, 31, -123, -119, -127, 4, 82, 4,
   41, 126, 124, 75, -23, -43, -44, 110,
   -21, 14, 127, 89, -4, 37, 50, 127,
   126, 42, 7, 83, 121, -77, -108, 123,
   60, 0, 22, 121, 124, -37, -38, 15,
   30, 102, 68, -126, 106, 121, -110, 66,
   -104, 43, 124, 43, -19, 78, 87, -22,
   0, -113, 10, 11, 26, -56, 49, -128,
   -19, 19, 14, 119, 27, 68, -9, -123,
   17, -113, 16, 37, -65, -60, -3, 127,
   12, 33, 21, 17, -37, 12, 123, -54,
   -28, -127, 63, 39, -38, -19, -78, 33,
   23, 46, 113, -63, 125, 76, -7, 127,
   -15, -33, -97, -50, 24, -58, -67, -93,
   -66, 96, 57, -96, 29, -82, 126, -128,
   -116, -19, 58, 15, -76, 71, 40, -122,
   -22, 88, 45, 31, 126, -60, 46, -28,
   5, 23, -31, -68, -80, -12, -16, -7,
   62, 42, -98, 101, -33, 115, 31, 43,
   32, -8, -15, 57, -36, 64, -11, -60,
   -5, 1, 7, 75, 15, 111, 28, -86,
   77, 6, 7, -22, -34, 59, 12, 6,
   -7, -18, 64, -56, 29, 35, 59, -49,
   50, 97, -31, 2, 125, 97, 21, -43,
   25, 53, -17, 54, -119, -71, -18, -3,
   -22, 39, 64, -28, 79, 24, 100, -80,
   -18, 110, -53, 48, -55, 122, 33, -112,
   -24, -4, -55, 40, 20, -89, -13, 76,
   -34, -118, -18, -13, 12, 18, -10, -5,
   -82, 85, -39, -48, 2, 82, 16, 21,
   -91, 82, 105, -69, -120, -66, 126, 58,
   -104, -44, -46, 21, 41, -127, 87, 25,
   26, 71, 17, 95, 14, -89, 28, 127,
   50, 84, 31, -117, -40, -127, -38, 56,
   -40, 22, 1, -5, 38, -62, 53, -127,
   95, -78, 106, -117, -60, -128, 70, 22,
   -78, -4, 81, -86, 127, -120, -43, -19,
   127, 85, 54, 31, 45, -117, 70, -26,
   52, -9, 55, 100, 31, -47, -18, -122,
   122, -41, 1, -8, 49, 25, 36, 117,
   11, 51, -18, -19, 115, 55, -15, 31,
   24, 50, -85, 42, 99, 64, 8, -120,
   -109, 17, 96, -77, 98, -25, 64, -26,
   -89, 13, 22, 77, 23, -28, 127, 24,
   -37, 78, -105, -106, -20, 120, 38, 53,
   -49, -100, -125, -81, -72, -35, -10, 12,
   -106, 31, 41, -36, 10, 86, 107, -2,
   -25, 26, 108, 63, 4, 86, 62, 17,
   34, 75, 66, -5, 27, 2, 19, -18,
   9, -24, -74, -50, 88, -126, -52, -12,
   -42, -7, -15, 30, -79, 83, 24, 108,
   -106, -56, 51, 20, 11, -126, 45, 63,
   -73, -127, -14, -52, 58, -72, -34, -91,
   -33, 5, 127, -43, 53, 3, -110, 127,
   -16, 11, 51, 36, -127, -30, 53, 8,
   123, 38, 31, 27, -30, -83, 32, 65,
   -21, -48, -18, -35, 68, -26, 4, -30,
   -5, -43, 65, 35, 32, -81, -34, -8,
   22, 42, 8, 23, 30, 4, 30, -84,
   39, -79, -31, -4, -46, 58, -77, 74,
   127, 61, 64, 5, 37, 6, 69, -29,
   4, -4, 92, -56, -30, -59, -35, -6,
   -38, -72, 45, 123, 9, 56, -25, 10,
   -12, -89, 76, -30, -13, -128, -10, -11,
   -93, 59, 18, -73, 44, 26, -67, -59,
   -77, 11, -13, -13, 7, -62, -105, -22,
   -34, -37, 77, -32, -106, 74, 12, 118,
   -9, -14, -87, 22, 31, -51, 4, -98,
   -4, 69, 87, -45, 71, 84, 47, -8,
   -22, -19, 75, 0, -65, 2, -123, 66,
   -82, 52, 67, 35, -20, 126, -43, -126,
   -88, 1, -44, 75, -86, 47, -67, 16,
   -59, -47, 34, 19, 7, -127, 41, -11,
   -36, -54, -57, -36, -68, 110, 50, 10,
   3, 2, -35, 106, -33, -31, 40, -101,
   31, -89, -40, -7, -35, -28, 103, 10,
   38, -89, 8, 28, -37, 13, 94, -10,
   21, 33, 38, -39, 3, -51, 15, -110,
   42, 28, 12, -8, 25, 27, 29, 29,
   -32, -112, 36, -3, 57, -31, -126, 42,
   -34, 35, -103, 41, -94, -45, 5, -59,
   126, 46, 20, -60, -18, -35, 16, 29,
   -15, -89, -84, 96, 110, -19, 107, 57,
   -127, -37, 33, -84, 16, -27, 39, 121,
   2, -33, 56, -31, -4, 35, -47, 100,
   64, 5, -80, -117, 46, -42, -58, -67,
   4, 33, 87, -53, 20, 14, -10, -18,
   25, 5, 12, -2, -3, -29, -7, -42,
   50, -21, 12, 7, -16, -32, -59, -80,
   -27, 27, -99, -18, 90, -60, 48, 7,
   1, 92, -118, -57, 34, 123, 20, 55,
   76, 94, 98, 19, -92, 49, 68, 66,
   13, 9, -8, 99, 127, 109, -7, 12,
   76, -32, -68, 126, 15, -127, -13, 67,
   66, 41, 45, 9, 127, 102, 2, -3,
   -28, 66, -95, 11, 79, 33, 95, -60,
   -10, -7, 113, -21, -71, -53, 81, -117,
   -33, 38, -68, -51, 14, 13, 25, 5,
   22, -126, 57, 127, 53, -74, 2, -118,
   14, 37, -19, -103, -89, 85, 13, 1,
   -15, 6, 72, 16, -19, 111, -92, -35,
   -101, -57, -29, 24, 97, -35, -47, -66,
   -17, 15, 105, -98, -89, 6, -45, 55,
   -92, 19, -9, 56, -98, 69, -1, -34,
   7, 97, -40, -62, 30, -42, 68, -9,
   -28, 105, 18, -117, -3, 57, 4, -50,
   -123, 5, 11, -33, 5, 105, 22, -54,
   -34, 74, -69, 69, -21, -5, -10, -128,
   39, 6, 104, -120, 72, -13, -24, -49,
   41, 47, 37, -107, 51, -3, 32, -67,
   12, -58, -46, 15, -127, -27, -35, 0,
   116, 67, -81, -7, 10, 22, 59, -115,
   7, -25, 57, -12, 50, 20, 127, 105,
   -25, -90, -3, -11, -14, -61, -46, -32,
   2, -30, -15, 29, 109, -120, 51, 120,
   -108, -5, -126, -15, -24, -125, 22, 76,
   -17, -89, -112, 16, -88, -30, 22, 51,
   -30, -42, 40, -10, 74, -127, 11, 23,
   70, -16, 6, -73, 17, 35, -69, 12,
   -13, -6, 7, -128, -98, 110, 113, -1,
   76, 54, -127, 38, -1, -8, 81, -67,
   71, -11, -127, 24, 10, -85, 9, -34,
   127, -18, 73, 75, -74, -68, -15, -21,
   13, -1, 32, 7, 62, 127, -112, 45,
   -73, 56, -16, -127, 125, 109, -72, -99,
   58, -32, 14, -54, -63, -128, -11, 39,
   61, 51, 125, -71, -122, 52, -20, -42,
   -54, 40, 30, -84, -68, -36, -48, 112,
   23, -24, 42, 123, -20, -128, -7, -5,
   35, 90, 44, 1, 25, -22, -36, -6,
   4, 35, 20, 17, 15, -8, 123, 13,
   -57, 11, 62, 86, -40, 36, -81, 24,
   2, -2, 33, -11, -70, -128, 98, 80,
   -92, -30, 70, 31, -46, 72, 124, -85,
   61, 47, -68, -23, 14, -3, 34, 27,
   -119, 42, -14, -55, -79, 52, -128, 123,
   6, 0, -50, -75, -55, 37, -10, -26,
   -76, 1, -37, 0, 26, -34, 19, -45,
   56, -75, 35, -115, -6, -8, -44, 123,
   -108, -27, -11, 22, -39, -59, 25, -127,
   -35, -101, 27, 74, 75, 97, -11, 72,
   -128, -57, 72, -51, -12, -108, -29, 58,
   33, -12, -31, -58, 74, -82, -101, -48,
   -42, 31, 15, -6, 27, 125, 59, 66,
   -44, -44, 24, -27, -20, 84, 52, 1,
   73, 108, 14, -70, 1, 25, 125, 38,
   9, 35, 125, -32, 41, -97, -1, 44,
   18, -87, -41, 69, 127, -72, -71, 126,
   -10, 59, -56, 2, 47, -62, 13, -128,
   -27, 79, -22, -64, 14, 127, 27, 81,
   -74, 52, 125, -49, 38, -101, 82, 33,
   -36, -20, 9, 116, 83, -6, -126, -113,
   -93, 49, -121, 127, 88, -12, -33, -102,
   -86, -53, 5, 64, -16, -62, 13, 71,
   -73, -28, 84, 35, -126, -46, -70, -98,
   -20, -127, -79, 127, -31, 69, -70, 2,
   91, 61, 57, 72, -76, 38, 50, 31,
   29, 71, 101, 13, 65, -106, 33, 68,
   33, -67, -54, -2, -104, -125, -30, -21,
   59, -23, 55, -85, -22, -112, -127, 114,
   -127, -126, 73, 60, -28, 28, 28, -73,
   33, -73, 23, 87, -7, -65, 5, 71,
   -26, 71, 38, -26, -115, 14, 13, 14,
   10, 24, 55, 36, -32, -126, 126, -23,
   8, -72, -45, 80, 17, -77, -3, -19,
   127, 10, 13, 28, 17, 53, -76, 20,
   -8, -62, 57, -119, 58, -73, -43, -40,
   -45, -37, -47, -6, 16, -19, 26, 17,
   91, 24, -128, 56, -57, -124, -12, 34,
   -28, -31, -120, 38, 20, -120, 60, 125,
   24, -30, 48, 55, 100, -74, 13, -47,
   -46, -93, -104, -68, 21, 68, -22, 50,
   -22, -107, 15, 2, -26, -36, 110, -59,
   33, -31, -5, -75, -125, 6, 20, 8,
   -126, 22, 41, 122, 52, 19, -30, 15,
   -12, 51, -95, 20, 113, -110, -4, -2,
   42, 53, -39, -6, 51, -82, -114, 58,
   -12, -128, 50, 52, 39, -97, 44, 85,
   4, -116, 109, -58, -69, 100, 108, -127,
   -8, -123, -56, -23, -21, 36, -48, -21,
   -51, 18, 127, -127, -108, 84, -27, -19,
   -5, 127, 3, 114, -27, 46, 23, -1,
   32, 14, 28, 69, 12, 87, -14, -4,
   -73, 77, 7, -59, 50, -44, -28, 55,
   9, -4, 24, -2, -13, 34, -99, -9,
   20, 58, -127, -34, 67, -24, 125, 127,
   -2, -3, 70, -69, 18, -38, 47, -8,
   3, 68, 64, 59, 4, -6, 3, -36,
   126, -56, -122, -22, 17, -25, 24, 13,
   31, 78, 50, 54, -20, -84, 7, 43,
   88, 25, -22, -10, 13, -88, -124, -5,
   108, 66, 97, -61, 22, 17, -128, 32,
   -52, 86, -3, -37, 39, -73, -19, 78,
   -9, 127, 30, 122, -55, 99, -62, 11,
   18, -14, -128, 19, 30, -22, -17, -65,
   -12, -40, -47, 102, -35, -27, -13, -13,
   -41, -18, -23, 40, -105, -93, 60, 36,
   26, 42, 102, 38, 14, -25, -127, 122,
   4, -76, 2, 127, 7, -126, -25, -45,
   -15, -10, 23, 56, -7, -49, 75, 87,
   6, -49, 94, 33, -18, -112, 28, -89,
   3, 105, 39, 127, 22, 7, 106, -17,
   56, 6, 4, 21, -37, -72, -5, -59,
   16, -76, -29, 29, -103, -20, 10, 76,
   -87, -16, -1, 41, -93, -93, 2, -21,
   68, -43, -36, 8, -113, 20, 7, -95,
   32, -46, -105, 127, -3, -98, 114, -1,
   -62, -26, 36, 13, -22, 67, -100, -47,
   -2, 61, 15, 26, -43, 35, 57, 68,
   28, 47, -97, 19, -22, -11, 65, -128,
   -126, 111, 37, 92, -52, 114, 127, -35,
   -5, -11, 43, 49, 6, -112, -44, -113,
   75, 71, 100, -29, -47, 126, -13, 55,
   -60, -80, 42, -64, -11, -83, 87, 50,
   -17, 34, 23, -55, 82, 66, 21, 96,
   -10, -19, 26, 46, 57, 123, 77, 70,
   71, -40, 82, -9, 10, -110, 126, -100,
   -48, 127, -59, -43, -50, 2, 70, -25,
   27, -26, -62, 45, -21, 46, -19, 46,
   16, 36, -49, 20, 42, -113, -3, 85,
   -64, -65, 42, -15, 64, -125, -3, -25,
   -30, -14, 7, -53, -22, 25, 38, 18,
   88, -12, 127, -47, -62, -25, -35, 25,
   -32, 5, 9, 0, -69, -30, -49, -108,
   113, 74, 49, -108, 4, -77, -29, -113,
   62, -9, -76, -2, -37, -23, 3, -20,
   42, -9, 30, -84, -24, 49, 31, -37,
   -16, 37, 54, 34, -4, -40, -4, -10,
   -7, -24, 73, 8, -15, -2, -39, -34,
   -49, -58, -42, -6, -90, 92, -68, -44,
   -29, -1, -62, 3, -29, -51, 3, -107,
   14, -51, -68, 7, 15, -71, 11, -43,
   0, 14, -57, -39, 0, 55, -33, -58,
   43, -25, -42, 44, 38, 67, 5, -45,
   93, -15, -89, 81, -38, -5, -100, -10,
   64, 80, -28, 53, 65, 56, 18, -16,
   3, -15, -110, 125, -25, -72, 9, -2,
   -52, -18, -10, -103, -116, -15, -107, -8,
   30, -4, 13, 22, 58, -86, -14, 17,
   24, -84, -67, -86, 5, 65, 63, 13,
   13, 18, 32, -8, -1, 73, -71, -12,
   120, 17, -78, 28, 32, -21, -27, -15,
   41, -46, -23, -126, -48, 43, -49, -3,
   -14, 51, 10, -55, 54, 3, 49, -125,
   23, -49, 108, 44, -54, -9, -11, 37,
   -123, -11, -82, -29, -64, -71, -13, -63,
   7, -72, -113, 63, -79, 26, -64, -73,
   27, 82, -73, -48, -34, 54, -125, -57,
   -4, -94, 52, -46, 108, -99, -122, 55,
   19, -23, -66, 126, 58, -32, -112, -49,
   13, -126, 40, 9, -45, 24, 36, -58,
   81, 14, 12, -96, -17, -78, -32, 3,
   2, -3, -121, 38, -127, -23, 53, 127,
   92, -33, -2, 99, 7, -34, -18, -42,
   -29, 57, 34, 23, 16, 35, -14, 13,
   47, -52, -16, -51, -124, 11, -62, -66,
   -39, 47, 49, 29, 43, 63, 29, -6,
   121, 5, 77, 14, 6, -51, 10, 4,
   93, 33, 30, 82, -37, -12, 37, 124,
   6, -16, 13, -36, 39, -21, 52, -8,
   -35, -41, -128, -55, -126, 14, 82, 48,
   46, -13, 34, 9, -51, -22, 19, -10,
   78, -95, 41, 2, -44, 18, 86, 65,
   -72, 95, 6, -54, -54, -3, -19, 54,
   -57, 19, -8, 67, -44, 11, -39, 126,
   126, -23, -92, -51, 126, 118, 17, -88,
   10, -50, 30, 86, -86, 115, -127, -63,
   -42, -101, 49, -32, 119, -112, 5, -33,
   74, -56, 44, -43, -33, 45, -13, -78,
   -40, 127, -14, 37, 11, -26, 23, 123,
   79, 2, -69, -19, -52, 35, 112, -17,
   -127, 45, -39, 6, -35, -125, 53, 10,
   67, -128, -76, -3, 25, -127, -6, 17,
   86, -17, 56, -27, -24, -46, -56, -2,
   8, 29, -101, -10, -43, -4, 10, 57,
   -80, -128, 22, -92, -7, -61, -36, 1,
   30, 4, -19, -6, -25, -120, -34, 34,
   -3, -31, -13, 93, -13, -8, -38, 16,
   -116, -28, -33, 114, 22, -81, -70, -127,
   -34, -41, -110, -28, 125, -67, 7, 127,
   -31, -47, -29, -93, -96, -12, 124, 29,
   -83, -27, -122, -111, -127, -34, -40, -68,
   14, -44, -69, -32, -125, 49, 38, -62,
   -26, -74, -127, -7, -6, -43, 103, -90,
   123, -51, -110, -68, -3, -49, 61, -128,
   18, -14, -4, -56, -48, 22, 121, -41,
   -126, -111, 60, 117, 0, 17, -109, -81,
   64, -120, 14, 47, -17, 59, 100, 127,
   13, 48, -3, -7, 10, -21, -62, -16,
   -24, 0, 22, -96, 17, -103, 92, 46,
   -19, 0, -25, 33, 27, 9, 46, -14,
   60, 16, 66, -44, -123, -28, 40, 27,
   25, 17, -56, -61, 4, -53, -27, -20,
   -28, 4, 64, -42, -52, 34, -16, -51,
   27, -2, 0, 5, 43, 59, 33, 1,
   2, -76, -32, 23, -17, -80, 46, -66,
   -24, 123, 2, 33, 59, -87, 126, -21,
   -74, -116, -38, -36, -75, -6, -87, -39,
   -126, 88, 22, 83, 100, 39, -5, -18,
   72, 34, -82, 46, -103, 76, -50, 56,
   85, -6, -44, 105, 126, -42, 64, 40,
   -69, -51, -17, 6, -11, 53, -81, -23,
   7, -8, 13, -56, 127, 11, 12, -96,
   -22, -56, -48, 12, -74, -49, 52, -77,
   -7, 92, 33, -122, -65, -74, -58, 56,
   -105, -62, -2, -45, -114, -45, 8, -15,
   53, -1, -69, -40, -40, 49, -112, -29,
   30, 76, 0, 108, -69, 77, 64, 30,
   9, 24, -54, -5, -114, 36, 98, -88,
   55, 56, 29, -48, -34, 63, -37, 84,
   -50, -18, -95, -14, 50, 127, 22, -26,
   -5, -54, -55, -3, -14, 110, -33, 30,
   118, 22, 127, -14, -16, -10, 7, -50,
   7, -5, 113, 23, -118, 126, -54, -128,
   -124, -19, 56, 18, -126, 48, 12, -127,
   64, 36, 82, 74, 14, 20, -5, 61,
   63, 123, 43, -77, -128, 15, -103, 66,
   22, -29, 37, -7, 25, -48, -55, -29,
   9, 37, -29, 52, 29, 66, 25, -24,
   44, 32, 20, 11, -127, 127, -75, -31,
   -44, -49, -19, -21, 9, -6, 49, -125,
   45, 74, -27, 44, -27, 67, -11, -116,
   -65, 82, 6, -3, -26, 86, -16, 113,
   -40, 123, 2, 8, 52, 30, -36, -23,
   -29, -5, -111, -10, 2, -5, -13, 10,
   40, 18, 6, -3, -83, -119, 63, -24,
