/*This file is automatically generated from a Keras model*/

#ifdef HAVE_CONFIG_H
#include "config.h"
#endif

#include "rnn.h"

static const rnn_weight input_dense_weights[912] = {
   -8, -28, -4, -18, 21, 16, -3, -2,
   -6, -24, -29, 11, 9, 8, -5, 12,
   -8, 14, 7, -11, -18, 16, 8, -11,
   21, -33, -20, 22, 22, 24, -1, 12,
   -13, -33, -13, -11, 14, -22, -18, 1,
   -10, -19, -22, -15, -8, 18, 6, 49,
   21, -32, -17, 7, 15, 30, 9, -13,
   -38, -15, 22, -19, 10, -9, -5, -40,
   -13, 29, 4, -12, -2, 8, -1, -51,
   -23, -20, 20, -3, -4, 35, -3, 24,
   -39, -5, 39, 5, -12, -10, 4, -56,
   -29, 11, -20, -5, -11, 13, 22, 41,
   -47, -4, 37, 19, -24, 35, -26, -18,
   5, 1, 49, -1, -2, -2, -2, -4,
   -45, -35, -6, -3, 13, 2, 17, -16,
   21, 0, 26, -22, -39, 33, -5, 11,
   18, 5, 41, 8, 6, 31, 8, 34,
   -27, 88, 5, -16, 33, 0, -19, 1,
   29, 11, -49, -22, -126, 79, 57, 127,
   58, 61, 43, 42, -43, 3, 36, 117,
   47, -51, -97, -11, 11, -12, -8, 21,
   93, 0, -21, 40, -104, 50, -13, 21,
   127, 60, -35, 121, 21, 33, 44, 127,
   127, 40, -37, 1, 53, -25, -99, -65,
   -67, 6, 85, 30, -12, 32, -31, 17,
   29, 87, -63, -33, 56, -51, 7, 127,
   127, 27, -49, 3, 65, -40, -79, 32,
   -27, 49, 82, 79, -10, -37, -127, -104,
   -91, 77, -125, 126, -54, -13, 38, 33,
   127, -48, 59, 72, 19, 0, -18, -27,
   -41, 61, 37, 127, 45, -73, -128, 13,
   106, 30, -127, 83, -32, 37, 62, -28,
   127, -20, 8, 74, 4, -10, -32, 63,
   22, 36, -55, 24, 64, -125, -128, -104,
   27, 25, -128, 65, -34, -128, -70, -123,
   127, 76, -22, 53, 36, -42, 80, 44,
   -63, 76, 11, 7, 106, -126, 76, -37,
   -101, 21, -128, 59, -10, 127, 90, -92,
   91, -48, -12, -53, -57, -72, -69, 85,
   -50, 74, 79, -29, 43, -128, 68, -63,
   -67, -33, -97, -18, -53, -74, 2, -122,
   -104, -36, -85, 87, 1, 3, 34, -65,
   -76, 109, -108, -103, 72, -127, 111, 69,
   42, -42, -12, -66, -15, 75, -24, -28,
   -79, -102, 3, -55, -37, -75, 23, 55,
   -25, 90, -32, -99, 86, -128, 127, 93,
   124, -39, 81, 74, 21, 127, 74, 0,
   -125, -36, -126, -19, -8, -37, -32, 73,
   -11, 21, -78, -127, 0, -126, 86, -128,
   -109, -69, 91, 64, -53, 0, -10, 15,
   -127, 66, -124, 46, 102, -8, 69, -22,
   18, 15, -39, -44, 2, -70, 84, 47,
   13, -45, 103, 83, -79, 76, 26, 66,
   1, -127, -16, -24, -2, 15, -19, -79,
   -84, -61, -21, -36, 32, 40, -35, -15,
   12, -10, -69, 91, -40, -16, -58, -10,
   -57, 54, 5, -51, -96, 87, -86, 17,
   -127, -103, -4, 64, 17, 85, 21, -16,
   -39, -63, -19, -127, -81, 73, -118, -28,
   -50, -11, 67, 48, -127, 87, -128, 24,
   -72, -115, -104, -82, 19, 80, 20, -21,
   -18, -12, 58, 90, 11, -100, 44, -127,
   -45, 80, 27, 0, -128, 1, 31, -78,
   -8, -69, 47, 117, -21, 74, 17, -14,
   -48, -32, 44, -24, -40, 24, -43, -120,
   -84, -58, -45, 3, -44, -8, 38, -116,
   107, -25, 127, -38, -48, 79, -49, -20,
   45, -16, 83, 49, 32, 41, 1, -37,
   -50, 27, -90, -1, -45, -30, 61, 38,
   53, -12, 20, 45, -66, 58, 23, 6,
   17, 29, 80, 105, 11, 16, 44, 85,
   -33, 25, -101, 23, 3, -34, 88, -57,
   -128, -66, -21, 61, 31, 30, -27, -50,
   73, -18, -21, 21, -94, 99, -6, -5,
   -33, -2, 18, -47, -25, 98, -13, 27,
   -109, -65, 14, -7, 13, 44, -37, 0,
   61, -27, -24, -61, -53, -52, -25, -49,
   -63, -19, 76, -55, -128, 34, -52, 25,
   -44, -76, -2, -21, 7, 83, 4, -57,
   -8, -19, 31, 14, -43, -6, -36, -51,
   -3, 57, 11, 17, -117, 4, 21, 88,
   21, -41, 0, 16, -25, 59, -21, 11,
   25, 3, 69, 64, -22, 31, -33, -46,
   -60, 10, -4, 14, -93, -37, 45, -27,
   84, -1, 41, 20, -2, 38, 30, -28,
   42, 42, 75, -79, -10, 50, -28, 1,
   6, -127, 22, -6, -79, -29, -16, -54,
   68, 7, -20, -1, -52, 64, 16, 93,
   -13, 19, 29, 54, 26, -9, 28, 36,
   19, 127, -60, 50, -23, -26, 33, 37,
   88, 41, -51, 101, -25, 18, -24, -42,
   -100, -7, 28, -89, -101, -20, -128, 47,
   -13, -4, 25, 127, 57, 122, 127, -29,
   96, 7, -1, 46, 14, -2, -77, 93,
   -127, 84, 62, -94, -52, 86, 73, 30,
   5, 127, 127, 30, -62, 127, 106, 14,
   25, 53, -51, 20, -21, 42, 42, -83,
   -64, 40, 24, 106, -81, 127, 127, -54,
   -36, 90, -4, -9, 25, 109, -98, 21,
   -43, -4, 5, 82, -6, 25, 61, 10,
   -40, -9, -45, -5, -69, 16, -127, -111,
   11, 48, -8, 71, -17, 10, 55, -127,
   -127, -18, 102, 76, 8, 13, 13, 126,
   27, 0, -20, -63, 4, 53, 126, -49,
   -60, -25, 19, -13, -4, 8, 38, 91,
   -99, -55, 5, 16, 10, 58, 70, -66,
   13, -21, -1, 32, 58, -11, 5, 50,
   -8, 54, -69, -8, 57, -100, -111, 24,
   -34, 25, -38, 57, 13, 94, -90, 107,
   99, 54, -30, 77, 127, 115, 25, 84,
   -60, 41, 25, 12, 64, -13, -42, 35,
   -94, -36, 5, 23, 16, 6, -6, 9,
   -40, 49, 22, 33, -30, -13, -28, 2,
   -24, -10, 9, -7, 30, 2, -5, 52
};

static const rnn_weight input_dense_bias[24] = {
   127, 4, 127, 60, -127, -127, 127, -38,
   92, 83, -7, -95, -74, -128, 12, -128,
   95, 11, -128, -88, -72, 2, -73, -32
};

const DenseLayer input_dense = {
   input_dense_bias,
   input_dense_weights,
   38, 24, ACTIVATION_TANH
};

static const rnn_weight vad_gru_weights[1728] = {
   -19, -58, -47, 127, -53, -127, -112, 127,
   -25, -127, -10, 106, -45, -126, -111, -9,
   -90, -110, -128, -34, -68, -45, -49, -53,
   -14, 74, -126, 47, -85, -48, -31, 102,
   -128, 116, 23, -127, -124, 3, -94, -55,
   70, 127, 78, -127, 24, -127, 82, 15,
   27, -54, -22, 13, -2, -43, -21, -41,
   14, -64, -20, 7, 4, 63, 18, 16,
   70, -34, 56, -63, -13, 16, -21, -15,
   48, 126, -128, -69, -114, -128, -103, -111,
   -33, -127, -12, 96, -31, 67, 13, 74,
   10, -120, -1, -128, -60, -128, -71, -127,
   127, -85, 126, -57, -79, 108, 82, -19,
   -24, -126, 104, 1, 1, -67, -110, -1,
   -127, -53, 88, -25, 125, 127, 8, -109,
   -56, -8, 4, 43, -29, -66, 24, -11,
   -102, -28, 31, -63, -80, -56, 92, -95,
   -42, 87, -69, -45, 45, 1, 4, -126,
   -125, -22, 35, 127, 12, -72, 71, 127,
   -84, -98, 29, 126, 8, -26, -93, -45,
   48, -46, 21, -73, -89, 107, -114, -34,
   -70, -42, -24, -95, 59, -125, 77, 107,
   -24, -106, -26, 71, -21, 127, -128, 126,
   -66, -77, -12, 112, -71, 32, 37, 92,
   32, -73, -87, -27, -8, -42, 13, 22,
   -19, -18, 30, 43, -29, -17, 56, -21,
   -51, 48, -67, -69, 4, -52, -4, -20,
   37, 39, 34, 27, -54, -126, -113, 23,
   11, 12, -95, 96, -12, -71, -2, 16,
   15, -40, -113, 127, -128, -127, -54, -2,
   41, 20, -127, 53, 1, -36, -43, 111,
   -80, 127, 69, 22, -58, 99, 43, -12,
   65, -1, -5, 47, 64, -99, 124, 39,
   -16, -4, -83, 66, -28, 7, 4, 10,
   17, -77, 67, -5, 8, -32, 30, 9,
   26, 109, -8, 7, -15, -42, -19, -19,
   27, 127, 63, -5, 113, 125, -22, -95,
   127, -12, 4, -76, 46, 48, 127, -62,
   -126, 18, -92, -12, 79, -63, 104, -40,
   -119, 21, 91, -19, -121, 127, 106, 59,
   127, 105, 127, 75, 41, -18, 127, -126,
   110, -81, 81, -62, -84, -128, -99, -6,
   126, -27, 86, -86, -25, 77, -107, -90,
   46, 73, -127, 44, -44, 118, -95, 24,
   48, -42, -48, 38, -123, -55, 25, 101,
   85, 95, 44, -114, 125, 59, 125, -127,
   12, 127, 44, -125, 30, 127, 119, -127,
   74, 123, 36, 127, 72, -43, 43, 127,
   -121, 126, -128, -12, -3, -75, 78, -38,
   -30, 127, 45, -75, -127, 51, 124, 23,
   127, 104, 4, -105, -128, -110, 125, 127,
   115, 56, -3, 44, -34, -12, -32, -91,
   127, -12, -92, 65, 7, 107, 3, 101,
   2, -127, 25, -13, -65, 24, 64, 127,
   -84, -127, -5, -10, 127, 89, -87, 127,
   -67, -126, 4, 123, 114, -127, -23, 31,
   -49, -126, -68, -3, -78, 39, -18, -41,
   -3, 9, 72, -100, -1, 126, 127, 38,
   26, -27, 44, 62, -39, 82, -51, -16,
   92, -23, 18, -22, -35, 78, 25, 87,
   18, -54, -81, 1, -6, -31, -14, -31,
   69, 24, -29, 33, 71, 32, 0, -43,
   -41, 76, 18, -89, 13, 18, -43, 6,
   20, -5, -29, 127, -48, -127, 116, -127,
   -30, -67, 60, -17, -35, 121, -96, 1,
   48, 125, 127, -127, 33, 126, -15, 3,
   -47, 60, 63, -127, 88, 17, 72, -125,
   13, 4, 32, -31, 63, -128, -26, -5,
   -74, 21, -70, -66, -67, -39, -101, 22,
   65, 1, -60, -60, -44, -24, 15, 53,
   16, -47, 23, -46, -33, 6, 0, -43,
   -9, 53, -24, 21, -10, 17, -34, 11,
   127, 127, 31, -29, 127, -84, 127, 127,
   37, -70, 126, 85, -55, 111, 125, -104,
   126, 127, -42, -7, -64, 10, -91, 126,
   54, 127, -82, -16, 90, -8, -29, -39,
   51, -93, 127, -124, 31, -127, 24, -128,
   -1, 116, 26, 115, 57, -12, 126, -126,
   4, -52, -75, -44, 38, -62, 4, -15,
   -2, -24, -11, -30, 55, -42, 60, 16,
   -26, 76, -3, 19, -31, -72, -33, -85,
   -1, 127, -30, -54, -125, 72, -116, -29,
   -48, 127, -21, 127, 92, 15, -8, 127,
   127, 32, 127, 72, 115, -126, -7, -114,
   127, 78, -48, -127, -70, -128, 57, 88,
   -128, -127, -53, 48, 73, -76, -116, 127,
   -127, -13, 16, 127, 127, 4, 20, -9,
   -2, 65, -104, -53, -66, -127, 110, 13,
   -79, -52, 78, -53, 100, -128, 34, -78,
   -57, 112, 12, 31, 37, 67, -110, -114,
   -3, -125, 23, 36, -116, 19, -120, 10,
   -128, 91, -45, -14, 68, -51, -121, 82,
   -55, -124, 112, 127, -26, -102, -30, 35,
   86, -72, -64, -2, -6, -10, -111, 93,
   -126, -57, -55, 109, -30, -17, -128, 127,
   -49, -100, -43, -97, -67, -24, -79, 31,
   -65, -24, 9, 9, -46, -24, 33, -16,
   -47, -45, 63, 17, 0, -105, 27, -9,
   53, 89, -31, -110, 126, 34, -6, -54,
   126, 122, 122, -90, 126, 127, 60, -85,
   13, 127, -5, 127, 89, 120, 125, 127,
   94, 127, 110, 127, 127, -128, 114, 125,
   -24, 34, 65, -96, 105, 45, -46, 0,
   124, -5, 106, -41, 103, -127, 25, 26,
   -27, -77, -120, 58, -36, 16, 47, -125,
   20, 3, -56, 2, -39, -64, -44, -46,
   26, -46, -30, -17, 102, -70, 54, 21,
   -29, 31, -42, 11, -23, 127, -61, 33,
   110, -128, 14, 110, 118, 48, 59, -128,
   10, 51, 89, -127, -10, 28, 92, 8,
   -78, 127, -46, 5, -40, -126, -90, 126,
   34, -128, -69, -100, 122, 19, 23, -56,
   -66, 46, 51, -122, -29, 30, -128, 45,
   44, 93, 29, 58, -61, -36, 113, 127,
   -127, -84, -88, 76, -116, -70, 74, -81,
   -10, -50, 69, 0, 61, -127, 111, -34,
   -127, 121, -74, -127, 74, 90, -78, -110,
   69, 59, -20, -49, -9, -35, 93, -127,
   56, 54, -127, -91, -17, 127, -19, 76,
   -84, 126, -8, 66, 127, 127, 125, 39,
   -60, -116, -82, -30, -126, -73, 56, -52,
   -113, 54, 43, -102, -95, 98, -97, -84,
   61, -31, -55, -127, -29, 54, 74, 127,
   3, -17, 49, 1, 47, -51, 2, 15,
   -52, -24, 43, -27, 0, 16, 46, -64,
   31, -8, 17, -34, 28, 73, -12, 33,
   71, 7, 124, 127, 97, 61, -52, 127,
   -116, 127, 84, 57, 127, 36, -31, 127,
   -25, 127, 35, 127, 127, -113, -26, -125,
   52, -48, -46, -127, 15, 11, 98, 1,
   -11, -13, 118, 69, 81, -34, -7, 56,
   21, -47, 21, -77, 42, -47, 127, -81,
   43, -14, -84, -18, -59, -16, 45, -87,
   -13, -62, 66, 42, 105, -28, 66, 14,
   30, 73, -34, -42, 89, 119, -63, -49,
   -51, 125, -17, -39, -128, 32, -52, -127,
   126, 99, 65, -127, -53, 127, -36, -1,
   -4, -57, 89, -54, 113, -12, 95, 32,
   -92, -31, 66, 26, -12, -128, 0, -8,
   127, -75, -28, -77, -126, -54, -11, -128,
   -14, -11, 90, 127, 123, -27, -36, -111,
   81, 44, 123, 18, 89, 58, -19, -25,
   -9, 127, -109, 22, -79, 127, -39, 20,
   0, -128, 9, 127, -124, -35, 83, -21,
   4, 25, 98, 127, -18, -80, 2, 22,
   127, -69, 83, 32, -15, -48, -59, 36,
   52, -126, -9, -100, 43, 127, -126, -122,
   67, 127, -128, -48, -50, -127, 3, -31,
   -127, -45, 126, -63, -47, -50, -128, -32,
   -127, 69, 115, 74, 127, 98, -1, -34,
   -19, -22, -44, 61, -29, -91, 124, 6,
   -85, -93, 84, 20, 26, -128, 82, 12,
   -75, 125, -35, -59, 28, 10, -12, -68,
   -65, 4, -37, 77, -18, 127, 41, -88,
   80, 127, 47, 70, 19, 23, -32, 48,
   -118, 127, 78, -127, 126, 117, 126, 74,
   14, 127, -13, -127, 70, 126, 127, 76,
   -29, 74, 9, -9, -73, -23, -58, 7,
   -42, 125, 40, 40, 72, 102, -49, 58,
   10, 16, -20, -49, -25, 57, -42, 33,
   6, -5, -7, -40, -16, 12, -35, -26,
   19, -18, 38, 22, -17, 26, 21, -5,
   3, 13, 35, 103, 18, 127, -126, -94,
   122, 127, -82, -127, 37, 127, -122, 116,
   41, -24, 61, 60, 127, -39, 118, -47,
   -30, 29, 32, 7, -126, 0, 3, 1,
   4, -52, -6, -44, -30, -45, -90, -20,
   -2, -16, -110, 112, 84, 47, -128, 65,
   87, -16, -3, 46, -7, 64, -85, 47,
   108, 15, 10, -1, 77, 38, -44, -25,
   56, 16, 27, 11, 16, 91, -9, 46,
   32, 67, 3, -38, -127, -101, -101, -128,
   124, -127, -94, -110, -112, 90, -113, 101,
   -72, -98, -127, -128, -107, 127, 127, -113,
   127, -23, 25, 62, -125, -63, -106, 54,
   -127, -41, 57, -8, -76, -48, -29, -126,
   -127, -25, -4, -128, 51, 110, -125, 114,
   9, 23, 33, 127, -117, -42, 87, 30,
   -12, -55, 81, -23, -36, -11, 109, -88,
   -9, 127, -27, -28, 44, -56, -128, -3,
   120, 84, 127, -28, 16, 127, -1, -23,
   -40, 104, 79, -33, 19, 65, 88, 37,
   31, 127, 74, 40, -4, -126, -90, -29,
   82, -52, -128, 20, 1, -128, -88, -60,
   -54, -3, -83, -3, -64, -126, -94, 100,
   -23, -27, -32, -115, 2, 36, 15, -92,
   2, -61, -39, -22, -66, -80, 75, -81,
   -41, -76, 120, 38, 23, -57, 34, -15,
   -67, 113, 53, -35, 60, -50, -60, -71,
   -128, -26, -103, 4, -35, -25, 12, 0,
   -41, -126, -66, -106, -128, -87, 28, -126,
   -127, -93, -119, -74, -81, 99, 127, -126,
   -58, 127, 126, 50, -117, -57, 127, 12,
   87, -18, -76, 127, -90, 124, 73, -127,
   -20, -35, -1, 113, 16, 25, -127, 84,
   127, 75, 82, 0, 97, 60, -83, -30,
   31, 121, 2, 17, -66, 72, -106, -80,
   36, -126, 78, 95, -77, -1, 47, 88,
   49, -128, -78, 127, -128, -123, 118, -128,
   -116, -94, 55, 124, -118, -125, -127, 100,
   -31, -106, -34, 10, 127, 42, 127, -126,
   63, 33, 97, -84, -128, 15, 97, -23,
   -48, -47, 20, 109, -102, 22, -76, 102,
   -85, -58, 82, -112, -95, 57, 7, 21,
   68, -36, -24, -26, 58, 39, -92, -66,
   29, 50, -71, -8, -21, -17, -25, 87,
   33, -73, 40, 119, 36, -81, 15, 73,
   -22, 43, 97, -114, 30, -73, -35, 32,
   127, 35, -48, -60, 91, 13, 76, 127,
   49, -114, 9, 82, 17, -63, 48, 69,
   -8, -39, -15, 85, -118, -47, -127, 46,
   -42, 19, 3, 31, -34, 103, 28, -5,
   34, -63, 77, 42, 21, 33, 27, 104,
   -13, 11, 38, 61, 21, 30, 4, -11,
   18, 37, 8, 26, 77, 15, 32, 17,
   2, -28, 22, -7, 2, 55, 28, -10
};

static const rnn_weight vad_gru_recurrent_weights[1728] = {
   126, 97, 127, 122, 88, 127, 104, 57,
   127, 127, 82, -128, 83, 127, 31, -12,
   5, 126, 33, 127, 127, -107, 92, 120,
   29, -21, -23, 45, 30, 35, 12, -50,
   -58, -2, -15, -39, -86, -57, 10, -38,
   127, -64, 31, 28, -33, -104, 91, 127,
   127, 14, -6, 1, 127, 127, -126, -33,
   127, 77, -71, -12, -27, 127, -112, 66,
   126, -128, 91, -6, -127, -4, 79, 127,
   17, 2, 125, -109, -111, 127, -127, -128,
   81, 34, -120, -127, -128, 16, 127, -128,
   -78, 3, -50, 127, 55, 26, -40, 123,
   -93, 7, 35, -57, -46, -112, -38, 108,
   36, 35, -47, 109, -14, -22, 127, -86,
   -79, 125, -38, -25, 14, -127, -127, -19,
   124, 113, 79, -13, 119, 127, -128, 127,
   42, 127, -106, -31, -127, 127, -125, 26,
   88, -128, 90, 31, -35, -68, 126, 126,
   123, 44, 127, -98, -126, 86, -71, -127,
   -46, 83, -128, 30, -102, 127, 112, -50,
   -123, 119, -127, 127, 17, -50, 45, 121,
   -15, 40, 32, 98, 9, 79, -74, 104,
   -33, 7, -6, 18, -25, -5, 115, -77,
   -14, -5, -41, 14, -93, -105, -77, -7,
   46, 13, 19, -126, 0, 90, -51, -17,
   127, 127, -58, -93, -59, 90, 20, 127,
   8, -127, 51, 30, -81, 5, 57, 82,
   -126, -83, -127, -127, -117, -127, -33, -128,
   -1, -51, 126, -127, 2, -108, -38, -53,
   54, -128, -116, -72, -103, 68, -125, -125,
   26, 33, -85, 50, -125, 18, -24, -17,
   -127, -39, 60, 14, -103, 25, -21, -33,
   -18, 39, 24, 46, 68, 25, 30, 15,
   82, -23, 26, -18, -86, -44, 117, -32,
   -38, -94, -7, 114, 124, 41, 11, -94,
   -8, 39, 70, -110, 127, 67, -84, -45,
   34, 127, 65, 20, 73, 3, -123, -52,
   127, 10, -86, 91, 20, 41, -27, 89,
   125, -126, 61, 73, 16, -15, 125, -127,
   89, -30, -20, -3, 27, 16, -43, -4,
   -103, -31, -39, -1, -9, 37, -29, -81,
   -60, -41, 11, 17, 126, -6, -4, -3,
   126, 37, 81, 57, 127, 103, -127, 121,
   -71, 71, -29, -32, -122, 42, -125, -7,
   120, 1, 127, 125, -26, 0, -23, 127,
   121, 48, 67, -22, -51, -53, 3, -72,
   47, 117, -59, -26, 71, 52, -5, -5,
   -113, -57, -120, 127, 124, 27, 121, -44,
   36, -3, 12, 77, -41, 30, 6, -21,
   16, 35, -11, 49, -51, -8, 53, -35,
   -52, -13, -20, -9, -31, 42, 18, -31,
   75, 107, 43, -22, 125, 7, -65, 31,
   127, 127, -69, 20, -37, 33, -58, 73,
   87, -128, 24, 126, -101, -36, 111, 126,
   -127, -101, -73, -97, -124, -76, 76, -50,
   -126, -124, 6, 28, -61, -115, -27, -117,
   -75, -94, 28, -121, -76, 105, -97, 41,
   -57, -51, -12, 90, -34, -87, 32, -30,
   59, 2, -11, -22, -21, -36, 85, -11,
   -5, 27, 4, 73, -59, -114, -56, 11,
   -27, 93, 57, 36, 90, 48, -51, 53,
   -73, 66, -63, -41, -52, 38, -81, 75,
   -54, -40, -4, 126, -63, -22, 4, 35,
   20, 90, 46, -122, -86, -126, 70, 126,
   -46, 117, -51, 127, 59, 19, -112, -108,
   -109, -13, -86, -120, -43, -128, 99, 124,
   -126, -95, 57, 127, 32, -18, -58, 16,
   4, 108, -24, 103, -48, -18, 85, -127,
   108, 127, -77, -112, -120, -90, 106, -106,
   117, 116, 84, -122, 0, 87, 3, 127,
   75, -55, -128, -46, 30, 127, -127, 109,
   125, -128, 84, 126, -113, -128, -13, 127,
   122, 119, 115, 37, 123, 127, 60, -111,
   87, 127, 98, -112, 127, 127, -69, 127,
   10, 127, 17, 127, 127, -23, 1, 127,
   115, -77, 36, -37, 74, 52, -31, -88,
   51, 13, 20, -41, -4, -10, 11, 78,
   -40, -56, -53, 86, -2, 24, 62, 79,
   -79, -89, -127, 44, -124, -127, 121, 97,
   3, -108, 98, -79, 101, -127, 60, -22,
   -128, 124, -51, -127, 81, -27, -127, -119,
   53, 69, 25, 68, -8, -16, 81, -45,
   66, 125, 21, -45, 1, 97, -7, 88,
   -18, 31, 0, 127, -14, 3, 75, 57,
   31, -46, -3, 54, 79, -24, -59, -6,
   -25, 57, -27, 36, 58, 26, -127, 51,
   -123, 8, 7, 21, -10, 83, 61, -41,
   -126, -80, -85, 18, -40, -83, 127, 12,
   -128, -128, 127, 32, 68, -127, 86, -87,
   -101, 127, -22, -115, 43, -14, -128, -88,
   92, -59, -31, 85, -71, -40, -124, 16,
   -77, -123, -29, -26, -92, -48, -80, 75,
   -78, -58, 127, -6, -83, 79, 17, -125,
   28, 74, -47, -24, -12, -23, -26, 84,
   57, 55, 9, 31, 46, -33, 12, 12,
   7, -2, 34, -44, 23, -62, -77, -61,
   29, 127, 127, -89, 89, 127, 84, -126,
   -108, -26, 67, -18, -35, 117, -127, 61,
   127, -76, 69, 126, -125, -15, -69, 39,
   -14, 75, 49, -59, -123, -60, -77, 127,
   127, 29, -42, 127, 118, -112, -128, 127,
   123, -126, 127, -128, 127, -79, 127, -125,
   127, -10, 93, 29, -110, 115, 95, -45,
   -128, -127, -127, 84, 35, 50, -128, 127,
   -127, 0, 93, 72, 127, 127, 111, 127,
   -128, -128, -127, 29, 44, -128, -30, -125,
   -88, 12, 49, 106, 127, -127, 127, -128,
   -128, 127, 127, 127, 127, -21, -127, -127,
   -74, 35, -127, -73, 119, -49, 19, 127,
   -49, 65, 127, 127, -128, -103, 17, -128,
   -128, 104, 127, -128, -128, -10, 39, 111,
   -22, -23, 1, -42, 17, -51, 10, 31,
   4, 15, -11, 85, 18, -76, -9, 33,
   -116, 56, -20, -60, -91, -3, 21, 14,
   -127, -112, -47, -102, -127, -80, 118, -127,
   -37, -127, -52, 52, 127, 3, 5, 27,
   -56, 94, 28, -95, 82, -58, -126, -27,
   -64, 86, -39, -127, -127, -128, 126, 47,
   -23, 15, -91, -12, -69, -6, -88, -127,
   -126, -30, -94, -19, -86, 116, 127, 18,
   -62, 6, -2, 44, 6, 6, -47, 33,
   127, 5, -27, -27, 3, -6, 108, -52,
   97, 34, -10, -70, -128, -56, 48, 41,
   36, -97, 40, -115, -7, 98, -128, -83,
   38, 127, -109, 43, -21, 22, 17, -12,
   -23, -128, 12, 124, -41, -15, 42, 105,
   126, 52, 107, 126, 127, 109, -11, 127,
   1, 116, -127, -128, 111, 42, 43, 95,
   107, 127, 36, 95, 32, -59, -69, 127,
   -122, -16, -72, 18, 53, -50, -88, -5,
   29, -6, 126, -127, 29, -72, -53, -8,
   2, -51, 23, 81, -87, 43, 52, 25,
   -66, -58, -128, 53, -125, -117, 127, -21,
   -23, -128, 127, 33, 53, -127, 112, -111,
   -126, 127, -103, -128, 35, 85, -71, -127,
   126, -33, 113, 116, 127, 127, 125, 62,
   88, 127, -73, -26, -69, 127, 46, 15,
   -126, 101, -103, 127, 127, -125, 5, 126,
   -45, 15, -65, 55, 80, 3, 13, -116,
   15, 45, 70, -46, 8, -51, 28, 39,
   87, -17, 8, 127, -69, -115, 87, -10,
   99, 57, 45, -56, 91, 127, -128, 33,
   127, 126, -127, -49, 61, 127, -62, 77,
   21, -128, -38, 127, -128, 99, 64, 127,
   63, -53, 36, 49, -99, -123, -116, 105,
   -13, -64, -128, 121, -12, 79, -124, 10,
   -115, -125, -127, 98, -43, -80, 38, -127,
   -2, -26, 31, 26, -31, 12, -73, -3,
   -45, 127, -80, 51, -108, 38, 15, 2,
   95, 10, -35, -32, -35, -74, -21, 6,
   127, 71, 127, 15, 114, 126, -128, -70,
   111, 127, -122, 50, -69, 127, -94, 39,
   91, -128, 126, 126, -127, -38, 126, 126,
   127, 8, 111, 111, 98, 99, 3, -30,
   115, 92, 112, 4, 127, 66, -12, 127,
   116, 73, 110, 72, 127, -85, -101, -110,
   45, -23, 28, -28, 26, 56, 20, -1,
   -39, -86, 82, 51, 34, 58, -34, 42,
   53, -16, 7, 18, -5, -27, -26, 78,
   11, -12, -128, 92, 94, -33, -23, -35,
   77, 36, 4, -10, 127, -30, -28, 24,
   79, 13, 40, -4, -97, -3, -127, 92,
   40, 11, -14, 80, -128, -41, -127, 127,
   127, -40, -66, 86, 71, 75, -127, 80,
   -125, -49, 55, 127, 85, 127, 113, -127,
   97, -33, -53, 16, -29, -68, -48, 25,
   -96, 118, -109, 36, -38, 69, -11, 21,
   -104, -1, -25, 37, 104, 49, -79, -64,
   -64, -2, -92, -2, 31, -42, 26, 0,
   -126, -82, 127, 127, -26, -110, -9, -46,
   126, 37, -17, 31, 33, -97, -47, 4,
   126, 60, 78, 59, -127, 124, -106, -14,
   9, 44, -52, 127, 10, 52, 47, 81,
   107, 32, -66, 3, 12, -91, 127, -126,
   2, 53, 45, -14, -10, -13, -18, 60,
   -19, 7, -28, 1, 37, -5, 39, 38,
   -77, 37, 10, 79, 102, -27, -26, 29,
   9, 8, 127, -126, 95, 127, -127, 12,
   124, 125, -127, -12, 116, 96, -107, -58,
   115, -128, 107, 82, -5, -76, -3, 127,
   -87, -128, -127, -122, -118, -127, 45, -15,
   -102, -128, 11, 8, -56, -128, -126, -103,
   -61, -127, 9, -128, -127, -56, 38, -113,
   8, -19, 20, -47, -53, 0, -25, 7,
   -99, -79, -16, 2, 21, 14, 2, 41,
   85, 86, -58, -68, -36, -60, 1, 4,
   -128, -66, -128, 87, -126, -128, 127, 25,
   -126, -127, 127, -51, -40, -128, 106, -99,
   -106, 127, -9, -105, 14, -80, -128, -128,
   -67, -31, 82, 68, -127, 126, 126, -127,
   59, 127, 87, -128, 40, 127, -51, 43,
   97, 70, 89, 126, 127, 104, 54, -110,
   60, -127, -63, -30, -3, 29, -80, -74,
   -59, -121, 23, -127, 8, 0, 9, -39,
   -40, -24, -90, -20, 34, 9, 85, 95,
   83, 74, 30, -65, 127, 105, -79, -17,
   124, 127, -24, -95, -37, 127, -15, -13,
   -51, -127, 70, 95, 46, 65, -30, 97,
   -11, -123, -128, 60, -19, -91, -12, -127,
   87, 125, 33, -128, 14, -2, -37, 36,
   42, -52, -125, 127, -111, -11, -128, -126,
   71, 36, 6, 41, 22, 19, -34, -128,
   97, -46, -70, -102, 1, 0, -56, 57,
   -69, -55, -73, -73, -39, 21, 7, -52,
   -45, 54, 18, 127, -63, 54, -96, -111,
   76, 89, 46, 55, -57, 125, 8, 24,
   -54, -5, -69, -94, -111, 8, 124, 44,
   71, -44, 28, -52, -51, -36, 12, 45,
   1, 125, -118, 37, -98, 49, 7, -126,
   -116, 44, -92, -3, 66, -23, 127, -124,
   17, 6, -97, 39, -18, -56, -13, -39,
   -103, 43, -20, 88, -37, 78, 27, -32,
   62, -34, -30, -5, -55, -75, 3, 20,
   -17, 35, -3, -77, 125, 126, -48, -42,
   23, 34, -32, 62, 35, 33, -64, 34,
   127, -128, 84, 126, -127, -24, 72, 43
};

static const rnn_weight vad_gru_bias[72] = {
   -107, 22, -126, -4, -43, -127, -61, 127,
   -81, -128, -89, 127, -33, -127, -63, -94,
   -51, -125, -44, -80, -128, 127, 37, -72,
   -28, 104, 37, -5, 112, 91, 68, 127,
   123, 28, 71, 104, 58, 59, 40, 29,
   3, -7, 71, 92, 62, 17, 36, -30,
   29, -6, -9, -23, -11, 8, -8, 9,
   37, 6, -63, 21, 37, 127, 3, -24,
   2, -56, 7, 36, -30, -58, -30, 25
};

const GRULayer vad_gru = {
   vad_gru_bias,
   vad_gru_weights,
   vad_gru_recurrent_weights,
   24, 24.0, ACTIVATION_TANH
};

static const rnn_weight noise_gru_weights[12384] = {
   37, 42, -96, 22, -52, -9, 0, 37,
   8, -42, 20, -78, -21, 57, 43, -22,
   41, 20, 4, 34, -65, 10, 11, 13,
   -19, -78, 13, 36, -27, 23, 53, -65,
   66, -54, 7, -2, -30, -11, -13, 58,
   51, 107, 3, -35, 58, 37, -23, -49,
   84, 35, 62, -77, -24, 67, -105, -4,
   5, -6, 50, 3, -11, 14, 22, -19,
   -34, -1, 85, 29, 10, 77, 83, -40,
   1, -6, -29, 0, 25, -66, 18, 31,
   -39, -66, 40, 9, -50, 74, -29, 24,
   7, 110, 48, -48, 34, -32, 11, -40,
   20, -3, -15, -14, 60, -24, -11, -37,
   54, 33, -7, 38, -5, -26, 19, -28,
   -28, 14, -27, 5, 15, 10, 13, 52,
   -5, -52, -25, 5, 5, 71, -30, 32,
   -32, -7, -25, 8, 12, -25, -16, -42,
   -5, -48, 10, 8, 20, 40, -15, 12,
   26, 25, -34, 9, 7, 18, -24, -7,
   -16, -5, 78, -37, -11, -10, -63, -91,
   -67, -30, 49, -14, -21, 56, 6, -22,
   24, 14, 7, -6, 39, 6, 31, -20,
   58, -60, 42, 127, 33, -65, 87, -49,
   27, -40, -39, -91, 52, 44, -60, 1,
   2, 15, -22, -13, 14, -11, 34, 5,
   -11, 22, 33, 2, 37, -1, 71, 21,
   -95, 15, -2, -10, 14, -21, 6, -65,
   -57, -42, -91, -61, 36, -23, -42, 77,
   -17, -36, 16, 112, -44, 69, -47, 31,
   -11, -78, 79, -72, -12, 18, 13, -35,
   14, -7, 23, 32, -17, 0, -9, -62,
   -47, -2, 89, -28, 17, -13, -28, -17,
   -29, -14, -30, -16, 26, 7, 21, 8,
   -32, 6, 50, 42, 19, 7, 55, 28,
   -15, 24, -47, 81, 41, 7, 19, -17,
   0, -30, -26, 46, -31, 17, -9, 8,
   -65, -3, 11, 5, 3, 62, -117, 54,
   -10, 18, 11, 27, -58, -64, 14, -43,
   10, 32, -7, -46, 3, 21, -21, 25,
   -25, -1, 6, 20, 70, -4, -53, -48,
   53, -4, 40, -102, 45, 78, -26, -50,
   125, -66, 74, 91, 28, 27, 36, 19,
   64, -13, -38, 1, -79, -3, -36, 51,
   85, 1, 37, 28, -23, 43, 9, -16,
   -45, -50, 13, -36, 0, 29, -6, 16,
   -8, -47, -33, 34, 40, -9, 35, 18,
   4, 3, -40, 6, 20, -127, -14, 71,
   -39, 30, -18, -34, -24, -10, -17, -33,
   61, 55, -12, -9, 61, -2, 25, -10,
   -30, 40, -24, 8, -22, -54, 62, 8,
   -55, 27, 8, -2, -11, 53, -56, 16,
   19, -28, -44, 16, 19, 62, 26, 80,
   -29, -2, -54, 22, 22, -94, 2, -24,
   18, -11, 32, 29, 42, 9, -15, 5,
   -47, -12, 111, 70, 11, -5, 6, -44,
   24, 11, -54, 119, -29, -1, 90, -64,
   22, -30, 83, 39, 45, -49, -23, 50,
   -3, -43, -9, -42, 84, -57, 22, -52,
   -22, 7, -91, 3, -4, -17, -15, 46,
   -37, 24, 14, -88, -4, 45, 11, -4,
   -32, 5, 4, -64, 52, -9, -22, 29,
   25, 7, -23, -36, -10, -41, 49, 54,
   -50, -53, -5, 25, 45, 26, -37, -74,
   26, -3, -8, -23, 33, -29, -72, -38,
   -11, 62, 9, 30, -33, 41, 11, 8,
   11, -24, 32, 43, 17, -8, 57, 7,
   30, 30, 34, 26, 32, -23, -20, -29,
   -12, 7, 52, 42, -7, -67, 34, 13,
   -26, -45, 9, -83, -6, -27, 40, 23,
   29, -47, 42, -6, -2, 42, 30, 22,
   -51, 1, 46, -5, 16, -2, 24, -25,
   -1, 76, 20, 35, -16, 10, 26, -27,
   79, 12, -89, 0, -19, -40, 29, -9,
   -20, -51, -25, -38, 22, 115, -17, 59,
   -8, 17, -37, -34, 58, 34, 2, -20,
   43, 11, -85, 26, -67, 75, -66, 31,
   19, 27, -41, -28, -87, -61, -19, -44,
   30, 65, 54, 123, -56, 59, -7, 2,
   26, 4, 35, 17, -32, -53, -23, -10,
   -4, -25, -45, -15, 9, -2, -3, -22,
   54, 52, -7, 24, 22, -27, 35, -22,
   -17, 49, 30, -27, -34, 29, 42, 47,
   51, -55, 28, 56, 33, 84, -5, -95,
   -21, 21, -71, 15, -35, 4, -13, -18,
   -47, -20, 51, -45, -14, -24, 10, -3,
   12, 35, -6, -13, -24, 45, -18, -1,
   29, 21, -26, -2, -34, 8, -8, -16,
   -20, 26, -21, -4, 36, -53, -4, -39,
   42, -2, 39, 4, -39, 6, 7, 36,
   21, 17, -20, -53, 35, -25, -19, 35,
   49, -95, -14, -10, 21, 62, 24, -59,
   -22, -56, 60, -117, 40, 70, -2, 3,
   10, 9, -73, -24, 31, 61, -37, -58,
   81, -34, -45, 44, 14, 8, -29, 36,
   -26, -19, 83, -60, 19, -40, 48, 48,
   43, 45, -29, 17, 5, -29, 33, 4,
   -3, 19, 19, 0, 8, 32, 124, -11,
   -56, 26, 10, 36, 26, -25, 32, 13,
   -29, 13, 51, 23, -10, -15, -1, -28,
   39, 126, -34, -5, -39, 6, -4, 60,
   127, 36, 6, -5, 24, -53, 15, 49,
   12, 20, -55, -29, 14, 44, 26, 24,
   20, 1, -21, -48, -19, 11, -2, -21,
   55, -23, -60, 3, 23, 46, -15, -10,
   -4, 33, -39, 54, -17, -69, 48, -9,
   -79, -27, -50, 4, -15, -13, 27, 22,
   66, -14, -31, -11, 48, -2, -41, 10,
   -60, -39, 22, -29, -38, 8, 13, -12,
   -56, 8, 70, -6, 89, -28, -46, -5,
   16, -28, 13, 24, -13, -17, -15, 13,
   39, 43, 9, -3, 18, -55, 43, 47,
   -29, -94, -37, 11, 17, 16, 0, -71,
   25, 34, -43, -31, 44, 75, 79, 36,
   20, -26, -9, -1, 26, 30, 25, 24,
   35, -9, 27, -11, 46, 73, 100, 13,
   -30, 31, -23, 20, 34, 27, -10, -22,
   -27, -68, -18, 41, -40, 55, -17, -14,
   -52, -14, 4, 34, 70, -24, 102, 15,
   -26, -59, -29, 1, 75, -125, 21, 37,
   -66, 26, 23, 70, 33, 24, -43, 14,
   -5, -14, -47, 70, -37, 21, 16, 15,
   19, 21, 39, -6, 24, 8, 23, 27,
   -9, -53, 13, 15, -39, -15, -2, -13,
   -3, 24, -3, 1, 28, 45, 0, 85,
   -40, -32, -2, 42, 69, -124, -12, -7,
   -3, -5, -9, 53, 21, 35, -19, 46,
   61, -22, -29, -55, -24, -5, -3, 22,
   -9, 37, -33, 12, -59, 64, 14, 37,
   -53, -16, 40, 85, 120, 2, 22, -61,
   -14, 33, 52, -5, -43, 20, 103, 50,
   2, 18, 31, 29, 27, -48, 73, -26,
   18, 49, -24, 99, 60, -20, -54, -68,
   40, -43, 37, -64, 66, 32, -24, 21,
   73, 49, 83, 45, 46, 46, 30, 38,
   34, -37, -8, 123, -26, -3, 68, 45,
   -8, 61, -28, -8, 20, -4, 59, 36,
   -24, -20, 40, -126, 34, 0, 58, -22,
   -64, 34, -14, -9, 50, -33, 51, 8,
   1, 12, 61, -13, -2, -22, 5, 32,
   -8, -36, -48, 22, 38, 2, -19, -1,
   74, 35, 36, -10, -31, -67, 8, 7,
   -15, 3, -34, 8, -14, -54, -5, -10,
   -36, -3, -14, -54, -4, 38, -2, -17,
   2, 9, -11, -26, -33, 25, 39, -26,
   4, 30, 106, 12, 77, -69, 65, 25,
   -47, -39, 24, 22, -7, -17, 10, 102,
   37, 17, 12, 89, 3, 32, -39, 31,
   -3, -36, 57, -8, 21, 67, -43, -62,
   5, 1, 107, -31, -8, 97, 57, 2,
   -45, -37, 37, 40, -62, -4, 69, 6,
   83, 42, 61, 51, -8, 14, 48, 36,
   17, -6, -42, -1, -5, 49, -5, -14,
   25, -7, -43, 0, -85, -53, 29, 18,
   45, 67, 12, 26, -35, 18, 12, 26,
   -46, 24, -68, -127, -38, 9, 31, -9,
   -57, -52, 0, 14, -46, -9, -51, 25,
   -17, -14, 53, 46, -39, 7, 24, -42,
   5, 30, -30, -30, 4, -17, -11, 1,
   11, 12, -25, 23, -36, -2, -41, -84,
   -78, -25, -4, -33, 8, 5, 27, 12,
   11, -46, 6, -7, 31, 31, -71, -10,
   25, 32, 16, -17, -2, 10, -8, 5,
   -49, 38, -13, 51, -84, -17, -55, 22,
   75, -12, -30, 35, -43, -10, -20, -20,
   -29, -56, -47, 47, -37, -12, 41, -33,
   17, -4, 48, -3, -10, -24, 89, 86,
   -4, -9, -31, 53, -24, 86, 2, 4,
   -74, -9, -59, 65, -11, 70, 29, 12,
   -32, -46, 13, 3, 64, 43, -126, 27,
   117, -17, -37, -14, -7, 53, 19, 2,
   -108, -6, -10, 17, 19, -1, -36, 4,
   49, -56, -48, 13, 45, -2, 68, -44,
   -25, 0, 43, 37, -26, -107, -43, 54,
   -19, 24, -3, -19, -25, 35, -28, 29,
   -3, 16, 2, 20, 85, 49, -14, 1,
   -66, -11, 28, 67, -10, -5, -27, 10,
   -38, -40, -5, -22, 3, 27, -37, 56,
   13, -7, -47, -40, 1, 31, 14, -36,
   16, -2, -9, 33, -4, -30, 24, -9,
   34, 20, -1, -58, 2, 32, 22, 26,
   -58, 15, 9, -6, -33, 32, 4, 35,
   81, -34, 79, 80, -20, -14, 37, -47,
   42, -32, 93, 16, -59, -3, 12, -3,
   -39, -38, 79, 8, 45, -47, 11, -22,
   -49, 44, 11, 27, -40, -2, 69, -5,
   39, -31, -34, 4, 1, -21, -63, 30,
   -40, 14, -66, 10, 22, 22, 26, -44,
   -38, -5, 3, 32, 42, 14, 43, -40,
   -16, -8, -49, -40, -36, 24, -11, -3,
   -15, -32, 19, -3, 66, -35, -34, -20,
   -52, 41, -51, -53, 10, -74, -84, 54,
   -10, 38, -39, -45, 24, 0, -37, 1,
   18, 42, -36, 14, -10, -3, -31, 4,
   -23, -30, 30, -11, -24, -23, -31, 6,
   -22, -22, -9, 11, 36, 40, 12, 18,
   26, -1, 9, -7, 21, 27, -21, 29,
   12, -43, 2, 3, 28, -3, 26, -22,
   35, 29, 3, 3, -21, -20, -16, -49,
   -60, -6, 35, 36, 75, -46, 17, -39,
   -87, 101, 22, 12, -11, -22, -51, 50,
   -3, 23, 83, 9, -102, 41, -14, 8,
   -100, 20, -64, -38, -15, -46, -42, 44,
   -28, -97, 100, 1, -50, -38, 113, 1,
   -23, -65, -28, -71, -8, -61, -9, 3,
   65, 43, 21, 17, -19, 75, 26, 22,
   -42, 8, -4, -15, -13, 49, -88, 28,
   45, 29, 45, -30, 83, -113, -36, -12,
   44, 60, 4, 4, -76, 2, 45, 17,
   30, 33, -54, 2, 4, 6, 8, -30,
   -29, 18, -76, 49, -124, 85, -79, 9,
   -21, -58, 36, -36, -47, -13, 40, 30,
   -39, 38, -51, -47, -8, 7, 6, 3,
   75, 31, 2, 0, 68, -2, 5, -2,
   -13, 28, -35, 10, 28, -10, -3, -15,
   46, 15, 28, 18, 4, 16, -43, -11,
   -9, -6, -19, -10, 4, 62, 57, 11,
   -74, -98, -18, -90, 102, 116, -9, 54,
   -28, 14, 44, 45, 54, -58, -5, 125,
   -57, -10, 46, 0, -78, 60, -26, 13,
   -104, 40, -1, -24, -4, -13, 110, 26,
   -21, -53, 63, -22, 97, -47, -71, -48,
   31, 35, -1, 64, -32, -48, 11, -19,
   56, -25, 65, 35, -9, 37, 87, -48,
   24, 12, 33, -41, 19, -15, -34, -28,
   -26, 17, 4, -14, -86, -33, 45, -59,
   -45, 7, 9, -55, -7, -23, 12, 3,
   72, -43, -50, -12, 68, 95, -66, -63,
   23, -2, -78, 10, 33, 40, -14, -44,
   -18, 15, 59, -56, -85, -27, 14, -33,
   10, 0, -44, -38, -6, -9, 34, 27,
   3, 20, 29, 39, -30, -37, -46, 15,
   -21, 32, 24, 82, 0, 12, -47, -23,
   31, 4, -17, 18, -22, -8, 2, 4,
   -22, -22, 8, -74, 36, -1, 76, -19,
   -19, 110, -6, -5, 42, -5, -54, -43,
   10, 15, -45, 23, 49, -44, -14, 26,
   33, 10, 109, 27, -78, 19, -3, -3,
   -64, 31, 37, -50, -17, 30, 9, 111,
   17, -89, 38, 34, -48, -31, 4, -8,
   35, 3, -24, -43, -51, -36, -52, 9,
   60, 60, 6, 41, 2, 57, -31, 15,
   21, -48, 72, -3, 3, -8, 64, -17,
   -13, 35, 3, 42, -13, -87, 71, 30,
   -59, 36, 45, -26, -62, 22, -15, 50,
   16, -39, 3, -22, -19, -36, 15, 0,
   -12, -30, -30, -10, 27, -45, -5, -27,
   -15, -31, 21, -33, -35, 46, -12, 5,
   25, 3, -64, 6, 37, 15, -67, -74,
   -29, 44, 31, 56, -40, -6, 47, -2,
   11, -26, -10, -1, -22, -26, -51, -37,
   16, -35, -19, -40, -42, 55, -1, 35,
   13, 15, -25, -28, -7, -27, -35, -30,
   30, -17, -1, 62, 127, 44, -61, 27,
   -15, 15, 26, -38, 31, 9, -27, 127,
   50, -74, 20, 1, 6, -52, 58, 36,
   -76, -19, 38, 39, 38, 70, 39, 45,
   122, 58, 94, -53, 120, -17, -12, 0,
   13, 98, 44, 127, 19, 0, 42, 9,
   16, 41, 92, 60, 6, 21, 40, -1,
   -20, -123, 1, 65, 46, 23, 32, -59,
   19, 61, -72, -11, -50, -24, 11, -2,
   57, -23, -4, 50, 50, -32, 55, -25,
   -24, 56, 113, 36, 124, -49, -35, 13,
   -102, 39, -71, 52, -71, 25, -37, -14,
   8, -40, -34, 18, -47, -1, -9, 60,
   -21, -26, -33, 21, 31, 1, 9, 61,
   -93, -21, 24, -37, 18, 1, -3, -23,
   13, -46, -26, 33, -28, 47, -11, -4,
   36, 25, -47, -10, 15, -48, 45, -41,
   51, -33, -36, -128, -48, 52, 15, 13,
   73, 15, 22, -73, -5, 33, 24, -66,
   -35, 11, -25, 57, -8, -2, 36, -5,
   0, -9, 19, -34, 20, 96, -37, -25,
   -10, 44, 26, -45, -49, 27, -22, 71,
   -93, -33, -23, 26, -60, 125, -104, -39,
   -44, 29, -5, -40, -15, -29, -124, 37,
   62, 23, 24, -2, -13, -26, -103, 40,
   90, -14, 26, 4, 13, -2, -19, 45,
   -13, 32, 3, -28, -21, -72, 58, -28,
   -18, 72, 12, -5, -78, -18, 92, -53,
   36, -7, 31, 31, -17, 99, -43, -30,
   56, -2, -30, -71, 18, -35, 27, 30,
   -93, -53, 52, -43, 25, -16, -13, 2,
   -33, 5, 12, -8, 14, 44, -40, -20,
   -12, 1, -83, -7, 4, -51, 7, 5,
   -15, -14, -3, 0, 34, 9, -4, -53,
   5, 4, 12, -35, -57, 49, -18, -15,
   20, 29, 22, -14, -14, -54, 14, -33,
   -37, 34, -11, -42, -40, 53, 77, 14,
   34, 38, -1, -117, -14, -37, 9, -45,
   14, 20, -40, 27, 3, -44, 7, 36,
   -36, -9, -12, -44, 18, 10, 79, -112,
   91, 23, -9, -123, 72, -123, -6, -1,
   31, 56, -43, 22, 29, 22, -19, -11,
   118, 91, 89, -42, 37, -43, -68, 66,
   58, 31, -4, -37, -18, -5, 17, 66,
   -31, -18, 83, -13, 12, -14, 21, -6,
   70, -127, -44, -30, 46, -35, 55, -65,
   15, -17, 74, 53, -21, -71, -27, -8,
   -60, -36, 3, 84, -20, -54, -35, -9,
   67, -1, -14, 31, 25, -33, 37, 19,
   -22, 6, 48, 9, 19, -41, 39, 18,
   -57, -41, -26, 23, 42, -11, 0, 21,
   -41, -8, -30, 22, 24, 43, 36, 39,
   -15, -11, -67, 75, 26, -54, -19, -28,
   -20, -3, 18, 36, -28, 31, 3, -18,
   -3, 63, -33, -30, -35, -49, -15, 0,
   -32, 19, 8, -4, -7, -29, -20, 44,
   33, 55, 51, 32, 7, -27, -18, 15,
   -57, -57, 69, 36, 20, 39, 53, -4,
   49, -74, -20, 46, 10, -7, -28, 25,
   -48, -88, -70, 11, -18, -108, -14, 9,
   -39, 0, -47, -5, 2, 1, -91, 26,
   35, -54, 96, -28, 4, 31, -50, 39,
   -34, 4, 38, 61, -12, 41, 50, -66,
   -59, 101, 20, 71, -21, 45, -57, 32,
   -1, -48, -48, -44, 39, 7, 6, -28,
   -107, 0, 12, -58, 4, 38, 25, -9,
   49, 13, 12, -20, -32, 18, -34, 89,
   -28, 29, 16, -28, 30, 25, 10, -36,
   -12, -32, 66, 40, -4, 13, -45, 32,
   -19, 98, 14, -31, -16, -5, -3, -31,
   -65, 17, 42, -21, 4, -3, -45, -53,
   69, -48, -12, -4, 10, -21, 22, 19,
   -27, -46, -59, -76, -8, 69, 87, -8,
   -76, 17, 43, -6, 12, -68, -73, -16,
   -57, 58, 32, -15, -20, 123, -63, -48,
   0, -20, -49, -16, -72, 27, 16, 41,
   -39, 65, -23, 54, -62, 13, 11, -70,
   -17, -6, -42, 13, -8, -61, -16, 2,
   -34, -8, -63, -26, 20, 57, -48, -4,
   68, -11, 68, 8, 57, -22, 7, -23,
   -29, 76, 33, -14, 30, -35, 122, 23,
   -53, 49, -15, -36, -76, -36, -35, -22,
   11, -43, -8, 43, -15, 33, -19, -23,
   5, -20, -49, -46, 68, 0, -2, 51,
   -27, -7, -9, -4, 19, -20, 11, 36,
   -45, 8, -6, -60, -11, 15, -64, -20,
   37, -5, -27, 48, 5, -13, -11, 0,
   -3, 17, 68, 5, 21, -34, -21, 48,
   53, 46, 16, 20, -54, -31, 29, -10,
   0, 21, -44, -15, -17, 22, -53, 14,
   80, -16, 73, 32, -123, -7, -77, 67,
   -1, -69, -23, -74, 66, 29, -11, -128,
   -76, 39, -33, 25, 35, -1, 32, 64,
   40, 0, -51, -38, -7, -14, 38, 85,
   -39, 50, -121, 124, 105, 66, -16, -89,
   23, -64, -29, -128, 29, -46, -3, -29,
   12, -20, -32, -113, 47, -60, -76, -45,
   104, 104, -26, 40, -30, 6, 53, 72,
   -83, 25, 119, -51, 68, -28, 20, -11,
   -60, 14, 5, -25, -58, -33, -34, -25,
   35, 42, 28, 37, -78, 72, 0, 30,
   -18, -53, -105, -87, 62, -34, 3, 36,
   -60, -59, -33, 6, 88, -11, -41, -63,
   -42, -18, 37, 17, 14, -53, -45, -49,
   -46, 43, -70, 50, 29, -39, -45, 1,
   -37, 17, 26, 54, 29, 2, -9, 6,
   26, -52, -72, 50, -16, 9, 16, -7,
   11, -37, -36, 127, -60, -50, -2, -15,
   -16, -45, 35, -13, 104, -26, 74, -23,
   10, -9, -27, 10, -35, -76, 30, -37,
   48, -9, 113, 0, 17, -58, 30, -24,
   -23, -38, -48, -33, 77, 10, 9, 78,
   63, -33, 66, 104, -22, -37, -25, 16,
   -12, 14, -3, -126, 39, -3, 21, -38,
   63, 88, 38, 11, 34, 3, 66, -11,
   -36, 38, -21, 11, 70, -3, 38, 53,
   -66, 2, 55, 30, 58, 34, 51, 43,
   -24, 12, 33, -44, 3, -1, -5, 81,
   -50, 12, -43, -21, -19, -13, 23, -29,
   -19, 62, 34, -14, 44, 36, 18, -11,
   -14, 4, -7, -14, -1, -21, -15, -30,
   -30, 2, 4, 26, -1, -40, -3, 24,
   2, -25, -35, 38, 21, -55, -11, -6,
   12, -19, -12, 16, -31, 25, 12, 7,
   -9, -10, -49, -10, 10, -17, 30, -20,
   26, 10, 28, 48, -14, 39, -21, -4,
   -14, -10, -42, -13, -59, -125, -34, 5,
   -32, 25, -49, -15, 15, -19, -5, -63,
   -123, 46, 98, -22, 20, 121, -83, -27,
   45, 43, -88, -52, -10, -17, -6, -33,
   -94, -59, 65, 2, -74, 110, 41, -34,
   -54, 2, -84, -66, 27, 100, 0, 43,
   39, -14, 4, -36, -114, -35, -65, 13,
   31, 22, 23, -105, -28, -71, -51, 8,
   -80, -17, 20, -70, 58, -10, 7, 60,
   51, 56, -55, -14, -72, 53, -14, -13,
   -19, -1, 56, 11, -68, 56, 31, -31,
   85, -40, -48, -43, 5, -16, -39, 30,
   -37, -29, -7, 3, 89, 68, 40, 8,
   34, 28, -3, -11, -15, 10, -53, -66,
   73, 0, 24, 12, 3, 40, -11, 28,
   -32, -34, 69, 20, -8, -26, 20, -20,
   15, 24, 67, -40, -11, -29, 9, 54,
   -7, -53, -11, 8, 6, -62, -72, -1,
   -29, 95, -21, -41, -98, -47, -77, -16,
   -1, 43, -30, 15, 51, 62, -15, -46,
   -39, -40, -13, -40, -17, 75, 46, 10,
   -6, 53, 3, -10, -54, -122, 2, 38,
   -63, -87, 124, 25, -53, 52, -30, -7,
   24, -61, -27, -122, 34, -61, -95, 27,
   32, -6, -99, -42, -26, -29, -11, -31,
   12, 7, 18, -42, -3, -56, -37, 33,
   -80, 13, -10, -88, -10, -70, -74, -2,
   -32, 46, -49, -52, -27, -14, -80, 8,
   52, 23, -34, -11, -8, 35, 52, -21,
   67, -28, 55, -74, -28, 67, 38, 5,
   0, 11, 23, -13, 59, -34, 9, 15,
   -8, -12, -2, 6, 15, 15, -45, -64,
   44, 3, 3, 18, 8, -26, 72, 57,
   21, 8, 0, 112, 73, -61, -106, -6,
   82, 37, 27, -29, -82, 65, -69, 39,
   8, -55, 46, 59, -61, -57, -7, 30,
   2, -33, -20, 19, -14, -46, 12, 1,
   38, -92, -1, 40, -14, -82, -34, 20,
   -54, -123, -99, -113, -52, -26, 65, 13,
   71, 9, -76, 48, 52, 58, 8, 106,
   -34, -14, -32, 15, -79, 34, -42, -28,
   61, -13, 46, 73, -56, -12, -16, -20,
   -11, -1, 99, 67, 77, 20, -45, -49,
   124, 51, -22, 12, 3, 78, 13, 5,
   11, 11, 17, -98, 43, -33, 34, 4,
   -26, -28, -46, 110, -6, 3, 50, -43,
   -25, -35, 103, 27, -118, -32, -13, 28,
   -4, -24, -84, -76, -28, 19, -2, -52,
   11, -1, -73, -31, -9, 6, -24, 15,
   40, 8, 43, -19, 6, 32, -43, 43,
   -24, 49, -28, -43, -4, 20, 26, -27,
   -25, -59, 6, 4, -104, -5, 28, 30,
   26, 0, -7, 21, -3, 27, 36, -8,
   -29, -66, -32, -12, -13, 1, 3, 7,
   2, -26, 12, -27, 35, -57, 32, 1,
   -46, -6, 33, -4, 18, 11, 7, 48,
   10, -12, -23, -3, 17, 1, 15, -9,
   -25, -7, -36, -21, -46, 47, 33, 65,
   -12, -18, -22, 38, 30, 12, -4, -32,
   -21, -7, -19, 53, 5, -31, 23, -6,
   24, 22, -19, 10, 23, -37, 15, -10,
   32, 14, 29, -4, 18, 0, 2, -28,
   43, -22, 30, 29, 6, -38, 15, 17,
   28, 29, 23, -20, -18, 38, -1, 51,
   8, 12, 24, -5, 5, -12, 22, -26,
   -64, 37, 30, 15, 33, -24, 9, -25,
   -11, -22, -2, -17, 26, -13, -29, 14,
   22, 23, 22, -30, -34, -29, -25, 13,
   45, 1, 15, 15, -13, 1, 15, -58,
   7, -15, -25, -20, -30, -11, -15, 8,
   16, -39, -39, 17, 9, -23, -40, 2,
   -20, 16, 38, -32, -35, 5, -31, 33,
   0, -23, 33, 2, 15, -10, -27, -21,
   0, 7, -10, 33, 20, 26, -60, -21,
   13, 8, -59, -49, 11, 20, -22, -68,
   20, 34, -7, 18, -18, -82, -30, 23,
   -79, -18, -53, 10, 3, 23, -19, 5,
   -45, -25, -42, -15, 2, 23, -9, -1,
   -34, -23, 11, -25, -43, 49, -28, 7,
   -52, -13, -22, -67, -7, -12, -15, -19,
   -26, -3, -19, -28, 35, -2, -26, -36,
   -13, 65, 35, -18, -38, 38, -1, -49,
   82, 32, 52, 5, -49, -9, -14, 15,
   5, 6, 22, 0, 11, -33, 47, -32,
   -24, 21, 31, -13, 5, 34, -33, 4,
   38, 20, -43, -37, -42, -31, 7, 33,
   5, 28, -46, 14, 1, -2, 21, 8,
   24, -1, 1, -6, 28, 33, 39, -3,
   10, 10, -17, -20, 20, 14, 6, 21,
   31, -2, -48, -1, 12, -29, -33, 9,
   9, -34, 65, 4, 16, -21, -33, -27,
   -56, 19, 17, -8, -21, 24, -37, -37,
   -8, 36, -49, -28, 0, 23, -27, -2,
   -19, -38, -42, 48, 0, -14, 25, 5,
   11, 23, -80, 3, -87, 27, -55, -20,
   9, 48, -34, -34, 8, -25, -21, 44,
   -41, 13, 10, -27, -25, -6, -56, -25,
   52, -43, -30, -29, 25, -6, 8, -11,
   26, -14, -10, 13, 19, -32, 33, 1,
   -55, -18, 61, -12, -71, 11, -4, -4,
   -27, 0, -5, -13, -1, 46, -1, -64,
   -3, -17, -17, 10, -35, -42, -2, -6,
   -7, 17, 28, -35, -17, 6, 19, -31,
   -18, -32, 3, -4, 5, 40, -5, -16,
   11, 16, -59, 21, -37, 5, 8, -5,
   7, 7, 27, -7, -14, 30, -10, 33,
   -9, 21, 19, 14, 12, 24, 23, -11,
   4, -16, 30, 0, -6, -27, -46, 0,
   54, -51, -12, 3, -69, -33, 32, -37,
   17, -21, 27, -58, 11, -10, -63, 1,
   -17, -9, -4, -10, -9, 31, -5, -41,
   -12, -20, 16, -17, 59, 79, 32, -35,
   -16, 50, 58, 31, 4, 9, -36, 26,
   -23, 30, -24, -47, -62, -21, 21, 23,
   1, 9, -56, -40, 29, 1, 10, 50,
   49, 59, -23, 6, 12, 44, -23, 43,
   -28, 16, 37, 17, 27, -32, -29, 51,
   -56, -49, 36, -38, 38, 31, 3, 13,
   -47, 3, -56, 18, -11, -48, -35, -51,
   53, -39, -43, -34, -29, 11, -43, 28,
   35, -16, 4, -1, 27, 6, 25, -25,
   12, -1, 2, 17, -4, -2, -3, -29,
   31, 17, 25, -3, -17, -15, -25, 37,
   -25, 10, 13, -3, 24, 15, 9, 27,
   3, 7, 3, 2, 3, 0, 24, -11,
   -17, 5, -41, 27, -3, 4, -4, -29,
   -12, 58, 31, -17, -48, 32, -15, 48,
   -50, -20, -6, 22, 10, -40, -2, -41,
   17, 39, 28, 28, -45, 7, -26, 33,
   -21, 1, 28, -9, -7, 50, -11, -12,
   6, -13, 36, -10, -21, -19, 8, -6,
   20, -4, -26, -29, -54, 30, 40, -12,
   20, 11, 11, 35, -20, -28, -9, 23,
   -18, 21, -2, 7, -34, 27, 1, -38,
   -33, -24, 23, 25, -20, -34, 9, -23,
   -20, -20, 5, -31, -46, 26, -15, -27,
   6, 27, -45, -10, -53, 14, 18, 5,
   -32, -29, 10, -25, -28, -11, 34, 16,
   33, -39, -16, 2, 40, 1, 39, 6,
   -35, 11, 0, -11, -9, -29, -6, -17,
   18, -3, 19, -33, 17, -5, 26, 21,
   4, -39, -6, -26, 44, 17, -63, 8,
   -12, 23, -34, 15, 8, 22, 15, 19,
   0, -11, -55, 1, -27, 14, 18, 24,
   -24, -58, -11, 31, 7, 12, 6, -26,
   -2, -37, -48, 23, 5, 15, 26, -20,
   -29, 23, 32, 6, -15, 26, 9, 26,
   -4, -4, -26, 3, 6, 22, 7, 13,
   -1, 20, 0, 26, -10, -9, -6, -10,
   9, 16, -1, 15, -11, 2, -45, 1,
   -42, -23, 28, -17, -9, -8, -19, 2,
   -25, -9, 4, -22, -17, -2, -30, -39,
   20, -22, 11, -14, 17, 0, -26, -22,
   -42, -14, -32, 4, -36, 9, -2, -34,
   36, 29, -20, 45, -32, 44, 2, 22,
   12, -43, 33, 35, -12, -8, 16, -15,
   -29, -34, 47, 15, -1, 12, -28, 12,
   15, 44, -42, -25, 12, -25, -1, 40,
   -11, -15, -19, -15, 12, 32, 18, 43,
   24, 27, 6, 39, 36, -16, 17, -14,
   43, 24, -17, -10, 27, 5, 15, 26,
   7, 22, 23, 31, 25, 13, 39, 30,
   -16, -6, 2, 20, 29, -45, -29, 9,
   2, -38, -7, 7, 0, 9, -12, -56,
   -5, 1, -57, -33, 35, 11, 26, -33,
   -9, 11, 15, 8, 26, -27, -1, 17,
   27, 13, -68, 9, 2, 64, 37, 33,
   23, 38, -38, 23, 19, 0, -9, -3,
   4, -26, -7, -14, -19, 11, 31, -13,
   1, -11, 23, 33, 1, 18, -13, -2,
   -16, 41, -27, 11, -2, 5, 54, 41,
   7, 14, 24, -2, 12, -40, -14, -7,
   5, 13, 15, -1, 12, 1, 20, 28,
   -20, 10, 12, -3, -29, 44, -3, -21,
   -40, 16, -16, -32, 17, 30, -21, 5,
   20, -22, -7, -29, 17, -48, 35, -26,
   33, -40, -14, 6, -4, 36, -3, -29,
   -18, 14, 28, -3, 23, 25, -4, -25,
   38, 17, 21, -31, -25, 17, 46, 38,
   -21, 1, -7, -20, -27, 14, 26, 14,
   -21, -13, -114, 117, -96, 63, 69, -12,
   108, 30, -61, -13, -20, -76, 127, 45,
   0, -15, -25, 46, -102, 31, 28, 0,
   -6, 68, 32, 52, 122, 14, -57, 119,
   -104, -24, 90, -57, 87, -12, 49, -2,
   -4, -72, 126, -46, -1, 26, -42, -4,
   -57, -77, 8, 82, 41, -72, 58, -91,
   29, 11, -30, 1, -27, 0, -53, -67,
   -43, -45, 13, -44, 2, -28, -45, -113,
   -40, -47, 17, 37, -3, 59, -59, 27,
   -13, -3, 59, 1, -51, 8, -43, 90,
   12, -113, -25, 55, -19, -60, 74, -27,
   -70, 55, -37, -41, 39, 23, -41, -43,
   -2, -48, 1, -14, -29, -5, 7, -9,
   21, 19, -1, 20, -2, 39, -7, 30,
   -58, -27, 61, 6, -93, -23, 15, -10,
   -6, -30, -9, 23, -58, 17, -29, -29,
   -2, -5, 24, -12, 34, -101, -21, 20,
   -7, -13, 11, -29, -12, -16, 60, -1,
   -6, -20, 52, -16, 33, -32, -65, 16,
   -31, -41, 8, -19, 29, -45, -55, -57,
   -13, -16, -10, -16, -27, 3, 14, 54,
   15, -14, 49, 10, 42, -54, 32, 10,
   33, -65, -18, 6, 50, -51, -43, -17,
   29, -6, -9, -24, -8, -16, 18, -16,
   21, 29, -29, 1, -17, 9, -1, -42,
   -53, 15, 28, -28, 12, 8, 9, 2,
   5, 30, -62, -19, -34, -15, -54, -19,
   14, 3, 11, -7, -17, 6, -15, 21,
   16, -35, -16, -7, 39, -14, 0, 21,
   20, 2, -10, 19, -22, -17, -9, -35,
   -15, -37, 24, 15, 15, 17, -30, 22,
   -16, -1, -26, 53, 13, -20, -4, -34,
   -4, -7, -56, 35, -40, -20, 21, -26,
   16, -1, -20, 38, -6, -16, 4, 22,
   2, 6, -45, -2, -13, -21, 55, 50,
   -32, -12, 7, 57, -29, -2, -18, -1,
   19, -7, 17, -1, 33, -12, 15, -22,
   10, -10, 2, -17, -5, -34, 49, 7,
   13, 39, 73, 1, 14, 30, 5, 25,
   44, -2, 0, 15, 24, -3, -18, 14,
   48, 22, -18, 14, 40, 4, -24, 4,
   38, 8, -11, -15, -21, -22, -14, 24,
   38, 17, -22, -8, -6, 8, -13, 29,
   -9, 14, 34, -32, -29, -4, -32, 4,
   -19, -25, -35, -20, -56, 28, -4, -47,
   19, 5, 30, 8, 22, 23, 0, 27,
   -3, -8, -46, 30, 15, 35, -34, 8,
   -16, -37, 12, -2, 9, 23, -4, 41,
   -12, -4, -10, 17, 5, -29, 21, -39,
   21, -13, -5, -41, 9, -38, 15, 17,
   -26, 12, 31, 0, 45, 8, -9, -25,
   -35, 19, 16, -27, -24, -29, -13, -28,
   -36, -11, 1, -17, -24, 35, 28, -28,
   -31, -46, 14, -38, -4, -48, -21, -12,
   -38, 19, 31, 38, 13, -6, 47, -10,
   8, -37, 12, -1, -45, 5, 26, 14,
   -17, 16, 4, -19, 42, 14, 23, 47,
   -16, -35, 31, 39, -15, -38, -8, -39,
   -20, -25, 14, 27, 19, 12, 25, -4,
   -56, 8, 11, 0, 0, 3, -55, 16,
   44, -24, 1, -2, 14, -18, -19, -22,
   -2, 9, -10, -18, 8, 3, 2, 35,
   24, -6, 17, 4, 42, -12, -17, 24,
   -21, -25, -18, -10, 37, 20, -8, -27,
   25, -9, -10, 18, -60, 1, -11, -4,
   31, -17, 19, -11, 13, 49, 7, -25,
   -6, -7, -10, 41, 5, 17, -31, -3,
   -17, 19, -46, 16, 2, -14, 16, 21,
   21, 4, 18, -5, 8, -8, -9, -45,
   -5, 24, -27, -24, 12, -12, 22, 3,
   -7, -39, 0, 14, 14, -19, -10, 15,
   -119, 30, 126, -36, 7, -79, -112, -80,
   -34, -70, 89, -119, 20, 60, 18, 91,
   -56, 45, 0, 89, -36, 123, 33, 118,
   76, 39, -53, -44, -24, 8, 126, 61,
   37, 121, -86, -67, -8, -22, 3, 14,
   1, -92, -29, -66, -3, 30, 45, 5,
   -28, 62, -46, 97, -5, 57, -54, -65,
   -58, 6, -67, -59, -65, -84, -5, 62,
   -4, 80, -114, -34, -59, -124, -11, 18,
   -22, 51, -71, -7, -90, 30, 22, -31,
   -14, -6, -51, -79, 31, 100, 40, -44,
   -11, -50, -43, 82, -38, -9, -11, 7,
   -2, 11, 22, -6, -18, -96, -48, 34,
   126, 16, -26, -19, 16, 49, -69, 24,
   92, -12, -38, -15, -29, -68, -11, 18,
   1, -44, -49, -34, -46, -26, -33, -78,
   -38, 19, -47, -21, 4, 68, -9, 30,
   -47, 18, 66, -47, 14, -67, 8, 127,
   19, -1, -8, 80, -18, -5, 41, 0,
   55, -29, -20, 18, 3, 33, 15, 27,
   -48, -19, 13, 17, 42, -37, 14, 88,
   -47, 32, 48, -43, -1, 90, 35, 32,
   35, 11, 31, -43, 35, -37, -9, -36,
   22, 2, 25, 53, 50, 39, 6, -12,
   50, -35, 41, 34, 30, -24, -1, 12,
   -9, -4, -26, -22, 4, 31, 1, -6,
   23, -29, 17, 24, 56, -58, 11, -5,
   40, -22, -22, 3, -15, 30, 66, -27,
   -26, 35, 38, -10, -1, -18, -6, 12,
   -21, 9, -49, 7, 0, -21, -52, -3,
   -2, 9, 23, 27, 2, 21, -6, -14,
   -13, 23, -14, -5, 1, -7, 28, 43,
   -29, 34, -39, -10, -3, 11, 31, 30,
   14, -34, -42, 13, 17, -1, -11, -16,
   29, 24, 21, -31, 16, 8, -6, 16,
   -5, 0, -49, -25, 3, 60, 13, 7,
   -8, -1, 51, -44, -7, 2, 18, -51,
   59, 1, -42, 20, 2, 54, 8, 16,
   -21, 75, 2, -30, 34, 7, -28, 5,
   20, -24, -23, -22, -39, 1, 3, -8,
   -34, 24, -15, -40, 35, 57, 0, -14,
   -19, -20, 24, 0, -28, 3, -50, 5,
   -23, -15, 2, -18, -8, -25, -8, -11,
   -17, -13, 14, -3, -11, -5, -25, -9,
   -36, 17, -11, -24, -25, -3, -19, 41,
   -4, -6, -23, 19, -36, 22, -8, 21,
   -2, -33, -3, 3, 7, 10, 21, -18,
   1, 14, -13, 13, 2, 1, 12, -23,
   -16, -4, -14, -11, -5, 20, -15, 9,
   -21, -20, -8, 22, -41, 7, -32, 20,
   39, 36, 42, -18, -27, 23, -22, -10,
   50, -16, -8, 6, -17, 35, 3, -17,
   24, 45, 1, 21, 16, -31, -10, -16,
   14, 25, -35, -47, -25, 6, -14, 45,
   -26, -1, -23, -48, 27, 40, -15, 10,
   -86, 16, 19, 42, -20, 29, -22, 15,
   -24, -27, 9, 11, -27, 12, -8, -48,
   4, -6, 17, 28, 39, -16, 30, -12,
   15, -6, 31, 32, 14, 38, 30, -27,
   7, -25, 4, -14, -4, -61, 3, 33,
   -33, -14, 34, -24, -8, -2, 18, 24,
   31, -5, 10, 2, -10, 49, -10, 41,
   -11, 10, -21, -12, 1, 32, 12, -26,
   62, -24, -48, -3, 19, 15, -7, -15,
   12, 5, -17, 10, 1, -1, 11, 23,
   -24, 41, 10, 38, -41, -9, -13, -10,
   -11, 7, -10, -17, -19, -40, -11, 33,
   15, 6, 38, -44, 34, -35, -31, 31,
   -4, 12, 13, 1, 27, 16, 8, -9,
   -4, 19, -45, -13, 2, 12, -18, -9,
   10, 10, -30, 46, 40, -9, 41, -40,
   -11, 37, -29, 0, 49, -2, 28, 32,
   -9, -68, 15, 0, 62, 12, -4, -14,
   -3, 16, -27, 6, 23, -80, 0, -27,
   29, -83, 15, 41, -12, 68, -3, -47,
   8, 21, 39, 28, 12, -68, 5, -12,
   -3, -36, 41, -79, 10, 34, -32, -6,
   42, 37, -2, 63, -7, 9, -31, -16,
   20, -17, 46, 18, 30, -23, 36, -6,
   37, 31, -4, 14, -3, 4, -35, -23,
   -7, 15, -28, -66, -20, -22, 27, 3,
   8, 42, 24, 39, -48, -20, -11, 14,
   75, 41, 3, -5, 4, 27, 1, 20,
   18, 3, 56, 18, -17, 6, 96, -40,
   -7, -2, -2, 7, 4, -12, 15, 10,
   35, -9, -6, -33, -9, -6, 26, -5,
   2, 20, 30, 48, 17, 13, 35, 3,
   -36, -2, 2, -15, -18, 35, -17, -6,
   39, 20, -21, 15, 35, -23, 9, -18,
   -50, 1, -6, 7, -20, 3, 6, 16,
   24, 29, 24, -22, 51, 21, -23, 2,
   -8, 18, -2, 9, 20, -47, 34, 20,
   18, -36, 48, -6, -35, 18, 0, 4,
   -35, -26, 7, 17, -16, -83, 5, -55,
   2, 3, 83, 28, 5, -9, -20, 14,
   -14, -70, 18, 48, -17, 16, 25, -12,
   -28, -5, 9, 46, 17, -21, 18, 41,
   -38, -9, -7, 58, 19, 13, 38, -40,
   44, -21, 19, 34, -37, -15, 21, -30,
   -57, -23, -3, 2, 22, 19, -32, 16,
   30, 17, 31, -2, 28, 8, -37, 48,
   39, -23, -39, -40, -9, 14, -21, 18,
   15, 5, 19, 30, 0, -17, -14, 8,
   14, 10, 24, 39, 31, -2, -6, 38,
   -8, 2, 15, -12, -37, -13, 3, 15,
   -6, 26, 18, -17, -19, -20, -27, 4,
   13, -7, 31, -26, 0, 1, -1, 5,
   -5, -10, -7, -17, 34, 3, 17, -32,
   -4, 68, 37, -39, 38, 18, 30, -27,
   -19, 5, -5, 16, 34, -52, 21, 30,
   26, -38, 10, -50, -18, 16, 1, -6,
   18, 31, -9, -20, -15, -31, -9, -6,
   41, -41, 59, -8, -37, -28, -17, -1,
   -9, -31, 14, -22, 0, -30, 63, 0,
   22, -3, 14, 19, -2, -6, 36, 26,
   -21, -1, 25, 15, 4, -19, -53, -12,
   21, 34, -11, -27, -21, -12, 3, -39,
   26, -21, 11, -11, 48, -5, -18, -38,
   -11, 26, -9, 31, 13, 48, -18, -9,
   -3, -24, -8, -14, 41, -20, 19, 35,
   -3, -34, 21, 10, -37, -3, 1, 10,
   7, -25, -18, 24, -9, 13, -47, 5,
   20, 28, -15, -16, -18, -21, 0, 17,
   -30, 11, -15, 0, -1, -9, 0, 18,
   -1, -18, -17, 10, -13, -15, -25, 12,
   20, 20, -19, -7, 11, 33, -13, 24,
   -45, 13, 30, 16, 72, -59, 33, -40,
   13, -22, 39, -21, 65, 16, -3, 11,
   -8, 57, 6, -19, 8, -13, -29, 16,
   -21, 30, -93, 54, 55, -77, 5, -35,
   37, -17, 61, 5, -14, 63, -6, -43,
   -5, -64, 42, 11, 6, -26, -55, -42,
   -26, -53, -27, 41, 32, 69, 23, 2,
   -34, -13, -19, 45, -16, 20, 55, 7,
   17, -45, 22, 27, 2, 14, 3, -11,
   -35, -22, 4, 8, -41, -30, 6, -32,
   -9, 0, 24, 15, -22, -73, -32, 41,
   2, -63, -17, -7, 1, -4, 8, 18,
   1, -43, 24, 11, -14, -24, 3, 18,
   63, 38, -11, 29, 7, -15, 23, 2,
   -19, 24, 35, 5, 13, 22, -20, -41,
   -9, -31, 6, 21, -19, -9, -17, 8,
   8, 29, 2, 14, 9, -6, 21, 3,
   18, 19, -18, 19, -45, -26, 29, -22,
   -13, 30, 57, -54, 76, -23, 62, -11,
   2, 44, -42, -10, -10, 31, 67, 2,
   -39, -25, -22, 11, -23, 5, 37, -6,
   -41, 23, 28, 24, -2, -25, 22, 47,
   -30, -57, -37, 21, 32, -13, 57, 5,
   -51, -33, 22, -5, -4, 50, -17, 2,
   -32, 27, 23, 29, -3, 28, 2, 18,
   -9, -36, -32, 2, -21, 25, -32, 30,
   13, 12, 10, 29, -2, -16, 1, 22,
   -20, 13, -14, 26, -43, -39, -30, -38,
   4, -6, 5, -4, 23, 46, 53, -14,
   11, -3, 24, 14, 11, -13, 6, 17,
   -12, 14, -32, 0, -9, -7, 30, -33,
   24, -35, 21, 35, 12, -6, 7, -7,
   19, -23, 11, 11, -11, 13, -22, 53,
   -8, -4, -10, 21, 35, 38, 22, -10,
   -8, -11, 1, -25, 29, -11, -2, 30,
   6, -24, -18, -11, 26, 21, -3, 22,
   -30, 23, -20, -28, 7, 43, 85, 2,
   -12, 30, -37, -33, 31, -10, 15, -14,
   -6, -14, 54, -10, -32, 6, 30, 33,
   -16, -45, -5, 32, 15, -66, -10, -22,
   11, 12, 35, 29, 1, -38, 4, -9,
   52, 21, 17, 22, -17, 59, -21, -38,
   -19, 11, -5, -18, -6, -53, 51, -60,
   -34, 6, -8, 10, 22, 27, 5, -13,
   3, -18, -3, 10, 15, 8, -29, 2,
   -4, -11, -28, 30, 64, -22, -31, -20,
   -18, 20, -28, 6, 6, 36, -48, 45,
   -39, 4, 0, -8, 25, -22, 11, 19,
   10, 1, -35, -6, 5, 2, -29, -22,
   -24, -7, -25, -13, -11, -38, -1, 21,
   7, -14, -13, 22, -16, 3, 22, 16,
   1, -56, 8, 0, -46, -2, 26, 3,
   -8, 15, 11, 12, -4, -14, -23, 10,
   -1, -6, 23, 4, -17, 16, -10, -12,
   1, -55, -4, -70, 18, 37, -46, -50,
   -74, 19, -15, 55, 12, 22, -44, 60,
   -22, -7, 25, -11, 38, -10, -113, -13,
   -66, -25, -31, -29, -109, -26, -10, 51,
   -18, -6, -2, -72, -44, -5, -22, -32,
   41, 3, -3, 0, -24, -20, -62, 15,
   30, -25, 0, -24, -8, 21, 32, 57,
   -7, -5, 25, 19, 31, -7, -9, 80,
   -22, 67, 5, -22, 50, -35, 20, -5,
   32, 25, -30, -67, -10, -32, -12, -63,
   25, 56, -26, -24, -53, 53, 11, -1,
   -3, 34, -21, 26, 4, -9, -7, 29,
   -20, -1, -31, 1, -16, -50, -20, -2,
   27, 35, -4, -35, -18, -3, -26, -22,
   -14, 11, -6, 30, 23, -24, -7, 18,
   -4, 22, -36, -16, -27, -13, -14, -15,
   43, -7, -10, 0, -31, 10, -60, 1,
   -40, 24, 14, -28, -37, -51, -16, 8,
   -20, 17, 13, 43, -29, -24, 52, 21,
   -12, -43, 3, 23, -19, 29, -31, 14,
   23, 8, 11, -59, -14, 42, -16, -17,
   63, -26, -11, -2, 5, 16, -20, 32,
   -12, 47, -11, 34, -51, -5, 20, -56,
   -14, 7, -70, 15, -40, 6, -13, 19,
   -5, -34, -15, -43, 26, -41, -2, 6,
   42, 48, 3, -7, -17, -22, -46, 44,
   -16, 47, 28, 5, 13, -47, 40, -36,
   64, 32, -57, 3, -44, 42, -5, 4,
   -3, 9, 3, -6, 16, 33, -13, 7,
   31, 30, 12, -41, 34, -46, 11, -36,
   14, 9, -15, -27, 14, -10, -3, 12,
   16, -10, 22, -46, -20, 22, -20, -24,
   -4, 13, -45, 3, -12, 11, -12, -5,
   4, -6, -5, -16, 12, 13, 18, -20,
   15, 27, -6, 18, -8, -9, -1, -9,
   5, 11, -26, -16, -1, 10, 25, -20,
   -6, -25, -33, -27, 15, -20, -16, 2,
   -13, -12, -15, -25, -3, 2, -9, 2,
   7, -4, -29, -39, -18, 2, 42, 8,
   -17, -13, -14, -27, 33, 43, 40, -6,
   32, 3, 6, 22, -29, -24, -11, 21,
   20, 40, -16, -1, 4, 9, -20, 27,
   -13, -1, 33, -16, -22, 35, 35, -18,
   33, -25, 16, 2, 37, 26, -1, -4,
   -34, 26, -3, 27, 29, 15, -28, 15,
   -14, -33, 10, -19, -62, -25, -17, 4,
   8, 0, -17, 9, 19, -44, -29, 42,
   -31, -42, 7, 1, -26, -38, 24, -11,
   24, 37, -37, -20, -28, 11, 7, 16,
   8, -5, -39, -27, 12, -18, 0, -1,
   -23, 34, -26, 26, 6, 10, -17, -31,
   0, -9, 7, -36, 17, 27, 9, 45,
   -18, -30, 13, -22, -32, 12, 2, 35,
   -17, -12, 33, 10, -10, 3, -23, 6,
   -5, -9, 7, 13, -8, 15, 8, -2,
   9, -11, -10, 0, -23, 10, 17, -22,
   -7, -8, -3, 7, -14, -9, -1, -28,
   8, -14, 17, -13, 6, 20, -13, 6,
   -4, 19, 7, 17, 23, 10, 2, 7,
   -11, 8, -24, 7, 7, 5, -47, -30,
   -10, -31, 3, 9, 13, -10, 3, 31,
   15, 15, -22, -4, 22, 5, -14, -6,
   -9, -19, 8, -11, 2, -13, -7, 15,
   -6, -6, 8, 6, 26, -20, -9, 8,
   7, 3, 31, 40, -36, -22, -14, 11,
   2, -16, 15, -18, -13, 36, 2, 29,
   19, 34, -2, 7, 14, 42, -19, -10,
   -13, -14, 19, 7, 7, -2, 24, 15,
   -17, -24, -5, -18, 8, -2, 21, 1,
   8, -20, 23, -16, -26, 8, 21, 2,
   -6, 2, -7, 10, 4, 6, 7, -13,
   2, 11, -4, 14, 22, 22, -2, -32,
   18, 12, -13, 2, -4, 24, -2, 16,
   23, 16, 16, 42, -5, -31, -20, -9,
   12, -24, 35, 9, 7, 9, -6, -40,
   -29, 0, 21, 1, -25, -27, 4, 24,
   -33, -25, 12, 28, 28, 17, 24, -3,
   -43, 9, -12, -2, 5, -18, -29, -4,
   -14, -41, -2, -37, 7, -10, -4, -19,
   13, -41, 37, -5, -16, 27, 10, -18,
   -16, 15, 30, 51, 21, 0, 40, 5,
   8, -3, 35, 22, -13, 9, 9, 11,
   54, -11, 32, 36, -1, -13, -2, 9,
   -16, -11, -28, -5, 31, 0, 27, 16,
   -25, 34, -6, 10, 7, 7, 12, -8,
   -47, -8, -18, -24, -9, -31, -13, -5,
   -24, 13, 7, 35, 2, 19, -15, -11,
   12, 23, 17, 4, 0, 13, 9, 6,
   31, -30, -5, 22, -8, -15, -18, -31,
   29, -5, 37, 7, -24, -7, 2, -12,
   -3, -12, -27, -5, -1, -10, -31, -1,
   -9, 17, 9, 7, -13, -1, -14, 16,
   1, -7, -11, 6, -4, -1, -6, 0,
   10, 34, -5, -14, 8, -2, -6, 41,
   -5, -18, -6, -1, -8, -5, -23, -22,
   2, -31, 21, -2, 11, 8, -17, 4,
   -36, -35, 25, 22, -5, 4, 0, -63,
   22, -41, -55, 6, -21, -12, 7, -11,
   9, 14, -6, -19, 28, -3, -26, -4,
   4, 17, 29, -18, -27, 21, -37, -10,
   49, 41, 46, 9, -21, -21, 8, 11,
   -5, 71, -46, -22, -31, -8, 51, -20,
   -29, 28, -4, -7, -6, 1, -6, -12,
   -61, -27, -4, 17, -11, -7, -6, -23,
   -17, -7, 12, -37, 0, 15, 25, -8,
   -1, 15, -11, 8, 1, -26, 5, 25,
   34, 1, -2, 1, -7, -24, -8, 12,
   -6, -3, 23, 16, 7, 19, 12, 10,
   -5, 0, -25, -27, -17, 12, -5, -11,
   0, 19, -10, -30, -14, 13, 21, 6,
   2, 17, -9, 25, 3, -23, 1, 4,
   -21, 0, -7, 5, 35, 16, -12, -40,
   -10, -12, -44, -16, 7, -17, -45, -21,
   80, -23, 3, 3, 36, -9, 4, 12,
   4, -18, 17, -10, 8, -39, -15, 6,
   -23, 11, 75, 6, 10, 6, 4, -40,
   7, -14, -32, 24, -4, -32, 68, 4,
   17, 33, -21, -23, -22, -11, -22, 2,
   36, -80, 20, 22, 48, 3, -21, -15,
   17, 0, 3, 2, 1, 53, -6, -6,
   -4, 31, 20, 16, -11, 24, -39, -6,
   -73, -17, 11, -21, 8, 13, 15, -1,
   -13, -27, -12, 28, -20, 18, 26, 25,
   5, 9, 13, -5, 11, 4, 13, -8,
   -8, -3, 1, 2, -21, 21, 69, 37,
   -58, 11, -4, 12, -13, 38, -1, -22,
   -43, -27, -22, -43, 6, 23, 22, 16,
   -30, 32, -19, 29, -21, -47, -20, -14,
   -9, -12, 30, -5, -75, -11, 7, -15,
   26, 5, 6, 4, 17, 84, -6, -13,
   -14, -49, -32, -56, -12, -40, -1, -48,
   84, -8, -27, 6, 22, -44, 12, -24,
   7, -20, -11, -53, -8, 17, -74, 82,
   -1, 19, -43, -6, -3, 6, 3, -14,
   -10, 18, -57, -40, -43, 0, -46, -57,
   58, 74, -36, -20, 16, 25, 80, 34,
   22, 16, 4, -1, -9, 67, 13, -11,
   50, -72, -17, 22, 9, -7, 3, 21,
   6, 5, 4, -18, -14, -36, 19, 9,
   -39, 2, 57, 9, 9, 14, -6, 20,
   5, 19, -20, -2, 53, 1, -13, 20,
   -5, 19, -16, -15, 5, 9, -2, -10,
   -3, 4, 8, -7, 2, 53, 50, 23,
   -25, -26, 19, 0, -34, -8, -29, -32,
   -22, -23, 59, -8, -16, -17, 21, 29,
   -26, 60, -21, -8, 1, 53, -18, -28,
   15, 35, 9, 14, 44, -5, 3, 7,
   15, -20, -26, -12, 24, 18, -30, -51,
   39, 44, -13, -41, -6, -22, 96, -6,
   -92, 27, 6, -20, 16, 9, 58, 7,
   59, -11, -67, -25, -36, -12, 0, 34,
   4, -16, 43, -72, -26, -39, -6, 61,
   -7, -23, -13, 3, 12, 42, 42, -9,
   -37, 69, -21, -15, -73, 18, 11, 9,
   -2, -59, -53, 9, 34, -6, 120, -58,
   26, 33, -14, 30, -54, -7, 37, -15,
   -30, 7, -9, 29, 7, -43, 49, -7,
   -23, -29, 25, 49, -2, 14, -3, -14,
   -4, -10, -1, -15, -9, -32, -38, 23,
   18, -24, 2, -2, -13, 6, 4, -2,
   5, 27, -13, 4, -21, 31, -69, 32,
   62, 37, -31, 16, 13, -1, -4, -17,
   65, -72, 1, -122, -58, -66, -89, -24,
   -77, -1, 3, -122, 13, -46, -29, -91,
   43, -58, 91, -37, 127, -70, -23, 54,
   -12, -31, -15, 23, 68, 9, 72, -125,
   -44, -1, -120, -125, -54, 18, 91, 78,
   -127, 21, 27, -15, 35, -56, 38, -42,
   -27, 7, 66, -87, -90, 18, -9, 87,
   -19, -23, -118, -95, 122, -33, 62, 65,
   -115, -70, 76, -121, -125, 125, -124, -20,
   97, 88, -26, -92, 68, 68, 49, -47,
   49, -29, 121, -50, -76, -37, 122, 20,
   20, 17, 66, 120, 53, -85, -41, 51,
   34, 28, -49, 40, -28, -47, -78, -24,
   -24, -57, -68, -10, -41, 46, -14, -5,
   -11, -75, 4, 17, -122, -29, -44, 89,
   35, 33, -56, 54, 51, -23, 66, -83,
   -84, -93, -7, 94, -51, 82, -120, 8,
   126, -53, -105, -11, -3, -39, -64, 8,
   -48, -122, 1, -46, -24, -21, 15, -96,
   -122, 33, 63, -104, 83, 58, 30, -122,
   -48, 19, -127, 17, -92, 48, 12, 27,
   123, 59, 95, 67, 38, 90, 16, 55,
   9, 15, 119, -128, -50, -125, -54, 85,
   127, 11, -31, -40, -21, 102, 120, 21,
   127, 55, 86, -56, 105, 127, 68, 87,
   -26, 29, -42, 23, -13, -8, 5, 38,
   -25, 68, -122, 34, 29, 48, 96, -83,
   125, 57, -72, -4, -127, 56, 127, -53,
   47, -124, -10, 48, 98, 57, -25, 56,
   -104, -84, -122, 20, -125, 18, -2, -18,
   123, -39, 53, -59, 39, -21, 34, -6,
   -13, -40, -45, 25, -10, 13, -10, 20,
   104, 38, -6, -60, 127, -3, -3, 33,
   -61, -10, -56, 31, 47, -5, -59, -46,
   -11, 39, 3, 38, -37, 17, 61, -124,
   -123, 19, 9, -23, 32, 19, -43, 0,
   -10, -91, 68, 18, 76, -42, 53, -86,
   7, 32, 37, -67, 47, 127, -39, 27,
   -100, -36, -125, -79, 127, 95, -32, 35,
   113, 35, 84, 74, 17, 82, -56, 26,
   -75, 75, 13, -118, -38, 58, -118, 51,
   127, -7, 7, 8, 49, -46, -94, -27,
   127, 59, 113, -43, 127, -98, -23, -25,
   23, -74, 96, -128, -64, 25, -43, 121,
   61, 4, -126, -11, -120, 51, -42, -40,
   15, 41, -95, 12, -12, -17, 122, 6,
   -1, 66, 107, 120, -118, -77, -122, -126,
   -67, -71, -60, -79, 108, 11, -52, -68,
   -4, -74, 48, -93, 52, -83, 30, 0,
   -6, -13, 5, 6, -7, 30, -15, -35,
   31, 20, 33, 13, -128, -27, -40, 60,
   39, -32, -22, 30, 21, 20, 4, -37,
   57, -36, 34, 126, 14, -118, 75, -34,
   -19, 52, -10, 42, -14, 34, 12, 19,
   127, -64, -45, -41, 32, 8, -108, -37,
   21, 50, 59, 88, 27, -128, -22, 127,
   -51, 47, 127, 13, -128, 8, 14, 70,
   -8, 61, -37, -96, 127, 17, -64, -23,
   -123, -127, -15, -126, 8, 31, -57, 103,
   -128, -20, 8, 127, -128, 30, 42, -18,
   -11, 75, 3, 10, -54, 30, -103, -122,
   -45, -55, -128, 127, -40, -100, -35, 75,
   15, 57, 125, -19, 127, -94, -34, -19,
   125, -128, -17, 18, 42, -23, 124, -126,
   -115, 60, 7, 127, 44, -122, -104, 114,
   -12, -32, 28, 127, -127, 18, -65, -18,
   -128, -35, -42, -21, -72, -75, 86, -81,
   16, -32, 110, 43, 12, 86, -52, 30,
   58, -6, 42, -11, 127, -68, 2, 101,
   -25, 9, -15, 34, 127, -33, 67, 20,
   127, 26, -73, 127, 45, -102, 5, 5,
   115, -84, 4, -13, 20, -15, -44, 3,
   -116, 39, -7, 6, -72, 1, -10, -127,
   73, -52, 51, 61, -62, 127, -48, -19,
   -41, -49, -128, -39, 127, -3, -17, 60,
   -21, -29, -44, 51, -61, -7, 118, -34,
   -50, 52, 52, -121, 59, -116, 100, -125,
   -123, 9, -55, -15, 8, 107, 74, -100,
   119, -17, 38, 40, -77, -128, 23, 36,
   -110, -119, 127, -102, -109, -4, 47, 37,
   55, 54, 127, 35, -128, -20, 127, 33,
   40, -128, -40, 72, 98, 10, -126, -29,
   86, 56, 22, 125, -72, -75, 88, 12,
   -36, -14, -55, -49, 127, 2, -13, 28,
   106, 2, 86, 46, -58, -16, -50, 8,
   20, 41, -2, 33, -3, 38, 22, -50,
   -7, -20, 27, -5, -128, 35, -33, 37,
   -26, -49, -58, 5, 32, -12, -85, 39,
   47, 30, 30, 127, 47, -17, -62, 53,
   124, 89, 56, 11, -45, -43, -55, 16,
   -120, 47, 85, -16, 66, -30, 87, -8,
   -63, 72, -31, 94, 10, -127, 98, 127,
   -72, 26, 125, 29, -124, -14, -77, 90,
   -27, 127, 71, 14, -37, 52, 48, -59,
   -128, -128, 102, -105, 97, -68, -74, -114,
   -72, 21, -25, 118, -18, -13, -2, -10,
   68, -65, 127, 49, 119, -128, 126, -126,
   -2, -122, -128, -54, -83, -76, -12, -27,
   -127, -122, 61, 122, 127, -38, -79, 17,
   -126, -128, -71, -126, -74, -79, -127, 36,
   27, 84, 95, 127, 32, -114, 50, -43,
   -94, -124, 96, 25, -2, 102, 111, 56,
   -31, -45, 7, 11, -57, -95, -123, 20,
   48, 29, 79, 30, 29, 10, -15, -10,
   71, 71, -43, -73, 53, -5, 17, 51,
   -2, -42, -123, -11, 80, 45, -30, -88,
   -5, 10, 2, 127, 71, -34, 7, 99,
   -99, -44, 5, -74, -56, -128, 111, 61,
   11, -65, 55, 8, 2, -66, -70, -74,
   -109, -47, -13, 87, -57, -62, -53, -58,
   -96, -119, 127, -49, -128, 99, 7, 22,
   100, 113, -66, -121, 36, 104, 41, 110,
   58, 17, -36, -29, 7, 97, -128, -32,
   127, 15, 1, -91, -12, 124, -5, 21,
   4, -44, -121, -32, 6, -82, -51, 28,
   -127, 44, 87, 126, -15, 10, 7, -40,
   -37, 29, 49, -44, -127, -114, 127, 67,
   121, -91, -127, -73, -48, -17, -83, -55,
   124, -122, -39, 127, 59, 78, 114, -71,
   -36, 62, -38, -26, -33, 3, 36, -56,
   -34, -32, 45, 15, -52, -3, 111, -99,
   13, 28, 55, -85, -6, -15, -32, -56,
   114, -4, -65, 1, 61, 38, 13, 82,
   -59, 47, 0, 29, -6, 37, -16, -34,
   -46, 15, -15, 127, 13, -66, 79, 74,
   -128, 32, 82, 69, 2, 7, -128, -53,
   -121, -2, 72, 37, 84, -55, -53, -94,
   -20, -127, 15, -82, -42, -13, -87, 20,
   -46, 39, -23, 3, 103, 55, -2, 17,
   100, 39, -92, 19, 50, 66, 78, 60,
   50, 27, 21, 55, 7, 127, 90, -51,
   -122, 44, 31, 83, 93, -53, -36, 127,
   37, -98, 13, 8, -128, 121, 63, -126,
   -99, -127, -53, 125, -30, -55, 41, 20,
   19, -9, -128, -113, -84, 127, -127, 22,
   -113, -103, 94, -107, -127, -26, -123, 83,
   119, -79, 22, 127, -86, 18, 16, -123,
   36, -20, 66, 38, 38, 17, -77, -22,
   -68, -29, 59, -16, 14, -30, -121, 12,
   71, -33, -71, -97, -16, -113, -98, -4,
   104, 4, -34, -8, -128, -14, 27, 79,
   -3, -12, -1, -17, -15, -22, -46, -31,
   -89, 10, 64, 127, 81, -118, -44, 86,
   125, -16, -53, -112, -79, -86, 50, 91,
   -28, 66, 43, -23, 71, 7, 12, -92,
   -101, 30, 16, 96, 45, -101, 21, -53,
   -15, -7, 127, -124, -127, -8, -119, 31,
   -25, 100, -101, 18, -73, -11, 36, -21,
   -100, -71, -84, 22, 97, 35, 124, -72,
   -61, 53, 15, -35, -83, 49, -88, 31,
   121, -90, 28, 18, 127, 41, 123, -128,
   -35, 90, 35, 31, -72, -126, 64, 107,
   -98, -65, -9, 126, -128, 125, 12, -4,
   -41, -108, 11, -119, -112, -16, -20, 13,
   127, 70, -30, 126, 77, -41, 97, -91,
   41, 27, 41, -39, -126, 63, 75, 5,
   -51, -58, 88, 61, 71, 16, -21, -81,
   93, -6, 59, -46, -22, -25, 35, 28,
   -39, -59, 58, -22, 127, 15, 43, -4,
   24, 14, -22, 117, -1, 29, -30, 9,
   -12, 22, -61, 127, 52, -128, -41, 29,
   -128, 22, -72, 74, -20, 12, 61, 11,
   40, 80, 111, -113, -10, 126, 79, -16,
   -12, 74, -70, -67, 28, 26, -33, -128,
   117, 49, 47, -71, 50, 67, -9, 126,
   124, 124, -33, 100, -10, 121, 113, 57,
   -27, -16, -84, -6, 8, -127, -77, -27,
   127, 5, -8, -104, 103, -75, 7, -7,
   55, -61, 42, 37, 96, -35, 127, -62,
   -116, 7, 124, -32, -66, -78, -51, 3,
   -114, -10, -32, -60, -79, 34, -33, -103,
   -81, 32, -21, -5, -102, 67, 88, -118,
   -23, -51, -39, 115, 12, -28, 96, -14,
   119, -11, 19, 20, 113, -123, -128, 113,
   0, 2, 77, 16, 72, 31, 46, -10,
   28, -5, 49, -43, -19, -15, 46, 45,
   -66, -38, 0, -16, -12, -26, 127, 67,
   31, 60, 71, 28, -103, -1, -44, -39,
   124, 27, 81, 45, 27, 19, 45, 50,
   -128, -36, -13, -59, -5, 39, 100, -11,
   64, 72, 126, 2, 120, -40, 27, 80,
   -47, -92, 39, -51, -54, 121, -69, -83,
   47, -12, -101, -29, 127, -2, -69, 21,
   89, 38, -17, 16, -33, 70, 50, 54,
   -121, 124, 10, 119, 28, 3, 33, -125,
   -128, -64, -122, 101, 23, -8, 62, -68,
   -97, 126, 98, 75, -125, 40, -4, -88,
   16, -128, -123, 104, -39, -98, 64, 39,
   55, 97, 82, 35, 127, 127, 9, -94,
   -128, 13, 52, -101, -97, -16, 126, -11,
   64, 125, -83, 78, -124, 127, -58, 37,
   -2, -62, 93, -127, -121, 6, 127, 86,
   26, -38, -38, 51, -32, 31, -5, -38,
   -3, 40, 53, -55, -40, -58, 5, 62,
   28, 8, 52, -15, -91, -11, 14, 76,
   4, 5, -11, -20, -7, -39, 8, -37,
   97, -59, -54, 48, -7, 46, -50, -26,
   99, 6, -38, -57, 29, -53, 121, 114,
   -127, 19, -28, 83, 18, 68, -126, -88,
   56, 127, 25, 127, 16, -85, -22, -3,
   -40, -37, 127, -16, -128, -14, 110, 72,
   -8, 65, 1, -121, -21, 4, -28, -56,
   -30, 49, -114, 89, 1, -42, 106, 33,
   42, -61, -30, 98, -50, 127, -67, -22,
   -2, 73, 19, -23, 125, 99, -8, -127,
   22, -97, -16, 80, -38, -124, 89, -48,
   124, -14, -15, 40, -41, 127, -63, -40,
   50, -121, 59, -123, -126, 26, 68, -56,
   -13, 62, 99, 99, 11, 6, 127, 50,
   127, -85, -22, 72, -3, 95, -58, 2,
   7, -11, -17, -28, 114, 52, -4, -25,
   -8, 9, -42, -63, -6, 125, 45, 69,
   122, -18, -59, 63, 123, 39, -11, 28,
   47, -16, 14, 5, -119, -60, -56, 90,
   29, 84, -10, 68, -34, 88, -36, -31,
   -37, 30, -111, 72, -13, -110, 35, -28,
   -98, -9, -88, -41, -106, -83, -3, -109,
   -23, 39, 33, 14, -85, 38, -18, -59,
   80, -92, 33, 0, 30, 62, 7, -6,
   0, -35, 63, 45, 77, 100, 3, -10,
   5, -19, 63, -36, -35, -24, 16, -17,
   28, -21, 5, -37, -49, 127, -18, -7,
   -26, -49, -93, 116, -24, -42, -23, 3,
   5, -19, -81, -9, 2, 127, -128, -31,
   -31, -128, -21, -118, 120, -17, -127, 127,
   24, 52, 69, 52, 44, -51, -17, 3,
   -110, -24, 12, -7, -53, -90, -6, 27,
   27, -65, 36, 19, -128, 127, -52, 126,
   32, -2, 15, 68, 14, 61, 119, 60,
   40, 125, -2, 119, -128, 126, -52, 26,
   -122, -128, 92, -97, 59, 127, -123, 29,
   39, 119, -127, -127, -76, 120, 103, 6,
   19, -69, 127, 12, 125, -4, 44, 8,
   28, 23, 4, 33, -22, 47, 4, -15,
   -47, -83, 32, -119, -25, 81, 5, 27,
   -10, -18, -46, 68, 26, -27, -78, -5,
   44, 39, -3, -89, -27, 26, -46, -63,
   26, 37, 3, 5, 60, 53, -1, -39,
   7, 5, -94, -61, 44, -31, 69, -13,
   4, -21, -85, 123, -30, -46, 0, -64,
   -124, 37, 89, -116, 60, 126, 24, -46,
   122, -96, 42, 10, 20, -50, 123, -63,
   36, 39, -26, 127, 77, 112, 96, -8,
   -118, 61, 66, 99, -49, -18, 14, -125,
   77, -31, 15, -16, 73, 3, 3, 58,
   -62, 60, -127, -75, 125, -128, -79, 105,
   -40, 47, -93, 66, -4, -32, 117, -25,
   -35, -38, 38, -2, 127, -113, -39, 72,
   -81, 127, -13, -18, -70, 124, 27, -52,
   -42, -125, 64, -59, -1, 10, 127, 5,
   29, -28, -119, 50, -6, -62, 95, -37,
   84, 76, 29, 23, 87, -128, -35, -48,
   68, -23, -69, 73, -17, 19, 7, 127,
   28, -122, 122, -11, 22, 4, 52, -98,
   -22, 51, -73, 127, -128, -39, 72, -83,
   -7, 93, -83, -1, -9, -122, -83, 77,
   82, -125, -46, -49, 13, 96, -88, 42,
   -19, 59, -100, -52, 23, 27, -34, -82,
   -128, -1, -124, -58, -75, 102, -25, -128,
   -22, -29, -115, -106, 58, -95, 53, 82,
   -37, 118, -49, -121, -41, 87, -126, -123,
   12, 70, 99, -32, 39, 119, -111, -47,
   58, 9, 15, -40, 78, -61, 67, -75,
   -37, 78, -63, -8, -30, -126, 18, -11,
   -69, 48, -84, -110, 37, -43, -66, -39,
   -71, -63, 9, -74, 127, 69, 1, -76,
   7, -57, -51, -126, 13, 7, 19, 13,
   94, 41, 109, 98, 107, 43, -31, 61,
   48, 68, 22, 27, -66, -83, -128, -22,
   -34, -110, 10, 56, -46, 101, -59, 23,
   23, -55, -38, -38, -24, -10, -24, -32,
   -31, 19, -15, 6, -95, 52, -23, 99,
   75, -19, -31, -117, 118, -104, -5, -84,
   -18, -8, 10, 6, 6, -36, -70, 29,
   -128, -46, 20, 1, -2, 26, -124, -12,
   48, -12, 76, -33, -31, -28, 41, 45,
   73, 15, 58, 47, -102, -124, -45, 51,
   -27, -23, 115, 127, 76, 100, 26, -128,
   45, -128, -48, 83, -22, -128, 125, -105,
   -28, 49, -27, -18, 21, -114, 5, 42,
   46, -127, -24, -4, 125, 118, -127, -33,
   7, -124, 127, 17, 108, 125, 77, -69,
   53, 9, 112, -89, -11, 79, -108, 4,
   -71, 41, -111, 2, -128, -56, -15, -20,
   -108, -34, 16, 91, -45, -2, -20, -89,
   -96, 57, 44, 121, -66, -7, -127, 26,
   -49, 40, 9, -14, -82, 32, -44, -48,
   -126, 122, 62, -12, 34, 102, -76, -37,
   -22, -89, 8, -68, 120, 66, 54, 34,
   -1, -38, -17, 18, 22, -79, -28, -37,
   -63, 102, -15, 67, -29, 9, -95, 9,
   -64, -18, 103, -96, -15, -52, 11, 50,
   79, 82, -28, -128, 71, -108, -84, -12,
   53, 76, -96, -33, 29, -122, -19, -69,
   -59, 21, 38, -97, -126, 126, 112, 80,
   -124, -4, -49, 25, -56, 33, 76, 4,
   -80, 125, -76, 14, 59, -50, -128, -122,
   93, 2, -27, -120, -45, 79, 4, 44,
   119, 110, 35, -42, -75, 126, -123, -73,
   61, 112, -126, 115, -64, -70, 54, 126,
   -26, 44, 5, 127, -35, -57, 111, 1,
   -128, -61, -24, -126, 95, -68, -83, -9,
   49, 7, 0, -50, 74, -54, -77, 67,
   35, -10, 39, -66, 15, -38, 43, 34,
   15, 93, -127, -33, 53, 109, 127, 28,
   25, -127, 38, -3, -102, -49, 54, 74,
   -1, -39, -82, -76, -57, -21, -4, -16,
   -58, -89, -126, -4, 14, 67, 112, 61,
   -60, -63, -43, 13, -28, -38, -3, -32,
   -4, 72, -82, 18, -33, -93, 52, 66,
   9, -26, 75, -44, 35, -5, 126, -38,
   -61, -68, 9, -4, 56, 4, 19, 27,
   -12, 104, -87, 44, -127, 4, 17, 96,
   83, -23, 58, -35, 63, -36, 19, -6,
   -52, -16, 127, -7, -126, 125, 86, -106,
   27, 124, 27, 54, -29, -10, 96, -17,
   30, -65, -124, 15, 127, -8, 127, -85,
   99, 32, 114, 29, 28, -98, 112, 43,
   9, 71, -92, -40, -55, 18, -38, -46,
   -18, -36, 37, 85, -38, 112, 15, -62,
   126, -13, 35, 127, -9, -71, -78, -34,
   -51, 127, 105, -20, -33, -61, 20, 30,
   17, -11, -19, -32, 28, 2, 17, -9,
   127, 63, 78, -30, 4, 32, 32, -73,
   21, 15, 17, 19, -72, -125, 6, -106,
   -30, 61, 47, -3, -24, 27, -4, 35,
   62, -28, -33, -5, -42, 27, -61, 21,
   -32, -13, 120, 46, -50, -19, 14, 13,
   -10, -28, 120, -55, -126, -18, 16, 49,
   52, 8, 29, -16, 15, 127, -15, 63,
   1, -23, -128, 116, 59, -69, 7, 18,
   -6, 11, 27, -53, -48, 79, -128, -7,
   -18, -121, 25, 18, 113, -4, -127, 68,
   8, -7, -5, 14, -26, 29, -34, 0,
   -90, -101, -108, 26, -94, -37, -28, -31,
   68, -76, 64, 51, -128, 124, -68, 100,
   6, -31, -48, 63, 8, 42, 126, 37,
   12, 106, 109, 83, -17, 85, -77, 22,
   -63, -42, 73, -1, -26, 86, 12, -20,
   63, -111, -124, -123, 63, 10, 15, -52,
   -33, -108, 75, 47, 77, 2, 20, 2,
   27, -68, -16, 16, -24, 90, -84, 61,
   -65, 29, -37, 29, -10, -8, -2, -64,
   -105, 23, -32, 1, 23, -123, 118, -112,
   33, 18, -44, 105, 15, -52, -31, -37,
   57, -50, -14, -10, -29, 26, -42, 18,
   -1, 110, -45, 24, -60, -6, 33, -17,
   14, 16, 74, 24, 61, -109, 44, 11,
   -105, -51, 25, -95, 2, 127, 54, -50,
   14, -45, -3, 35, -11, -33, 115, 63,
   53, 36, 106, 14, -105, -2, 127, 36,
   -36, -24, -2, -3, -84, -79, 68, -32,
   -17, 89, -75, -10, 45, 53, 92, 30,
   -112, 19, 38, -74, 127, -89, 22, -33,
   5, 41, 67, 98, 17, 31, -7, -56,
   -64, -36, -61, 2, -12, -96, 19, 71,
   -34, 19, -32, -92, 46, -2, 118, -46,
   -102, 124, -90, 42, 40, 22, 22, 11,
   41, 46, -80, 60, -3, -36, 42, 10,
   24, 37, -88, 79, 4, -45, -84, -76,
   53, 12, -20, 93, 108, 126, -46, 49,
   -89, -65, 76, -14, 25, 44, 44, -37,
   -75, 55, -61, -3, -128, -50, -30, 104,
   -105, -12, 50, -66, 22, -39, 20, 43,
   5, 7, -1, -16, -2, 98, 46, 95,
   -24, 3, -25, -5, -18, -15, -49, 31,
   -59, 69, 5, 11, -63, -35, 76, -16,
   -20, 30, -9, -73, 6, 32, 13, 54,
   -33, 0, 26, -85, 119, 17, -122, -27,
   12, 15, -10, -37, 95, 4, -42, -22,
   11, 5, 68, 18, 6, -16, 93, -51,
   -81, 62, 85, 9, 68, -9, -14, -121,
   -111, 59, 47, -10, 6, -83, -20, -41,
   -19, -18, 17, -40, 61, 24, -62, -2,
   -56, 17, -32, 26, -43, -27, 15, -92,
   78, 79, 26, -3, 9, 12, 17, -10,
   3, 63, 5, 29, 9, -49, 8, 40,
   -10, -14, -37, -13, -112, 79, 7, 10,
   -12, 7, -46, 40, 4, -65, -3, -31,
   -90, -5, -35, 31, 18, -18, -46, 91,
   22, -30, -52, 39, 122, -39, -41, -64,
   72, 34, 18, -34, 3, 3, 50, -39,
   94, -100, 0, 13, 45, -71, -47, 1,
   -117, -40, -48, -41, 32, -7, -50, 101,
   116, 4, -22, 101, 59, 8, 34, -1,
   45, -69, 22, -35, -57, -57, 11, -125,
   110, 38, -4, 80, 23, 4, 103, 2,
   -91, -28, -14, 118, 44, -18, -5, 3,
   -12, -82, -7, 16, 61, 41, -125, -97,
   -82, 52, 51, -7, 12, 7, -4, 90,
   29, 54, -5, 32, -14, 1, -24, 36,
   -46, 0, 127, 20, -41, -43, 26, -25,
   -44, -49, -18, -85, 18, 14, 58, -54,
   -37, -62, 111, 31, -37, 16, 24, -4,
   36, -97, 44, 43, -27, -18, -3, 12,
   -74, -21, 2, 5, -7, 5, 43, 47,
   12, 16, 17, -42, -123, -15, -17, -13,
   33, 13, -16, 19, -26, -44, 27, 26,
   -20, -43, 13, 5, -39, 23, -9, 110,
   -24, -17, 71, 65, 82, 25, -60, -71,
   -41, 30, -53, 60, 36, -38, 25, 21,
   9, 20, -4, -52, 69, -10, -20, -80,
   60, -11, 19, -48, 18, -5, 116, 24,
   -50, 35, 43, -8, -11, -34, 1, -41,
   -72, 29, -36, -1, 36, -42, -15, 8,
   39, 43, -24, -94, 106, -42, -13, -33,
   -1, 46, 42, -10, -39, -17, -127, -51,
   88, 37, -109, -16, 78, 42, -14, 74,
   42, 57, 28, -46, -79, 25, -5, -4,
   -13, -6, 42, -38, 16, 29, -106, -20,
   -30, -20, 35, -5, 36, -12, -60, -94,
   27, 82, 120, 47, -60, -50, -39, 3,
   101, 73, -34, -23, -6, 62, -29, -12,
   16, -25, -48, -14, 19, -40, -5, -38,
   41, -16, 7, 0, -49, 8, -33, -39,
   37, 1, 35, -52, -4, -26, 2, 43,
   -95, -34, 24, -16, -47, -17, -1, 93,
   34, 89, -43, -5, 15, 109, -40, -23,
   -3, -49, 64, -62, -14, 10, 47, -69,
   82, 9, 11, -25, -62, 57, -55, 0,
   -46, -24, 85, 40, -86, 37, -60, 25,
   -57, 69, 13, 51, 85, -40, 32, -7,
   -66, -22, -35, -6, 24, 5, -35, -75,
   61, 21, 82, 23, 82, -42, 47, 45,
   73, 48, 6, 18, -19, 23, 55, -127,
   -24, -45, -6, 63, -20, 31, -68, 46,
   28, -18, -45, -25, 4, -54, -28, -28,
   -56, 23, -73, 4, -10, -2, -27, -13,
   71, -26, -28, 49, 4, -2, -6, -68,
   -20, -62, 55, -33, -11, 21, 0, -4,
   106, -50, 15, -36, -50, 5, 69, -10,
   41, 1, 60, -25, -7, 28, 33, 2,
   121, 77, -33, 13, -128, -81, 41, 10,
   15, -54, 40, -120, 16, -1, -38, -128,
   40, -7, -35, 76, 85, 6, 44, 15,
   -3, -19, -6, 30, -3, -40, -30, 39,
   -64, 108, -128, 121, -118, -42, -82, -44,
   76, -80, -49, -128, 6, 41, -54, -33,
   126, -128, -126, -124, 127, -125, -93, -39,
   125, 127, 41, 104, -10, -33, -119, 127,
   -123, 39, 127, -121, 125, 105, -4, -12,
   -21, 125, -85, -79, -29, 127, 54, 22,
   -1, -125, -84, 9, -127, 69, -9, 115,
   105, -116, 30, -127, -46, -106, 80, 117,
   10, -35, -19, -30, 127, -39, -15, -32,
   58, -21, 18, -87, -25, 14, -87, -127,
   35, 32, -57, 63, -7, 5, 36, 17,
   -11, 69, -7, -36, -7, -22, 11, 88,
   -16, -76, 110, 101, -83, 92, 12, -19,
   -73, -39, 44, 127, -13, -13, -111, -30,
   51, 122, 44, 127, -105, -76, -40, 66,
   114, -43, 46, 15, -18, 59, 7, -128,
   70, 79, 39, 83, -78, 53, -7, 28,
   13, 0, 86, 82, 23, 50, -93, -46,
   7, 73, 26, 105, -109, 76, -58, -24,
   -121, 83, -77, 127, -91, 6, -89, 33,
   81, -60, -17, -83, -128, 119, -128, 117,
   127, -128, 46, -39, -67, 64, 118, -95,
   -127, -12, -28, -68, -3, 127, -52, -24,
   -43, 126, -18, 62, -42, -116, -96, 102,
   19, 45, 124, 126, -47, 49, -52, 118,
   126, -6, 29, -127, -40, -4, 95, -24,
   11, 7, -32, 96, 127, -21, 64, -17,
   110, 0, 5, 32, 5, 7, -53, -92,
   -71, -40, -53, -2, 82, -9, 29, 67,
   -59, -96, 47, -46, 26, 127, 51, 33,
   -77, -12, 19, 58, 41, -48, 48, -27,
   28, -62, 7, -128, 85, -5, -40, 19,
   19, 78, -18, -125, 127, 127, 6, 41,
   -43, 11, -5, -128, 24, 15, -18, 125,
   51, -15, 11, 30, 79, 17, 63, 127,
   31, -31, 3, -27, 31, 76, -15, 95,
   31, 99, 94, -55, 46, -52, 113, -75,
   -13, 76, -101, 93, 89, -17, -52, 32,
   76, 37, 127, 67, 125, -36, -111, 101,
   41, -110, 87, 111, 76, 39, -93, 43,
   65, 57, -127, 77, -86, -57, -32, -53,
   -40, 44, -35, 1, -126, -82, 70, 93,
   57, -16, 27, -26, 118, 60, -32, 14,
   23, 92, 70, 127, 16, -72, -102, 48,
   -12, 9, 86, 69, -128, 69, -5, 56,
   120, 20, 101, -53, 3, 27, -27, 44,
   -8, 12, -46, 23, -13, -3, 51, -37,
   -13, -128, -48, 18, 5, 60, -50, -17,
   1, 39, 60, -3, 16, -30, -120, -10,
   -8, 60, 127, -103, -89, -7, -18, -9,
   19, 124, 44, -4, 122, 127, 39, -41,
   -61, -50, 31, 44, -30, -40, 28, 21,
   57, 2, 30, -79, 87, 12, 68, 115,
   -17, -27, 42, -25, 1, -98, -23, 5,
   95, 77, -13, -48, -33, -41, 29, -43,
   102, 16, 51, -38, -76, 25, -35, 16,
   17, 29, 124, -46, 126, -126, 90, -15,
   125, 67, 32, 91, -17, 14, -13, -19,
   88, 47, 61, 56, 59, -61, -36, -14,
   125, -117, -69, 25, -28, 46, 83, -22,
   76, 67, -114, -27, 67, -59, 80, 2,
   -127, -32, 55, 127, 10, -35, -31, -82,
   -8, -7, 22, 63, -128, 106, 28, -9,
   -79, -21, -12, 28, -21, -19, -12, 35,
   22, 36, 11, -37, 15, 40, -16, -64,
   -10, -59, -82, 1, 10, -21, -33, 11,
   44, 27, -67, 23, 31, -40, -94, -25,
   -77, -26, 0, 127, 71, 23, 68, -12,
   -13, 59, 37, 116, -19, 15, 2, 10,
   -5, 51, -39, -37, -8, 55, -10, 0,
   50, -54, -88, 6, -23, -93, -29, 88,
   -5, -10, 74, 32, -31, -8, 14, 34,
   123, -1, 2, -62, -2, 117, -37, -19,
   30, -33, -50, 114, 68, 19, 95, 38,
   12, 30, 21, 35, -52, 44, 13, -17,
   126, -94, -14, -6, -109, 44, -19, 37,
   117, 27, 120, -33, -28, 14, 31, 50,
   90, 21, -122, 43, -9, 44, -9, 52,
   71, 45, -8, -14, -75, -22, 51, 35,
   -118, -50, 47, 11, -16, -59, 36, -10,
   9, -7, -30, 1, 62, -46, 36, -22,
   75, 24, -77, 36, -19, -13, -3, 3,
   126, 2, -2, -47, 36, 32, -17, -25,
   -10, 22, -107, -22, 29, 31, -57, 59,
   18, -7, -44, 45, -10, -29, 7, -55,
   -41, -11, 16, -114, 97, 21, 73, 49,
   0, 28, 17, -65, 57, -101, 7, -120,
   67, 57, 82, -6, 9, 35, -13, 90,
   -4, -57, 45, -63, 8, -10, -47, 127,
   -26, -11, -123, -15, -123, -18, 32, 14,
   110, -32, -21, -117, 28, -125, 17, -46,
   -19, -29, -29, -113, -34, 22, -121, -31,
   -66, 28, 16, 9, 105, -103, 44, -4,
   127, -55, -38, -65, -56, 2, -53, 6,
   -97, -35, 46, -124, -2, -24, 31, -72,
   -5, 30, -35, 44, 5, 39, 19, -124,
   -45, -22, 23, 34, -122, -109, -44, -77,
   69, 55, -59, -32, 43, -8, -60, 71,
   12, 113, -13, -25, 12, -71, 10, 23,
   98, 26, -70, -18, 14, 8, 67, 46,
   34, 19, 6, -10, -33, -1, 2, -127,
   24, -9, 6, 37, -53, -20, -67, -2,
   -10, 7, 13, -31, -6, 60, 29, 6,
   -15, 46, 30, 28, -32, 51, 73, 58,
   50, -76, -33, 11, 40, -18, 77, 92,
   -51, 16, 10, -56, -6, -16, 16, -91,
   81, -10, 55, 34, -33, -37, -25, -14,
   55, 21, 13, 8, 45, -12, -25, 88,
   62, 10, 29, 123, 62, 106, 78, -9,
   80, 7, -54, -64, 27, -23, -28, -20,
   -37, -101, -12, -45, -25, 48, -8, -27,
   29, 124, -7, 7, -10, 11, -3, -38,
   -100, -60, -5, 41, -4, 57, -49, 27,
   -72, 41, -19, -66, 24, 55, -84, 36,
   -32, 40, 10, -128, 35, -109, 53, -9,
   -2, 11, -49, -48, 7, 55, 44, 19,
   12, 34, -11, 20, -7, 56, -8, 55,
   24, -13, -17, -19, 25, -32, 3, 44,
   -23, -39, -22, -19, -13, 43, -19, -32,
   1, -54, -9, 12, -22, -38, 8, 60,
   -67, -32, -17, -65, 61, -86, 29, -6,
   -17, -15, 2, 34, -19, 52, 42, 21,
   -95, -24, 65, -75, 10, -119, -1, -67,
   -39, 126, -6, -20, 64, 1, 3, 38,
   16, 24, -21, 21, 0, 65, 22, -8,
   -78, 29, -16, -50, -42, -123, 33, 127,
   -45, -14, 68, 6, 44, -5, -28, -128,
   -66, -42, 1, -42, -15, -19, -15, -18,
   -13, 11, 6, 28, 62, -1, 36, -10,
   -30, -18, -20, 8, -69, -94, -120, 71,
   46, -29, 5, 6, -20, -124, -46, 127,
   7, -83, 8, 33, -3, -80, -43, -127,
   88, -13, -40, -31, 40, 47, -58, -33,
   24, -17, -12, 5, -104, 35, -46, 5,
   -22, -10, -47, 35, -6, -11, -9, -22,
   27, -103, 26, 34, -87, -80, -121, 30,
   42, -3, 30, 58, 12, 6, -62, -6,
   25, 33, 14, 26, 16, -43, 12, -127,
   35, 22, 31, -2, -15, 13, 16, -40,
   -18, -4, 25, 3, -8, -47, -1, -22
};

static const rnn_weight noise_gru_recurrent_weights[6912] = {
   -6, 21, -3, 44, 2, 41, 38, 1,
   73, 98, 42, 1, -5, -25, -30, 0,
   76, 93, -109, 14, 65, -16, 8, 7,
   -23, 40, 25, 49, -65, -34, -12, 27,
   96, 16, 55, 8, -2, -55, 6, -67,
   -22, 6, -22, 9, -47, -10, 20, 34,
   -6, 62, 14, 33, 1, 6, 98, 55,
   8, -2, -42, -2, -28, -11, -36, 59,
   -8, -28, -11, 24, -3, -118, -9, 17,
   44, -101, -52, -47, -112, 66, -4, -20,
   -23, -78, 2, 7, 24, -18, -80, -34,
   41, 20, -10, -22, 19, -45, -2, -21,
   -2, 51, 88, -65, 98, -3, -21, -29,
   -13, -49, -1, -84, 58, 4, 58, -46,
   -46, 12, 32, -23, 29, -63, 51, -57,
   -37, 56, 2, 46, 99, -34, 46, 38,
   11, 94, -29, 84, -27, -4, 31, -1,
   28, -11, 28, 28, 26, 58, -26, -42,
   18, 22, -16, 54, 34, -23, 31, 46,
   -29, 7, -16, 54, 15, -55, 32, 31,
   -21, 20, -10, -30, 11, 7, 81, 43,
   -75, 6, 22, 18, -8, -77, 13, -29,
   61, 27, 0, 56, 18, -5, -38, 4,
   -8, 55, 127, 3, 9, 12, 54, 96,
   12, 62, 23, 53, -7, -20, 42, 21,
   -9, 43, -9, 58, -30, -69, -2, 59,
   2, 7, -16, 61, 0, -28, -39, -60,
   -15, 11, -70, 23, -59, -15, -8, 23,
   -9, -39, 37, -22, 27, -33, -13, 11,
   -85, 49, -21, -49, -28, -34, 13, -29,
   39, -65, 47, -54, -81, -57, 62, -24,
   8, -67, 13, -3, 20, 8, -6, -18,
   57, -22, 2, -66, 7, -54, -5, 90,
   -75, -21, -63, 105, -15, -81, -43, -101,
   18, 3, -2, 21, 38, -9, -65, -18,
   6, 46, 3, -94, 7, -30, 60, -74,
   -7, -30, -13, -32, 20, 9, -16, -29,
   3, 26, 81, 30, -15, 16, 46, -1,
   -7, -43, -19, 61, -25, -17, 20, 28,
   -47, 6, -9, -61, 53, 15, -31, 97,
   -17, 87, -10, -43, -23, -29, -72, -40,
   79, -24, -49, 19, 34, -35, 73, 6,
   14, 5, -19, 44, 37, 13, 16, -49,
   13, -1, 55, 20, -40, 38, -36, 25,
   -39, 1, 1, 74, -35, -61, 29, -11,
   -65, 2, -35, -60, -18, 25, -20, 42,
   -10, -86, 45, 39, 1, -7, -29, -31,
   66, -32, 37, 18, 8, -40, 26, -35,
   17, 12, 20, -45, -100, -96, 6, -28,
   -25, -21, -18, -93, -27, 5, 45, 35,
   -50, -23, -22, -41, -41, -47, 32, 16,
   -7, -27, 31, 28, 18, 12, 33, -4,
   5, -29, -60, -31, -34, -21, 26, 3,
   -45, -29, 33, -112, 18, -52, 41, -44,
   -75, 95, 15, -95, 30, -18, 0, 44,
   -16, -35, 8, -24, 17, -42, 5, -35,
   -67, 17, -6, 42, -63, 72, -104, 40,
   70, 39, 15, -23, 80, 74, 0, -19,
   -20, -81, 51, 19, -10, -52, -20, 33,
   -7, 50, -42, -8, 9, -26, -5, 23,
   -57, -85, -7, 0, -59, -17, -69, -8,
   5, 12, 21, -69, -73, -22, -26, 34,
   -9, -9, -35, -11, -14, 22, 1, 67,
   51, -9, -5, -24, 43, -45, -14, 39,
   25, -11, -19, -34, -61, -40, 17, -1,
   35, 46, 67, 52, -38, 44, 10, 37,
   -3, -23, 32, -60, -6, 54, 30, -26,
   38, -60, 1, 8, -35, -49, 37, 36,
   24, 19, -38, 49, 18, -36, 39, 27,
   -24, 37, 20, -127, -84, 1, -15, -28,
   2, -12, -7, 0, 68, 28, 22, -22,
   23, -1, -20, -22, -29, 16, -7, -52,
   -85, 62, -10, -2, -6, -41, -21, 29,
   5, 67, 18, -97, 2, 43, 44, 33,
   -1, 6, 93, -40, -42, 8, 43, -23,
   -2, 52, -62, 0, 115, -21, 22, -34,
   -47, -14, -7, 110, 28, 23, -13, 93,
   -27, -78, 61, -18, 61, 59, 44, 127,
   39, -85, -5, -50, -58, 24, -77, 0,
   7, -5, -26, -20, 31, 9, -20, -70,
   -30, -13, -127, -53, 27, -41, 26, 85,
   -31, 87, 67, 101, -100, -31, 38, 56,
   -48, 6, -1, -1, -6, 82, 38, -22,
   -14, -68, 39, -51, 3, -36, -10, -24,
   -53, -17, 46, 41, -22, -1, 29, 7,
   44, -61, -8, -51, 22, 34, 48, -28,
   -70, 66, 72, -60, 82, 6, -52, -47,
   -51, -103, 4, -68, 2, 1, -83, 43,
   89, -29, 49, 21, 23, 113, -69, -66,
   -11, -18, 75, 75, 47, 15, -70, 80,
   -128, 28, -22, -10, -1, -14, 31, 32,
   -37, 69, 67, 44, -25, 25, 49, -37,
   81, 40, -128, -16, 4, 50, 26, -4,
   0, 53, 35, 72, -10, -78, 19, -58,
   41, 44, -11, 55, -36, -12, -9, 35,
   31, -38, 47, -48, -28, -5, 125, -28,
   12, -11, 7, 51, -25, 2, 5, -71,
   12, 3, -25, -5, -67, -31, 3, 85,
   0, -13, 1, -27, 22, -26, 23, 4,
   -3, -79, 14, 52, -116, 19, -5, -56,
   32, -84, -32, -39, -25, 5, 10, -55,
   -45, 6, -47, -9, -38, -32, 0, -23,
   42, 55, 22, 71, 13, -25, 29, -9,
   -32, -10, 21, 66, 37, -23, 82, 8,
   49, -35, -31, 27, -43, 4, -47, 47,
   -56, 46, -36, -63, -80, -4, -3, -90,
   49, 77, 3, -11, 102, -20, -20, -27,
   -7, 58, 83, -79, -28, 39, 106, -126,
   -60, 14, 35, -8, 3, -23, -12, -34,
   19, 6, 0, 34, -32, -8, -21, 17,
   3, -100, -32, -1, -8, -41, -31, 99,
   -29, 10, -15, 53, 79, 22, -36, -4,
   -54, 3, 24, 14, -6, -2, -12, -43,
   15, -1, 43, 29, -76, -12, 18, -61,
   61, -27, -73, 8, -12, 20, 26, -44,
   2, -20, 18, 5, -91, 53, -13, 1,
   -4, -24, -3, 25, 27, 6, 0, 53,
   43, -32, -5, -31, -43, 44, -28, -19,
   -33, 9, -23, -24, -31, 5, -19, 4,
   55, 24, -30, 25, -62, -66, -2, 31,
   47, -9, -53, 45, -91, 72, 5, 7,
   53, 33, -4, 16, -23, -12, 1, 15,
   -15, 39, 14, -44, 90, 24, -40, -40,
   -61, -7, 57, -51, -28, -1, 40, 13,
   43, 25, 4, -2, 82, 11, -65, -15,
   -16, 38, -14, -50, -12, -40, 55, -50,
   -100, -5, -37, 33, -50, -99, -12, -41,
   -15, 38, 34, -6, 23, 77, 42, -37,
   29, 41, 52, 60, 35, -30, -22, 32,
   -28, 90, -74, -1, 18, 81, -49, 13,
   32, 36, 26, 50, 22, -8, -7, 18,
   3, -14, 31, -85, 65, -58, 5, -20,
   25, -106, -62, 3, -2, 7, 16, -7,
   9, 15, 39, -1, 28, 37, -59, -10,
   46, -63, 17, 52, 21, -3, -18, 53,
   101, 34, -62, 10, 67, -27, -58, 49,
   -70, -83, -18, -68, 8, 40, -9, 18,
   15, -65, -8, -33, -8, -21, -34, 13,
   50, 112, 0, 64, 6, 92, 6, 75,
   31, 7, 12, 81, 63, -128, -16, 47,
   -128, -5, 30, -13, 18, -43, -6, 3,
   -77, 49, 50, -9, 13, 69, 91, -12,
   15, 11, 53, 65, -20, 6, -37, -45,
   39, 0, 49, -35, 15, 32, -84, -57,
   1, 0, -5, -15, 22, 65, -25, 22,
   -19, 40, -6, 33, -17, -60, 63, -43,
   17, -40, -47, -48, -53, -3, -23, 69,
   -84, -1, -1, 100, 8, -126, -45, -11,
   -19, -42, -52, -68, -27, -6, 3, -54,
   70, -20, 45, 29, -1, 9, 41, 24,
   19, 47, 25, 67, -27, -2, 8, -55,
   -31, 57, -31, -16, -67, -70, -53, -25,
   -24, -11, -27, 0, 14, -10, -59, 47,
   -41, -28, 20, 10, -79, -25, 21, -54,
   121, -15, -76, 74, -67, 18, 40, -40,
   68, 52, -36, -32, -18, 41, 14, 13,
   -56, 44, 22, 44, 88, -77, -61, 30,
   -111, -34, 24, 3, 52, -3, 32, -72,
   -107, 30, 47, -71, 32, 70, -42, -25,
   35, -35, 16, 38, -13, 6, -3, 78,
   -72, 1, 14, -43, -45, -23, 46, 65,
   27, 19, 46, 18, 27, 8, -2, 46,
   -9, -75, -10, -47, 29, -17, 13, 26,
   9, -3, 57, 50, -97, 8, 45, -14,
   -22, -128, 7, 72, 79, -15, 6, 23,
   92, 8, 9, -83, 26, 107, -38, -12,
   75, 24, 18, -29, 3, 29, 23, 113,
   57, -76, 78, 7, 66, 25, 19, -68,
   27, 124, -35, 4, -70, 84, 9, 28,
   -5, -50, -21, 60, 107, 56, -78, 31,
   23, 19, 42, 46, -41, 18, 38, -47,
   -40, -35, -51, -10, -34, -62, 25, 21,
   -44, -64, 0, 2, -17, -16, -12, -70,
   -9, 13, -40, -16, -109, 127, -87, -6,
   72, 52, 48, -43, -4, 84, -11, 0,
   48, -11, 28, 14, -29, 61, 102, 2,
   15, -52, -21, -28, 2, -19, 39, -20,
   -6, -30, 28, 37, -54, -57, 70, 26,
   -31, 56, -1, -6, -61, 20, -17, 52,
   -60, 29, -6, 111, -28, 63, 54, 20,
   4, 54, 2, -22, -64, -22, 48, 19,
   37, -22, -29, 57, 29, 104, -15, -30,
   -29, 80, -35, 27, 103, 52, 36, 29,
   -126, -5, -12, -5, 13, -67, 24, 31,
   -100, -47, 65, 103, 29, 9, 51, 84,
   -96, 69, 45, 23, -30, 11, 28, 83,
   -36, 10, 46, 31, 24, 7, -61, 21,
   -12, -23, -41, 53, 28, -3, -25, 102,
   2, -25, 19, 58, -4, 10, 100, 37,
   1, -37, 22, 88, 92, -104, -36, 28,
   -61, 23, -17, -55, -72, 1, -7, -100,
   -34, 9, 24, 33, 123, 29, 27, 26,
   63, 71, 55, -35, 93, 50, -81, -32,
   32, -66, -89, -52, 22, -56, 26, -5,
   -95, 69, 42, -39, -15, 59, 12, -32,
   10, -19, -11, -19, -59, -71, -6, -20,
   -6, -89, 50, 44, -28, 83, -46, 0,
   52, 39, -13, 32, -7, -65, 12, 10,
   52, 19, 100, -57, 11, -43, 50, -14,
   -55, 67, 67, -34, -49, 7, 67, -12,
   22, 111, 3, 23, -29, 16, 7, -29,
   -15, -9, 56, -29, 11, -23, 18, -11,
   36, 109, 20, -20, 19, -25, -5, -27,
   51, 25, 30, 38, 113, 36, 60, 1,
   -1, 37, -6, 11, 49, 4, 27, 8,
   -60, 4, 32, -30, 127, -32, -38, 19,
   71, -15, -36, -22, -34, 13, 66, 31,
   46, -11, -18, 45, 29, -48, -51, 3,
   24, 5, -74, 55, -23, -12, -30, -29,
   -65, 1, 44, 23, 21, 37, -23, 25,
   -13, 54, -19, -21, 13, 34, 47, 40,
   -33, 26, 4, -62, -49, -38, 29, -9,
   -23, -2, -46, -22, 60, 32, 57, -32,
   56, -32, -99, -55, -18, 18, 50, -70,
   -60, 50, 23, 78, -3, -19, -17, -49,
   52, 22, 36, 47, 102, 12, 34, -25,
   26, -45, -85, 14, 5, 39, -127, 54,
   19, 0, -4, 5, -86, -45, -50, -34,
   107, -43, -39, 44, -43, 1, -41, -41,
   2, 89, -4, 15, -49, 79, -21, 43,
   -50, -32, -88, 53, -55, -126, 30, -49,
   -52, 20, -32, -62, -99, -96, -3, 75,
   10, 20, 54, -12, -46, -3, -91, -91,
   -53, -87, -38, 10, -37, -77, 8, 19,
   -43, 12, 0, -7, 2, -36, -16, -61,
   -97, 22, 88, -52, -41, 96, 7, -60,
   -56, 55, 6, -80, -48, 3, 27, 86,
   -16, 29, -17, -23, 50, -69, 0, 9,
   -54, -10, -55, -66, -9, 5, 103, -53,
   -12, 5, -42, -7, 91, -19, -3, -50,
   -4, 84, 31, -41, -20, 63, 29, 21,
   11, 23, 8, 25, -84, -41, -26, 81,
   62, -80, 30, 14, -94, -1, -91, -11,
   -37, -5, 7, 0, -32, -24, -23, 26,
   36, -57, 15, 34, -17, -18, -15, -59,
   24, 17, 9, 3, 23, -5, -38, 27,
   -48, -40, -8, -69, 7, -18, -8, 64,
   99, 16, 20, 11, 28, 61, 26, 23,
   -5, -14, 12, -13, -34, -53, 28, -56,
   -2, 28, -33, 3, 64, -55, 52, -39,
   30, 126, -45, 25, 63, 9, 41, -6,
   67, 8, 57, -2, 127, 4, -59, 44,
   -61, 10, -52, -22, -63, 1, 19, 31,
   36, 13, 4, -20, 0, 31, 27, -16,
   -6, 14, -10, 14, 22, -23, 30, -48,
   -20, 44, -6, 17, -4, -46, -35, 34,
   1, -54, -10, -51, 90, -15, -29, 12,
   20, 8, 26, 88, -96, -20, 127, -31,
   -36, -127, 8, 74, -28, 23, 21, 20,
   -2, 57, 23, -71, -16, 78, 59, 25,
   -4, 13, 33, -33, 37, -56, -2, 2,
   18, 20, -29, -10, 60, 49, -2, -22,
   107, 125, 85, 23, 3, 2, -32, 63,
   3, -46, 103, 58, 70, -53, 37, 55,
   -67, -66, 23, 66, 52, -9, 84, 112,
   67, 127, 21, -113, 41, -19, 61, 35,
   83, -67, -120, 2, -77, 83, 23, 115,
   9, 25, 118, -25, 112, -28, 126, 114,
   -11, -61, -38, -98, 56, -11, 26, -123,
   96, 3, 26, 41, 36, 15, 29, -11,
   -48, 77, 41, -30, 46, 20, 8, -57,
   18, -73, -55, 10, -57, 19, 29, -46,
   -25, -61, -36, -37, 38, 50, 49, 68,
   -23, 0, -57, -97, -2, -6, -12, 16,
   -128, -46, 13, -18, 17, -118, -37, 2,
   -46, 13, -4, -50, 20, -28, -20, 19,
   10, 127, 79, -28, 11, -97, -34, 1,
   -37, -43, -10, 120, 37, -15, 3, 30,
   -3, 9, -21, 12, -42, -14, 7, 0,
   24, 37, 44, -54, -16, 28, -39, 84,
   -30, -26, -42, -45, 2, -21, -9, -8,
   45, 59, 25, -77, 63, 8, 34, -56,
   -12, 127, -95, 14, -25, -23, 36, 83,
   -8, 23, -60, 0, -65, 126, -28, -16,
   16, 6, 13, 69, -13, 63, -26, 1,
   12, 47, 55, -83, 31, -78, -10, -9,
   -34, -3, 1, -27, 17, 13, -15, -30,
   59, -39, 6, 20, -24, -65, -23, 90,
   -37, -1, -39, -46, -56, 29, 3, 1,
   12, 19, -76, 88, 23, 61, -21, -128,
   -73, -63, 6, -106, 21, -2, -26, -12,
   -6, 26, -43, 22, 46, 28, -24, 33,
   -58, -23, 28, 27, 37, 8, -27, 22,
   -25, 39, 3, -55, 26, -34, -25, 56,
   -35, 1, -92, -11, 9, 9, 8, 23,
   -25, 34, -123, -9, -97, -26, -26, -97,
   -4, 1, 86, -14, 7, -49, -64, 6,
   12, 7, 44, 104, 27, -10, 16, -35,
   13, -11, -26, 78, -7, 39, 6, -9,
   3, -49, -23, 22, -71, -17, 24, 3,
   -17, -67, 33, 1, -16, 63, -23, -11,
   20, 1, 31, -19, 44, -32, -58, 27,
   -60, 45, -123, 25, -4, -81, -14, -45,
   21, 37, 20, -88, 43, -86, 59, -97,
   -40, -9, 2, 51, -23, 54, -64, -121,
   -1, 27, -13, 43, -87, -80, 62, -62,
   -55, -115, -37, -60, 63, 12, -35, 97,
   0, -48, -11, -57, -69, -80, -99, 36,
   39, -46, -53, 20, 27, -100, 13, 60,
   -27, -40, 52, -2, -78, -65, 20, -33,
   6, 64, 41, -10, -68, 29, 41, -30,
   55, -23, 34, -82, 22, 26, 4, -41,
   57, 54, -29, -24, 27, -63, -19, 8,
   -56, -34, 43, -7, 62, -40, 42, -74,
   0, -59, -102, 1, 18, 67, -36, -30,
   1, -46, -26, -84, -11, 44, -36, -60,
   -30, 103, -29, 5, 11, -46, 4, 5,
   83, -22, 50, -2, -69, -9, -91, 46,
   27, -74, -63, 6, -40, -38, 4, 105,
   -117, 59, 12, 35, 18, 47, 11, -18,
   27, 56, 20, -109, -43, 32, 75, 45,
   81, 0, 14, -28, 9, 86, 71, 75,
   -30, 34, -14, 28, -32, 66, 38, -47,
   35, -30, -46, 41, -63, 2, 47, 2,
   5, 17, 6, -17, 109, -23, 34, 5,
   -17, -71, 35, 0, -47, -33, 20, 34,
   -14, -12, -29, -26, 24, -29, -3, 42,
   36, 85, -37, 9, 31, -29, -8, 6,
   -121, -18, -18, -27, -57, 20, 51, 21,
   31, -15, -35, -19, 90, -6, -62, -51,
   31, 70, -49, 29, -25, -55, 17, 3,
   6, -68, -1, 16, -1, -34, -23, -17,
   16, -99, -115, -32, -35, 41, -8, 37,
   -18, -20, 2, -29, -55, 15, -25, 6,
   11, -2, -47, -24, -15, 66, -33, 3,
   -32, -50, 14, 25, -29, 13, 60, -5,
   -13, -71, 40, -14, 36, 10, -22, 61,
   10, 19, 52, 4, 56, 83, -10, -9,
   -6, 3, -23, -6, 20, 4, 21, 10,
   -21, -5, 90, -3, -20, 48, 48, -10,
   23, -29, -22, 21, -8, 14, 30, -42,
   -3, -20, 12, 2, -31, 41, 61, -7,
   14, -42, -1, 68, -1, -33, 7, -41,
   50, -7, 34, -3, -73, -66, -1, -43,
   -37, 7, -5, -5, -68, -3, -43, -57,
   -21, -55, 16, 14, 38, 81, 26, 51,
   25, 62, -10, 19, 59, 34, -16, -51,
   -63, -38, -44, 0, -12, -33, 52, -54,
   13, 22, -21, -4, 31, 34, 39, 20,
   22, 43, 2, -32, -68, -39, 104, -45,
   43, 36, 7, 49, -22, 116, -24, -72,
   127, -68, 0, 125, 24, -36, -24, -6,
   -33, -52, 1, 28, 66, -19, -44, 51,
   -125, -30, 24, 9, -38, -26, -6, -13,
   -29, 45, 82, -21, -63, 47, -32, 53,
   115, 99, -43, -109, 120, 11, 16, -4,
   1, 3, 10, -56, -18, -31, -79, -37,
   5, 13, 19, -21, 75, -20, 70, -32,
   -61, -34, -41, 46, -1, 61, -32, -125,
   -26, -7, 120, 67, 25, -27, -12, 4,
   -2, -17, -73, -32, -45, 42, 24, -6,
   -3, -62, 13, 5, -54, -26, -33, -48,
   -21, -65, -47, -16, -63, -85, -3, 25,
   -24, 15, 59, -35, -20, 4, 37, 4,
   -2, -24, 15, -51, -33, 63, 13, 8,
   13, -20, 49, 119, 44, 123, 24, 27,
   14, -54, -26, -12, -30, -66, 25, -34,
   -28, 97, -66, -63, 4, 7, -38, -18,
   -14, 127, -34, -59, 70, -7, -38, 29,
   -10, -41, 15, 12, 61, 53, 41, -36,
   122, -8, -12, 41, 50, 51, -38, 45,
   76, -33, 37, -73, 76, -70, 127, 56,
   -44, 11, 84, -33, -67, -8, 26, 34,
   -84, 8, -66, -30, 127, 54, 30, 8,
   -62, -66, -9, -20, 18, 107, -28, 73,
   -30, -37, 71, 34, 45, -45, 52, 90,
   -20, -70, -51, 0, -17, 64, -40, -15,
   24, -4, -117, 4, 20, 35, 9, -37,
   76, -18, -98, -58, 41, -67, 13, 31,
   6, -83, 38, 43, -16, 31, -1, -29,
   -58, -11, -102, -3, 79, -7, -30, 4,
   -44, -31, -77, -48, -72, -34, 23, -53,
   57, 16, -85, 52, 74, 84, -91, 13,
   11, -15, -17, 46, -41, -56, -28, -25,
   99, -66, 46, -44, -31, 52, -10, 30,
   98, -16, 17, 1, 2, -28, 8, -15,
   -18, -66, 9, 17, -75, 111, -33, -34,
   21, 15, -38, 24, 34, 7, 36, 12,
   -7, 46, 77, 36, 44, -47, 89, -14,
   28, 67, -36, -71, -14, 20, 8, -72,
   37, 18, 21, 32, -19, 127, -72, -22,
   70, 5, -22, 16, 12, -47, -72, -11,
   -2, -2, 11, 85, -29, 50, -1, 90,
   -9, 68, -44, 22, 6, 32, -124, 10,
   -5, -101, 75, -46, -13, 15, 53, -31,
   11, 34, 12, -7, 30, -24, -18, -111,
   1, -43, 51, 3, 13, -44, 64, 69,
   -2, -4, 19, 73, 1, -16, -100, 26,
   -63, 19, 18, -18, 48, 16, -44, 17,
   80, 73, 9, -21, 14, 51, -17, -16,
   118, 80, 3, 51, 87, 50, -18, 12,
   71, 14, -37, 6, 4, -9, 86, 51,
   32, -53, 16, 6, -30, 67, 19, 35,
   28, -5, 94, -67, -128, 1, 28, -19,
   -37, 22, 45, 26, -35, -66, -17, -14,
   27, -79, -12, 38, 67, 6, 11, -19,
   75, 118, 22, 11, 20, 75, -2, 32,
   32, -48, 127, 15, 8, -24, -53, 30,
   -20, -25, 6, 4, 47, -5, 17, 15,
   -53, 25, 14, -3, 72, 36, 59, 9,
   113, -41, 46, 108, -39, 30, 91, 47,
   -62, -31, 52, -69, -15, -13, -2, 34,
   -44, 61, -20, 47, 21, 55, -61, 14,
   -8, -59, -3, 22, 0, 40, 94, -57,
   -30, -37, -25, 18, 21, 42, 93, -21,
   20, -24, -67, -4, -13, -25, 35, -5,
   -65, -7, -32, 3, 18, 6, -4, 63,
   15, -37, 42, 38, 14, -19, 56, 3,
   -22, -33, 70, -54, -12, -125, 21, -9,
   36, 37, -63, -51, 22, -43, -43, 5,
   20, 91, 21, 19, -37, 3, -61, -5,
   -2, -45, -8, 100, 2, 4, 57, -20,
   38, -39, -56, 16, 44, 18, -34, -50,
   31, -11, -20, -2, -32, -119, -16, 74,
   49, -1, -83, 59, -29, -1, 43, 40,
   59, 15, 64, 20, 10, -31, 97, -8,
   35, 34, 14, 12, -27, 30, 58, 67,
   -4, 34, 17, -62, 5, 39, -16, 58,
   -51, 30, 76, 29, -19, -13, 16, 33,
   -20, 28, 76, 12, 30, 19, 24, 74,
   -10, -47, 23, -15, 20, -38, -6, -94,
   25, -2, -50, 22, 10, -6, 11, -21,
   -28, -17, 16, 46, 74, 29, -36, -41,
   -8, -56, 55, 18, 26, -26, 3, 50,
   -9, 23, 3, 5, -22, -58, -21, 12,
   -17, 27, -41, 5, -31, 8, 44, 64,
   0, 58, -33, -3, 14, 58, 23, 10,
   68, -60, 21, -5, 2, -27, 52, -32,
   17, 2, 77, -1, -46, 61, -21, 15,
   -10, 23, 43, -38, -49, -42, 73, -2,
   58, -33, 13, -26, -19, 14, -8, -64,
   38, -60, 22, -20, 0, -4, 60, -29,
   45, 55, -40, 39, -57, 81, -93, -40,
   13, -9, -33, -4, -8, -13, 38, -41,
   -37, -70, -2, -30, 20, -3, 49, -45,
   63, -35, -56, -1, -2, 0, -59, 29,
   -63, -29, -43, 28, -8, 14, 6, -25,
   -34, -30, -38, -37, -39, -37, -122, -21,
   -7, -14, -27, -82, -27, -10, -33, -60,
   9, -37, -57, -37, 3, -24, -42, -28,
   7, -49, -77, -69, -54, -19, 17, 119,
   1, -26, 20, 2, -37, -12, -7, -18,
   -44, -13, -59, -26, 15, -37, 21, -41,
   55, 23, 11, -44, -50, -26, -53, -23,
   -26, -12, -61, -27, 12, 44, -41, -26,
   19, -7, -8, -32, 26, -61, 27, -31,
   68, 7, -74, 62, -17, 47, 14, -75,
   -31, -35, -18, -22, -69, -8, -32, -27,
   1, 43, -43, -8, 27, 7, 16, -30,
   1, -34, -2, 8, 33, -45, -81, 10,
   28, 18, 54, 20, -20, -6, 28, 15,
   3, 27, 66, -64, 71, 46, 127, -4,
   -7, 59, -63, -34, 33, -31, 16, 51,
   127, -71, 39, -34, 125, 47, 21, 35,
   67, -30, 120, 26, -23, -25, 86, 31,
   -19, 56, 15, 20, -8, -8, 77, 38,
   -50, 2, -46, 127, 20, 0, 32, 4,
   3, 39, 14, 20, -26, 43, -28, 88,
   -3, -36, -26, 23, 14, 32, -19, -36,
   -25, -4, 21, 63, 20, 14, -24, 47,
   -8, 5, -30, 32, -31, -69, 25, 0,
   -25, -27, 60, -36, -6, 37, 37, -7,
   91, 59, 21, -49, 113, 18, -81, -63,
   118, 0, -43, 41, 6, 33, 90, 69,
   11, 14, 0, -32, -45, -93, 32, -96,
   -5, 1, -82, -11, -16, -22, 83, 66,
   42, 2, -55, 47, 20, 127, 55, -108,
   -21, -77, 21, 54, 35, 66, -21, 39,
   -78, -28, 12, -34, 30, 48, 37, -49,
   14, 14, 34, -65, 20, -69, -71, -57,
   -4, -117, 7, 7, 39, -37, 34, 66,
   -5, -25, -23, 11, 127, -123, 20, 13,
   -41, 4, 59, -33, 21, -121, 47, 7,
   20, 35, 73, -29, 15, -18, 12, 120,
